%YAML:1.0
---
opencv_ml_svm:
   format: 3
   svmType: C_SVC
   kernel:
      type: RBF
      gamma: 5.0624999999999998e-01
   C: 1.2500000000000000e+01
   term_criteria: { epsilon:1.1920928955078125e-07, iterations:1000 }
   var_count: 324
   class_count: 15
   class_labels: !!opencv-matrix
      rows: 15
      cols: 1
      dt: i
      data: [ 0, 1, 2, 3, 4, 5, 6, 7, 8, 9, 10, 11, 12, 13, 14 ]
   sv_total: 521
   support_vectors:
      - [ 3.84542823e-01, 5.08421622e-02, 1.35316644e-02, 3.40659469e-02,
          1.65721804e-01, 4.56560761e-01, 4.56560761e-01, 4.56560761e-01,
          4.36841995e-01, 4.54321921e-01, 4.53229219e-01, 1.21363774e-02,
          1.88023187e-02, 4.54321921e-01, 4.54321921e-01, 3.73837769e-01,
          3.69983502e-02, 1.70867607e-01, 5.23032904e-01, 1.28454685e-01,
          5.41115627e-02, 5.35003915e-02, 5.23032904e-01, 3.83103490e-01,
          3.82068045e-02, 5.97263053e-02, 5.23032904e-01, 3.35760683e-01,
          4.73315448e-01, 3.78699869e-01, 7.11373240e-02, 2.57059056e-02,
          4.73315448e-01, 4.73315448e-01, 2.39134133e-01, 6.43018261e-02,
          5.29131949e-01, 5.29131949e-01, 1.62111744e-01, 1.03548979e-02,
          4.56514806e-02, 3.09685439e-01, 5.14438450e-01, 1.75222948e-01,
          1.22588418e-01, 4.08701420e-01, 2.07659766e-01, 3.96872424e-02,
          1.57783970e-01, 4.08701420e-01, 4.08701420e-01, 4.08701420e-01,
          3.01893055e-01, 4.08701420e-01, 4.78340685e-02, 4.31013346e-01,
          4.76701587e-01, 3.03136021e-01, 2.52198353e-02, 1.69083208e-01,
          4.76701587e-01, 4.76701587e-01, 6.57887906e-02, 1.42514274e-01,
          3.97305489e-01, 3.97305489e-01, 3.97305489e-01, 1.50806576e-01,
          3.97305489e-01, 3.97305489e-01, 3.92463595e-01, 9.84478220e-02,
          3.69941860e-01, 2.04902634e-01, 2.51783878e-01, 2.12265819e-01,
          3.97184074e-01, 3.97184074e-01, 3.67687017e-01, 3.16668510e-01,
          3.97184074e-01, 4.78340685e-02, 4.31013346e-01, 4.76701587e-01,
          3.03136021e-01, 2.52198353e-02, 1.69083208e-01, 4.76701587e-01,
          4.76701587e-01, 6.57887906e-02, 1.42514274e-01, 3.97305489e-01,
          3.97305489e-01, 3.97305489e-01, 1.50806576e-01, 3.97305489e-01,
          3.97305489e-01, 3.92463595e-01, 9.84478220e-02, 3.69941860e-01,
          2.04902634e-01, 2.51783878e-01, 2.12265819e-01, 3.97184074e-01,
          3.97184074e-01, 3.67687017e-01, 3.16668510e-01, 3.97184074e-01,
          7.11040795e-02, 3.23426239e-02, 3.20328921e-01, 4.66537207e-01,
          1.38847992e-01, 2.39130184e-01, 4.66537207e-01, 4.66537207e-01,
          3.96477878e-01, 4.03594971e-02, 2.79656816e-02, 3.03820729e-01,
          4.56632763e-01, 4.56632763e-01, 2.03855172e-01, 4.56632763e-01,
          4.56632763e-01, 1.58461213e-01, 8.44518840e-02, 1.45882025e-01,
          4.19937134e-01, 4.30770963e-01, 4.30770963e-01, 4.30770963e-01,
          4.30770963e-01, 2.14593410e-01, 5.12955710e-02, 1.43296272e-01,
          1.19578749e-01, 3.25202793e-01, 5.88649623e-02, 1.18725859e-01,
          3.80603313e-01, 5.18247247e-01, 5.18247247e-01, 3.93261313e-01,
          3.74951422e-01, 3.05044830e-01, 1.91818506e-01, 2.84096956e-01,
          3.74951422e-01, 2.87668824e-01, 3.74951422e-01, 3.74951422e-01,
          3.74951422e-01, 3.87750268e-01, 1.96827248e-01, 1.68300241e-01,
          1.19810909e-01, 3.92439932e-01, 3.85061502e-01, 3.92439932e-01,
          3.92439932e-01, 3.92439932e-01, 5.23032904e-01, 1.28454685e-01,
          5.41115627e-02, 5.35003915e-02, 5.23032904e-01, 3.83103490e-01,
          3.82068045e-02, 5.97263053e-02, 5.23032904e-01, 5.37601113e-01,
          2.23192014e-02, 6.63883463e-02, 2.57411078e-02, 4.41472620e-01,
          3.26282442e-01, 1.86204180e-01, 2.73866534e-01, 5.37601113e-01,
          4.45814133e-01, 4.45814133e-01, 4.45814133e-01, 1.65057257e-02,
          6.63596112e-03, 2.56174989e-02, 2.86852326e-02, 4.45814133e-01,
          4.45814133e-01, 4.08701420e-01, 2.07659766e-01, 3.96872424e-02,
          1.57783970e-01, 4.08701420e-01, 4.08701420e-01, 4.08701420e-01,
          3.01893055e-01, 4.08701420e-01, 3.72492433e-01, 2.67133683e-01,
          3.72492433e-01, 3.72492433e-01, 3.41501504e-01, 3.72492433e-01,
          3.12072933e-01, 1.30967021e-01, 3.72492433e-01, 1.55572787e-01,
          1.93093330e-01, 4.76546735e-01, 3.13551784e-01, 3.88342291e-02,
          1.42649496e-02, 3.90430093e-01, 4.76546735e-01, 4.76546735e-01,
          3.69941860e-01, 2.04902634e-01, 2.51783878e-01, 2.12265819e-01,
          3.97184074e-01, 3.97184074e-01, 3.67687017e-01, 3.16668510e-01,
          3.97184074e-01, 3.63951027e-01, 3.10612053e-01, 3.63951027e-01,
          3.63951027e-01, 3.63951027e-01, 1.91184133e-01, 3.51482987e-01,
          2.78371364e-01, 3.63951027e-01, 3.11234206e-01, 2.34757647e-01,
          4.28029776e-01, 3.10450554e-01, 1.09162539e-01, 4.28029776e-01,
          4.28029776e-01, 4.28029776e-01, 5.11125959e-02, 3.69941860e-01,
          2.04902634e-01, 2.51783878e-01, 2.12265819e-01, 3.97184074e-01,
          3.97184074e-01, 3.67687017e-01, 3.16668510e-01, 3.97184074e-01,
          3.63951027e-01, 3.10612053e-01, 3.63951027e-01, 3.63951027e-01,
          3.63951027e-01, 1.91184133e-01, 3.51482987e-01, 2.78371364e-01,
          3.63951027e-01, 3.11234206e-01, 2.34757647e-01, 4.28029776e-01,
          3.10450554e-01, 1.09162539e-01, 4.28029776e-01, 4.28029776e-01,
          4.28029776e-01, 5.11125959e-02, 8.44518840e-02, 1.45882025e-01,
          4.19937134e-01, 4.30770963e-01, 4.30770963e-01, 4.30770963e-01,
          4.30770963e-01, 2.14593410e-01, 5.12955710e-02, 2.71801874e-02,
          8.19467083e-02, 3.12994063e-01, 4.17928636e-01, 5.12646019e-01,
          5.12646019e-01, 4.16573346e-01, 1.23634316e-01, 1.91263948e-02,
          1.64156593e-02, 3.35372239e-01, 4.73139256e-01, 3.42396557e-01,
          4.73139256e-01, 4.73139256e-01, 3.05412233e-01, 2.07655150e-02,
          2.20134482e-03, 3.87750268e-01, 1.96827248e-01, 1.68300241e-01,
          1.19810909e-01, 3.92439932e-01, 3.85061502e-01, 3.92439932e-01,
          3.92439932e-01, 3.92439932e-01, 1.59740627e-01, 3.14077288e-02,
          2.35550683e-02, 2.36617327e-01, 4.62419897e-01, 4.62419897e-01,
          4.62419897e-01, 4.62419897e-01, 2.38759950e-01, 9.19286236e-02,
          4.93422359e-01, 4.93422359e-01, 4.59802508e-01, 4.93422359e-01,
          2.00939626e-01, 5.47881834e-02, 2.81893834e-02, 2.51492187e-02 ]
      - [ 4.66525316e-01, 4.66525316e-01, 1.63260892e-01, 1.15400394e-02,
          1.08658500e-01, 4.66525316e-01, 4.66525316e-01, 4.36579362e-02,
          2.90270090e-01, 4.41587120e-01, 4.41587120e-01, 4.41587120e-01,
          1.20748477e-02, 1.42721206e-01, 4.41587120e-01, 4.13461417e-01,
          8.79744068e-02, 1.28012791e-01, 3.83263916e-01, 3.83263916e-01,
          8.89945403e-02, 7.36211017e-02, 3.18565011e-01, 3.83263916e-01,
          3.83263916e-01, 3.83263916e-01, 3.83263916e-01, 1.57407880e-01,
          4.76841271e-01, 4.76841271e-01, 1.10479549e-01, 1.25483647e-01,
          4.76841271e-01, 4.76841271e-01, 1.52939215e-01, 9.80178714e-02,
          9.04672071e-02, 4.23460692e-01, 4.23460692e-01, 4.23460692e-01,
          9.82252881e-02, 1.65874869e-01, 4.23460692e-01, 4.23460692e-01,
          2.32008934e-01, 3.66460592e-01, 3.66460592e-01, 1.91108957e-01,
          1.40579313e-01, 3.66460592e-01, 3.66460592e-01, 3.66460592e-01,
          3.66460592e-01, 3.66460592e-01, 5.40721901e-02, 1.59912497e-01,
          2.87556916e-01, 2.24684983e-01, 1.63224384e-01, 4.25850004e-01,
          5.55177629e-01, 5.55177629e-01, 9.13936123e-02, 3.05688977e-01,
          2.69371241e-01, 4.68230069e-01, 4.68230069e-01, 4.68230069e-01,
          3.09712708e-01, 2.12604284e-01, 1.03008918e-01, 1.40943140e-01,
          4.70098406e-01, 4.42165077e-01, 6.59731627e-02, 2.74910271e-01,
          4.70098406e-01, 4.70098406e-01, 1.47656098e-01, 4.93600555e-02,
          1.80693775e-01, 5.40721901e-02, 1.59912497e-01, 2.87556916e-01,
          2.24684983e-01, 1.63224384e-01, 4.25850004e-01, 5.55177629e-01,
          5.55177629e-01, 9.13936123e-02, 3.05688977e-01, 2.69371241e-01,
          4.68230069e-01, 4.68230069e-01, 4.68230069e-01, 3.09712708e-01,
          2.12604284e-01, 1.03008918e-01, 1.40943140e-01, 4.70098406e-01,
          4.42165077e-01, 6.59731627e-02, 2.74910271e-01, 4.70098406e-01,
          4.70098406e-01, 1.47656098e-01, 4.93600555e-02, 1.80693775e-01,
          1.32970996e-02, 1.33286089e-01, 2.23123044e-01, 1.99894652e-01,
          3.38518888e-01, 4.83527720e-01, 4.83527720e-01, 4.83527720e-01,
          2.67384738e-01, 4.51077551e-01, 4.51077551e-01, 1.78996712e-01,
          5.91794737e-02, 4.51077551e-01, 4.51077551e-01, 2.67094135e-01,
          1.18476190e-01, 2.46358290e-01, 4.15625423e-01, 4.15625423e-01,
          4.04886961e-01, 2.63123780e-01, 4.15625423e-01, 4.15625423e-01,
          1.87646598e-01, 6.26249611e-02, 1.80469677e-01, 8.88603777e-02,
          2.80299813e-01, 3.80027771e-01, 4.07003134e-01, 3.02682728e-01,
          2.46104583e-01, 3.40455621e-01, 4.07003134e-01, 4.07003134e-01,
          3.99538606e-01, 3.99538606e-01, 3.99538606e-01, 3.99538606e-01,
          1.21194907e-01, 1.46614283e-01, 4.51432876e-02, 3.99538606e-01,
          3.99538606e-01, 4.79449362e-01, 1.34567484e-01, 5.11099696e-02,
          4.09528255e-01, 4.79449362e-01, 2.42797304e-02, 4.87778010e-03,
          3.41392487e-01, 4.79449362e-01, 3.83263916e-01, 3.83263916e-01,
          8.89945403e-02, 7.36211017e-02, 3.18565011e-01, 3.83263916e-01,
          3.83263916e-01, 3.83263916e-01, 3.83263916e-01, 3.04358542e-01,
          3.86377454e-01, 3.86377454e-01, 3.86377454e-01, 2.55612254e-01,
          1.36778474e-01, 2.70226300e-01, 3.86377454e-01, 3.86377454e-01,
          1.28647864e-01, 1.43578261e-01, 3.06638777e-01, 3.79695982e-01,
          3.79695982e-01, 3.79695982e-01, 3.79695982e-01, 3.79695982e-01,
          3.79695982e-01, 3.66460592e-01, 3.66460592e-01, 1.91108957e-01,
          1.40579313e-01, 3.66460592e-01, 3.66460592e-01, 3.66460592e-01,
          3.66460592e-01, 3.66460592e-01, 3.01592827e-01, 4.11922187e-01,
          1.61855012e-01, 3.16350669e-01, 2.87980825e-01, 4.11922187e-01,
          4.11922187e-01, 4.11922187e-01, 1.30382642e-01, 4.33902740e-01,
          4.33902740e-01, 1.24989972e-01, 2.41740823e-01, 3.57533455e-01,
          4.33902740e-01, 4.33902740e-01, 1.38788000e-01, 1.46376088e-01,
          4.70098406e-01, 4.42165077e-01, 6.59731627e-02, 2.74910271e-01,
          4.70098406e-01, 4.70098406e-01, 1.47656098e-01, 4.93600555e-02,
          1.80693775e-01, 4.18619215e-01, 4.18619215e-01, 1.18117206e-01,
          3.90705690e-02, 4.18619215e-01, 4.18619215e-01, 2.66070455e-01,
          1.82582393e-01, 4.18619215e-01, 3.85677546e-01, 3.85677546e-01,
          1.32876769e-01, 2.32963637e-02, 2.92344064e-01, 3.85677546e-01,
          3.85677546e-01, 3.85677546e-01, 3.85677546e-01, 4.70098406e-01,
          4.42165077e-01, 6.59731627e-02, 2.74910271e-01, 4.70098406e-01,
          4.70098406e-01, 1.47656098e-01, 4.93600555e-02, 1.80693775e-01,
          4.18619215e-01, 4.18619215e-01, 1.18117206e-01, 3.90705690e-02,
          4.18619215e-01, 4.18619215e-01, 2.66070455e-01, 1.82582393e-01,
          4.18619215e-01, 3.85677546e-01, 3.85677546e-01, 1.32876769e-01,
          2.32963637e-02, 2.92344064e-01, 3.85677546e-01, 3.85677546e-01,
          3.85677546e-01, 3.85677546e-01, 4.15625423e-01, 4.15625423e-01,
          4.04886961e-01, 2.63123780e-01, 4.15625423e-01, 4.15625423e-01,
          1.87646598e-01, 6.26249611e-02, 1.80469677e-01, 3.93450618e-01,
          3.79016370e-01, 3.23963284e-01, 3.93450618e-01, 3.93450618e-01,
          1.02425124e-02, 2.85808090e-02, 3.56831312e-01, 3.93450618e-01,
          3.23334299e-02, 1.50831297e-01, 3.23367417e-01, 3.17203313e-01,
          5.54889627e-02, 5.91075718e-02, 5.03130972e-01, 5.03130972e-01,
          5.03130972e-01, 4.79449362e-01, 1.34567484e-01, 5.11099696e-02,
          4.09528255e-01, 4.79449362e-01, 2.42797304e-02, 4.87778010e-03,
          3.41392487e-01, 4.79449362e-01, 4.28678989e-01, 4.28678989e-01,
          2.49077201e-01, 1.97690323e-01, 4.28374141e-01, 4.28678989e-01,
          1.45229816e-01, 5.51812015e-02, 3.68318886e-01, 4.51963484e-01,
          4.51963484e-01, 2.55953014e-01, 6.06470518e-02, 2.65641082e-02,
          4.51963484e-01, 4.51963484e-01, 3.29331279e-01, 6.83320872e-03 ]
      - [ 4.65414584e-01, 4.65414584e-01, 4.65414584e-01, 1.66620255e-01,
          1.55900344e-01, 3.83113891e-01, 1.39072224e-01, 9.37419832e-02,
          3.44306588e-01, 6.64822519e-01, 6.64822519e-01, 1.02422506e-01,
          2.53743641e-02, 9.65106264e-02, 2.39879340e-01, 1.45097673e-01,
          2.34316289e-02, 9.89545807e-02, 4.60317224e-01, 2.99928397e-01,
          9.80677903e-02, 5.62608577e-02, 4.60317224e-01, 4.60317224e-01,
          2.04312414e-01, 5.78895286e-02, 4.60317224e-01, 1.44782171e-01,
          6.94063544e-01, 6.94063544e-01, 6.06738962e-02, 3.03918943e-02,
          3.14836986e-02, 4.81661446e-02, 2.53051445e-02, 1.02319047e-02,
          3.83764595e-01, 3.83764595e-01, 3.83764595e-01, 5.48540764e-02,
          1.54692575e-01, 3.83764595e-01, 3.83764595e-01, 2.92533547e-01,
          3.83764595e-01, 3.78268719e-01, 2.59646028e-01, 2.86729038e-01,
          2.32978642e-01, 3.78268719e-01, 3.78268719e-01, 3.78268719e-01,
          2.77265221e-01, 3.78268719e-01, 1.44076825e-03, 4.24069911e-01,
          6.36210620e-01, 6.36210620e-01, 4.35862169e-02, 4.24066372e-02,
          2.33578663e-02, 5.98492334e-03, 1.82055333e-03, 1.71140090e-01,
          3.32907706e-01, 4.21736866e-01, 4.21736866e-01, 2.24934727e-01,
          4.21736866e-01, 4.21736866e-01, 2.86531866e-01, 1.07361048e-01,
          4.05001849e-01, 3.58567059e-01, 1.13112196e-01, 3.82319331e-01,
          4.05001849e-01, 4.05001849e-01, 1.55355617e-01, 1.67869002e-01,
          4.05001849e-01, 1.44076825e-03, 4.24069911e-01, 6.36210620e-01,
          6.36210620e-01, 4.35862169e-02, 4.24066372e-02, 2.33578663e-02,
          5.98492334e-03, 1.82055333e-03, 1.71140090e-01, 3.32907706e-01,
          4.21736866e-01, 4.21736866e-01, 2.24934727e-01, 4.21736866e-01,
          4.21736866e-01, 2.86531866e-01, 1.07361048e-01, 4.05001849e-01,
          3.58567059e-01, 1.13112196e-01, 3.82319331e-01, 4.05001849e-01,
          4.05001849e-01, 1.55355617e-01, 1.67869002e-01, 4.05001849e-01,
          1.13294438e-01, 5.54914057e-01, 5.54914057e-01, 5.54914057e-01,
          1.53092399e-01, 1.55710906e-01, 7.87647218e-02, 6.06938265e-02,
          1.62287280e-02, 1.90611444e-02, 8.09827223e-02, 3.66874874e-01,
          4.63091850e-01, 4.63091850e-01, 1.02113985e-01, 4.06733811e-01,
          4.63091850e-01, 1.86101928e-01, 3.05895150e-01, 1.75618395e-01,
          1.55318543e-01, 4.42813247e-01, 4.42813247e-01, 2.26189345e-01,
          1.07439272e-01, 4.42813247e-01, 4.42813247e-01, 2.80516088e-01,
          3.77120823e-01, 3.59459043e-01, 3.77120823e-01, 3.77120823e-01,
          3.77120823e-01, 3.77120823e-01, 2.68265486e-01, 7.25618154e-02,
          2.88798474e-02, 9.01110023e-02, 4.58620936e-01, 4.58620936e-01,
          4.58620936e-01, 4.58620936e-01, 3.30881327e-01, 1.26811534e-01,
          1.39888257e-01, 1.09948970e-01, 1.45518258e-01, 4.66809511e-01,
          4.66809511e-01, 4.66809511e-01, 3.87199432e-01, 2.10456938e-01,
          7.48981237e-02, 3.29415321e-01, 4.60317224e-01, 2.99928397e-01,
          9.80677903e-02, 5.62608577e-02, 4.60317224e-01, 4.60317224e-01,
          2.04312414e-01, 5.78895286e-02, 4.60317224e-01, 3.66874933e-01,
          3.20243150e-01, 3.66874933e-01, 2.02972114e-01, 3.66874933e-01,
          3.66874933e-01, 2.12127373e-01, 3.66874933e-01, 3.66874933e-01,
          3.71587455e-01, 1.88720644e-01, 3.50224108e-01, 5.24025671e-02,
          4.08222154e-02, 2.48872675e-02, 8.38747248e-02, 5.85549653e-01,
          5.85549653e-01, 3.78268719e-01, 2.59646028e-01, 2.86729038e-01,
          2.32978642e-01, 3.78268719e-01, 3.78268719e-01, 3.78268719e-01,
          2.77265221e-01, 3.78268719e-01, 3.42526197e-01, 3.42526197e-01,
          3.42526197e-01, 3.42526197e-01, 3.42526197e-01, 3.42526197e-01,
          3.04853439e-01, 2.87006319e-01, 3.42526197e-01, 1.90450981e-01,
          3.19108099e-01, 4.69576746e-01, 2.50554472e-01, 5.61897382e-02,
          2.52612345e-02, 4.69576746e-01, 4.69576746e-01, 3.59344333e-01,
          4.05001849e-01, 3.58567059e-01, 1.13112196e-01, 3.82319331e-01,
          4.05001849e-01, 4.05001849e-01, 1.55355617e-01, 1.67869002e-01,
          4.05001849e-01, 3.89034182e-01, 2.18492910e-01, 3.89621913e-01,
          3.89621913e-01, 3.89621913e-01, 1.53407440e-01, 1.20253347e-01,
          3.89621913e-01, 3.89621913e-01, 1.44846827e-01, 2.20728114e-01,
          4.95902389e-01, 2.78665245e-01, 7.79789537e-02, 4.95902389e-01,
          4.95902389e-01, 3.18942994e-01, 4.61338870e-02, 4.05001849e-01,
          3.58567059e-01, 1.13112196e-01, 3.82319331e-01, 4.05001849e-01,
          4.05001849e-01, 1.55355617e-01, 1.67869002e-01, 4.05001849e-01,
          3.89034182e-01, 2.18492910e-01, 3.89621913e-01, 3.89621913e-01,
          3.89621913e-01, 1.53407440e-01, 1.20253347e-01, 3.89621913e-01,
          3.89621913e-01, 1.44846827e-01, 2.20728114e-01, 4.95902389e-01,
          2.78665245e-01, 7.79789537e-02, 4.95902389e-01, 4.95902389e-01,
          3.18942994e-01, 4.61338870e-02, 3.05895150e-01, 1.75618395e-01,
          1.55318543e-01, 4.42813247e-01, 4.42813247e-01, 2.26189345e-01,
          1.07439272e-01, 4.42813247e-01, 4.42813247e-01, 4.10784096e-01,
          4.10784096e-01, 3.27360183e-01, 2.00330347e-01, 4.10784096e-01,
          4.10784096e-01, 2.74121642e-01, 2.22126573e-01, 2.21680224e-01,
          3.11939716e-02, 2.79841214e-01, 2.14831397e-01, 7.98261166e-02,
          5.58760166e-01, 5.67707002e-01, 4.76955563e-01, 2.26543266e-02,
          4.25076159e-03, 1.09948970e-01, 1.45518258e-01, 4.66809511e-01,
          4.66809511e-01, 4.66809511e-01, 3.87199432e-01, 2.10456938e-01,
          7.48981237e-02, 3.29415321e-01, 2.40624577e-01, 1.43185973e-01,
          2.32095718e-02, 1.61345899e-01, 6.51145399e-01, 6.51145399e-01,
          1.89804778e-01, 2.58733965e-02, 6.20473325e-02, 1.89040214e-01,
          2.88419306e-01, 4.67889041e-01, 4.67889041e-01, 4.67889041e-01,
          4.67889041e-01, 2.43902821e-02, 5.68001484e-03, 9.84821469e-03 ]
      - [ 4.45058316e-01, 4.45058316e-01, 2.92007532e-02, 1.82158351e-02,
          1.44401252e-01, 4.45058316e-01, 4.45058316e-01, 3.19667608e-01,
          2.81110495e-01, 4.33767945e-01, 4.33767945e-01, 4.33767945e-01,
          8.11013505e-02, 4.33767945e-01, 4.33767945e-01, 1.97845370e-01,
          6.94647655e-02, 6.59430102e-02, 4.54653293e-01, 4.72079575e-01,
          4.72079575e-01, 3.82705890e-02, 1.24696366e-01, 7.05417022e-02,
          4.32189792e-01, 2.16692001e-01, 2.95167029e-01, 2.64840782e-01,
          1.56214491e-01, 8.76731351e-02, 2.46274732e-02, 1.14309318e-01,
          6.46392703e-01, 6.46392703e-01, 1.36668622e-01, 1.52702048e-01,
          3.32931988e-02, 6.87521100e-01, 6.87521100e-01, 2.95335986e-02,
          3.20085213e-02, 6.19950630e-02, 1.64604351e-01, 1.11242160e-01,
          3.80556285e-02, 1.24370912e-03, 5.66989005e-01, 5.66989005e-01,
          7.80079747e-03, 7.80059351e-03, 1.95680130e-02, 5.66989005e-01,
          1.70127854e-01, 2.14228407e-02, 2.08680287e-01, 3.94811898e-01,
          4.28810686e-01, 3.88862997e-01, 1.85399681e-01, 2.54990339e-01,
          4.28810686e-01, 4.15017158e-01, 7.54231066e-02, 4.44816917e-01,
          4.44816917e-01, 4.44816917e-01, 1.72221083e-02, 5.85707137e-03,
          9.80150793e-03, 7.62851387e-02, 4.44816917e-01, 4.44816917e-01,
          5.19809164e-02, 5.49916029e-01, 5.49916029e-01, 7.94815947e-04,
          2.40768143e-03, 2.91831046e-02, 5.49916029e-01, 2.68821955e-01,
          1.07052438e-01, 2.08680287e-01, 3.94811898e-01, 4.28810686e-01,
          3.88862997e-01, 1.85399681e-01, 2.54990339e-01, 4.28810686e-01,
          4.15017158e-01, 7.54231066e-02, 4.44816917e-01, 4.44816917e-01,
          4.44816917e-01, 1.72221083e-02, 5.85707137e-03, 9.80150793e-03,
          7.62851387e-02, 4.44816917e-01, 4.44816917e-01, 5.19809164e-02,
          5.49916029e-01, 5.49916029e-01, 7.94815947e-04, 2.40768143e-03,
          2.91831046e-02, 5.49916029e-01, 2.68821955e-01, 1.07052438e-01,
          3.93030420e-02, 4.36380297e-01, 4.36380297e-01, 3.07186902e-01,
          2.79625595e-01, 1.01109624e-01, 4.17519361e-01, 4.36380297e-01,
          2.56345838e-01, 1.99487135e-01, 4.70784098e-01, 4.70784098e-01,
          3.77357334e-01, 1.83730908e-02, 1.69658102e-02, 1.35379576e-03,
          3.84140283e-01, 4.70784098e-01, 4.06506509e-01, 4.06506509e-01,
          4.06506509e-01, 6.45205677e-02, 6.89907838e-03, 1.56002212e-02,
          4.06506509e-01, 4.06506509e-01, 4.06506509e-01, 8.62426087e-02,
          1.16061069e-01, 4.63156670e-01, 4.63156670e-01, 2.70814717e-01,
          8.82059187e-02, 1.87852785e-01, 4.63156670e-01, 4.63156670e-01,
          1.14319816e-01, 1.57617927e-01, 6.33157670e-01, 6.33157670e-01,
          2.21901853e-02, 2.13728882e-02, 4.19199048e-03, 1.93787813e-01,
          3.39806437e-01, 1.01126701e-01, 8.79581943e-02, 5.42163372e-01,
          5.42163372e-01, 2.41106421e-01, 5.42163372e-01, 1.59568876e-01,
          3.53061073e-02, 9.97901261e-02, 4.54653293e-01, 4.72079575e-01,
          4.72079575e-01, 3.82705890e-02, 1.24696366e-01, 7.05417022e-02,
          4.32189792e-01, 2.16692001e-01, 2.95167029e-01, 1.79295197e-01,
          5.97800240e-02, 1.29108950e-01, 3.09766591e-01, 2.25854188e-01,
          2.93073431e-02, 5.93678415e-01, 5.93678415e-01, 2.98245043e-01,
          3.99321020e-02, 4.81788516e-02, 6.37149751e-01, 6.47392690e-01,
          3.92587006e-01, 5.61093315e-02, 8.26423839e-02, 1.79772042e-02,
          1.08594978e-02, 1.24370912e-03, 5.66989005e-01, 5.66989005e-01,
          7.80079747e-03, 7.80059351e-03, 1.95680130e-02, 5.66989005e-01,
          1.70127854e-01, 2.14228407e-02, 4.13837610e-03, 3.83871607e-02,
          9.46071818e-02, 1.20170796e-02, 1.36431623e-02, 3.03906631e-02,
          7.37653434e-01, 6.60680830e-01, 1.76060107e-02, 7.21845627e-02,
          4.78524417e-01, 5.99809110e-01, 5.99809110e-01, 7.17023537e-02,
          6.53870851e-02, 1.61862075e-01, 6.78330436e-02, 7.45898765e-03,
          5.19809164e-02, 5.49916029e-01, 5.49916029e-01, 7.94815947e-04,
          2.40768143e-03, 2.91831046e-02, 5.49916029e-01, 2.68821955e-01,
          1.07052438e-01, 4.27878559e-01, 3.53871614e-01, 4.68097217e-02,
          4.61910572e-03, 4.63634904e-04, 2.21612584e-02, 5.65976679e-01,
          5.65976679e-01, 2.06591681e-01, 3.99007291e-01, 3.99007291e-01,
          3.99007291e-01, 1.84264019e-01, 8.06073174e-02, 1.79546177e-02,
          3.99007291e-01, 3.99007291e-01, 3.99007291e-01, 5.19809164e-02,
          5.49916029e-01, 5.49916029e-01, 7.94815947e-04, 2.40768143e-03,
          2.91831046e-02, 5.49916029e-01, 2.68821955e-01, 1.07052438e-01,
          4.27878559e-01, 3.53871614e-01, 4.68097217e-02, 4.61910572e-03,
          4.63634904e-04, 2.21612584e-02, 5.65976679e-01, 5.65976679e-01,
          2.06591681e-01, 3.99007291e-01, 3.99007291e-01, 3.99007291e-01,
          1.84264019e-01, 8.06073174e-02, 1.79546177e-02, 3.99007291e-01,
          3.99007291e-01, 3.99007291e-01, 4.06506509e-01, 4.06506509e-01,
          4.06506509e-01, 6.45205677e-02, 6.89907838e-03, 1.56002212e-02,
          4.06506509e-01, 4.06506509e-01, 4.06506509e-01, 4.60362881e-01,
          4.60362881e-01, 1.59684010e-02, 5.04494354e-04, 3.94806312e-03,
          3.03715378e-01, 4.60362881e-01, 4.60362881e-01, 2.34844565e-01,
          3.50226969e-01, 4.60069597e-01, 7.30092227e-02, 2.18384806e-02,
          1.38483113e-02, 2.55976260e-01, 5.32535136e-01, 5.32535136e-01,
          1.47134438e-01, 1.01126701e-01, 8.79581943e-02, 5.42163372e-01,
          5.42163372e-01, 2.41106421e-01, 5.42163372e-01, 1.59568876e-01,
          3.53061073e-02, 9.97901261e-02, 2.67450690e-01, 1.49917841e-01,
          6.20009564e-02, 2.21940726e-02, 9.16944891e-02, 6.63049877e-01,
          6.63049877e-01, 3.16416286e-02, 7.97451660e-02, 4.86635536e-01,
          4.86635536e-01, 1.72865450e-01, 3.24548520e-02, 8.47213864e-02,
          4.86635536e-01, 4.86635536e-01, 6.61460757e-02, 7.34452605e-02 ]
      - [ 4.70366962e-02, 1.74180433e-01, 2.89712071e-01, 1.27834380e-01,
          1.27702430e-01, 5.24625957e-01, 5.24625957e-01, 5.24625957e-01,
          1.41171679e-01, 3.84921908e-01, 1.56027287e-01, 1.80809796e-01,
          2.23894089e-01, 3.84921908e-01, 3.84921908e-01, 3.84921908e-01,
          3.84921908e-01, 3.84921908e-01, 4.60500717e-01, 2.19380230e-01,
          1.29801542e-01, 2.62286216e-01, 4.60500717e-01, 4.60500717e-01,
          1.08120553e-01, 4.11887877e-02, 4.60500717e-01, 1.53015450e-01,
          3.16365808e-01, 3.43355030e-01, 1.88321337e-01, 1.17447726e-01,
          5.79618990e-01, 5.79618990e-01, 1.25573426e-01, 1.25994861e-01,
          4.70423758e-01, 4.70423758e-01, 4.70423758e-01, 1.29266396e-01,
          8.85053352e-02, 2.25187674e-01, 1.62238106e-01, 9.23776627e-02,
          4.70423758e-01, 5.33648014e-01, 4.64416482e-02, 2.55526155e-02,
          6.61451221e-02, 5.33648014e-01, 3.54195833e-01, 8.54176804e-02,
          1.98534746e-02, 5.33648014e-01, 2.04917684e-01, 4.37317044e-01,
          4.37317044e-01, 6.45793676e-02, 1.22336105e-01, 4.35133785e-01,
          4.37317044e-01, 2.85536230e-01, 2.99821556e-01, 1.10417634e-01,
          5.17781675e-01, 5.17781675e-01, 2.00206283e-02, 3.63319255e-02,
          1.01398125e-01, 5.17781675e-01, 3.94601643e-01, 1.03103586e-01,
          2.84051418e-01, 4.95760925e-02, 7.36216754e-02, 6.80090189e-02,
          4.35540110e-01, 4.35540110e-01, 4.35540110e-01, 4.35540110e-01,
          3.79051715e-01, 2.04917684e-01, 4.37317044e-01, 4.37317044e-01,
          6.45793676e-02, 1.22336105e-01, 4.35133785e-01, 4.37317044e-01,
          2.85536230e-01, 2.99821556e-01, 1.10417634e-01, 5.17781675e-01,
          5.17781675e-01, 2.00206283e-02, 3.63319255e-02, 1.01398125e-01,
          5.17781675e-01, 3.94601643e-01, 1.03103586e-01, 2.84051418e-01,
          4.95760925e-02, 7.36216754e-02, 6.80090189e-02, 4.35540110e-01,
          4.35540110e-01, 4.35540110e-01, 4.35540110e-01, 3.79051715e-01,
          3.48768443e-01, 4.36348051e-01, 4.36348051e-01, 2.90930927e-01,
          5.54646105e-02, 2.95109884e-03, 1.57091185e-01, 4.36348051e-01,
          4.36348051e-01, 4.23134327e-01, 4.23134327e-01, 4.23134327e-01,
          1.69359803e-01, 4.45094146e-02, 3.01473346e-02, 2.64814794e-01,
          4.21785563e-01, 4.23134327e-01, 4.57360178e-01, 1.81663871e-01,
          6.25380650e-02, 1.01806000e-02, 3.26687694e-02, 3.47325087e-01,
          4.57360178e-01, 4.57360178e-01, 4.57360178e-01, 4.48682994e-01,
          1.84474945e-01, 4.48682994e-01, 4.48682994e-01, 4.08354774e-02,
          0., 2.78103482e-02, 3.92148674e-01, 4.48682994e-01,
          2.44514197e-01, 5.27596623e-02, 4.25839096e-01, 4.60723847e-01,
          2.88397074e-01, 4.60723847e-01, 6.67455345e-02, 1.64502501e-01,
          4.60723847e-01, 2.12489471e-01, 2.09831055e-02, 1.42821968e-02,
          6.39751852e-02, 1.91317126e-01, 6.38824880e-01, 6.38824880e-01,
          1.92148417e-01, 2.32412189e-01, 4.60500717e-01, 2.19380230e-01,
          1.29801542e-01, 2.62286216e-01, 4.60500717e-01, 4.60500717e-01,
          1.08120553e-01, 4.11887877e-02, 4.60500717e-01, 4.62142766e-01,
          3.74388397e-02, 1.09469965e-01, 4.62142766e-01, 4.62142766e-01,
          3.35310549e-01, 9.60334316e-02, 7.77133256e-02, 4.62142766e-01,
          5.04150569e-01, 1.03122674e-01, 5.04150569e-01, 5.04150569e-01,
          1.87577486e-01, 1.95537470e-02, 3.16433683e-02, 3.73205021e-02,
          4.28795367e-01, 5.33648014e-01, 4.64416482e-02, 2.55526155e-02,
          6.61451221e-02, 5.33648014e-01, 3.54195833e-01, 8.54176804e-02,
          1.98534746e-02, 5.33648014e-01, 5.62529981e-01, 0.,
          1.11269113e-03, 3.95166613e-02, 5.62529981e-01, 2.08552599e-01,
          9.78363096e-04, 2.20874860e-03, 5.62529981e-01, 4.46997166e-01,
          1.61043406e-02, 6.40654862e-02, 3.16018134e-01, 4.46997166e-01,
          4.46997166e-01, 1.71527460e-01, 2.50312477e-01, 4.46997166e-01,
          2.84051418e-01, 4.95760925e-02, 7.36216754e-02, 6.80090189e-02,
          4.35540110e-01, 4.35540110e-01, 4.35540110e-01, 4.35540110e-01,
          3.79051715e-01, 2.14956746e-01, 8.57259035e-02, 6.86004460e-02,
          1.91536292e-01, 7.21898317e-01, 5.19496441e-01, 7.42999539e-02,
          1.97221562e-01, 2.49832243e-01, 9.49426740e-02, 4.41336893e-02,
          5.67043349e-02, 1.90402910e-01, 6.68713748e-01, 6.68713748e-01,
          1.93608075e-01, 6.98176771e-02, 7.86063895e-02, 2.84051418e-01,
          4.95760925e-02, 7.36216754e-02, 6.80090189e-02, 4.35540110e-01,
          4.35540110e-01, 4.35540110e-01, 4.35540110e-01, 3.79051715e-01,
          2.14956746e-01, 8.57259035e-02, 6.86004460e-02, 1.91536292e-01,
          7.21898317e-01, 5.19496441e-01, 7.42999539e-02, 1.97221562e-01,
          2.49832243e-01, 9.49426740e-02, 4.41336893e-02, 5.67043349e-02,
          1.90402910e-01, 6.68713748e-01, 6.68713748e-01, 1.93608075e-01,
          6.98176771e-02, 7.86063895e-02, 4.57360178e-01, 1.81663871e-01,
          6.25380650e-02, 1.01806000e-02, 3.26687694e-02, 3.47325087e-01,
          4.57360178e-01, 4.57360178e-01, 4.57360178e-01, 1.88291788e-01,
          4.84064639e-01, 3.17228079e-01, 4.15603779e-02, 8.02956596e-02,
          2.61851311e-01, 4.99580055e-01, 4.99580055e-01, 2.20687971e-01,
          4.64236081e-01, 4.64236081e-01, 1.37702152e-01, 4.72899862e-02,
          1.82910874e-01, 4.64236081e-01, 4.64236081e-01, 1.77918136e-01,
          2.16779038e-01, 2.12489471e-01, 2.09831055e-02, 1.42821968e-02,
          6.39751852e-02, 1.91317126e-01, 6.38824880e-01, 6.38824880e-01,
          1.92148417e-01, 2.32412189e-01, 4.75105256e-01, 3.49995017e-01,
          8.31247717e-02, 2.39996612e-02, 1.89515486e-01, 4.75105256e-01,
          4.75105256e-01, 3.41254205e-01, 1.89015806e-01, 6.94532275e-01,
          6.94532275e-01, 4.75428216e-02, 1.12837763e-03, 2.81071365e-02,
          1.18306503e-01, 6.56001940e-02, 1.92209929e-02, 8.12155381e-02 ]
      - [ 4.59588200e-01, 4.59588200e-01, 2.91635454e-01, 1.87778082e-02,
          1.70576960e-01, 4.59588200e-01, 4.59588200e-01, 5.28833196e-02,
          1.82283476e-01, 4.34923857e-01, 4.34923857e-01, 3.72444659e-01,
          6.92764623e-03, 2.36103445e-01, 4.34923857e-01, 4.34923857e-01,
          1.45237058e-01, 1.53032452e-01, 3.66225094e-01, 3.66225094e-01,
          2.28516802e-01, 7.26325437e-02, 3.66225094e-01, 3.66225094e-01,
          3.66225094e-01, 3.66225094e-01, 3.66225094e-01, 2.15931639e-01,
          4.79311913e-01, 4.79311913e-01, 1.33149385e-01, 7.30737373e-02,
          4.79311913e-01, 4.79311913e-01, 6.59119412e-02, 4.70503457e-02,
          1.23989053e-01, 3.85589540e-01, 3.85589540e-01, 3.85589540e-01,
          1.01497352e-01, 3.39079022e-01, 3.85589540e-01, 3.85589540e-01,
          3.34816068e-01, 3.67378801e-01, 3.67378801e-01, 3.05402875e-01,
          9.72827300e-02, 2.89467752e-01, 3.67378801e-01, 3.67378801e-01,
          3.67378801e-01, 3.67378801e-01, 9.51265842e-02, 2.40465760e-01,
          4.50386673e-01, 2.93858409e-01, 1.57207042e-01, 4.50386673e-01,
          4.50386673e-01, 4.50386673e-01, 7.85427541e-02, 2.24141076e-01,
          1.21616773e-01, 4.73538071e-01, 4.73538071e-01, 4.73538071e-01,
          3.79644185e-01, 1.60206318e-01, 1.28477111e-01, 2.66876817e-01,
          4.58339363e-01, 4.58339363e-01, 6.11955822e-02, 2.16479659e-01,
          4.58339363e-01, 4.58339363e-01, 2.20409960e-01, 7.47763813e-02,
          2.24369302e-01, 9.51265842e-02, 2.40465760e-01, 4.50386673e-01,
          2.93858409e-01, 1.57207042e-01, 4.50386673e-01, 4.50386673e-01,
          4.50386673e-01, 7.85427541e-02, 2.24141076e-01, 1.21616773e-01,
          4.73538071e-01, 4.73538071e-01, 4.73538071e-01, 3.79644185e-01,
          1.60206318e-01, 1.28477111e-01, 2.66876817e-01, 4.58339363e-01,
          4.58339363e-01, 6.11955822e-02, 2.16479659e-01, 4.58339363e-01,
          4.58339363e-01, 2.20409960e-01, 7.47763813e-02, 2.24369302e-01,
          8.03695694e-02, 1.89699560e-01, 2.39603803e-01, 3.00324172e-01,
          4.28902298e-01, 4.28902298e-01, 4.28902298e-01, 4.28902298e-01,
          2.64267057e-01, 4.20397609e-01, 4.20397609e-01, 2.46492937e-01,
          8.63973647e-02, 3.76345873e-01, 4.20397609e-01, 4.20397609e-01,
          8.77495632e-02, 2.67028898e-01, 4.26642895e-01, 4.26642895e-01,
          3.73044074e-01, 4.26642895e-01, 4.26642895e-01, 2.90803015e-01,
          1.17854916e-01, 4.05338705e-02, 1.68465197e-01, 9.38303247e-02,
          2.84430623e-01, 3.89752448e-01, 4.48181629e-01, 1.31607234e-01,
          3.19296360e-01, 1.78998142e-01, 4.48181629e-01, 4.48181629e-01,
          3.94547909e-01, 3.94547909e-01, 3.94547909e-01, 3.94547909e-01,
          1.63381815e-01, 1.86949477e-01, 2.01589745e-02, 3.94547909e-01,
          3.94547909e-01, 5.05148530e-01, 1.18525296e-01, 7.01623484e-02,
          3.29460680e-01, 5.05148530e-01, 6.18060604e-02, 6.42366335e-03,
          3.13134432e-01, 5.05148530e-01, 3.66225094e-01, 3.66225094e-01,
          2.28516802e-01, 7.26325437e-02, 3.66225094e-01, 3.66225094e-01,
          3.66225094e-01, 3.66225094e-01, 3.66225094e-01, 3.75270873e-01,
          3.75270873e-01, 3.75270873e-01, 3.75270873e-01, 2.23328993e-01,
          2.12852538e-01, 2.36853331e-01, 3.75270873e-01, 3.75270873e-01,
          1.23115234e-01, 1.11404799e-01, 2.81793118e-01, 3.89138788e-01,
          3.89138788e-01, 3.89138788e-01, 3.89138788e-01, 3.89138788e-01,
          3.63306522e-01, 3.67378801e-01, 3.67378801e-01, 3.05402875e-01,
          9.72827300e-02, 2.89467752e-01, 3.67378801e-01, 3.67378801e-01,
          3.67378801e-01, 3.67378801e-01, 3.68618190e-01, 3.68618190e-01,
          1.81462109e-01, 3.68618190e-01, 3.68618190e-01, 3.68618190e-01,
          3.68618190e-01, 3.68618190e-01, 1.10603556e-01, 3.95527571e-01,
          3.95527571e-01, 2.57381886e-01, 3.53883862e-01, 3.38525832e-01,
          3.95527571e-01, 3.95527571e-01, 2.31173366e-01, 1.03731439e-01,
          4.58339363e-01, 4.58339363e-01, 6.11955822e-02, 2.16479659e-01,
          4.58339363e-01, 4.58339363e-01, 2.20409960e-01, 7.47763813e-02,
          2.24369302e-01, 3.94342273e-01, 3.94342273e-01, 2.47183099e-01,
          1.90794487e-02, 3.77261013e-01, 3.94342273e-01, 3.46728116e-01,
          2.23668322e-01, 3.94342273e-01, 3.88667315e-01, 3.88667315e-01,
          1.59913749e-01, 1.72227621e-01, 2.65977830e-01, 3.88667315e-01,
          3.88667315e-01, 3.88667315e-01, 3.38860631e-01, 4.58339363e-01,
          4.58339363e-01, 6.11955822e-02, 2.16479659e-01, 4.58339363e-01,
          4.58339363e-01, 2.20409960e-01, 7.47763813e-02, 2.24369302e-01,
          3.94342273e-01, 3.94342273e-01, 2.47183099e-01, 1.90794487e-02,
          3.77261013e-01, 3.94342273e-01, 3.46728116e-01, 2.23668322e-01,
          3.94342273e-01, 3.88667315e-01, 3.88667315e-01, 1.59913749e-01,
          1.72227621e-01, 2.65977830e-01, 3.88667315e-01, 3.88667315e-01,
          3.88667315e-01, 3.38860631e-01, 4.26642895e-01, 4.26642895e-01,
          3.73044074e-01, 4.26642895e-01, 4.26642895e-01, 2.90803015e-01,
          1.17854916e-01, 4.05338705e-02, 1.68465197e-01, 2.75719941e-01,
          2.64274836e-01, 3.94652188e-01, 4.11070079e-01, 4.11070079e-01,
          1.85745303e-02, 1.34242490e-01, 4.11070079e-01, 4.11070079e-01,
          6.69606030e-02, 2.44410232e-01, 2.56043792e-01, 1.74018875e-01,
          2.87908781e-02, 1.08566649e-01, 5.41802883e-01, 5.41802883e-01,
          4.84573901e-01, 5.05148530e-01, 1.18525296e-01, 7.01623484e-02,
          3.29460680e-01, 5.05148530e-01, 6.18060604e-02, 6.42366335e-03,
          3.13134432e-01, 5.05148530e-01, 3.90549600e-01, 3.90549600e-01,
          3.90549600e-01, 2.57824570e-01, 3.10741961e-01, 3.90549600e-01,
          3.90549600e-01, 1.80166468e-01, 1.94831625e-01, 4.34177011e-01,
          4.34177011e-01, 2.22422540e-01, 5.63200861e-02, 1.79681871e-02,
          4.34177011e-01, 4.34177011e-01, 4.34177011e-01, 1.21620493e-02 ]
      - [ 3.66692513e-01, 1.13595560e-01, 2.26223603e-01, 1.17796458e-01,
          3.02281052e-01, 5.91991603e-01, 4.89623785e-01, 2.17365269e-02,
          3.15652639e-01, 3.99836510e-01, 3.99836510e-01, 3.37508053e-01,
          3.39686006e-01, 3.99836510e-01, 3.99836510e-01, 1.04177527e-01,
          9.04025882e-03, 3.41021448e-01, 5.11796296e-01, 4.61724520e-01,
          3.76762450e-02, 4.18278016e-02, 4.33230489e-01, 2.53182054e-01,
          5.32070845e-02, 6.18420029e-03, 5.11796296e-01, 3.55233967e-01,
          3.91860694e-01, 3.49652261e-01, 7.01310039e-02, 2.29034070e-02,
          3.91860694e-01, 3.91860694e-01, 3.91860694e-01, 3.57736170e-01,
          1.69454634e-01, 1.50671467e-01, 3.18940848e-01, 4.13659185e-01,
          4.03203011e-01, 2.89730728e-01, 2.87870318e-01, 4.13659185e-01,
          4.13659185e-01, 2.54799515e-01, 1.02688558e-01, 2.84207705e-02,
          3.33010405e-01, 6.84140861e-01, 4.80951816e-01, 5.46606407e-02,
          2.36424997e-01, 2.18520358e-01, 2.20196560e-01, 5.14313400e-01,
          5.14313400e-01, 3.98461856e-02, 8.36676285e-02, 2.64938027e-01,
          5.14313400e-01, 2.63513744e-01, 6.78419173e-02, 8.24282691e-02,
          2.38519147e-01, 3.42873633e-01, 4.71023172e-01, 7.74570480e-02,
          3.22169006e-01, 4.84538943e-01, 4.84538943e-01, 1.12699442e-01,
          3.72652531e-01, 3.72652531e-01, 3.72652531e-01, 3.72652531e-01,
          3.72652531e-01, 8.88826847e-02, 1.27621785e-01, 3.72652531e-01,
          3.72652531e-01, 2.20196560e-01, 5.14313400e-01, 5.14313400e-01,
          3.98461856e-02, 8.36676285e-02, 2.64938027e-01, 5.14313400e-01,
          2.63513744e-01, 6.78419173e-02, 8.24282691e-02, 2.38519147e-01,
          3.42873633e-01, 4.71023172e-01, 7.74570480e-02, 3.22169006e-01,
          4.84538943e-01, 4.84538943e-01, 1.12699442e-01, 3.72652531e-01,
          3.72652531e-01, 3.72652531e-01, 3.72652531e-01, 3.72652531e-01,
          8.88826847e-02, 1.27621785e-01, 3.72652531e-01, 3.72652531e-01,
          2.97524724e-02, 3.00752729e-01, 4.36245769e-01, 4.36245769e-01,
          2.72280853e-02, 3.73888373e-01, 4.36245769e-01, 4.36245769e-01,
          5.02945334e-02, 2.64641970e-01, 4.17103291e-01, 4.17103291e-01,
          2.10027754e-01, 6.03242638e-03, 4.17103291e-01, 4.17103291e-01,
          4.17103291e-01, 1.08508743e-01, 1.57503173e-01, 4.39031810e-01,
          4.39031810e-01, 4.39031810e-01, 2.28375178e-02, 3.33815208e-03,
          8.08082521e-02, 4.39031810e-01, 4.39031810e-01, 1.96479764e-02,
          3.65244262e-02, 4.84596938e-01, 4.84596938e-01, 2.24305511e-01,
          1.48195997e-02, 1.79573029e-01, 4.84596938e-01, 4.54046696e-01,
          3.84071141e-01, 3.84071141e-01, 1.94006652e-01, 3.84071141e-01,
          3.84071141e-01, 7.37806782e-02, 2.60800749e-01, 3.84071141e-01,
          3.84071141e-01, 2.32653782e-01, 4.81245875e-01, 1.44745246e-01,
          6.13682605e-02, 5.53827107e-01, 5.53827107e-01, 1.02332726e-01,
          1.82614848e-01, 1.63577989e-01, 5.11796296e-01, 4.61724520e-01,
          3.76762450e-02, 4.18278016e-02, 4.33230489e-01, 2.53182054e-01,
          5.32070845e-02, 6.18420029e-03, 5.11796296e-01, 4.98148829e-01,
          1.26057826e-02, 2.09773369e-02, 5.97097576e-02, 4.98148829e-01,
          4.37929742e-02, 3.72504964e-02, 4.93050039e-01, 4.98148829e-01,
          8.20381492e-02, 1.85358021e-02, 1.21123403e-01, 4.83023167e-01,
          4.83023167e-01, 1.17125675e-01, 1.62686244e-01, 4.83023167e-01,
          4.83023167e-01, 2.54799515e-01, 1.02688558e-01, 2.84207705e-02,
          3.33010405e-01, 6.84140861e-01, 4.80951816e-01, 5.46606407e-02,
          2.36424997e-01, 2.18520358e-01, 5.87700725e-01, 1.24874506e-02,
          2.35545682e-03, 2.38022450e-02, 6.05990171e-01, 3.59864861e-01,
          4.98516578e-03, 1.11406818e-02, 3.88527125e-01, 3.86201233e-01,
          3.86201233e-01, 1.96104228e-01, 2.15530470e-01, 3.86201233e-01,
          3.86201233e-01, 3.03554654e-01, 2.70793498e-01, 3.86201233e-01,
          3.72652531e-01, 3.72652531e-01, 3.72652531e-01, 3.72652531e-01,
          3.72652531e-01, 8.88826847e-02, 1.27621785e-01, 3.72652531e-01,
          3.72652531e-01, 4.94661003e-01, 6.84418380e-02, 1.18489124e-01,
          4.94661003e-01, 4.87388104e-01, 5.21181598e-02, 1.25058061e-02,
          4.29777615e-02, 4.94661003e-01, 4.42106932e-01, 3.59289855e-01,
          6.64962530e-02, 9.77897719e-02, 2.20008120e-01, 4.42106932e-01,
          4.42106932e-01, 1.49238765e-01, 4.42106932e-01, 3.72652531e-01,
          3.72652531e-01, 3.72652531e-01, 3.72652531e-01, 3.72652531e-01,
          8.88826847e-02, 1.27621785e-01, 3.72652531e-01, 3.72652531e-01,
          4.94661003e-01, 6.84418380e-02, 1.18489124e-01, 4.94661003e-01,
          4.87388104e-01, 5.21181598e-02, 1.25058061e-02, 4.29777615e-02,
          4.94661003e-01, 4.42106932e-01, 3.59289855e-01, 6.64962530e-02,
          9.77897719e-02, 2.20008120e-01, 4.42106932e-01, 4.42106932e-01,
          1.49238765e-01, 4.42106932e-01, 1.57503173e-01, 4.39031810e-01,
          4.39031810e-01, 4.39031810e-01, 2.28375178e-02, 3.33815208e-03,
          8.08082521e-02, 4.39031810e-01, 4.39031810e-01, 6.98511396e-03,
          1.55975427e-02, 2.66721249e-01, 5.45168161e-01, 1.15154050e-01,
          7.77739510e-02, 1.10404909e-01, 5.45168161e-01, 5.45168161e-01,
          1.63126200e-01, 3.91423047e-01, 1.29737735e-01, 4.89245385e-01,
          2.73141325e-01, 4.89245385e-01, 4.89245385e-01, 6.48389235e-02,
          3.95747535e-02, 2.32653782e-01, 4.81245875e-01, 1.44745246e-01,
          6.13682605e-02, 5.53827107e-01, 5.53827107e-01, 1.02332726e-01,
          1.82614848e-01, 1.63577989e-01, 3.86988312e-01, 2.61066854e-01,
          2.36736760e-02, 1.69876248e-01, 3.86988312e-01, 3.86988312e-01,
          3.86988312e-01, 3.86988312e-01, 3.86988312e-01, 6.56296313e-01,
          6.56296313e-01, 7.59796202e-02, 1.61754131e-01, 1.82958096e-01,
          2.01930776e-01, 1.44734070e-01, 4.87352982e-02, 4.98807244e-02 ]
      - [ 2.53160626e-01, 3.25824656e-02, 2.65816390e-03, 3.61266769e-02,
          5.24445236e-01, 2.92870104e-01, 5.24445236e-01, 5.24445236e-01,
          1.31897524e-01, 4.63310152e-01, 2.67401427e-01, 4.63310152e-01,
          4.63310152e-01, 4.63310152e-01, 7.25035891e-02, 4.23598364e-02,
          9.24508646e-03, 2.41053760e-01, 5.42948954e-02, 1.39739558e-01,
          4.16737884e-01, 3.19157988e-01, 4.16737884e-01, 4.16737884e-01,
          4.16737884e-01, 4.16737884e-01, 5.61035909e-02, 5.36304653e-01,
          2.09010750e-01, 2.42257908e-01, 5.79040311e-02, 4.11936082e-02,
          1.52080590e-02, 3.67317826e-01, 5.86597741e-01, 3.46186876e-01,
          5.16699553e-01, 4.48782653e-01, 4.25282031e-01, 1.03861384e-01,
          6.60811588e-02, 4.68603186e-02, 4.29174788e-02, 2.43763223e-01,
          5.16699553e-01, 4.21324879e-01, 1.24278918e-01, 3.08766246e-01,
          1.68992415e-01, 4.21324879e-01, 2.28600070e-01, 3.06813329e-01,
          4.21324879e-01, 4.21324879e-01, 5.71759865e-02, 2.23338738e-01,
          5.02852857e-01, 4.20059949e-01, 3.98649685e-02, 1.70098208e-02,
          5.02852857e-01, 5.02852857e-01, 7.01195449e-02, 3.54671150e-01,
          2.41770655e-01, 3.85905117e-01, 3.85905117e-01, 2.48486102e-01,
          1.80747226e-01, 3.48989904e-01, 3.85905117e-01, 3.85905117e-01,
          3.10903817e-01, 1.69688344e-01, 4.19824421e-01, 4.19824421e-01,
          1.85090363e-01, 6.64162636e-02, 3.55908781e-01, 4.19824421e-01,
          4.19824421e-01, 5.71759865e-02, 2.23338738e-01, 5.02852857e-01,
          4.20059949e-01, 3.98649685e-02, 1.70098208e-02, 5.02852857e-01,
          5.02852857e-01, 7.01195449e-02, 3.54671150e-01, 2.41770655e-01,
          3.85905117e-01, 3.85905117e-01, 2.48486102e-01, 1.80747226e-01,
          3.48989904e-01, 3.85905117e-01, 3.85905117e-01, 3.10903817e-01,
          1.69688344e-01, 4.19824421e-01, 4.19824421e-01, 1.85090363e-01,
          6.64162636e-02, 3.55908781e-01, 4.19824421e-01, 4.19824421e-01,
          6.13763332e-02, 1.35435507e-01, 4.73093510e-01, 4.73093510e-01,
          1.17881469e-01, 2.84878630e-02, 4.73093510e-01, 4.73093510e-01,
          2.51370877e-01, 1.38092324e-01, 6.96928278e-02, 4.38163519e-01,
          4.38163519e-01, 4.38163519e-01, 9.46838930e-02, 3.85891289e-01,
          4.38163519e-01, 2.14173436e-01, 1.67904556e-01, 1.18676528e-01,
          3.22322547e-01, 4.02656764e-01, 5.45136929e-01, 3.45277637e-01,
          1.81096241e-01, 4.78940219e-01, 8.76655728e-02, 4.13156569e-01,
          2.55138993e-01, 4.13156569e-01, 4.13156569e-01, 1.70063496e-01,
          7.51958713e-02, 2.06661656e-01, 4.13156569e-01, 4.13156569e-01,
          9.51150209e-02, 5.84360287e-02, 2.51237214e-01, 1.16550066e-01,
          1.40844032e-01, 6.76438063e-02, 6.55845881e-01, 6.55845881e-01,
          1.40022263e-01, 3.76818448e-01, 2.73502916e-01, 3.55676532e-01,
          3.76818448e-01, 3.76818448e-01, 1.03717290e-01, 2.72410989e-01,
          3.76818448e-01, 3.76818448e-01, 5.42948954e-02, 1.39739558e-01,
          4.16737884e-01, 3.19157988e-01, 4.16737884e-01, 4.16737884e-01,
          4.16737884e-01, 4.16737884e-01, 5.61035909e-02, 1.02799766e-01,
          5.57328537e-02, 4.08387274e-01, 4.08387274e-01, 4.08387274e-01,
          2.87266046e-01, 4.08387274e-01, 4.08387274e-01, 2.56561249e-01,
          1.45400912e-01, 6.31278604e-02, 5.47123849e-01, 5.47123849e-01,
          8.51567984e-02, 8.96276068e-03, 1.82837367e-01, 5.47123849e-01,
          1.74971119e-01, 4.21324879e-01, 1.24278918e-01, 3.08766246e-01,
          1.68992415e-01, 4.21324879e-01, 2.28600070e-01, 3.06813329e-01,
          4.21324879e-01, 4.21324879e-01, 4.26110804e-01, 8.53934139e-02,
          2.47160092e-01, 1.66553557e-01, 2.69303173e-01, 2.14107677e-01,
          4.47018951e-01, 4.47018951e-01, 4.47018951e-01, 8.25357884e-02,
          1.34217292e-01, 5.59738815e-01, 5.59738815e-01, 5.39417798e-03,
          3.67246084e-02, 8.68395641e-02, 5.30467451e-01, 2.29465604e-01,
          3.10903817e-01, 1.69688344e-01, 4.19824421e-01, 4.19824421e-01,
          1.85090363e-01, 6.64162636e-02, 3.55908781e-01, 4.19824421e-01,
          4.19824421e-01, 8.33903030e-02, 8.14464092e-02, 3.93682182e-01,
          2.36491665e-01, 5.82988970e-02, 5.36518581e-02, 6.03697121e-01,
          6.03697121e-01, 1.85184285e-01, 1.65478244e-01, 2.55036563e-01,
          5.54409623e-01, 5.54409623e-01, 3.55360936e-03, 1.14462264e-02,
          7.34085068e-02, 3.51176888e-01, 3.98044378e-01, 3.10903817e-01,
          1.69688344e-01, 4.19824421e-01, 4.19824421e-01, 1.85090363e-01,
          6.64162636e-02, 3.55908781e-01, 4.19824421e-01, 4.19824421e-01,
          8.33903030e-02, 8.14464092e-02, 3.93682182e-01, 2.36491665e-01,
          5.82988970e-02, 5.36518581e-02, 6.03697121e-01, 6.03697121e-01,
          1.85184285e-01, 1.65478244e-01, 2.55036563e-01, 5.54409623e-01,
          5.54409623e-01, 3.55360936e-03, 1.14462264e-02, 7.34085068e-02,
          3.51176888e-01, 3.98044378e-01, 1.67904556e-01, 1.18676528e-01,
          3.22322547e-01, 4.02656764e-01, 5.45136929e-01, 3.45277637e-01,
          1.81096241e-01, 4.78940219e-01, 8.76655728e-02, 6.49241656e-02,
          3.78405415e-02, 2.60600388e-01, 1.74139753e-01, 4.64962810e-01,
          4.64962810e-01, 4.64962810e-01, 4.64962810e-01, 1.63431570e-01,
          1.20771684e-01, 9.99250412e-02, 4.70081419e-01, 4.70081419e-01,
          1.55380145e-02, 1.26401171e-01, 4.70081419e-01, 4.70081419e-01,
          2.65723795e-01, 3.76818448e-01, 2.73502916e-01, 3.55676532e-01,
          3.76818448e-01, 3.76818448e-01, 1.03717290e-01, 2.72410989e-01,
          3.76818448e-01, 3.76818448e-01, 3.86978239e-01, 1.60419598e-01,
          3.34533006e-01, 3.86978239e-01, 3.86978239e-01, 3.86978239e-01,
          2.37692997e-01, 2.30713129e-01, 3.86978239e-01, 2.66621470e-01,
          4.08436842e-02, 2.17587113e-01, 6.30658939e-02, 2.02608600e-01,
          4.55610037e-01, 4.55610037e-01, 4.55610037e-01, 4.55610037e-01 ]
      - [ 4.42326605e-01, 4.42326605e-01, 4.42326605e-01, 2.30176777e-01,
          3.21494818e-01, 4.42326605e-01, 5.85946292e-02, 8.76278132e-02,
          2.13349789e-01, 1.13814659e-01, 1.14497609e-01, 1.21652901e-01,
          3.05700134e-02, 6.65217876e-01, 6.65217876e-01, 1.55988172e-01,
          1.83886081e-01, 9.15724859e-02, 2.93792665e-01, 3.40543360e-01,
          3.92725796e-01, 2.21803695e-01, 3.92725796e-01, 3.92725796e-01,
          3.92725796e-01, 2.28523999e-01, 2.74660200e-01, 1.76289584e-02,
          1.40728936e-01, 2.93663561e-01, 6.07991815e-02, 4.89400446e-01,
          7.07148790e-01, 3.78291935e-01, 5.92045439e-03, 1.33717740e-02,
          2.97908876e-02, 2.65898347e-01, 5.50798476e-01, 5.32438308e-02,
          5.50798476e-01, 5.50798476e-01, 3.46901305e-02, 6.60745203e-02,
          6.61006495e-02, 2.69008130e-01, 4.70097691e-01, 4.70097691e-01,
          5.14411256e-02, 2.18441203e-01, 1.62180632e-01, 4.55245793e-01,
          3.83241415e-01, 2.23980755e-01, 1.99107856e-01, 1.77958548e-01,
          1.72313094e-01, 6.76201060e-02, 6.43415153e-02, 6.46345556e-01,
          6.46345556e-01, 1.95009336e-01, 1.01371229e-01, 4.16914850e-01,
          3.90246630e-01, 4.16914850e-01, 1.54208735e-01, 2.42485926e-01,
          1.67056531e-01, 2.69140124e-01, 3.73047948e-01, 4.16914850e-01,
          4.39518690e-02, 3.87731254e-01, 6.70010388e-01, 6.46580905e-02,
          8.33513867e-03, 1.39432950e-02, 5.21932185e-01, 3.18884104e-01,
          1.16554901e-01, 1.99107856e-01, 1.77958548e-01, 1.72313094e-01,
          6.76201060e-02, 6.43415153e-02, 6.46345556e-01, 6.46345556e-01,
          1.95009336e-01, 1.01371229e-01, 4.16914850e-01, 3.90246630e-01,
          4.16914850e-01, 1.54208735e-01, 2.42485926e-01, 1.67056531e-01,
          2.69140124e-01, 3.73047948e-01, 4.16914850e-01, 4.39518690e-02,
          3.87731254e-01, 6.70010388e-01, 6.46580905e-02, 8.33513867e-03,
          1.39432950e-02, 5.21932185e-01, 3.18884104e-01, 1.16554901e-01,
          4.01233733e-02, 4.57626246e-02, 3.26954305e-01, 2.73184210e-01,
          1.06793672e-01, 8.19218531e-02, 5.49961269e-01, 5.49961269e-01,
          4.31560308e-01, 4.39153641e-01, 4.24292445e-01, 4.39153641e-01,
          4.39153641e-01, 3.68812047e-02, 1.40882656e-02, 4.46548611e-02,
          2.01526076e-01, 4.39153641e-01, 4.35302556e-01, 4.35302556e-01,
          4.35302556e-01, 2.52791524e-01, 4.07712236e-02, 5.25952084e-03,
          2.46744856e-01, 3.33499253e-01, 4.35302556e-01, 8.26951414e-02,
          1.50143310e-01, 4.28589016e-01, 5.40361926e-02, 1.96453687e-02,
          2.14592479e-02, 5.54337166e-02, 6.22045040e-01, 6.22045040e-01,
          1.86012790e-01, 2.33970974e-02, 5.01655519e-01, 5.01655519e-01,
          5.70001900e-02, 3.87010165e-02, 6.55783713e-02, 4.42515135e-01,
          5.01655519e-01, 2.28975430e-01, 3.74630205e-02, 2.32176036e-01,
          5.26944280e-01, 5.26944280e-01, 1.91977367e-01, 6.45064190e-02,
          1.13891691e-01, 5.26944280e-01, 2.93792665e-01, 3.40543360e-01,
          3.92725796e-01, 2.21803695e-01, 3.92725796e-01, 3.92725796e-01,
          3.92725796e-01, 2.28523999e-01, 2.74660200e-01, 1.46235690e-01,
          2.58828372e-01, 1.58246323e-01, 3.99443328e-01, 3.99443328e-01,
          3.99443328e-01, 3.99443328e-01, 3.99443328e-01, 2.91231692e-01,
          2.80779392e-01, 3.89985383e-01, 3.89985383e-01, 3.89985383e-01,
          3.08230489e-01, 1.89148456e-01, 3.89985383e-01, 3.89985383e-01,
          1.61371410e-01, 2.69008130e-01, 4.70097691e-01, 4.70097691e-01,
          5.14411256e-02, 2.18441203e-01, 1.62180632e-01, 4.55245793e-01,
          3.83241415e-01, 2.23980755e-01, 9.10864547e-02, 8.58842954e-02,
          2.00553209e-01, 2.29908735e-01, 2.92986602e-01, 1.08009197e-01,
          6.00314081e-01, 6.00314081e-01, 2.58828819e-01, 1.85863957e-01,
          1.24132484e-01, 4.83594507e-01, 4.83594507e-01, 4.83594507e-01,
          1.49998531e-01, 2.86280245e-01, 3.36049795e-01, 1.61985576e-01,
          4.39518690e-02, 3.87731254e-01, 6.70010388e-01, 6.46580905e-02,
          8.33513867e-03, 1.39432950e-02, 5.21932185e-01, 3.18884104e-01,
          1.16554901e-01, 3.22917372e-01, 1.93073004e-01, 2.43084490e-01,
          2.55255476e-02, 5.93922734e-02, 1.92423724e-02, 6.19476020e-01,
          6.19476020e-01, 1.45333111e-01, 4.49568331e-01, 1.48550525e-01,
          6.71962202e-02, 3.33557606e-01, 1.37661055e-01, 1.73979297e-01,
          4.49568331e-01, 4.49568331e-01, 4.49568331e-01, 4.39518690e-02,
          3.87731254e-01, 6.70010388e-01, 6.46580905e-02, 8.33513867e-03,
          1.39432950e-02, 5.21932185e-01, 3.18884104e-01, 1.16554901e-01,
          3.22917372e-01, 1.93073004e-01, 2.43084490e-01, 2.55255476e-02,
          5.93922734e-02, 1.92423724e-02, 6.19476020e-01, 6.19476020e-01,
          1.45333111e-01, 4.49568331e-01, 1.48550525e-01, 6.71962202e-02,
          3.33557606e-01, 1.37661055e-01, 1.73979297e-01, 4.49568331e-01,
          4.49568331e-01, 4.49568331e-01, 4.35302556e-01, 4.35302556e-01,
          4.35302556e-01, 2.52791524e-01, 4.07712236e-02, 5.25952084e-03,
          2.46744856e-01, 3.33499253e-01, 4.35302556e-01, 4.12889689e-01,
          4.12889689e-01, 1.26478344e-01, 1.31771630e-02, 3.74316312e-02,
          3.54844332e-01, 4.12889689e-01, 4.12889689e-01, 4.12889689e-01,
          4.23596442e-01, 2.86937743e-01, 3.10585886e-01, 1.68296788e-02,
          7.70625323e-02, 4.23596442e-01, 4.23596442e-01, 3.35696965e-01,
          3.99694234e-01, 2.28975430e-01, 3.74630205e-02, 2.32176036e-01,
          5.26944280e-01, 5.26944280e-01, 1.91977367e-01, 6.45064190e-02,
          1.13891691e-01, 5.26944280e-01, 2.89008647e-01, 1.80763766e-01,
          4.51570787e-02, 2.53902704e-01, 3.32228810e-01, 6.64450467e-01,
          4.79093373e-01, 1.01820201e-01, 1.37445062e-01, 4.73379105e-01,
          4.73379105e-01, 2.06279635e-01, 1.52605817e-01, 1.19681597e-01,
          4.73379105e-01, 4.73379105e-01, 1.08623663e-02, 1.36525363e-01 ]
      - [ 2.53746778e-01, 5.01109064e-01, 5.01109064e-01, 5.01109064e-01,
          2.40075052e-01, 2.82802671e-01, 1.37986794e-01, 1.27213746e-01,
          6.66308999e-02, 3.03675234e-01, 2.21653014e-01, 1.52999118e-01,
          1.09037533e-01, 3.58699292e-01, 2.13081628e-01, 2.71739244e-01,
          5.33905625e-01, 5.33905625e-01, 4.80287641e-01, 3.14123422e-01,
          7.52360299e-02, 1.51388749e-01, 4.00928229e-01, 1.10568441e-01,
          5.43406941e-02, 4.80287641e-01, 4.80287641e-01, 4.63931561e-02,
          1.18561246e-01, 5.41301489e-01, 5.41301489e-01, 1.04306899e-02,
          3.77057418e-02, 3.04137796e-01, 5.41301489e-01, 7.30269700e-02,
          2.26790860e-01, 2.95486301e-01, 5.00251472e-01, 4.65691090e-01,
          2.20137417e-01, 1.17622808e-01, 1.49585485e-01, 4.44666266e-01,
          3.26708257e-01, 5.31815767e-01, 3.56702387e-01, 7.70662352e-02,
          1.61115732e-02, 1.56842634e-01, 1.03226207e-01, 2.20134869e-01,
          4.09621209e-01, 5.71424901e-01, 5.56684146e-03, 1.23433620e-01,
          4.83818918e-01, 4.83818918e-01, 3.64437625e-02, 2.96613146e-02,
          4.83818918e-01, 4.83818918e-01, 2.03395575e-01, 2.15271622e-01,
          2.18210071e-01, 4.49089766e-01, 4.49089766e-01, 4.49089766e-01,
          3.16416860e-01, 3.92235309e-01, 1.56808734e-01, 1.33995071e-01,
          3.72812003e-01, 4.18311447e-01, 2.97222823e-01, 3.98785025e-01,
          4.18311447e-01, 2.57423490e-01, 2.87108392e-01, 1.92838147e-01,
          2.71307677e-01, 5.56684146e-03, 1.23433620e-01, 4.83818918e-01,
          4.83818918e-01, 3.64437625e-02, 2.96613146e-02, 4.83818918e-01,
          4.83818918e-01, 2.03395575e-01, 2.15271622e-01, 2.18210071e-01,
          4.49089766e-01, 4.49089766e-01, 4.49089766e-01, 3.16416860e-01,
          3.92235309e-01, 1.56808734e-01, 1.33995071e-01, 3.72812003e-01,
          4.18311447e-01, 2.97222823e-01, 3.98785025e-01, 4.18311447e-01,
          2.57423490e-01, 2.87108392e-01, 1.92838147e-01, 2.71307677e-01,
          5.55280177e-03, 2.67247111e-02, 5.18308282e-01, 3.58452827e-01,
          2.71543190e-02, 4.01169434e-02, 5.18308282e-01, 5.18308282e-01,
          2.39401221e-01, 1.36737108e-01, 1.58729911e-01, 5.98353565e-01,
          5.98353565e-01, 4.47272658e-02, 7.94431493e-02, 2.00660318e-01,
          3.98216873e-01, 1.64092109e-01, 3.92441183e-01, 4.64272946e-01,
          4.69055384e-01, 3.37476134e-01, 1.29717335e-01, 3.34954262e-01,
          3.26392502e-01, 1.40712857e-01, 1.91047892e-01, 1.18193276e-01,
          2.42452305e-02, 1.79058909e-01, 1.44124269e-01, 3.32795121e-02,
          2.30587021e-01, 5.40829182e-01, 5.40829182e-01, 5.36597967e-01,
          3.88884038e-01, 1.03685290e-01, 3.98054570e-01, 3.98054570e-01,
          2.46919066e-01, 3.07339672e-02, 3.71939063e-01, 3.98054570e-01,
          3.98054570e-01, 1.91726819e-01, 5.47281057e-02, 1.34667918e-01,
          5.56693673e-01, 5.56693673e-01, 5.84437959e-02, 4.79689576e-02,
          3.33282351e-02, 5.56693673e-01, 4.80287641e-01, 3.14123422e-01,
          7.52360299e-02, 1.51388749e-01, 4.00928229e-01, 1.10568441e-01,
          5.43406941e-02, 4.80287641e-01, 4.80287641e-01, 4.98611748e-01,
          5.04401803e-01, 5.04401803e-01, 1.82940513e-01, 1.33943841e-01,
          1.95690766e-02, 1.34527624e-01, 1.52962387e-01, 3.79763246e-01,
          5.60632408e-01, 3.54050219e-01, 1.69355407e-01, 1.01793513e-01,
          1.56127915e-01, 4.47756015e-02, 3.34911704e-01, 2.50684679e-01,
          5.60632408e-01, 5.31815767e-01, 3.56702387e-01, 7.70662352e-02,
          1.61115732e-02, 1.56842634e-01, 1.03226207e-01, 2.20134869e-01,
          4.09621209e-01, 5.71424901e-01, 3.63424420e-01, 5.26601613e-01,
          4.01505053e-01, 3.94555360e-01, 2.47757837e-01, 1.71137825e-01,
          1.82547823e-01, 1.74087152e-01, 3.35981637e-01, 3.23878318e-01,
          4.81428087e-01, 4.77145195e-01, 2.72617579e-01, 4.67366070e-01,
          5.29600587e-03, 1.14493884e-01, 1.12346247e-01, 3.32988948e-01,
          3.72812003e-01, 4.18311447e-01, 2.97222823e-01, 3.98785025e-01,
          4.18311447e-01, 2.57423490e-01, 2.87108392e-01, 1.92838147e-01,
          2.71307677e-01, 2.04957396e-01, 5.47668859e-02, 8.28027874e-02,
          3.96371633e-01, 4.75968897e-01, 2.72177368e-01, 3.30258399e-01,
          4.75968897e-01, 3.87335122e-01, 3.70589793e-01, 1.78788513e-01,
          4.93855417e-01, 5.01052320e-01, 5.01052320e-01, 3.61846667e-03,
          1.24919843e-02, 4.54078838e-02, 2.78321296e-01, 3.72812003e-01,
          4.18311447e-01, 2.97222823e-01, 3.98785025e-01, 4.18311447e-01,
          2.57423490e-01, 2.87108392e-01, 1.92838147e-01, 2.71307677e-01,
          2.04957396e-01, 5.47668859e-02, 8.28027874e-02, 3.96371633e-01,
          4.75968897e-01, 2.72177368e-01, 3.30258399e-01, 4.75968897e-01,
          3.87335122e-01, 3.70589793e-01, 1.78788513e-01, 4.93855417e-01,
          5.01052320e-01, 5.01052320e-01, 3.61846667e-03, 1.24919843e-02,
          4.54078838e-02, 2.78321296e-01, 3.92441183e-01, 4.64272946e-01,
          4.69055384e-01, 3.37476134e-01, 1.29717335e-01, 3.34954262e-01,
          3.26392502e-01, 1.40712857e-01, 1.91047892e-01, 6.08362198e-01,
          2.89427519e-01, 1.65608302e-01, 9.65669081e-02, 2.83691257e-01,
          2.40053177e-01, 2.19761938e-01, 3.62919271e-01, 4.30336654e-01,
          5.41614592e-01, 1.75266847e-01, 1.13031313e-01, 1.88732594e-01,
          4.70979065e-01, 3.19977313e-01, 5.47620170e-02, 3.97283100e-02,
          5.41614592e-01, 1.91726819e-01, 5.47281057e-02, 1.34667918e-01,
          5.56693673e-01, 5.56693673e-01, 5.84437959e-02, 4.79689576e-02,
          3.33282351e-02, 5.56693673e-01, 8.45181867e-02, 3.58270742e-02,
          2.60098483e-02, 5.62521040e-01, 5.62521040e-01, 2.89044768e-01,
          1.11041620e-01, 1.44595653e-01, 4.85421956e-01, 9.76503640e-02,
          4.81823087e-02, 5.18213250e-02, 5.82728982e-01, 5.82728982e-01,
          3.68519843e-01, 1.05543867e-01, 1.95643291e-01, 3.39514285e-01 ]
      - [ 4.62776899e-01, 4.62776899e-01, 2.11093277e-01, 4.22822908e-02,
          5.36190905e-02, 4.62776899e-01, 3.79363120e-01, 1.54667214e-01,
          3.68549526e-01, 4.71090287e-01, 4.71090287e-01, 2.93887079e-01,
          1.97304264e-02, 4.42223847e-01, 4.71090287e-01, 1.94032311e-01,
          1.39751816e-02, 9.67041925e-02, 3.94243985e-01, 3.94243985e-01,
          6.53321296e-02, 7.05258409e-03, 3.62926811e-01, 3.94243985e-01,
          3.94243985e-01, 2.87899405e-01, 3.94243985e-01, 3.14214796e-01,
          5.43788612e-01, 3.00484635e-02, 3.02638467e-02, 4.27005067e-02,
          5.43788612e-01, 5.43788612e-01, 2.01064143e-02, 6.83688670e-02,
          9.73880887e-02, 5.84607780e-01, 5.84607780e-01, 2.14684844e-01,
          3.99295352e-02, 2.52577126e-01, 4.12999988e-01, 1.34953961e-01,
          2.97461674e-02, 2.13485822e-01, 3.96975130e-01, 3.96975130e-01,
          7.86600560e-02, 1.33663774e-01, 3.96975130e-01, 3.96975130e-01,
          3.96975130e-01, 3.72100025e-01, 2.12859124e-01, 2.84472704e-01,
          1.64238200e-01, 1.04054786e-01, 4.73237447e-02, 5.76370537e-01,
          5.76370537e-01, 3.93639982e-01, 9.27981138e-02, 3.10782883e-02,
          2.26757407e-01, 6.60651505e-01, 6.60651505e-01, 1.27043128e-01,
          1.41014561e-01, 1.16854563e-01, 1.31881893e-01, 3.20327282e-02,
          3.26648802e-01, 1.55498922e-01, 2.54131675e-01, 4.37858790e-01,
          4.37858790e-01, 2.45435968e-01, 1.27398312e-01, 3.85401100e-01,
          4.37858790e-01, 2.12859124e-01, 2.84472704e-01, 1.64238200e-01,
          1.04054786e-01, 4.73237447e-02, 5.76370537e-01, 5.76370537e-01,
          3.93639982e-01, 9.27981138e-02, 3.10782883e-02, 2.26757407e-01,
          6.60651505e-01, 6.60651505e-01, 1.27043128e-01, 1.41014561e-01,
          1.16854563e-01, 1.31881893e-01, 3.20327282e-02, 3.26648802e-01,
          1.55498922e-01, 2.54131675e-01, 4.37858790e-01, 4.37858790e-01,
          2.45435968e-01, 1.27398312e-01, 3.85401100e-01, 4.37858790e-01,
          6.64416477e-02, 4.00814377e-02, 1.26351357e-01, 2.31683552e-01,
          2.64829665e-01, 2.18775064e-01, 6.27947986e-01, 6.27947986e-01,
          1.06924944e-01, 4.09060538e-01, 4.09060538e-01, 4.09060538e-01,
          4.09060538e-01, 3.06895167e-01, 4.09060538e-01, 1.41260847e-01,
          1.04659319e-01, 1.84846520e-01, 3.40155244e-01, 3.98184538e-01,
          1.10450663e-01, 3.71835917e-01, 4.27732855e-01, 4.27732855e-01,
          4.27732855e-01, 9.57423449e-02, 1.13916010e-01, 3.00048534e-02,
          1.59366541e-02, 1.85377032e-01, 5.07945240e-01, 2.54032642e-01,
          2.70803362e-01, 3.76945764e-01, 5.07945240e-01, 4.04272705e-01,
          4.40525979e-01, 4.40525979e-01, 2.95731127e-01, 1.69347048e-01,
          4.40525979e-01, 4.40525979e-01, 2.72578180e-01, 1.17087543e-01,
          1.23302005e-01, 4.48251218e-01, 4.48251218e-01, 1.17346823e-01,
          4.08490859e-02, 2.07947791e-01, 4.48251218e-01, 2.34594241e-01,
          2.79446334e-01, 4.48251218e-01, 3.94243985e-01, 3.94243985e-01,
          6.53321296e-02, 7.05258409e-03, 3.62926811e-01, 3.94243985e-01,
          3.94243985e-01, 2.87899405e-01, 3.94243985e-01, 3.91108066e-01,
          1.95517182e-01, 1.65928364e-01, 1.11984007e-01, 3.91108066e-01,
          3.91108066e-01, 3.91108066e-01, 3.91108066e-01, 3.91108066e-01,
          4.06503528e-01, 4.06503528e-01, 4.06503528e-01, 4.06503528e-01,
          2.97867090e-01, 4.04873528e-02, 3.62162627e-02, 2.79352546e-01,
          4.06503528e-01, 2.13485822e-01, 3.96975130e-01, 3.96975130e-01,
          7.86600560e-02, 1.33663774e-01, 3.96975130e-01, 3.96975130e-01,
          3.96975130e-01, 3.72100025e-01, 4.06961024e-01, 4.06961024e-01,
          3.35171968e-01, 3.67336050e-02, 8.66601095e-02, 2.15982780e-01,
          4.06961024e-01, 4.06961024e-01, 4.06961024e-01, 1.48768827e-01,
          2.15446696e-01, 3.29715163e-01, 3.93458694e-01, 3.93458694e-01,
          3.93458694e-01, 3.93458694e-01, 3.93458694e-01, 2.11563483e-01,
          3.26648802e-01, 1.55498922e-01, 2.54131675e-01, 4.37858790e-01,
          4.37858790e-01, 2.45435968e-01, 1.27398312e-01, 3.85401100e-01,
          4.37858790e-01, 3.28479648e-01, 4.33846921e-01, 7.62690380e-02,
          5.80280237e-02, 4.79758412e-01, 4.79758412e-01, 3.83162916e-01,
          2.28365496e-01, 1.74931660e-01, 4.36799526e-01, 4.36799526e-01,
          1.91031948e-01, 4.10768501e-02, 3.26163918e-01, 4.36799526e-01,
          4.36799526e-01, 2.82504797e-01, 8.99392664e-02, 3.26648802e-01,
          1.55498922e-01, 2.54131675e-01, 4.37858790e-01, 4.37858790e-01,
          2.45435968e-01, 1.27398312e-01, 3.85401100e-01, 4.37858790e-01,
          3.28479648e-01, 4.33846921e-01, 7.62690380e-02, 5.80280237e-02,
          4.79758412e-01, 4.79758412e-01, 3.83162916e-01, 2.28365496e-01,
          1.74931660e-01, 4.36799526e-01, 4.36799526e-01, 1.91031948e-01,
          4.10768501e-02, 3.26163918e-01, 4.36799526e-01, 4.36799526e-01,
          2.82504797e-01, 8.99392664e-02, 3.40155244e-01, 3.98184538e-01,
          1.10450663e-01, 3.71835917e-01, 4.27732855e-01, 4.27732855e-01,
          4.27732855e-01, 9.57423449e-02, 1.13916010e-01, 4.68511105e-01,
          4.68511105e-01, 1.31593600e-01, 1.57386839e-01, 4.68511105e-01,
          4.68511105e-01, 1.51361063e-01, 3.28569748e-02, 2.26345897e-01,
          4.76309359e-01, 4.58967805e-01, 7.43805692e-02, 3.19785923e-01,
          3.98435503e-01, 1.20503858e-01, 1.35872234e-02, 2.22706109e-01,
          4.76309359e-01, 4.48251218e-01, 4.48251218e-01, 1.17346823e-01,
          4.08490859e-02, 2.07947791e-01, 4.48251218e-01, 2.34594241e-01,
          2.79446334e-01, 4.48251218e-01, 4.46003199e-01, 4.46003199e-01,
          3.71023327e-01, 4.46003199e-01, 4.46003199e-01, 1.38082787e-01,
          4.35558483e-02, 4.07401845e-02, 1.98966026e-01, 2.42932469e-01,
          4.02076095e-01, 4.28796738e-01, 4.28796738e-01, 4.28796738e-01,
          2.40883362e-02, 4.85792458e-02, 2.45708868e-01, 4.00152951e-01 ]
      - [ 2.34596506e-01, 1.11044347e-01, 1.35895863e-01, 4.84861098e-02,
          4.70165223e-01, 5.37298560e-01, 5.37298560e-01, 2.66670674e-01,
          1.92096919e-01, 1.92979887e-01, 4.57423925e-01, 4.57423925e-01,
          1.13622963e-01, 4.57423925e-01, 4.57423925e-01, 1.92647070e-01,
          1.83973446e-01, 1.93323448e-01, 4.01260465e-01, 4.01260465e-01,
          4.01260465e-01, 1.16195992e-01, 9.82127190e-02, 8.23679790e-02,
          4.01260465e-01, 4.01260465e-01, 4.01260465e-01, 7.29989260e-02,
          1.12409368e-01, 1.96043834e-01, 4.98642325e-02, 1.24321222e-01,
          6.66581571e-01, 6.66581571e-01, 1.67668700e-01, 4.72282358e-02,
          1.21415444e-02, 6.85110211e-01, 6.85110211e-01, 6.68045646e-03,
          3.15329097e-02, 1.31637424e-01, 1.37586430e-01, 1.29439428e-01,
          1.44709200e-02, 1.94324460e-03, 5.31514466e-01, 5.31514466e-01,
          2.00434234e-02, 1.65401641e-02, 2.35907957e-02, 5.31514466e-01,
          3.81411642e-01, 2.14169659e-02, 1.58419222e-01, 1.98751852e-01,
          2.59353161e-01, 1.39255390e-01, 6.43847659e-02, 5.24728775e-01,
          5.24728775e-01, 5.24728775e-01, 1.15491867e-01, 7.14198640e-03,
          6.86379731e-01, 6.86379731e-01, 2.48814486e-02, 1.51682524e-02,
          1.97817013e-02, 1.29028633e-01, 1.73115149e-01, 5.48175760e-02,
          9.41477250e-03, 5.41404545e-01, 5.41404545e-01, 2.20727385e-03,
          1.27481890e-03, 2.04943586e-02, 5.41404545e-01, 3.38703841e-01,
          1.15409633e-03, 1.58419222e-01, 1.98751852e-01, 2.59353161e-01,
          1.39255390e-01, 6.43847659e-02, 5.24728775e-01, 5.24728775e-01,
          5.24728775e-01, 1.15491867e-01, 7.14198640e-03, 6.86379731e-01,
          6.86379731e-01, 2.48814486e-02, 1.51682524e-02, 1.97817013e-02,
          1.29028633e-01, 1.73115149e-01, 5.48175760e-02, 9.41477250e-03,
          5.41404545e-01, 5.41404545e-01, 2.20727385e-03, 1.27481890e-03,
          2.04943586e-02, 5.41404545e-01, 3.38703841e-01, 1.15409633e-03,
          1.14532433e-01, 1.04037955e-01, 3.63645732e-01, 9.37165692e-02,
          8.42795298e-02, 1.55472293e-01, 4.24867779e-01, 6.48378074e-01,
          4.43150789e-01, 8.87827482e-03, 6.07707262e-01, 7.07198739e-01,
          2.77534351e-02, 4.94433753e-02, 1.00721762e-01, 3.19791257e-01,
          8.72401297e-02, 1.36640836e-02, 1.77694031e-03, 5.24846256e-01,
          6.15022779e-01, 1.29304733e-02, 1.36175228e-03, 1.43461460e-02,
          5.01578748e-01, 2.96951920e-01, 1.71743636e-03, 2.21130140e-02,
          5.60150519e-02, 1.64288566e-01, 1.41819075e-01, 2.14607477e-01,
          4.32081372e-01, 4.87050533e-01, 4.87050533e-01, 4.87050533e-01,
          1.61889538e-01, 4.66535807e-01, 4.66535807e-01, 2.47076780e-01,
          1.72288984e-01, 3.00383270e-02, 8.29255730e-02, 4.66535807e-01,
          4.66535807e-01, 9.56737176e-02, 5.11499047e-01, 5.17892241e-01,
          2.46748492e-01, 5.17892241e-01, 1.51720300e-01, 2.84377307e-01,
          1.21409148e-01, 9.00208801e-02, 4.01260465e-01, 4.01260465e-01,
          4.01260465e-01, 1.16195992e-01, 9.82127190e-02, 8.23679790e-02,
          4.01260465e-01, 4.01260465e-01, 4.01260465e-01, 5.65146096e-02,
          1.17866201e-02, 8.57073441e-02, 4.27111924e-01, 4.90213633e-01,
          2.35489413e-01, 4.90213633e-01, 4.90213633e-01, 1.60053447e-01,
          6.53938949e-02, 6.62499964e-02, 4.14589256e-01, 7.97180355e-01,
          3.99513721e-01, 2.91915201e-02, 7.46646672e-02, 5.75669557e-02,
          8.15213397e-02, 1.94324460e-03, 5.31514466e-01, 5.31514466e-01,
          2.00434234e-02, 1.65401641e-02, 2.35907957e-02, 5.31514466e-01,
          3.81411642e-01, 2.14169659e-02, 8.63123161e-04, 3.24427076e-02,
          2.14319751e-01, 1.54746138e-02, 2.00968143e-02, 1.28904544e-02,
          6.87322557e-01, 6.87322557e-01, 2.27623917e-02, 2.03521717e-02,
          1.72271013e-01, 5.80007792e-01, 5.80007792e-01, 2.35593393e-01,
          7.86795467e-02, 3.82724255e-01, 2.37797409e-01, 1.63029060e-01,
          9.41477250e-03, 5.41404545e-01, 5.41404545e-01, 2.20727385e-03,
          1.27481890e-03, 2.04943586e-02, 5.41404545e-01, 3.38703841e-01,
          1.15409633e-03, 6.27955887e-03, 4.05770838e-02, 1.11475788e-01,
          6.49358192e-03, 1.67898498e-02, 2.03234162e-02, 6.99340463e-01,
          6.99340463e-01, 3.85836186e-03, 3.81071717e-02, 4.37672049e-01,
          4.37672049e-01, 3.01073700e-01, 3.12877566e-01, 1.89180285e-01,
          4.37672049e-01, 4.37672049e-01, 6.01820797e-02, 9.41477250e-03,
          5.41404545e-01, 5.41404545e-01, 2.20727385e-03, 1.27481890e-03,
          2.04943586e-02, 5.41404545e-01, 3.38703841e-01, 1.15409633e-03,
          6.27955887e-03, 4.05770838e-02, 1.11475788e-01, 6.49358192e-03,
          1.67898498e-02, 2.03234162e-02, 6.99340463e-01, 6.99340463e-01,
          3.85836186e-03, 3.81071717e-02, 4.37672049e-01, 4.37672049e-01,
          3.01073700e-01, 3.12877566e-01, 1.89180285e-01, 4.37672049e-01,
          4.37672049e-01, 6.01820797e-02, 1.77694031e-03, 5.24846256e-01,
          6.15022779e-01, 1.29304733e-02, 1.36175228e-03, 1.43461460e-02,
          5.01578748e-01, 2.96951920e-01, 1.71743636e-03, 1.06309950e-02,
          2.98406556e-02, 4.78930697e-02, 5.85501315e-03, 2.89235468e-04,
          7.20671518e-03, 7.02991009e-01, 7.02991009e-01, 3.47305499e-02,
          4.61857319e-01, 4.61857319e-01, 2.82849759e-01, 8.88900980e-02,
          4.01497222e-02, 8.74501374e-03, 4.61857319e-01, 4.61857319e-01,
          2.29224727e-01, 9.56737176e-02, 5.11499047e-01, 5.17892241e-01,
          2.46748492e-01, 5.17892241e-01, 1.51720300e-01, 2.84377307e-01,
          1.21409148e-01, 9.00208801e-02, 3.83539230e-01, 9.99631137e-02,
          3.99035141e-02, 1.68830361e-02, 2.13646531e-01, 2.59848773e-01,
          5.88222980e-01, 5.88222980e-01, 1.73134297e-01, 6.37137592e-01,
          6.37137592e-01, 1.97756186e-01, 1.51680335e-02, 1.38373328e-02,
          4.59278934e-02, 3.19541037e-01, 1.37734890e-01, 1.37965724e-01 ]
      - [ 2.12181926e-01, 1.01576492e-01, 2.59321332e-01, 3.17768484e-01,
          3.63556027e-01, 4.77822155e-01, 4.77822155e-01, 1.87068075e-01,
          3.84536922e-01, 3.85793708e-02, 9.64321420e-02, 7.05334544e-02,
          6.67174384e-02, 6.83567762e-01, 6.83567762e-01, 1.90754190e-01,
          3.61303724e-02, 2.72007547e-02, 2.73619026e-01, 4.43072796e-01,
          4.43072796e-01, 2.78359622e-01, 4.43072796e-01, 4.43072796e-01,
          5.40339500e-02, 8.05297270e-02, 2.20372513e-01, 7.09337890e-02,
          6.36254922e-02, 2.32128173e-01, 1.80351049e-01, 2.20349565e-01,
          6.30249143e-01, 6.30249143e-01, 1.56649157e-01, 1.75205395e-01,
          3.24567616e-01, 4.19402808e-01, 3.94191116e-01, 1.68198675e-01,
          4.19402808e-01, 4.19402808e-01, 3.80348355e-01, 1.01217348e-02,
          1.85270950e-01, 3.15393843e-02, 6.88908517e-01, 6.88908517e-01,
          2.60124467e-02, 3.32711302e-02, 7.26029575e-02, 1.77567452e-01,
          5.65997586e-02, 3.39065567e-02, 5.99914305e-02, 5.87359741e-02,
          8.54050070e-02, 4.60640788e-02, 4.27853912e-02, 3.01237822e-01,
          6.53466582e-01, 6.53466582e-01, 1.74354061e-01, 3.90529573e-01,
          3.90529573e-01, 3.90529573e-01, 3.90529573e-01, 2.03253940e-01,
          1.33256897e-01, 2.59849250e-01, 3.27017844e-01, 3.90529573e-01,
          2.31293142e-01, 5.43252230e-01, 5.43252230e-01, 4.87640835e-02,
          1.81927644e-02, 1.39531624e-02, 1.99568197e-01, 1.13922782e-01,
          5.43252230e-01, 5.99914305e-02, 5.87359741e-02, 8.54050070e-02,
          4.60640788e-02, 4.27853912e-02, 3.01237822e-01, 6.53466582e-01,
          6.53466582e-01, 1.74354061e-01, 3.90529573e-01, 3.90529573e-01,
          3.90529573e-01, 3.90529573e-01, 2.03253940e-01, 1.33256897e-01,
          2.59849250e-01, 3.27017844e-01, 3.90529573e-01, 2.31293142e-01,
          5.43252230e-01, 5.43252230e-01, 4.87640835e-02, 1.81927644e-02,
          1.39531624e-02, 1.99568197e-01, 1.13922782e-01, 5.43252230e-01,
          1.99387744e-02, 1.49266366e-02, 2.89728418e-02, 7.94601515e-02,
          5.54670133e-02, 4.05272245e-02, 6.85028732e-01, 6.85028732e-01,
          2.05280781e-01, 1.14007629e-01, 4.51282322e-01, 4.51282322e-01,
          4.51282322e-01, 4.03439365e-02, 4.19423729e-02, 2.24869788e-01,
          4.45044756e-01, 3.45701218e-01, 4.26372439e-01, 4.26372439e-01,
          4.26372439e-01, 4.26372439e-01, 9.47866440e-02, 7.59381503e-02,
          9.09977555e-02, 2.52471626e-01, 4.26372439e-01, 2.71131238e-03,
          5.03379968e-04, 1.84662081e-03, 7.16304500e-03, 3.36460094e-03,
          5.26180230e-02, 5.33104360e-01, 5.94567358e-01, 5.94567358e-01,
          1.27512202e-01, 8.21740329e-02, 2.82981962e-01, 5.39154947e-01,
          1.12974249e-01, 1.86029840e-02, 7.96985775e-02, 5.39154947e-01,
          5.39154947e-01, 3.92507702e-01, 2.00200360e-02, 2.88200825e-01,
          5.32064438e-01, 4.17180896e-01, 1.04317501e-01, 1.58954114e-02,
          7.61817694e-02, 5.32064438e-01, 2.73619026e-01, 4.43072796e-01,
          4.43072796e-01, 2.78359622e-01, 4.43072796e-01, 4.43072796e-01,
          5.40339500e-02, 8.05297270e-02, 2.20372513e-01, 1.87122002e-01,
          2.58974701e-01, 1.57252938e-01, 3.67993861e-01, 4.21574593e-01,
          1.50524139e-01, 4.21574593e-01, 4.21574593e-01, 4.21574593e-01,
          1.73487496e-02, 1.02648232e-02, 6.80754334e-02, 5.61556518e-01,
          5.61556518e-01, 9.77528542e-02, 4.41196531e-01, 3.88270408e-01,
          6.08000308e-02, 3.15393843e-02, 6.88908517e-01, 6.88908517e-01,
          2.60124467e-02, 3.32711302e-02, 7.26029575e-02, 1.77567452e-01,
          5.65997586e-02, 3.39065567e-02, 3.54450420e-02, 1.98812276e-01,
          5.05232751e-01, 1.01114744e-02, 2.29986403e-02, 3.60741317e-02,
          5.89157522e-01, 5.89157522e-01, 4.39163372e-02, 3.91945243e-01,
          3.27780515e-01, 1.19684547e-01, 3.91945243e-01, 2.97573835e-01,
          1.32907599e-01, 3.91945243e-01, 3.91945243e-01, 3.91945243e-01,
          2.31293142e-01, 5.43252230e-01, 5.43252230e-01, 4.87640835e-02,
          1.81927644e-02, 1.39531624e-02, 1.99568197e-01, 1.13922782e-01,
          5.43252230e-01, 1.78649202e-01, 4.58740056e-01, 4.67393726e-01,
          0., 7.17019604e-04, 5.40513359e-03, 5.11676252e-01,
          5.11676252e-01, 1.02079593e-01, 4.27127510e-01, 4.27127510e-01,
          6.35771304e-02, 2.06860825e-01, 1.65435910e-01, 9.66502354e-02,
          4.27127510e-01, 4.27127510e-01, 4.27127510e-01, 2.31293142e-01,
          5.43252230e-01, 5.43252230e-01, 4.87640835e-02, 1.81927644e-02,
          1.39531624e-02, 1.99568197e-01, 1.13922782e-01, 5.43252230e-01,
          1.78649202e-01, 4.58740056e-01, 4.67393726e-01, 0.,
          7.17019604e-04, 5.40513359e-03, 5.11676252e-01, 5.11676252e-01,
          1.02079593e-01, 4.27127510e-01, 4.27127510e-01, 6.35771304e-02,
          2.06860825e-01, 1.65435910e-01, 9.66502354e-02, 4.27127510e-01,
          4.27127510e-01, 4.27127510e-01, 4.26372439e-01, 4.26372439e-01,
          4.26372439e-01, 4.26372439e-01, 9.47866440e-02, 7.59381503e-02,
          9.09977555e-02, 2.52471626e-01, 4.26372439e-01, 3.99903178e-01,
          3.99903178e-01, 1.85501263e-01, 4.00667675e-02, 2.12923680e-02,
          3.99903178e-01, 3.99903178e-01, 3.99903178e-01, 3.99903178e-01,
          4.01115388e-01, 3.02251130e-01, 5.49409464e-02, 7.26722106e-02,
          9.09554288e-02, 4.76413488e-01, 4.76413488e-01, 4.76413488e-01,
          2.13330805e-01, 3.92507702e-01, 2.00200360e-02, 2.88200825e-01,
          5.32064438e-01, 4.17180896e-01, 1.04317501e-01, 1.58954114e-02,
          7.61817694e-02, 5.32064438e-01, 5.16161561e-01, 1.81170747e-01,
          5.50472513e-02, 3.63935888e-01, 4.13561493e-01, 5.16161561e-01,
          2.35085890e-01, 2.52155680e-02, 2.58384943e-01, 5.01695573e-01,
          5.01695573e-01, 5.51348329e-02, 2.05278341e-02, 5.59140332e-02,
          5.01695573e-01, 4.41901177e-01, 9.88530666e-02, 1.68101236e-01 ]
      - [ 6.75762117e-01, 6.75762117e-01, 7.97697622e-03, 0.,
          3.53012496e-04, 1.42327874e-04, 2.78431457e-03, 3.46671008e-02,
          2.80485034e-01, 5.92092097e-01, 5.27720928e-01, 5.66156674e-03,
          4.85537387e-03, 1.99181587e-02, 1.42505810e-01, 1.80193502e-02,
          2.64206482e-03, 5.86458504e-01, 5.36484718e-01, 8.28052834e-02,
          1.53388768e-01, 8.57995450e-02, 2.89397061e-01, 5.36484718e-01,
          9.27910805e-02, 3.29763852e-02, 5.36484718e-01, 6.91539228e-01,
          6.91539228e-01, 1.16965689e-01, 1.39478911e-02, 1.18137896e-02,
          7.32372031e-02, 1.21797875e-01, 2.97904145e-02, 3.92751731e-02,
          4.77350086e-01, 4.51288402e-01, 1.74616218e-01, 5.82787469e-02,
          2.19891831e-01, 4.77350086e-01, 4.77350086e-01, 7.25628436e-02,
          1.43096879e-01, 3.74933273e-01, 3.74933273e-01, 3.74933273e-01,
          9.77100879e-02, 3.74933273e-01, 3.74933273e-01, 3.74933273e-01,
          2.87142515e-01, 2.46589392e-01, 1.37756854e-01, 5.48532903e-01,
          5.48532903e-01, 5.34273684e-02, 2.42854320e-02, 8.90407711e-02,
          5.22138178e-01, 2.79553115e-01, 1.07786134e-01, 4.21310276e-01,
          9.71253142e-02, 1.64995909e-01, 6.60403818e-02, 2.81816304e-01,
          4.21310276e-01, 4.21310276e-01, 4.06624019e-01, 4.21310276e-01,
          4.72767353e-01, 1.88716918e-01, 1.06909156e-01, 1.34614021e-01,
          4.72767353e-01, 3.93340319e-01, 1.26502082e-01, 2.98105896e-01,
          4.72767353e-01, 1.37756854e-01, 5.48532903e-01, 5.48532903e-01,
          5.34273684e-02, 2.42854320e-02, 8.90407711e-02, 5.22138178e-01,
          2.79553115e-01, 1.07786134e-01, 4.21310276e-01, 9.71253142e-02,
          1.64995909e-01, 6.60403818e-02, 2.81816304e-01, 4.21310276e-01,
          4.21310276e-01, 4.06624019e-01, 4.21310276e-01, 4.72767353e-01,
          1.88716918e-01, 1.06909156e-01, 1.34614021e-01, 4.72767353e-01,
          3.93340319e-01, 1.26502082e-01, 2.98105896e-01, 4.72767353e-01,
          2.90060639e-02, 2.56557465e-01, 6.37857914e-01, 6.37857914e-01,
          3.55862603e-02, 2.65559535e-02, 3.06431055e-01, 1.14234768e-01,
          6.57415465e-02, 4.38895196e-01, 3.84826362e-01, 2.55185366e-01,
          5.15243225e-02, 3.74335110e-01, 4.38895196e-01, 4.38895196e-01,
          1.89664274e-01, 1.60511687e-01, 4.74952191e-01, 1.42540604e-01,
          7.35235289e-02, 1.88583449e-01, 4.74952191e-01, 4.74952191e-01,
          4.58030812e-02, 1.71908990e-01, 4.74952191e-01, 1.00710560e-02,
          5.27573638e-02, 6.72939479e-01, 6.72939479e-01, 1.77732617e-01,
          2.44908705e-02, 2.06954107e-01, 9.77117270e-02, 1.16617428e-02,
          8.80710483e-02, 1.78505525e-01, 3.92461300e-01, 3.92461300e-01,
          3.61150265e-01, 2.36431375e-01, 3.92461300e-01, 3.92461300e-01,
          3.92461300e-01, 4.22516316e-01, 1.44161358e-01, 1.79246977e-01,
          4.22516316e-01, 4.22516316e-01, 4.22516316e-01, 9.54436958e-02,
          2.02873498e-01, 4.22516316e-01, 5.36484718e-01, 8.28052834e-02,
          1.53388768e-01, 8.57995450e-02, 2.89397061e-01, 5.36484718e-01,
          9.27910805e-02, 3.29763852e-02, 5.36484718e-01, 5.29236972e-01,
          7.88911209e-02, 4.25638020e-01, 1.26499593e-01, 1.32430643e-01,
          1.18373826e-01, 8.41112882e-02, 4.38762307e-01, 5.29236972e-01,
          1.40217543e-01, 1.89920189e-03, 1.82661274e-03, 0.,
          2.75225902e-04, 0., 4.57732752e-02, 6.96878850e-01,
          6.96878850e-01, 3.74933273e-01, 3.74933273e-01, 3.74933273e-01,
          9.77100879e-02, 3.74933273e-01, 3.74933273e-01, 3.74933273e-01,
          2.87142515e-01, 2.46589392e-01, 2.01864377e-01, 3.95924956e-01,
          3.96534145e-01, 3.96534145e-01, 3.90243471e-01, 1.26383930e-01,
          1.96954638e-01, 3.46064836e-01, 3.96534145e-01, 2.32608728e-02,
          4.33396474e-02, 8.97833183e-02, 3.04584671e-02, 3.11551951e-02,
          1.73410196e-02, 2.26699919e-01, 6.81587636e-01, 6.81587636e-01,
          4.72767353e-01, 1.88716918e-01, 1.06909156e-01, 1.34614021e-01,
          4.72767353e-01, 3.93340319e-01, 1.26502082e-01, 2.98105896e-01,
          4.72767353e-01, 4.08292145e-01, 4.08292145e-01, 4.08292145e-01,
          4.08292145e-01, 4.08292145e-01, 8.87874737e-02, 1.00382805e-01,
          1.61473051e-01, 3.44057351e-01, 1.37718484e-01, 2.51845121e-01,
          3.52386355e-01, 1.02747083e-01, 3.91564742e-02, 9.23674852e-02,
          5.97913563e-01, 5.97913563e-01, 2.27680266e-01, 4.72767353e-01,
          1.88716918e-01, 1.06909156e-01, 1.34614021e-01, 4.72767353e-01,
          3.93340319e-01, 1.26502082e-01, 2.98105896e-01, 4.72767353e-01,
          4.08292145e-01, 4.08292145e-01, 4.08292145e-01, 4.08292145e-01,
          4.08292145e-01, 8.87874737e-02, 1.00382805e-01, 1.61473051e-01,
          3.44057351e-01, 1.37718484e-01, 2.51845121e-01, 3.52386355e-01,
          1.02747083e-01, 3.91564742e-02, 9.23674852e-02, 5.97913563e-01,
          5.97913563e-01, 2.27680266e-01, 4.74952191e-01, 1.42540604e-01,
          7.35235289e-02, 1.88583449e-01, 4.74952191e-01, 4.74952191e-01,
          4.58030812e-02, 1.71908990e-01, 4.74952191e-01, 2.24146992e-01,
          1.41658708e-01, 4.05357599e-01, 4.05357599e-01, 4.05357599e-01,
          6.64739385e-02, 3.15672070e-01, 4.05357599e-01, 4.05357599e-01,
          5.45182731e-03, 1.33914828e-01, 5.10059714e-01, 4.06085759e-01,
          3.81134786e-02, 5.10059714e-01, 5.10059714e-01, 1.72781661e-01,
          1.57710593e-02, 4.22516316e-01, 1.44161358e-01, 1.79246977e-01,
          4.22516316e-01, 4.22516316e-01, 4.22516316e-01, 9.54436958e-02,
          2.02873498e-01, 4.22516316e-01, 3.89945418e-01, 3.89945418e-01,
          3.89945418e-01, 1.23743072e-01, 3.89945418e-01, 3.89945418e-01,
          3.89945418e-01, 2.29548454e-01, 1.25518724e-01, 5.69344871e-02,
          3.34902734e-01, 3.49191308e-01, 6.19216450e-02, 1.38705790e-01,
          6.05573177e-01, 6.05573177e-01, 1.03039946e-02, 0. ]
      - [ 6.20560825e-01, 6.20560825e-01, 1.53624743e-01, 6.02175854e-02,
          1.47763789e-01, 2.96056867e-01, 1.14461027e-01, 9.06079262e-02,
          2.56107450e-01, 4.48309392e-01, 4.48309392e-01, 1.84639558e-01,
          4.31962013e-02, 8.73157978e-02, 3.65135103e-01, 3.73102218e-01,
          2.76527286e-01, 4.48309392e-01, 3.71584117e-01, 2.95827121e-01,
          2.83393085e-01, 2.27555290e-01, 2.93780774e-01, 3.71584117e-01,
          3.71584117e-01, 3.71584117e-01, 3.71584117e-01, 3.76937658e-01,
          4.04741198e-01, 4.04741198e-01, 2.18212664e-01, 1.65094197e-01,
          4.04741198e-01, 4.04741198e-01, 2.62787908e-01, 2.33843073e-01,
          1.69039413e-01, 3.87520820e-01, 3.87520820e-01, 3.87520820e-01,
          1.29744232e-01, 3.87087822e-01, 3.87520820e-01, 3.87520820e-01,
          2.23655701e-01, 3.83358806e-01, 3.83358806e-01, 3.09168547e-01,
          1.63334146e-01, 2.87709683e-01, 2.75534064e-01, 3.56868505e-01,
          3.83358806e-01, 3.83358806e-01, 1.07189797e-01, 3.44788551e-01,
          4.86352205e-01, 1.88333318e-01, 4.39878106e-02, 2.39162266e-01,
          5.13489366e-01, 5.13489366e-01, 7.75817335e-02, 4.28825706e-01,
          4.28825706e-01, 4.28825706e-01, 4.28825706e-01, 4.28825706e-01,
          1.57615066e-01, 8.09688196e-02, 1.35554925e-01, 1.62742838e-01,
          4.09065485e-01, 3.39238822e-01, 1.15699351e-01, 4.09065485e-01,
          4.09065485e-01, 4.09065485e-01, 1.05436072e-01, 1.40194550e-01,
          4.09065485e-01, 1.07189797e-01, 3.44788551e-01, 4.86352205e-01,
          1.88333318e-01, 4.39878106e-02, 2.39162266e-01, 5.13489366e-01,
          5.13489366e-01, 7.75817335e-02, 4.28825706e-01, 4.28825706e-01,
          4.28825706e-01, 4.28825706e-01, 4.28825706e-01, 1.57615066e-01,
          8.09688196e-02, 1.35554925e-01, 1.62742838e-01, 4.09065485e-01,
          3.39238822e-01, 1.15699351e-01, 4.09065485e-01, 4.09065485e-01,
          4.09065485e-01, 1.05436072e-01, 1.40194550e-01, 4.09065485e-01,
          2.02477295e-02, 2.60305285e-01, 4.13685054e-01, 2.53165197e-02,
          4.88858186e-02, 3.99101041e-02, 5.00358224e-01, 5.00358224e-01,
          5.00358224e-01, 4.44560021e-01, 4.44560021e-01, 4.44560021e-01,
          1.37419119e-01, 4.83231992e-02, 3.02372187e-01, 4.44560021e-01,
          2.76924938e-01, 1.25257105e-01, 3.89742494e-01, 1.58397004e-01,
          2.42829453e-02, 3.79592746e-01, 3.89742494e-01, 3.89742494e-01,
          3.89742494e-01, 2.58534849e-01, 3.89742494e-01, 3.04807238e-02,
          3.64365391e-02, 1.95782125e-01, 3.32833380e-01, 4.92179126e-01,
          3.83072086e-02, 9.19583216e-02, 5.43618381e-01, 5.43618381e-01,
          2.04790443e-01, 1.83333516e-01, 4.59941626e-01, 4.59941626e-01,
          1.79087475e-01, 4.56104986e-02, 1.98790684e-01, 4.59941626e-01,
          4.59941626e-01, 4.34602171e-01, 3.87927890e-02, 9.79025513e-02,
          4.34602171e-01, 4.31705654e-01, 1.28547117e-01, 1.97250068e-01,
          4.19678420e-01, 4.34602171e-01, 3.71584117e-01, 2.95827121e-01,
          2.83393085e-01, 2.27555290e-01, 2.93780774e-01, 3.71584117e-01,
          3.71584117e-01, 3.71584117e-01, 3.71584117e-01, 4.03617859e-01,
          4.03617859e-01, 4.03617859e-01, 4.03617859e-01, 1.24694727e-01,
          1.76625717e-02, 5.16024306e-02, 4.03617859e-01, 4.03617859e-01,
          3.47631097e-01, 2.19917133e-01, 2.48205557e-01, 3.77578557e-01,
          3.77578557e-01, 2.29309902e-01, 3.77578557e-01, 3.77578557e-01,
          3.77578557e-01, 3.83358806e-01, 3.83358806e-01, 3.09168547e-01,
          1.63334146e-01, 2.87709683e-01, 2.75534064e-01, 3.56868505e-01,
          3.83358806e-01, 3.83358806e-01, 3.68010074e-01, 3.68010074e-01,
          3.68010074e-01, 3.68010074e-01, 1.55158639e-01, 1.96527109e-01,
          3.47904831e-01, 3.68010074e-01, 3.68010074e-01, 4.46253456e-02,
          1.70015618e-01, 2.45099500e-01, 4.67860609e-01, 1.56060144e-01,
          4.67860609e-01, 4.67860609e-01, 4.67860609e-01, 6.65390268e-02,
          4.09065485e-01, 3.39238822e-01, 1.15699351e-01, 4.09065485e-01,
          4.09065485e-01, 4.09065485e-01, 1.05436072e-01, 1.40194550e-01,
          4.09065485e-01, 3.84971082e-01, 1.95976585e-01, 7.86485896e-02,
          3.04567218e-01, 4.03778136e-01, 4.03778136e-01, 2.41377115e-01,
          4.03778136e-01, 4.03778136e-01, 1.03507377e-01, 1.07005395e-01,
          1.20119587e-01, 4.44007441e-02, 1.76539719e-01, 4.81005520e-01,
          4.81005520e-01, 4.81005520e-01, 4.81005520e-01, 4.09065485e-01,
          3.39238822e-01, 1.15699351e-01, 4.09065485e-01, 4.09065485e-01,
          4.09065485e-01, 1.05436072e-01, 1.40194550e-01, 4.09065485e-01,
          3.84971082e-01, 1.95976585e-01, 7.86485896e-02, 3.04567218e-01,
          4.03778136e-01, 4.03778136e-01, 2.41377115e-01, 4.03778136e-01,
          4.03778136e-01, 1.03507377e-01, 1.07005395e-01, 1.20119587e-01,
          4.44007441e-02, 1.76539719e-01, 4.81005520e-01, 4.81005520e-01,
          4.81005520e-01, 4.81005520e-01, 3.89742494e-01, 1.58397004e-01,
          2.42829453e-02, 3.79592746e-01, 3.89742494e-01, 3.89742494e-01,
          3.89742494e-01, 2.58534849e-01, 3.89742494e-01, 3.28257918e-01,
          2.77292371e-01, 4.01603520e-01, 4.01603520e-01, 4.01603520e-01,
          4.89996523e-02, 5.01573607e-02, 4.01603520e-01, 4.01603520e-01,
          8.31648037e-02, 2.38464758e-01, 3.14926535e-01, 1.41938061e-01,
          3.35102193e-02, 8.03325400e-02, 5.17734230e-01, 5.17734230e-01,
          5.17734230e-01, 4.34602171e-01, 3.87927890e-02, 9.79025513e-02,
          4.34602171e-01, 4.31705654e-01, 1.28547117e-01, 1.97250068e-01,
          4.19678420e-01, 4.34602171e-01, 4.15557921e-01, 4.15557921e-01,
          2.88293749e-01, 1.45623326e-01, 4.15557921e-01, 4.15557921e-01,
          1.63626656e-01, 3.62451524e-02, 4.15557921e-01, 4.52160209e-01,
          4.52160209e-01, 1.82943657e-01, 4.60581593e-02, 9.83905494e-02,
          4.52160209e-01, 4.52160209e-01, 3.21983248e-01, 1.69541910e-01 ]
      - [ 4.94181216e-01, 4.94181216e-01, 2.20098108e-01, 1.40510902e-01,
          2.34132960e-01, 4.94181216e-01, 2.98768312e-01, 1.17908187e-01,
          1.90392777e-01, 4.69480842e-01, 4.69480842e-01, 2.20406726e-01,
          1.14667207e-01, 4.69480842e-01, 4.69480842e-01, 2.16950521e-01,
          4.93520759e-02, 4.93041836e-02, 2.63043523e-01, 4.75424618e-01,
          4.75424618e-01, 1.39322072e-01, 4.75424618e-01, 4.75424618e-01,
          2.47497093e-02, 5.41920913e-03, 4.35062014e-02, 4.92190599e-01,
          4.92190599e-01, 3.26402485e-02, 1.94251928e-02, 1.16524987e-01,
          4.92190599e-01, 4.92190599e-01, 7.00989440e-02, 7.83788115e-02,
          1.67564809e-01, 1.55657753e-01, 2.26776406e-01, 1.48413017e-01,
          5.77373028e-01, 5.77373028e-01, 3.91040236e-01, 1.58709630e-01,
          1.53795153e-01, 6.07726276e-02, 5.80226600e-01, 7.74482191e-01,
          1.12647191e-01, 1.80327058e-01, 7.90847987e-02, 2.18665786e-02,
          5.10036061e-03, 1.12070646e-02, 1.77280247e-01, 1.26241282e-01,
          4.06939052e-02, 5.40758409e-02, 3.53173822e-01, 5.76262236e-01,
          5.76262236e-01, 2.95973569e-01, 2.56538451e-01, 4.61984158e-01,
          4.61984158e-01, 4.61984158e-01, 6.01573177e-02, 1.11172669e-01,
          2.01083213e-01, 2.16519833e-01, 1.95894465e-01, 4.61984158e-01,
          3.99546713e-01, 4.85074371e-01, 4.85074371e-01, 4.73646708e-02,
          8.08095932e-02, 2.31313184e-02, 9.48876664e-02, 3.33637029e-01,
          4.85074371e-01, 1.77280247e-01, 1.26241282e-01, 4.06939052e-02,
          5.40758409e-02, 3.53173822e-01, 5.76262236e-01, 5.76262236e-01,
          2.95973569e-01, 2.56538451e-01, 4.61984158e-01, 4.61984158e-01,
          4.61984158e-01, 6.01573177e-02, 1.11172669e-01, 2.01083213e-01,
          2.16519833e-01, 1.95894465e-01, 4.61984158e-01, 3.99546713e-01,
          4.85074371e-01, 4.85074371e-01, 4.73646708e-02, 8.08095932e-02,
          2.31313184e-02, 9.48876664e-02, 3.33637029e-01, 4.85074371e-01,
          6.70697913e-02, 5.65599874e-02, 2.16700390e-01, 1.62899882e-01,
          2.56463885e-01, 3.48404765e-01, 5.50626516e-01, 5.50626516e-01,
          3.46077591e-01, 2.45613635e-01, 6.45165741e-01, 6.45165741e-01,
          1.73556060e-01, 8.02541599e-02, 8.50168541e-02, 9.15731266e-02,
          6.48931488e-02, 2.10636958e-01, 3.54762733e-01, 4.30473626e-01,
          4.70492989e-01, 1.35755986e-01, 2.93310173e-02, 1.32371616e-02,
          2.40855236e-02, 4.70492989e-01, 4.70492989e-01, 6.26668334e-02,
          1.08011924e-01, 2.92788982e-01, 5.02584815e-01, 3.13223004e-01,
          5.54021671e-02, 1.86303511e-01, 5.02584815e-01, 5.02584815e-01,
          2.02280059e-01, 3.02536726e-01, 4.37226295e-01, 4.37226295e-01,
          1.80025712e-01, 1.19402714e-01, 2.27712765e-01, 4.37226295e-01,
          4.37226295e-01, 4.31418829e-02, 1.11726783e-01, 5.61575949e-01,
          5.61575949e-01, 5.61575949e-01, 4.19466831e-02, 9.35003236e-02,
          4.16809171e-02, 1.47330672e-01, 2.63043523e-01, 4.75424618e-01,
          4.75424618e-01, 1.39322072e-01, 4.75424618e-01, 4.75424618e-01,
          2.47497093e-02, 5.41920913e-03, 4.35062014e-02, 4.36139643e-01,
          4.36139643e-01, 4.36139643e-01, 2.18327288e-02, 2.71467894e-01,
          1.61422938e-01, 3.12894434e-01, 1.91416889e-01, 4.36139643e-01,
          3.51549149e-01, 4.66648713e-02, 3.93947922e-02, 4.83292788e-02,
          2.35903069e-01, 3.80533300e-02, 5.90955377e-01, 5.90955377e-01,
          3.29988688e-01, 6.07726276e-02, 5.80226600e-01, 7.74482191e-01,
          1.12647191e-01, 1.80327058e-01, 7.90847987e-02, 2.18665786e-02,
          5.10036061e-03, 1.12070646e-02, 9.31692589e-03, 5.70609391e-01,
          7.02812910e-01, 2.59454753e-02, 8.20411090e-03, 5.02316421e-03,
          3.75935704e-01, 1.76053792e-01, 1.63696464e-02, 5.53331338e-03,
          1.27143497e-02, 2.15366744e-02, 2.37375461e-02, 2.71011405e-02,
          3.68968062e-02, 7.03416646e-01, 7.03416646e-01, 8.53924360e-03,
          3.99546713e-01, 4.85074371e-01, 4.85074371e-01, 4.73646708e-02,
          8.08095932e-02, 2.31313184e-02, 9.48876664e-02, 3.33637029e-01,
          4.85074371e-01, 1.29387975e-02, 6.69806719e-01, 6.69806719e-01,
          3.11428681e-02, 1.28208697e-02, 1.64306127e-02, 2.65346527e-01,
          1.47045776e-01, 4.92771417e-02, 3.63798052e-01, 3.07831854e-01,
          5.34927361e-02, 1.36888428e-02, 4.65025147e-03, 4.12842147e-02,
          6.15432441e-01, 6.15432441e-01, 6.67594969e-02, 3.99546713e-01,
          4.85074371e-01, 4.85074371e-01, 4.73646708e-02, 8.08095932e-02,
          2.31313184e-02, 9.48876664e-02, 3.33637029e-01, 4.85074371e-01,
          1.29387975e-02, 6.69806719e-01, 6.69806719e-01, 3.11428681e-02,
          1.28208697e-02, 1.64306127e-02, 2.65346527e-01, 1.47045776e-01,
          4.92771417e-02, 3.63798052e-01, 3.07831854e-01, 5.34927361e-02,
          1.36888428e-02, 4.65025147e-03, 4.12842147e-02, 6.15432441e-01,
          6.15432441e-01, 6.67594969e-02, 3.54762733e-01, 4.30473626e-01,
          4.70492989e-01, 1.35755986e-01, 2.93310173e-02, 1.32371616e-02,
          2.40855236e-02, 4.70492989e-01, 4.70492989e-01, 3.64413530e-01,
          4.91652340e-01, 4.91652340e-01, 9.66091752e-02, 3.77374850e-02,
          4.06814814e-02, 1.56141460e-01, 3.16754758e-01, 4.91652340e-01,
          4.24957037e-01, 4.24957037e-01, 1.00398727e-01, 5.51232360e-02,
          8.54830742e-02, 2.69047678e-01, 4.24957037e-01, 4.24957037e-01,
          4.24957037e-01, 4.31418829e-02, 1.11726783e-01, 5.61575949e-01,
          5.61575949e-01, 5.61575949e-01, 4.19466831e-02, 9.35003236e-02,
          4.16809171e-02, 1.47330672e-01, 1.25306085e-01, 4.57228310e-02,
          1.16297200e-01, 6.17307067e-01, 6.17307067e-01, 3.91982526e-01,
          1.08978473e-01, 3.83781083e-02, 1.82712168e-01, 1.76278263e-01,
          6.67575523e-02, 4.49793153e-02, 1.11072503e-01, 3.57361495e-01,
          7.98254609e-01, 4.06115055e-01, 1.48447873e-02, 1.09887071e-01 ]
      - [ 6.14426255e-01, 6.14426255e-01, 4.49290425e-01, 6.30142242e-02,
          6.25047460e-02, 4.54131048e-03, 1.18363015e-02, 7.42651196e-03,
          1.69913143e-01, 6.67356789e-01, 6.67356789e-01, 1.92691237e-02,
          7.47580174e-03, 8.75002667e-02, 1.66557193e-01, 7.22355722e-03,
          2.09836680e-02, 2.57468790e-01, 5.46489835e-01, 7.10323751e-02,
          3.60725075e-02, 2.59081256e-02, 2.49913260e-01, 5.46489835e-01,
          1.60437435e-01, 5.80893345e-02, 5.46489835e-01, 4.08784598e-01,
          7.24094927e-01, 5.47890902e-01, 8.44557211e-03, 7.77563592e-03,
          1.13815516e-02, 2.42871102e-02, 1.25598004e-02, 1.26657691e-02,
          3.84379119e-01, 3.84379119e-01, 3.81651409e-02, 6.23477437e-02,
          3.79183501e-01, 3.84379119e-01, 3.84379119e-01, 3.29088688e-01,
          3.84379119e-01, 3.58323097e-01, 3.55198294e-01, 3.58323097e-01,
          2.02740371e-01, 3.58323097e-01, 3.58323097e-01, 3.58323097e-01,
          2.42441371e-01, 3.58323097e-01, 3.89654227e-02, 6.27498090e-01,
          6.27498090e-01, 4.42273319e-01, 2.47915220e-02, 2.13165861e-02,
          5.29611558e-02, 5.86727485e-02, 4.22718786e-02, 3.98624092e-01,
          1.62540704e-01, 9.00180712e-02, 5.01227863e-02, 4.27840292e-01,
          4.27840292e-01, 4.27840292e-01, 2.60001391e-01, 4.27840292e-01,
          4.45826381e-01, 1.23411931e-01, 6.72111213e-02, 2.58655548e-01,
          4.45826381e-01, 3.81929517e-01, 1.36557981e-01, 3.84830326e-01,
          4.45826381e-01, 3.89654227e-02, 6.27498090e-01, 6.27498090e-01,
          4.42273319e-01, 2.47915220e-02, 2.13165861e-02, 5.29611558e-02,
          5.86727485e-02, 4.22718786e-02, 3.98624092e-01, 1.62540704e-01,
          9.00180712e-02, 5.01227863e-02, 4.27840292e-01, 4.27840292e-01,
          4.27840292e-01, 2.60001391e-01, 4.27840292e-01, 4.45826381e-01,
          1.23411931e-01, 6.72111213e-02, 2.58655548e-01, 4.45826381e-01,
          3.81929517e-01, 1.36557981e-01, 3.84830326e-01, 4.45826381e-01,
          6.69036712e-03, 1.48141623e-01, 6.66025102e-01, 6.66025102e-01,
          6.03455119e-02, 4.84220572e-02, 2.74226725e-01, 5.44983596e-02,
          4.96275164e-03, 1.73511878e-01, 3.59526545e-01, 3.83026510e-01,
          3.83026510e-01, 2.51332849e-01, 3.83026510e-01, 3.83026510e-01,
          3.83026510e-01, 2.00232297e-01, 3.45128030e-01, 3.15120339e-01,
          3.45016629e-01, 3.45128030e-01, 3.45128030e-01, 3.45128030e-01,
          3.29397440e-01, 2.72295833e-01, 3.45128030e-01, 1.64517649e-02,
          9.16815177e-02, 5.24215400e-01, 5.77789247e-01, 5.77789247e-01,
          1.92859694e-01, 7.07819760e-02, 2.58809943e-02, 1.40315713e-02,
          3.33973393e-02, 4.47021723e-02, 1.89443558e-01, 5.94327390e-01,
          5.94327390e-01, 1.46820083e-01, 1.82451800e-01, 4.04631078e-01,
          1.73325673e-01, 7.67384470e-02, 9.96029899e-02, 1.01642318e-01,
          6.13835156e-01, 6.13835156e-01, 4.32445824e-01, 1.33783817e-01,
          7.66220987e-02, 5.80072179e-02, 5.46489835e-01, 7.10323751e-02,
          3.60725075e-02, 2.59081256e-02, 2.49913260e-01, 5.46489835e-01,
          1.60437435e-01, 5.80893345e-02, 5.46489835e-01, 3.77234250e-01,
          3.73300374e-01, 2.97309250e-01, 2.23001823e-01, 8.50115791e-02,
          3.77234250e-01, 3.77234250e-01, 3.77234250e-01, 3.77234250e-01,
          2.52250016e-01, 1.83425173e-01, 9.53519270e-02, 2.75149401e-02,
          4.50647250e-03, 2.70186178e-02, 7.95146674e-02, 6.63017333e-01,
          6.63017333e-01, 3.58323097e-01, 3.55198294e-01, 3.58323097e-01,
          2.02740371e-01, 3.58323097e-01, 3.58323097e-01, 3.58323097e-01,
          2.42441371e-01, 3.58323097e-01, 2.95401722e-01, 4.38564777e-01,
