%YAML:1.0
---
opencv_ml_svm:
   format: 3
   svmType: C_SVC
   kernel:
      type: RBF
      gamma: 5.0624999999999998e-01
   C: 1.2500000000000000e+01
   term_criteria: { epsilon:1.1920928955078125e-07, iterations:1000 }
   var_count: 324
   class_count: 15
   class_labels: !!opencv-matrix
      rows: 15
      cols: 1
      dt: i
      data: [ 0, 1, 2, 3, 4, 5, 6, 7, 8, 9, 10, 11, 12, 13, 14 ]
   sv_total: 518
   support_vectors:
      - [ 4.42015648e-01, 4.42015648e-01, 3.28770638e-01, 3.02815903e-02,
          5.02477773e-02, 4.42015648e-01, 3.54310095e-01, 9.93701145e-02,
          4.03124243e-01, 4.32761252e-01, 4.32761252e-01, 3.73297006e-01,
          2.85305791e-02, 1.23283982e-01, 4.32761252e-01, 4.14826751e-01,
          2.43490070e-01, 2.17020914e-01, 3.62732947e-01, 3.62732947e-01,
          2.42432401e-01, 1.28748670e-01, 3.62732947e-01, 3.62732947e-01,
          3.62732947e-01, 3.62732947e-01, 3.62732947e-01, 1.50062576e-01,
          4.76697773e-01, 4.76697773e-01, 1.59106597e-01, 6.19325712e-02,
          4.76697773e-01, 4.76697773e-01, 1.50215596e-01, 1.09734617e-01,
          1.61462247e-01, 3.96335721e-01, 3.96335721e-01, 3.96335721e-01,
          1.48031250e-01, 2.82998413e-01, 3.96335721e-01, 3.96335721e-01,
          2.87330955e-01, 3.54827583e-01, 3.54827583e-01, 3.54827583e-01,
          1.13209687e-01, 3.54827583e-01, 3.44310880e-01, 3.31168860e-01,
          3.54827583e-01, 3.54827583e-01, 1.90956876e-01, 4.36668009e-01,
          4.36668009e-01, 1.96523756e-01, 1.59816757e-01, 3.58737886e-01,
          4.36668009e-01, 4.31530982e-01, 8.97876397e-02, 4.44361061e-01,
          3.89210641e-01, 4.44361061e-01, 4.44361061e-01, 4.44361061e-01,
          8.89467001e-02, 2.87546255e-02, 1.34162977e-01, 1.65865466e-01,
          4.62975979e-01, 1.71022817e-01, 2.65455171e-02, 3.24842304e-01,
          4.62975979e-01, 4.62975979e-01, 1.65616088e-02, 4.73106578e-02,
          4.62975979e-01, 1.90956876e-01, 4.36668009e-01, 4.36668009e-01,
          1.96523756e-01, 1.59816757e-01, 3.58737886e-01, 4.36668009e-01,
          4.31530982e-01, 8.97876397e-02, 4.44361061e-01, 3.89210641e-01,
          4.44361061e-01, 4.44361061e-01, 4.44361061e-01, 8.89467001e-02,
          2.87546255e-02, 1.34162977e-01, 1.65865466e-01, 4.62975979e-01,
          1.71022817e-01, 2.65455171e-02, 3.24842304e-01, 4.62975979e-01,
          4.62975979e-01, 1.65616088e-02, 4.73106578e-02, 4.62975979e-01,
          2.08508939e-01, 4.51009423e-01, 4.51009423e-01, 3.15907955e-01,
          2.42998451e-01, 1.30546942e-01, 3.02038372e-01, 4.51009423e-01,
          2.73267090e-01, 4.72395182e-01, 4.72395182e-01, 3.78353089e-01,
          3.84989269e-02, 1.43153876e-01, 4.72395182e-01, 3.74143541e-01,
          1.37326583e-01, 4.29154597e-02, 5.12845099e-01, 2.44021073e-01,
          9.98387951e-03, 1.20546855e-01, 5.12845099e-01, 5.12845099e-01,
          1.68811291e-01, 1.01805396e-01, 3.04645389e-01, 2.49451455e-02,
          1.47919267e-01, 4.89959240e-01, 4.89959240e-01, 1.07513063e-01,
          2.41546743e-02, 1.48750730e-02, 4.89959240e-01, 4.89959240e-01,
          3.83928716e-02, 3.76813412e-01, 4.19759899e-01, 4.19759899e-01,
          1.75286695e-01, 1.38838112e-01, 3.12329054e-01, 4.19759899e-01,
          4.19759899e-01, 4.39517558e-01, 4.94032316e-02, 2.84039453e-02,
          3.81300241e-01, 4.39517558e-01, 2.37771571e-01, 1.33170024e-01,
          4.39517558e-01, 4.39517558e-01, 3.62732947e-01, 3.62732947e-01,
          2.42432401e-01, 1.28748670e-01, 3.62732947e-01, 3.62732947e-01,
          3.62732947e-01, 3.62732947e-01, 3.62732947e-01, 3.65033120e-01,
          3.95992219e-01, 3.95992219e-01, 3.95992219e-01, 2.64029592e-01,
          2.71426216e-02, 9.10896212e-02, 3.95992219e-01, 3.95992219e-01,
          4.62875776e-02, 7.30356947e-02, 2.21485987e-01, 5.00447512e-01,
          1.63092718e-01, 2.13152729e-03, 4.17059034e-01, 5.00447512e-01,
          4.86858875e-01, 3.54827583e-01, 3.54827583e-01, 3.54827583e-01,
          1.13209687e-01, 3.54827583e-01, 3.44310880e-01, 3.31168860e-01,
          3.54827583e-01, 3.54827583e-01, 3.40899140e-01, 3.40899140e-01,
          3.40899140e-01, 3.40899140e-01, 3.40899140e-01, 3.23460758e-01,
          2.80145526e-01, 3.40899140e-01, 3.40899140e-01, 1.47401333e-01,
          3.69371474e-01, 3.30694437e-01, 1.90777212e-01, 5.27314208e-02,
          4.78272051e-01, 4.78272051e-01, 4.78272051e-01, 4.78824899e-02,
          4.62975979e-01, 1.71022817e-01, 2.65455171e-02, 3.24842304e-01,
          4.62975979e-01, 4.62975979e-01, 1.65616088e-02, 4.73106578e-02,
          4.62975979e-01, 4.51638222e-01, 6.11621477e-02, 3.38136964e-02,
          3.87123346e-01, 4.51638222e-01, 4.51638222e-01, 3.45752202e-02,
          1.53740942e-01, 4.51638222e-01, 1.39183581e-01, 1.90058485e-01,
          1.74897313e-01, 1.49508134e-01, 4.21273232e-01, 4.21273232e-01,
          4.21273232e-01, 4.21273232e-01, 4.21273232e-01, 4.62975979e-01,
          1.71022817e-01, 2.65455171e-02, 3.24842304e-01, 4.62975979e-01,
          4.62975979e-01, 1.65616088e-02, 4.73106578e-02, 4.62975979e-01,
          4.51638222e-01, 6.11621477e-02, 3.38136964e-02, 3.87123346e-01,
          4.51638222e-01, 4.51638222e-01, 3.45752202e-02, 1.53740942e-01,
          4.51638222e-01, 1.39183581e-01, 1.90058485e-01, 1.74897313e-01,
          1.49508134e-01, 4.21273232e-01, 4.21273232e-01, 4.21273232e-01,
          4.21273232e-01, 4.21273232e-01, 5.12845099e-01, 2.44021073e-01,
          9.98387951e-03, 1.20546855e-01, 5.12845099e-01, 5.12845099e-01,
          1.68811291e-01, 1.01805396e-01, 3.04645389e-01, 3.86941582e-01,
          1.76109165e-01, 3.22254449e-01, 4.55019385e-01, 4.55019385e-01,
          9.46482792e-02, 2.03452464e-02, 2.83493638e-01, 4.55019385e-01,
          6.69692233e-02, 1.53952643e-01, 3.68124068e-01, 3.59227806e-01,
          7.10263401e-02, 6.68880641e-02, 4.80601996e-01, 4.80601996e-01,
          4.80601996e-01, 4.39517558e-01, 4.94032316e-02, 2.84039453e-02,
          3.81300241e-01, 4.39517558e-01, 2.37771571e-01, 1.33170024e-01,
          4.39517558e-01, 4.39517558e-01, 4.83129740e-01, 4.83129740e-01,
          1.92661569e-01, 1.84617981e-01, 3.91007483e-01, 4.83129740e-01,
          7.80253634e-02, 2.25763675e-02, 2.53465384e-01, 4.60340112e-01,
          4.60340112e-01, 2.09381938e-01, 5.19278012e-02, 5.99790812e-02,
          4.60340112e-01, 4.60340112e-01, 3.06683123e-01, 5.96706234e-02 ]
      - [ 1.88238129e-01, 3.71933907e-01, 4.25835699e-01, 2.84504026e-01,
          2.62504905e-01, 2.23073617e-01, 4.25835699e-01, 4.25835699e-01,
          2.79922426e-01, 3.77826810e-01, 1.64375186e-01, 2.35650286e-01,
          3.77826810e-01, 3.77826810e-01, 2.39074320e-01, 3.77826810e-01,
          3.77826810e-01, 3.77826810e-01, 3.69217187e-01, 1.78486213e-01,
          3.69217187e-01, 3.69217187e-01, 3.41759980e-01, 3.69217187e-01,
          1.72412515e-01, 3.69217187e-01, 3.69217187e-01, 1.68491542e-01,
          4.21817124e-01, 4.21817124e-01, 4.21817124e-01, 4.21817124e-01,
          1.71337545e-01, 3.19980592e-01, 3.18214804e-01, 1.50577188e-01,
          4.05008703e-01, 4.05008703e-01, 2.83082217e-01, 9.04238895e-02,
          2.70448685e-01, 2.56116241e-01, 4.05008703e-01, 4.05008703e-01,
          3.35820973e-01, 2.42611274e-01, 1.91415429e-01, 4.50805098e-01,
          2.25180626e-01, 1.82444960e-01, 5.57088815e-02, 4.50805098e-01,
          4.50805098e-01, 4.50805098e-01, 1.89882785e-01, 1.58066481e-01,
          3.72193187e-01, 4.37958777e-01, 4.37958777e-01, 6.06155545e-02,
          1.58591017e-01, 4.37958777e-01, 4.37958777e-01, 1.34835467e-01,
          2.78868735e-01, 4.42562580e-01, 4.42562580e-01, 4.42562580e-01,
          8.29417780e-02, 9.26976129e-02, 3.17351699e-01, 4.42562580e-01,
          3.59662980e-01, 4.29489136e-01, 4.29489136e-01, 2.12482840e-01,
          1.90725833e-01, 6.71586916e-02, 4.29489136e-01, 4.29489136e-01,
          2.06089839e-01, 1.89882785e-01, 1.58066481e-01, 3.72193187e-01,
          4.37958777e-01, 4.37958777e-01, 6.06155545e-02, 1.58591017e-01,
          4.37958777e-01, 4.37958777e-01, 1.34835467e-01, 2.78868735e-01,
          4.42562580e-01, 4.42562580e-01, 4.42562580e-01, 8.29417780e-02,
          9.26976129e-02, 3.17351699e-01, 4.42562580e-01, 3.59662980e-01,
          4.29489136e-01, 4.29489136e-01, 2.12482840e-01, 1.90725833e-01,
          6.71586916e-02, 4.29489136e-01, 4.29489136e-01, 2.06089839e-01,
          4.86681461e-01, 2.97178388e-01, 1.27913937e-01, 1.63171038e-01,
          3.09575409e-01, 1.12046070e-01, 2.11824119e-01, 4.86681461e-01,
          4.86681461e-01, 1.18099354e-01, 1.15128703e-01, 4.68265623e-01,
          4.68265623e-01, 1.11076586e-01, 8.08434188e-02, 2.68619269e-01,
          4.68265623e-01, 4.68265623e-01, 1.60316288e-01, 1.13182724e-01,
          4.09537524e-01, 4.09537524e-01, 4.09537524e-01, 2.88114667e-01,
          4.09537524e-01, 4.09537524e-01, 1.89162582e-01, 2.63053983e-01,
          3.18326533e-01, 4.79985684e-01, 4.79985684e-01, 4.79985684e-01,
          1.73886687e-01, 6.53015524e-02, 1.46293476e-01, 2.78595418e-01,
          1.86466381e-01, 2.89430350e-01, 2.47667536e-01, 3.56444687e-01,
          3.22937101e-01, 2.94348091e-01, 4.72914457e-01, 4.72914457e-01,
          2.23874018e-01, 3.81738931e-01, 2.30850518e-01, 1.49147555e-01,
          3.81738931e-01, 3.81738931e-01, 3.81738931e-01, 3.09403777e-01,
          3.10315162e-01, 3.81738931e-01, 3.69217187e-01, 1.78486213e-01,
          3.69217187e-01, 3.69217187e-01, 3.41759980e-01, 3.69217187e-01,
          1.72412515e-01, 3.69217187e-01, 3.69217187e-01, 1.09790355e-01,
          3.47310811e-01, 4.99494374e-01, 4.99494374e-01, 6.32333234e-02,
          1.92406103e-01, 9.51612964e-02, 4.99494374e-01, 2.52536118e-01,
          1.81077942e-01, 1.77094132e-01, 9.68459100e-02, 5.31693436e-02,
          2.80985177e-01, 4.70185250e-01, 4.70185250e-01, 4.70185250e-01,
          4.20441419e-01, 2.42611274e-01, 1.91415429e-01, 4.50805098e-01,
          2.25180626e-01, 1.82444960e-01, 5.57088815e-02, 4.50805098e-01,
          4.50805098e-01, 4.50805098e-01, 1.66567639e-02, 7.78056085e-02,
          4.94114697e-01, 4.94114697e-01, 2.49060974e-01, 1.09688684e-01,
          3.28380674e-01, 4.94114697e-01, 2.72743464e-01, 1.45211639e-02,
          1.47319034e-01, 4.35462415e-01, 4.42578524e-01, 4.42578524e-01,
          4.42578524e-01, 4.42578524e-01, 2.28470117e-02, 3.59209627e-03,
          3.59662980e-01, 4.29489136e-01, 4.29489136e-01, 2.12482840e-01,
          1.90725833e-01, 6.71586916e-02, 4.29489136e-01, 4.29489136e-01,
          2.06089839e-01, 3.95162165e-01, 4.01714712e-01, 2.50055492e-01,
          2.75907516e-01, 4.01714712e-01, 2.05852076e-01, 4.01714712e-01,
          4.01714712e-01, 1.15356155e-01, 3.68942559e-01, 2.94754446e-01,
          3.68942559e-01, 3.63867581e-01, 3.68942559e-01, 2.78330505e-01,
          1.37744084e-01, 3.68942559e-01, 3.68942559e-01, 3.59662980e-01,
          4.29489136e-01, 4.29489136e-01, 2.12482840e-01, 1.90725833e-01,
          6.71586916e-02, 4.29489136e-01, 4.29489136e-01, 2.06089839e-01,
          3.95162165e-01, 4.01714712e-01, 2.50055492e-01, 2.75907516e-01,
          4.01714712e-01, 2.05852076e-01, 4.01714712e-01, 4.01714712e-01,
          1.15356155e-01, 3.68942559e-01, 2.94754446e-01, 3.68942559e-01,
          3.63867581e-01, 3.68942559e-01, 2.78330505e-01, 1.37744084e-01,
          3.68942559e-01, 3.68942559e-01, 1.60316288e-01, 1.13182724e-01,
          4.09537524e-01, 4.09537524e-01, 4.09537524e-01, 2.88114667e-01,
          4.09537524e-01, 4.09537524e-01, 1.89162582e-01, 1.87882245e-01,
          4.71223116e-01, 4.71223116e-01, 1.16898445e-02, 8.80992040e-02,
          3.23947221e-01, 4.71223116e-01, 4.13483083e-01, 1.00158446e-01,
          3.48131955e-01, 3.48131955e-01, 3.48131955e-01, 1.89820454e-01,
          3.48131955e-01, 3.34842056e-01, 3.48131955e-01, 3.48131955e-01,
          3.48131955e-01, 3.81738931e-01, 2.30850518e-01, 1.49147555e-01,
          3.81738931e-01, 3.81738931e-01, 3.81738931e-01, 3.09403777e-01,
          3.10315162e-01, 3.81738931e-01, 2.08989874e-01, 3.74543101e-01,
          3.74543101e-01, 2.40993902e-01, 3.74543101e-01, 3.74543101e-01,
          3.74543101e-01, 2.29800373e-01, 3.74543101e-01, 3.54598969e-01,
          3.54598969e-01, 3.54598969e-01, 2.39326194e-01, 3.20029527e-01,
          3.54598969e-01, 3.54598969e-01, 3.11111152e-01, 3.33570093e-01 ]
      - [ 5.50939083e-01, 5.50939083e-01, 1.08394615e-01, 3.10015772e-02,
          2.00881347e-01, 5.50939083e-01, 1.71031311e-01, 3.08294371e-02,
          2.51114760e-02, 6.78523362e-01, 6.78523362e-01, 1.09356362e-02,
          2.15599453e-03, 4.18955311e-02, 1.47442639e-01, 3.78842056e-02,
          2.20009740e-02, 2.16564819e-01, 5.46705246e-01, 8.51727501e-02,
          1.32100610e-02, 1.70400310e-02, 2.81114519e-01, 5.46705246e-01,
          1.02641188e-01, 2.45091524e-02, 5.46705246e-01, 5.87773442e-01,
          6.74116433e-01, 4.20659393e-01, 2.35419311e-02, 3.46033014e-02,
          5.37990071e-02, 1.06982343e-01, 1.68108102e-02, 5.62038505e-03,
          2.02225521e-01, 4.62168545e-01, 4.42759991e-02, 2.31993496e-02,
          2.60940433e-01, 5.86081445e-01, 5.69808066e-01, 2.91819666e-02,
          6.33724546e-03, 5.19797504e-01, 5.19797504e-01, 3.36028971e-02,
          4.82260808e-02, 2.80505538e-01, 5.19797504e-01, 2.91941702e-01,
          1.08124271e-01, 7.19815940e-02, 6.53498992e-02, 5.53304493e-01,
          5.53304493e-01, 1.92142054e-02, 3.25533114e-02, 2.97004022e-02,
          5.53304493e-01, 2.62059689e-01, 2.79326737e-02, 2.91159719e-01,
          2.59432554e-01, 1.76119357e-01, 1.02624916e-01, 1.46684363e-01,
          4.41713244e-01, 4.41713244e-01, 4.41713244e-01, 4.41713244e-01,
          4.12725419e-01, 4.12725419e-01, 1.41357049e-01, 3.65348130e-01,
          4.12725419e-01, 2.76187599e-01, 2.50376850e-01, 1.48588836e-01,
          4.12725419e-01, 6.53498992e-02, 5.53304493e-01, 5.53304493e-01,
          1.92142054e-02, 3.25533114e-02, 2.97004022e-02, 5.53304493e-01,
          2.62059689e-01, 2.79326737e-02, 2.91159719e-01, 2.59432554e-01,
          1.76119357e-01, 1.02624916e-01, 1.46684363e-01, 4.41713244e-01,
          4.41713244e-01, 4.41713244e-01, 4.41713244e-01, 4.12725419e-01,
          4.12725419e-01, 1.41357049e-01, 3.65348130e-01, 4.12725419e-01,
          2.76187599e-01, 2.50376850e-01, 1.48588836e-01, 4.12725419e-01,
          1.78576391e-02, 6.21627986e-01, 6.21627986e-01, 1.24324583e-01,
          8.19680840e-02, 1.23350888e-01, 3.76942754e-01, 2.01052696e-01,
          2.70760395e-02, 4.32422966e-01, 6.13985695e-02, 1.22149676e-01,
          2.69140080e-02, 4.32422966e-01, 4.32422966e-01, 2.03267425e-01,
          4.32422966e-01, 4.32422966e-01, 4.82837021e-01, 7.75046553e-03,
          1.56695675e-02, 1.58180550e-01, 4.82837021e-01, 1.62857220e-01,
          1.03932597e-01, 4.82837021e-01, 4.82837021e-01, 9.25608631e-03,
          1.85117155e-01, 5.30614555e-01, 5.30614555e-01, 2.59532239e-02,
          3.21032166e-01, 5.30614555e-01, 1.08996578e-01, 8.72086361e-03,
          3.64574969e-01, 4.10023123e-01, 9.71321464e-02, 4.61972272e-03,
          4.76563752e-01, 4.76563752e-01, 4.76563752e-01, 2.95781884e-02,
          5.03608882e-02, 4.56850290e-01, 1.34212747e-01, 1.48213143e-02,
          2.99540937e-01, 4.56850290e-01, 4.42496896e-01, 2.98423301e-02,
          2.54260838e-01, 4.56850290e-01, 5.46705246e-01, 8.51727501e-02,
          1.32100610e-02, 1.70400310e-02, 2.81114519e-01, 5.46705246e-01,
          1.02641188e-01, 2.45091524e-02, 5.46705246e-01, 2.40443721e-01,
          2.25589544e-01, 3.84407490e-01, 3.84407490e-01, 3.84407490e-01,
          3.84407490e-01, 2.90053319e-02, 3.84407490e-01, 3.84407490e-01,
          8.65971595e-02, 1.91435352e-01, 4.43476319e-01, 4.12535995e-01,
          6.78659678e-02, 1.10283764e-02, 5.72554097e-02, 5.36485374e-01,
          5.36485374e-01, 5.19797504e-01, 5.19797504e-01, 3.36028971e-02,
          4.82260808e-02, 2.80505538e-01, 5.19797504e-01, 2.91941702e-01,
          1.08124271e-01, 7.19815940e-02, 4.04023379e-01, 4.32582825e-01,
          4.32582825e-01, 1.23439237e-01, 1.31515905e-01, 3.38575274e-01,
          4.32582825e-01, 3.16774875e-01, 1.53450444e-01, 5.50780445e-03,
          4.32266146e-01, 5.05041242e-01, 6.07745200e-02, 2.93787103e-02,
          1.06542828e-02, 1.95452303e-01, 5.05041242e-01, 5.05041242e-01,
          4.12725419e-01, 4.12725419e-01, 1.41357049e-01, 3.65348130e-01,
          4.12725419e-01, 2.76187599e-01, 2.50376850e-01, 1.48588836e-01,
          4.12725419e-01, 2.67959744e-01, 3.75881702e-01, 3.75881702e-01,
          3.75881702e-01, 3.75881702e-01, 2.38615289e-01, 3.75881702e-01,
          3.13729703e-01, 2.50287026e-01, 2.18731388e-01, 4.72759783e-01,
          4.72759783e-01, 4.72759783e-01, 2.28265628e-01, 6.38041943e-02,
          2.31111616e-01, 4.00529593e-01, 8.31647515e-02, 4.12725419e-01,
          4.12725419e-01, 1.41357049e-01, 3.65348130e-01, 4.12725419e-01,
          2.76187599e-01, 2.50376850e-01, 1.48588836e-01, 4.12725419e-01,
          2.67959744e-01, 3.75881702e-01, 3.75881702e-01, 3.75881702e-01,
          3.75881702e-01, 2.38615289e-01, 3.75881702e-01, 3.13729703e-01,
          2.50287026e-01, 2.18731388e-01, 4.72759783e-01, 4.72759783e-01,
          4.72759783e-01, 2.28265628e-01, 6.38041943e-02, 2.31111616e-01,
          4.00529593e-01, 8.31647515e-02, 4.82837021e-01, 7.75046553e-03,
          1.56695675e-02, 1.58180550e-01, 4.82837021e-01, 1.62857220e-01,
          1.03932597e-01, 4.82837021e-01, 4.82837021e-01, 4.27827030e-01,
          4.27827030e-01, 2.13973954e-01, 3.25370789e-01, 2.93636024e-01,
          1.50924074e-02, 1.59629002e-01, 4.27827030e-01, 4.27827030e-01,
          4.95210230e-01, 4.95210230e-01, 4.95210230e-01, 3.79520088e-01,
          1.42046332e-01, 3.60565558e-02, 1.10510670e-01, 6.19730763e-02,
          2.78906047e-01, 4.56850290e-01, 1.34212747e-01, 1.48213143e-02,
          2.99540937e-01, 4.56850290e-01, 4.42496896e-01, 2.98423301e-02,
          2.54260838e-01, 4.56850290e-01, 1.42312825e-01, 3.74345891e-02,
          4.41184342e-01, 4.41184342e-01, 4.41184342e-01, 6.34055166e-03,
          2.60853320e-02, 4.41184342e-01, 4.41184342e-01, 4.88770753e-02,
          2.34638199e-01, 5.60358405e-01, 5.60358405e-01, 5.80701642e-02,
          1.44389123e-01, 5.10142148e-01, 1.36240527e-01, 7.70081803e-02 ]
      - [ 6.92879021e-01, 6.92879021e-01, 9.11186934e-02, 8.15659121e-04,
          9.85520077e-04, 3.19958404e-02, 6.14678934e-02, 1.96355395e-02,
          1.39387310e-01, 4.64512408e-01, 4.64512408e-01, 9.06286538e-02,
          2.03670599e-02, 4.33683306e-01, 4.64512408e-01, 2.64862567e-01,
          5.15438430e-02, 2.80225813e-01, 4.67428178e-01, 3.18626493e-01,
          7.76012316e-02, 7.98999220e-02, 4.67428178e-01, 4.67428178e-01,
          2.39690006e-01, 1.15737930e-01, 3.93812954e-01, 4.83250827e-01,
          4.83250827e-01, 4.83250827e-01, 1.38521586e-02, 2.05269400e-02,
          1.06764607e-01, 4.69293952e-01, 2.19047844e-01, 1.19786069e-01,
          4.22342151e-01, 8.54137465e-02, 1.28537595e-01, 5.14077917e-02,
          2.78309703e-01, 4.22342151e-01, 4.22342151e-01, 4.22342151e-01,
          4.22342151e-01, 4.68029410e-01, 2.11837456e-01, 1.30333230e-01,
          2.20195770e-01, 4.68029410e-01, 4.11118686e-01, 1.35649830e-01,
          2.01005518e-01, 4.68029410e-01, 3.22578475e-02, 3.93298835e-01,
          5.45685172e-01, 5.45685172e-01, 4.29961756e-02, 1.63151801e-01,
          4.20578122e-01, 1.84274256e-01, 6.30187690e-02, 4.33951050e-01,
          2.90453762e-01, 2.95586526e-01, 3.96333411e-02, 4.33951050e-01,
          4.33951050e-01, 4.33951050e-01, 1.61918044e-01, 2.07094669e-01,
          4.87227172e-01, 1.52284548e-01, 7.77887031e-02, 1.06556654e-01,
          4.87227172e-01, 4.87227172e-01, 4.36797626e-02, 5.53945899e-02,
          4.87227172e-01, 3.22578475e-02, 3.93298835e-01, 5.45685172e-01,
          5.45685172e-01, 4.29961756e-02, 1.63151801e-01, 4.20578122e-01,
          1.84274256e-01, 6.30187690e-02, 4.33951050e-01, 2.90453762e-01,
          2.95586526e-01, 3.96333411e-02, 4.33951050e-01, 4.33951050e-01,
          4.33951050e-01, 1.61918044e-01, 2.07094669e-01, 4.87227172e-01,
          1.52284548e-01, 7.77887031e-02, 1.06556654e-01, 4.87227172e-01,
          4.87227172e-01, 4.36797626e-02, 5.53945899e-02, 4.87227172e-01,
          3.74037623e-02, 5.55315763e-02, 4.96661961e-01, 6.10969841e-01,
          4.19644922e-01, 5.08617163e-02, 2.12532967e-01, 3.23269635e-01,
          2.02724859e-01, 1.06705733e-01, 1.66576520e-01, 3.90414417e-01,
          3.90414417e-01, 3.90414417e-01, 2.05974028e-01, 3.90414417e-01,
          3.90414417e-01, 3.90414417e-01, 4.63936716e-01, 1.05467848e-01,
          1.84384093e-01, 4.63936716e-01, 4.63936716e-01, 2.80149937e-01,
          2.59581506e-02, 1.00688010e-01, 4.63936716e-01, 3.88147444e-01,
          3.76464009e-01, 2.20871240e-01, 3.88147444e-01, 3.88147444e-01,
          3.88147444e-01, 2.66907252e-02, 2.27175653e-01, 3.88147444e-01,
          1.37831539e-01, 2.56448686e-01, 2.98873782e-01, 4.19592708e-01,
          4.19592708e-01, 4.19592708e-01, 1.01460189e-01, 3.27403396e-01,
          4.19592708e-01, 4.51491266e-01, 2.45638803e-01, 1.49058238e-01,
          3.13796848e-01, 4.51491266e-01, 3.65559816e-01, 2.14889780e-01,
          1.52053267e-01, 4.51491266e-01, 4.67428178e-01, 3.18626493e-01,
          7.76012316e-02, 7.98999220e-02, 4.67428178e-01, 4.67428178e-01,
          2.39690006e-01, 1.15737930e-01, 3.93812954e-01, 3.56469452e-01,
          3.56469452e-01, 3.56469452e-01, 3.01673472e-01, 3.56469452e-01,
          3.56469452e-01, 2.26651549e-01, 3.02717596e-01, 3.56469452e-01,
          1.58727571e-01, 1.18315570e-01, 3.56856257e-01, 7.74426162e-02,
          7.26602003e-02, 9.81093477e-03, 2.66468525e-02, 6.38358831e-01,
          6.38358831e-01, 4.68029410e-01, 2.11837456e-01, 1.30333230e-01,
          2.20195770e-01, 4.68029410e-01, 4.11118686e-01, 1.35649830e-01,
          2.01005518e-01, 4.68029410e-01, 3.67789656e-01, 3.67789656e-01,
          3.67789656e-01, 3.67789656e-01, 3.67789656e-01, 1.75150797e-01,
          2.00118124e-01, 3.37616831e-01, 3.67789656e-01, 3.79392833e-01,
          3.79392833e-01, 3.79392833e-01, 3.79392833e-01, 3.47801030e-01,
          2.93043144e-02, 1.03691131e-01, 3.79392833e-01, 3.79392833e-01,
          4.87227172e-01, 1.52284548e-01, 7.77887031e-02, 1.06556654e-01,
          4.87227172e-01, 4.87227172e-01, 4.36797626e-02, 5.53945899e-02,
          4.87227172e-01, 3.67969066e-01, 1.63778305e-01, 2.84048110e-01,
          4.05477285e-01, 4.05477285e-01, 1.11262642e-01, 2.88122773e-01,
          4.05477285e-01, 4.05477285e-01, 1.29075512e-01, 4.25484896e-01,
          4.25484896e-01, 4.25484896e-01, 2.18160138e-01, 4.25484896e-01,
          4.25484896e-01, 1.37222201e-01, 8.64776075e-02, 4.87227172e-01,
          1.52284548e-01, 7.77887031e-02, 1.06556654e-01, 4.87227172e-01,
          4.87227172e-01, 4.36797626e-02, 5.53945899e-02, 4.87227172e-01,
          3.67969066e-01, 1.63778305e-01, 2.84048110e-01, 4.05477285e-01,
          4.05477285e-01, 1.11262642e-01, 2.88122773e-01, 4.05477285e-01,
          4.05477285e-01, 1.29075512e-01, 4.25484896e-01, 4.25484896e-01,
          4.25484896e-01, 2.18160138e-01, 4.25484896e-01, 4.25484896e-01,
          1.37222201e-01, 8.64776075e-02, 4.63936716e-01, 1.05467848e-01,
          1.84384093e-01, 4.63936716e-01, 4.63936716e-01, 2.80149937e-01,
          2.59581506e-02, 1.00688010e-01, 4.63936716e-01, 4.02178675e-01,
          4.02178675e-01, 2.56136566e-01, 1.32226482e-01, 4.02178675e-01,
          4.02178675e-01, 4.02178675e-01, 2.36263797e-01, 2.19848916e-01,
          1.71703234e-01, 4.71833855e-01, 4.71833855e-01, 1.44436523e-01,
          4.71833855e-01, 4.71833855e-01, 2.28312463e-01, 4.63167131e-02,
          1.27560887e-02, 4.51491266e-01, 2.45638803e-01, 1.49058238e-01,
          3.13796848e-01, 4.51491266e-01, 3.65559816e-01, 2.14889780e-01,
          1.52053267e-01, 4.51491266e-01, 4.37744230e-01, 2.44591877e-01,
          7.80719444e-02, 4.37744230e-01, 4.37744230e-01, 4.37744230e-01,
          2.55013078e-01, 2.75388837e-01, 1.49519324e-01, 2.01240063e-01,
          1.99260458e-01, 1.79351121e-01, 4.13589388e-01, 4.13589388e-01,
          4.13589388e-01, 1.67983115e-01, 4.13589388e-01, 4.13589388e-01 ]
      - [ 4.91288811e-01, 4.91288811e-01, 8.89034122e-02, 2.79167056e-04,
          1.16307966e-01, 4.91288811e-01, 4.91288811e-01, 3.15011628e-02,
          8.49155262e-02, 5.56872606e-01, 5.56872606e-01, 1.68862101e-02,
          4.67294408e-03, 1.00393422e-01, 5.56872606e-01, 7.00763986e-02,
          3.82169336e-02, 2.17625052e-01, 5.10328829e-01, 2.04860181e-01,
          4.82822843e-02, 8.29317197e-02, 3.84876460e-01, 5.10328829e-01,
          1.06367923e-01, 5.45535721e-02, 5.10328829e-01, 3.09134781e-01,
          5.93784153e-01, 5.93784153e-01, 2.12599132e-02, 7.72926630e-03,
          2.70733446e-01, 3.40946734e-01, 5.56094870e-02, 1.42197534e-02,
          2.90232599e-01, 4.34807122e-01, 1.21019796e-01, 7.12237358e-02,
          1.73504561e-01, 4.34807122e-01, 4.34807122e-01, 4.34807122e-01,
          3.24607879e-01, 4.23357874e-01, 4.23357874e-01, 1.47293866e-01,
          9.40768570e-02, 4.23357874e-01, 4.23357874e-01, 2.84729451e-01,
          1.93205431e-01, 3.60413849e-01, 3.42570730e-02, 6.50687397e-01,
          6.50687397e-01, 2.32452661e-01, 2.89739221e-02, 1.24019636e-02,
          2.62607008e-01, 1.46048814e-01, 1.48953469e-02, 4.35688555e-01,
          8.18795785e-02, 6.81746602e-02, 6.29149303e-02, 1.76677197e-01,
          4.35688555e-01, 4.35688555e-01, 4.35688555e-01, 4.35688555e-01,
          4.86516327e-01, 7.80611932e-02, 3.67059223e-02, 8.68046805e-02,
          4.86516327e-01, 4.86516327e-01, 6.74147606e-02, 1.69786304e-01,
          4.86516327e-01, 3.42570730e-02, 6.50687397e-01, 6.50687397e-01,
          2.32452661e-01, 2.89739221e-02, 1.24019636e-02, 2.62607008e-01,
          1.46048814e-01, 1.48953469e-02, 4.35688555e-01, 8.18795785e-02,
          6.81746602e-02, 6.29149303e-02, 1.76677197e-01, 4.35688555e-01,
          4.35688555e-01, 4.35688555e-01, 4.35688555e-01, 4.86516327e-01,
          7.80611932e-02, 3.67059223e-02, 8.68046805e-02, 4.86516327e-01,
          4.86516327e-01, 6.74147606e-02, 1.69786304e-01, 4.86516327e-01,
          1.64897423e-02, 8.77663791e-02, 6.35878265e-01, 6.35878265e-01,
          3.99831384e-02, 3.01797148e-02, 1.08492471e-01, 3.96347284e-01,
          7.49873295e-02, 1.05188966e-01, 3.25882703e-01, 3.38407964e-01,
          3.71505052e-01, 9.50617716e-02, 4.51978058e-01, 4.51978058e-01,
          4.51978058e-01, 6.16110936e-02, 3.97266984e-01, 3.97266984e-01,
          2.96282440e-01, 2.68781662e-01, 3.97266984e-01, 3.97266984e-01,
          2.86970288e-01, 1.29790440e-01, 3.24842721e-01, 5.27736358e-02,
          2.18824774e-01, 4.80109185e-01, 4.80109185e-01, 1.40851095e-01,
          4.38625887e-02, 2.74437163e-02, 4.80109185e-01, 4.80109185e-01,
          7.15490710e-03, 3.91974151e-02, 1.63344413e-01, 5.08197963e-01,
          3.76932800e-01, 4.76172939e-02, 2.95308322e-01, 5.08197963e-01,
          4.67517257e-01, 2.07991078e-01, 1.08263031e-01, 2.21148893e-01,
          4.70182717e-01, 4.70182717e-01, 6.40888587e-02, 5.49667440e-02,
          4.70182717e-01, 4.70182717e-01, 5.10328829e-01, 2.04860181e-01,
          4.82822843e-02, 8.29317197e-02, 3.84876460e-01, 5.10328829e-01,
          1.06367923e-01, 5.45535721e-02, 5.10328829e-01, 3.20794195e-01,
          1.44822985e-01, 3.99240851e-01, 3.99240851e-01, 3.99240851e-01,
          3.99240851e-01, 5.74647114e-02, 2.68068105e-01, 3.99240851e-01,
          5.69310933e-02, 3.02511286e-02, 2.30955973e-01, 5.52649617e-01,
          1.43494964e-01, 4.82263789e-03, 1.02654370e-02, 5.52649617e-01,
          5.52649617e-01, 4.23357874e-01, 4.23357874e-01, 1.47293866e-01,
          9.40768570e-02, 4.23357874e-01, 4.23357874e-01, 2.84729451e-01,
          1.93205431e-01, 3.60413849e-01, 3.48774493e-01, 3.42905402e-01,
          3.48774493e-01, 3.48774493e-01, 3.48774493e-01, 3.27422678e-01,
          3.48774493e-01, 3.28892469e-01, 2.35238463e-01, 1.95377678e-01,
          3.37365568e-01, 4.26140457e-01, 4.10249025e-01, 3.39699656e-01,
          5.03908359e-02, 1.12822123e-01, 4.26140457e-01, 4.26140457e-01,
          4.86516327e-01, 7.80611932e-02, 3.67059223e-02, 8.68046805e-02,
          4.86516327e-01, 4.86516327e-01, 6.74147606e-02, 1.69786304e-01,
          4.86516327e-01, 3.99762154e-01, 3.99762154e-01, 1.53724521e-01,
          3.99762154e-01, 3.99762154e-01, 1.41049996e-01, 3.95033397e-02,
          3.89705867e-01, 3.99762154e-01, 4.20780748e-01, 4.20780748e-01,
          4.20780748e-01, 4.20780748e-01, 3.35584432e-01, 9.47791412e-02,
          2.21932277e-01, 2.53015190e-01, 2.29565099e-01, 4.86516327e-01,
          7.80611932e-02, 3.67059223e-02, 8.68046805e-02, 4.86516327e-01,
          4.86516327e-01, 6.74147606e-02, 1.69786304e-01, 4.86516327e-01,
          3.99762154e-01, 3.99762154e-01, 1.53724521e-01, 3.99762154e-01,
          3.99762154e-01, 1.41049996e-01, 3.95033397e-02, 3.89705867e-01,
          3.99762154e-01, 4.20780748e-01, 4.20780748e-01, 4.20780748e-01,
          4.20780748e-01, 3.35584432e-01, 9.47791412e-02, 2.21932277e-01,
          2.53015190e-01, 2.29565099e-01, 3.97266984e-01, 3.97266984e-01,
          2.96282440e-01, 2.68781662e-01, 3.97266984e-01, 3.97266984e-01,
          2.86970288e-01, 1.29790440e-01, 3.24842721e-01, 4.14809048e-01,
          5.33946082e-02, 1.80814624e-01, 4.14809048e-01, 4.14809048e-01,
          2.67536223e-01, 1.68532103e-01, 4.14809048e-01, 4.14809048e-01,
          2.74845082e-02, 3.57856899e-01, 4.61623967e-01, 4.61623967e-01,
          8.66613239e-02, 2.92681098e-01, 3.10846269e-01, 4.61623967e-01,
          1.93608254e-01, 2.07991078e-01, 1.08263031e-01, 2.21148893e-01,
          4.70182717e-01, 4.70182717e-01, 6.40888587e-02, 5.49667440e-02,
          4.70182717e-01, 4.70182717e-01, 4.39236313e-01, 4.39236313e-01,
          3.72939520e-02, 1.27606586e-01, 4.39236313e-01, 4.39236313e-01,
          1.41860992e-01, 1.09733284e-01, 4.17202652e-01, 4.71099734e-01,
          4.72416550e-01, 4.40221637e-01, 5.05734496e-02, 2.89507657e-01,
          4.72416550e-01, 2.07397729e-01, 5.99580035e-02, 1.46810533e-02 ]
      - [ 4.63760912e-01, 4.63760912e-01, 2.10614234e-01, 4.63760912e-01,
          2.22162247e-01, 4.63760912e-01, 1.98296309e-01, 2.98725404e-02,
          3.38068791e-02, 3.25045973e-01, 5.36482990e-01, 6.16655163e-02,
          3.47193219e-02, 4.60054457e-01, 5.75743616e-01, 2.28065044e-01,
          8.49599857e-03, 2.36065965e-02, 4.70627546e-01, 4.70627546e-01,
          4.70627546e-01, 1.00412825e-02, 2.77890295e-01, 4.70627546e-01,
          1.83445718e-02, 1.28227817e-02, 1.77520096e-01, 4.95452315e-01,
          4.95452315e-01, 7.25685060e-02, 5.72572872e-02, 5.16998954e-02,
          4.95452315e-01, 4.95452315e-01, 4.05688360e-02, 1.72183011e-02,
          3.36402766e-02, 1.18516661e-01, 1.58064738e-01, 2.06269473e-01,
          6.07356489e-01, 6.07356489e-01, 4.12759125e-01, 5.53918257e-02,
          4.91274567e-03, 8.10793322e-03, 7.02825129e-01, 7.02825129e-01,
          3.41200419e-02, 2.29561422e-02, 3.21769230e-02, 4.33711037e-02,
          1.94435921e-02, 2.54803686e-03, 2.70486176e-01, 1.45500258e-01,
          8.31045955e-02, 9.37210694e-02, 1.22696437e-01, 5.70363045e-01,
          5.70363045e-01, 4.59210098e-01, 8.78923312e-02, 4.52202380e-01,
          4.52202380e-01, 4.32031363e-01, 2.38166541e-01, 1.94014952e-01,
          1.48227289e-01, 2.02068582e-01, 1.95455417e-01, 4.52202380e-01,
          2.15355679e-02, 6.97476089e-01, 6.98689878e-01, 6.29397333e-02,
          5.89220505e-03, 1.41675482e-02, 3.35823447e-02, 5.52104451e-02,
          9.77161974e-02, 2.70486176e-01, 1.45500258e-01, 8.31045955e-02,
          9.37210694e-02, 1.22696437e-01, 5.70363045e-01, 5.70363045e-01,
          4.59210098e-01, 8.78923312e-02, 4.52202380e-01, 4.52202380e-01,
          4.32031363e-01, 2.38166541e-01, 1.94014952e-01, 1.48227289e-01,
          2.02068582e-01, 1.95455417e-01, 4.52202380e-01, 2.15355679e-02,
          6.97476089e-01, 6.98689878e-01, 6.29397333e-02, 5.89220505e-03,
          1.41675482e-02, 3.35823447e-02, 5.52104451e-02, 9.77161974e-02,
          5.97071722e-02, 2.70660937e-01, 3.14866453e-01, 1.76942632e-01,
          2.62049824e-01, 4.34838086e-01, 4.72600460e-01, 4.72600460e-01,
          2.89052039e-01, 3.29906970e-01, 5.11737406e-01, 5.11737406e-01,
          3.53468247e-02, 5.12605812e-03, 1.42166484e-02, 1.71497855e-02,
          3.14090967e-01, 5.11737406e-01, 3.37828249e-01, 4.69033569e-01,
          4.69033569e-01, 2.06478387e-02, 6.40822854e-03, 1.65457297e-02,
          2.18206067e-02, 4.69033569e-01, 4.69033569e-01, 1.25663966e-01,
          1.10537075e-01, 2.94246256e-01, 4.39803690e-01, 2.37876832e-01,
          9.29475427e-02, 4.43043113e-01, 4.61443990e-01, 4.61443990e-01,
          3.78502384e-02, 4.95007515e-01, 5.97520292e-01, 5.97520292e-01,
          1.33650079e-01, 5.16577847e-02, 2.37519573e-02, 9.13738012e-02,
          6.37459233e-02, 1.71336785e-01, 2.11164489e-01, 5.30192554e-01,
          5.30192554e-01, 3.60590458e-01, 4.08046171e-02, 1.17163770e-02,
          1.95041418e-01, 4.34374392e-01, 4.70627546e-01, 4.70627546e-01,
          4.70627546e-01, 1.00412825e-02, 2.77890295e-01, 4.70627546e-01,
          1.83445718e-02, 1.28227817e-02, 1.77520096e-01, 4.81833518e-01,
          1.68767765e-01, 2.68737078e-01, 1.78618915e-02, 1.92945451e-01,
          1.05201922e-01, 4.81833518e-01, 4.81833518e-01, 3.86497527e-01,
          1.61624610e-01, 2.77063567e-02, 4.57399040e-02, 4.75118011e-01,
          4.75118011e-01, 1.32490411e-01, 4.75118011e-01, 4.75118011e-01,
          2.13938907e-01, 8.10793322e-03, 7.02825129e-01, 7.02825129e-01,
          3.41200419e-02, 2.29561422e-02, 3.21769230e-02, 4.33711037e-02,
          1.94435921e-02, 2.54803686e-03, 9.00040567e-03, 1.25598922e-01,
          5.32714665e-01, 2.43109325e-03, 7.38791097e-03, 2.26820782e-02,
          5.89020014e-01, 5.89020014e-01, 3.65833659e-03, 1.20571069e-01,
          6.91232383e-02, 4.02093157e-02, 2.06208676e-02, 1.48230076e-01,
          2.80638903e-01, 6.56606913e-01, 6.56606913e-01, 9.53502357e-02,
          2.15355679e-02, 6.97476089e-01, 6.98689878e-01, 6.29397333e-02,
          5.89220505e-03, 1.41675482e-02, 3.35823447e-02, 5.52104451e-02,
          9.77161974e-02, 2.78958976e-02, 2.80039638e-01, 5.52023411e-01,
          1.44833988e-02, 5.55785082e-04, 2.01240331e-02, 5.52023411e-01,
          5.52023411e-01, 2.19621770e-02, 4.55276877e-01, 4.55276877e-01,
          3.77982296e-02, 3.37222032e-03, 1.73730236e-02, 4.21696417e-02,
          4.55276877e-01, 4.55276877e-01, 4.03514892e-01, 2.15355679e-02,
          6.97476089e-01, 6.98689878e-01, 6.29397333e-02, 5.89220505e-03,
          1.41675482e-02, 3.35823447e-02, 5.52104451e-02, 9.77161974e-02,
          2.78958976e-02, 2.80039638e-01, 5.52023411e-01, 1.44833988e-02,
          5.55785082e-04, 2.01240331e-02, 5.52023411e-01, 5.52023411e-01,
          2.19621770e-02, 4.55276877e-01, 4.55276877e-01, 3.77982296e-02,
          3.37222032e-03, 1.73730236e-02, 4.21696417e-02, 4.55276877e-01,
          4.55276877e-01, 4.03514892e-01, 3.37828249e-01, 4.69033569e-01,
          4.69033569e-01, 2.06478387e-02, 6.40822854e-03, 1.65457297e-02,
          2.18206067e-02, 4.69033569e-01, 4.69033569e-01, 4.11520690e-01,
          4.11520690e-01, 4.11520690e-01, 3.04204095e-02, 1.52268717e-02,
          5.97038083e-02, 4.11520690e-01, 4.11520690e-01, 3.80027413e-01,
          4.68725175e-01, 4.68725175e-01, 1.30201411e-02, 4.29412490e-03,
          4.89869481e-03, 3.05665076e-01, 4.68725175e-01, 4.68725175e-01,
          1.51201665e-01, 1.71336785e-01, 2.11164489e-01, 5.30192554e-01,
          5.30192554e-01, 3.60590458e-01, 4.08046171e-02, 1.17163770e-02,
          1.95041418e-01, 4.34374392e-01, 1.93775013e-01, 1.36060148e-01,
          1.99767113e-01, 4.09658283e-01, 1.79407239e-01, 5.66532195e-01,
          5.66532195e-01, 1.15664177e-01, 2.07538381e-01, 1.78122923e-01,
          1.53628111e-01, 2.77116373e-02, 2.97377855e-02, 3.89716327e-02,
          6.76403463e-01, 6.76403463e-01, 1.30600348e-01, 5.14510460e-02 ]
      - [ 2.00409107e-02, 9.14607197e-03, 6.99063810e-03, 5.83868381e-03,
          1.00920863e-01, 7.82654762e-01, 6.07086599e-01, 3.28551931e-03,
          1.79518051e-02, 9.63935852e-02, 4.28599089e-01, 4.28599089e-01,
          2.22788692e-01, 4.28568423e-01, 4.28599089e-01, 2.74540335e-01,
          2.77675331e-01, 2.22606733e-01, 3.32778692e-01, 3.32778692e-01,
          3.32778692e-01, 3.32778692e-01, 3.32778692e-01, 3.32778692e-01,
          3.32778692e-01, 3.32778692e-01, 3.32778692e-01, 3.16938199e-02,
          5.24839424e-02, 3.42073590e-02, 5.90376481e-02, 1.37806281e-01,
          6.51749671e-01, 6.51749671e-01, 3.20294827e-01, 1.18084520e-01,
          4.06330794e-01, 4.06330794e-01, 4.06330794e-01, 4.06330794e-01,
          4.06330794e-01, 1.90935686e-01, 1.36565000e-01, 1.12417988e-01,
          3.20426524e-01, 3.37855458e-01, 3.37855458e-01, 2.88883954e-01,
          3.37855458e-01, 3.37855458e-01, 3.37855458e-01, 3.37855458e-01,
          3.37855458e-01, 3.37855458e-01, 1.28788859e-01, 5.72245046e-02,
          2.44306680e-02, 8.26991647e-02, 1.04694933e-01, 1.45764083e-01,
          6.82036698e-01, 6.82036698e-01, 5.77737987e-02, 3.99634570e-01,
          3.99634570e-01, 3.99634570e-01, 3.99634570e-01, 3.99634570e-01,
          1.46346942e-01, 5.14266714e-02, 1.17041543e-01, 3.99634570e-01,
          4.40102190e-01, 2.13302493e-01, 2.86929816e-01, 4.40102190e-01,
          4.40102190e-01, 9.10929590e-02, 1.90540254e-01, 2.20031410e-01,
          4.40102190e-01, 1.28788859e-01, 5.72245046e-02, 2.44306680e-02,
          8.26991647e-02, 1.04694933e-01, 1.45764083e-01, 6.82036698e-01,
          6.82036698e-01, 5.77737987e-02, 3.99634570e-01, 3.99634570e-01,
          3.99634570e-01, 3.99634570e-01, 3.99634570e-01, 1.46346942e-01,
          5.14266714e-02, 1.17041543e-01, 3.99634570e-01, 4.40102190e-01,
          2.13302493e-01, 2.86929816e-01, 4.40102190e-01, 4.40102190e-01,
          9.10929590e-02, 1.90540254e-01, 2.20031410e-01, 4.40102190e-01,
          5.91067523e-02, 4.56965417e-02, 3.71219479e-02, 8.34317058e-02,
          8.77037495e-02, 1.87165305e-01, 5.59098482e-01, 5.59098482e-01,
          5.59098482e-01, 2.28227705e-01, 4.13709491e-01, 4.13709491e-01,
          3.15452754e-01, 4.13709491e-01, 2.23145202e-01, 5.58374412e-02,
          3.26703370e-01, 4.13709491e-01, 3.52206409e-01, 3.52206409e-01,
          3.49860132e-01, 3.52206409e-01, 3.52206409e-01, 3.52206409e-01,
          7.57203922e-02, 3.52206409e-01, 3.52206409e-01, 3.39927934e-02,
          6.68715592e-03, 1.82831194e-03, 3.52752791e-03, 5.51927555e-03,
          2.02101972e-02, 4.63106669e-02, 7.03270972e-01, 7.03270972e-01,
          3.82860720e-01, 3.94808620e-01, 3.94808620e-01, 1.86329022e-01,
          2.87786096e-01, 2.25122645e-01, 2.40330145e-01, 3.94808620e-01,
          3.94808620e-01, 3.44168037e-01, 3.44168037e-01, 3.44168037e-01,
          3.44168037e-01, 3.13889354e-01, 3.44168037e-01, 3.44168037e-01,
          2.62437135e-01, 3.44168037e-01, 3.32778692e-01, 3.32778692e-01,
          3.32778692e-01, 3.32778692e-01, 3.32778692e-01, 3.32778692e-01,
          3.32778692e-01, 3.32778692e-01, 3.32778692e-01, 3.77367437e-01,
          2.45061025e-01, 1.38321057e-01, 3.77367437e-01, 3.77367437e-01,
          3.77367437e-01, 3.77367437e-01, 2.50210285e-01, 3.77367437e-01,
          3.69297452e-02, 4.42079902e-02, 6.06050670e-01, 7.48414516e-01,
          1.90122962e-01, 5.45447692e-02, 1.39595479e-01, 4.45442386e-02,
          3.46012786e-02, 3.37855458e-01, 3.37855458e-01, 2.88883954e-01,
          3.37855458e-01, 3.37855458e-01, 3.37855458e-01, 3.37855458e-01,
          3.37855458e-01, 3.37855458e-01, 3.74194801e-01, 3.43643904e-01,
          1.61409408e-01, 1.09484985e-01, 3.74194801e-01, 3.74194801e-01,
          3.74194801e-01, 3.74194801e-01, 3.74194801e-01, 1.30704120e-01,
          3.11015189e-01, 4.26811934e-01, 4.26811934e-01, 3.37298155e-01,
          3.95511895e-01, 4.26811934e-01, 2.01234996e-01, 1.57231808e-01,
          4.40102190e-01, 2.13302493e-01, 2.86929816e-01, 4.40102190e-01,
          4.40102190e-01, 9.10929590e-02, 1.90540254e-01, 2.20031410e-01,
          4.40102190e-01, 3.95428151e-01, 6.28317222e-02, 2.25717098e-01,
          3.01817328e-01, 3.95428151e-01, 2.61232942e-01, 3.95428151e-01,
          3.95428151e-01, 3.95428151e-01, 1.30130664e-01, 4.21684712e-01,
          4.21684712e-01, 1.29527152e-01, 3.30635011e-01, 2.10619017e-01,
          4.21684712e-01, 4.21684712e-01, 3.11648250e-01, 4.40102190e-01,
          2.13302493e-01, 2.86929816e-01, 4.40102190e-01, 4.40102190e-01,
          9.10929590e-02, 1.90540254e-01, 2.20031410e-01, 4.40102190e-01,
          3.95428151e-01, 6.28317222e-02, 2.25717098e-01, 3.01817328e-01,
          3.95428151e-01, 2.61232942e-01, 3.95428151e-01, 3.95428151e-01,
          3.95428151e-01, 1.30130664e-01, 4.21684712e-01, 4.21684712e-01,
          1.29527152e-01, 3.30635011e-01, 2.10619017e-01, 4.21684712e-01,
          4.21684712e-01, 3.11648250e-01, 3.52206409e-01, 3.52206409e-01,
          3.49860132e-01, 3.52206409e-01, 3.52206409e-01, 3.52206409e-01,
          7.57203922e-02, 3.52206409e-01, 3.52206409e-01, 3.50146025e-01,
          5.57798930e-02, 1.07547864e-01, 4.02982146e-01, 4.02982146e-01,
          2.16150612e-01, 4.02982146e-01, 4.02982146e-01, 4.02982146e-01,
          3.75624865e-01, 3.75624865e-01, 3.75624865e-01, 3.10038775e-01,
          3.28547299e-01, 1.27360046e-01, 3.75624865e-01, 3.75624865e-01,
          2.65498102e-01, 3.44168037e-01, 3.44168037e-01, 3.44168037e-01,
          3.44168037e-01, 3.13889354e-01, 3.44168037e-01, 3.44168037e-01,
          2.62437135e-01, 3.44168037e-01, 3.72846812e-01, 2.54894555e-01,
          3.72846812e-01, 3.72846812e-01, 1.92915291e-01, 2.44947210e-01,
          3.72846812e-01, 3.72846812e-01, 3.72846812e-01, 5.85951746e-01,
          5.85951746e-01, 1.18838899e-01, 3.28877121e-02, 2.59490721e-02,
          2.89309379e-02, 4.60083783e-01, 2.67058045e-01, 8.80814046e-02 ]
      - [ 7.02411652e-01, 7.02411652e-01, 5.43284416e-02, 3.77170363e-04,
          1.96578470e-03, 8.64746142e-03, 4.47707158e-03, 3.28206317e-03,
          5.62394261e-02, 5.37615120e-01, 5.37615120e-01, 2.98851710e-02,
          4.06485004e-03, 6.14753179e-02, 5.37615120e-01, 1.02493174e-01,
          2.60640010e-02, 3.34167689e-01, 3.93132210e-01, 2.16857567e-01,
          3.93132210e-01, 1.90885812e-01, 2.40655646e-01, 3.93132210e-01,
          3.33059251e-01, 3.54334116e-01, 3.93132210e-01, 4.07248497e-01,
          6.49534583e-01, 4.73958045e-01, 2.02877931e-02, 1.67063549e-02,
          9.32674631e-02, 4.02727485e-01, 8.81657526e-02, 4.21955213e-02,
          4.20652270e-01, 3.64815176e-01, 2.47331619e-01, 7.59394392e-02,
          2.07842946e-01, 4.31243747e-01, 4.31243747e-01, 1.80405915e-01,
          4.13553804e-01, 3.36839944e-01, 3.36839944e-01, 3.36839944e-01,
          2.98236728e-01, 3.36839944e-01, 3.36839944e-01, 3.36839944e-01,
          3.36839944e-01, 3.36839944e-01, 5.05824424e-02, 5.89062631e-01,
          5.89062631e-01, 8.88178870e-02, 1.10256150e-02, 2.24864390e-02,
          4.33629453e-01, 2.79199362e-01, 1.51879013e-01, 4.41168129e-01,
          1.00588568e-01, 5.32110743e-02, 3.79054360e-02, 3.58825594e-01,
          4.41168129e-01, 4.41168129e-01, 2.71907926e-01, 4.41168129e-01,
          4.39119637e-01, 1.78174689e-01, 4.57979403e-02, 2.69872636e-01,
          4.39119637e-01, 4.39119637e-01, 9.61839855e-02, 3.29215854e-01,
          4.39119637e-01, 5.05824424e-02, 5.89062631e-01, 5.89062631e-01,
          8.88178870e-02, 1.10256150e-02, 2.24864390e-02, 4.33629453e-01,
          2.79199362e-01, 1.51879013e-01, 4.41168129e-01, 1.00588568e-01,
          5.32110743e-02, 3.79054360e-02, 3.58825594e-01, 4.41168129e-01,
          4.41168129e-01, 2.71907926e-01, 4.41168129e-01, 4.39119637e-01,
          1.78174689e-01, 4.57979403e-02, 2.69872636e-01, 4.39119637e-01,
          4.39119637e-01, 9.61839855e-02, 3.29215854e-01, 4.39119637e-01,
          2.70398408e-02, 1.68437392e-01, 6.30132020e-01, 6.30132020e-01,
          4.24092412e-02, 2.60397838e-03, 3.94939423e-01, 1.10242501e-01,
          2.31876597e-02, 3.40570062e-01, 4.53595310e-01, 3.12671900e-01,
          1.50753826e-01, 1.95347860e-01, 4.53595310e-01, 4.53595310e-01,
          3.14667881e-01, 6.75879493e-02, 3.97667855e-01, 3.97667855e-01,
          1.31484345e-01, 3.34788859e-01, 3.97667855e-01, 3.97667855e-01,
          1.36164591e-01, 2.39616796e-01, 3.97667855e-01, 1.58725996e-02,
          3.58336009e-02, 6.73786104e-01, 6.73786104e-01, 2.36363426e-01,
          4.43751737e-02, 1.47002965e-01, 6.35211244e-02, 1.67485345e-02,
          2.98975520e-02, 1.10347286e-01, 3.15130323e-01, 4.19916689e-01,
          4.19916689e-01, 4.21621688e-02, 4.19916689e-01, 4.19916689e-01,
          4.19916689e-01, 4.20651883e-01, 1.36983752e-01, 1.28177032e-01,
          4.20651883e-01, 4.20651883e-01, 4.20651883e-01, 8.87159854e-02,
          2.60755748e-01, 4.20651883e-01, 3.93132210e-01, 2.16857567e-01,
          3.93132210e-01, 1.90885812e-01, 2.40655646e-01, 3.93132210e-01,
          3.33059251e-01, 3.54334116e-01, 3.93132210e-01, 3.00358921e-01,
          1.56635329e-01, 5.17467439e-01, 2.06300318e-01, 1.28170222e-01,
          1.19651340e-01, 5.88251054e-02, 5.17467439e-01, 5.17467439e-01,
          3.32546756e-02, 1.67846482e-03, 1.84565829e-03, 4.39127092e-04,
          7.08014239e-04, 2.81962391e-04, 1.08188160e-01, 7.00069308e-01,
          7.00069308e-01, 3.36839944e-01, 3.36839944e-01, 3.36839944e-01,
          2.98236728e-01, 3.36839944e-01, 3.36839944e-01, 3.36839944e-01,
          3.36839944e-01, 3.36839944e-01, 3.53442013e-01, 4.41826582e-01,
          4.41826582e-01, 4.41826582e-01, 3.58325750e-01, 1.14533715e-01,
          2.23782659e-01, 2.57189751e-01, 1.65204629e-01, 3.46623771e-02,
          5.25840893e-02, 1.58567727e-01, 5.31010181e-02, 6.30845651e-02,
          3.68815437e-02, 5.64827383e-01, 5.64827383e-01, 5.64827383e-01,
          4.39119637e-01, 1.78174689e-01, 4.57979403e-02, 2.69872636e-01,
          4.39119637e-01, 4.39119637e-01, 9.61839855e-02, 3.29215854e-01,
          4.39119637e-01, 4.04091686e-01, 4.04091686e-01, 3.99169147e-01,
          4.04091686e-01, 4.04091686e-01, 8.64567682e-02, 6.75510690e-02,
          1.83460280e-01, 3.71175230e-01, 1.06058411e-01, 1.42872691e-01,
          2.58463472e-01, 1.17052339e-01, 4.67655957e-02, 1.12955131e-01,
          6.53246820e-01, 6.53246820e-01, 1.13595672e-01, 4.39119637e-01,
          1.78174689e-01, 4.57979403e-02, 2.69872636e-01, 4.39119637e-01,
          4.39119637e-01, 9.61839855e-02, 3.29215854e-01, 4.39119637e-01,
          4.04091686e-01, 4.04091686e-01, 3.99169147e-01, 4.04091686e-01,
          4.04091686e-01, 8.64567682e-02, 6.75510690e-02, 1.83460280e-01,
          3.71175230e-01, 1.06058411e-01, 1.42872691e-01, 2.58463472e-01,
          1.17052339e-01, 4.67655957e-02, 1.12955131e-01, 6.53246820e-01,
          6.53246820e-01, 1.13595672e-01, 3.97667855e-01, 3.97667855e-01,
          1.31484345e-01, 3.34788859e-01, 3.97667855e-01, 3.97667855e-01,
          1.36164591e-01, 2.39616796e-01, 3.97667855e-01, 1.11315332e-01,
          2.80525476e-01, 4.20871645e-01, 4.20871645e-01, 3.22611094e-01,
          2.03133047e-01, 2.25471616e-01, 4.20871645e-01, 4.20871645e-01,
          4.24643746e-03, 1.92799583e-01, 5.29594839e-01, 3.15901130e-01,
          3.47182974e-02, 5.29594839e-01, 5.29594839e-01, 1.22918218e-01,
          1.27604813e-03, 4.20651883e-01, 1.36983752e-01, 1.28177032e-01,
          4.20651883e-01, 4.20651883e-01, 4.20651883e-01, 8.87159854e-02,
          2.60755748e-01, 4.20651883e-01, 4.27100003e-01, 4.27100003e-01,
          3.72081757e-01, 6.97731003e-02, 4.27100003e-01, 4.27100003e-01,
          2.65134960e-01, 2.15099320e-01, 7.87319615e-02, 2.25560106e-02,
          2.98167437e-01, 2.16753647e-01, 2.41363775e-02, 1.78274512e-01,
          6.42085493e-01, 6.42085493e-01, 1.68196876e-02, 0. ]
      - [ 4.76187050e-01, 4.76187050e-01, 9.31026414e-02, 1.07211486e-01,
          3.81309271e-01, 4.76187050e-01, 3.06049287e-01, 1.94350630e-01,
          1.34104908e-01, 5.39998949e-01, 5.39998949e-01, 4.21870872e-02,
          1.81165487e-02, 2.92074442e-01, 3.47493827e-01, 3.60994153e-02,
          1.35695757e-02, 4.49171364e-01, 4.94762868e-01, 1.05110504e-01,
          1.57055855e-02, 4.43921462e-02, 4.94762868e-01, 4.94762868e-01,
          4.64022234e-02, 2.18778700e-02, 4.94762868e-01, 6.58488691e-01,
          6.58488691e-01, 2.44371325e-01, 3.05655673e-02, 7.71920756e-02,
          1.04143120e-01, 2.17640474e-01, 3.45375240e-02, 1.39623983e-02,
          3.52514625e-01, 3.24092388e-01, 9.30961967e-02, 7.80838430e-02,
          4.76220042e-01, 4.76220042e-01, 4.76220042e-01, 1.95567667e-01,
          1.80481419e-01, 4.56564665e-01, 4.56564665e-01, 8.88242051e-02,
          1.41947508e-01, 4.56564665e-01, 4.56564665e-01, 2.93717802e-01,
          1.06432267e-01, 1.89730331e-01, 1.30027175e-01, 5.41369975e-01,
          5.41369975e-01, 2.05478203e-02, 4.60570715e-02, 5.79211824e-02,
          5.41369975e-01, 2.95136422e-01, 7.37461597e-02, 4.27124560e-01,
          9.97198224e-02, 8.26301351e-02, 3.54694612e-02, 2.70223171e-01,
          4.18259799e-01, 4.27124560e-01, 4.27124560e-01, 4.27124560e-01,
          5.05046487e-01, 1.50721192e-01, 7.46827126e-02, 1.91595078e-01,
          5.05046487e-01, 1.55515775e-01, 9.49439555e-02, 3.62680942e-01,
          5.05046487e-01, 1.30027175e-01, 5.41369975e-01, 5.41369975e-01,
          2.05478203e-02, 4.60570715e-02, 5.79211824e-02, 5.41369975e-01,
          2.95136422e-01, 7.37461597e-02, 4.27124560e-01, 9.97198224e-02,
          8.26301351e-02, 3.54694612e-02, 2.70223171e-01, 4.18259799e-01,
          4.27124560e-01, 4.27124560e-01, 4.27124560e-01, 5.05046487e-01,
          1.50721192e-01, 7.46827126e-02, 1.91595078e-01, 5.05046487e-01,
          1.55515775e-01, 9.49439555e-02, 3.62680942e-01, 5.05046487e-01,
          1.16856098e-02, 1.72686145e-01, 5.02025366e-01, 5.02025366e-01,
          3.54510359e-02, 4.33081418e-01, 5.02025366e-01, 1.39326051e-01,
          2.66927462e-02, 4.39105272e-01, 3.79094183e-01, 2.50358760e-01,
          9.85541940e-03, 4.39105272e-01, 4.39105272e-01, 4.39105272e-01,
          8.71547610e-02, 1.01366654e-01, 4.65085566e-01, 1.01964749e-01,
          2.87693813e-02, 4.18035418e-01, 4.65085566e-01, 3.77104372e-01,
          1.53226824e-02, 1.34239420e-01, 4.65085566e-01, 8.09636265e-02,
          5.32327145e-02, 5.08221686e-01, 5.08221686e-01, 1.17201462e-01,
          5.99119700e-02, 5.08221686e-01, 3.93333495e-01, 1.96547285e-01,
          2.09500819e-01, 3.73974651e-01, 3.73974651e-01, 3.73974651e-01,
          2.19870657e-01, 2.54731268e-01, 3.73974651e-01, 3.73974651e-01,
          3.73974651e-01, 4.39578980e-01, 1.37607604e-01, 1.89350694e-01,
          4.39578980e-01, 4.39578980e-01, 3.59500021e-01, 5.15316427e-02,
          1.89749733e-01, 4.39578980e-01, 4.94762868e-01, 1.05110504e-01,
          1.57055855e-02, 4.43921462e-02, 4.94762868e-01, 4.94762868e-01,
          4.64022234e-02, 2.18778700e-02, 4.94762868e-01, 3.65813881e-01,
          2.43464872e-01, 3.99096310e-01, 3.10936213e-01, 3.99096310e-01,
          3.99096310e-01, 1.27393514e-01, 2.29991779e-01, 3.99096310e-01,
          1.78415790e-01, 1.38923675e-01, 3.31511289e-01, 5.20803094e-01,
          1.38112947e-01, 2.65291203e-02, 1.67524125e-02, 5.20803094e-01,
          5.20803094e-01, 4.56564665e-01, 4.56564665e-01, 8.88242051e-02,
          1.41947508e-01, 4.56564665e-01, 4.56564665e-01, 2.93717802e-01,
          1.06432267e-01, 1.89730331e-01, 2.64036953e-01, 4.14172083e-01,
          4.14172083e-01, 2.60804027e-01, 3.29807818e-01, 3.17505747e-01,
          4.14172083e-01, 3.14765275e-01, 1.86688066e-01, 2.45048944e-02,
          3.31748873e-01, 5.19584239e-01, 1.91372082e-01, 1.56638160e-01,
          2.15224195e-02, 1.12374067e-01, 5.19584239e-01, 5.19584239e-01,
          5.05046487e-01, 1.50721192e-01, 7.46827126e-02, 1.91595078e-01,
          5.05046487e-01, 1.55515775e-01, 9.49439555e-02, 3.62680942e-01,
          5.05046487e-01, 3.63912851e-01, 3.63912851e-01, 3.63912851e-01,
          3.51565033e-01, 3.63912851e-01, 1.23218633e-01, 2.50974178e-01,
          3.63912851e-01, 3.63912851e-01, 4.45957989e-01, 4.45957989e-01,
          4.45957989e-01, 4.02820587e-01, 2.73940146e-01, 5.13826534e-02,
          2.14669839e-01, 3.19752157e-01, 1.03137478e-01, 5.05046487e-01,
          1.50721192e-01, 7.46827126e-02, 1.91595078e-01, 5.05046487e-01,
          1.55515775e-01, 9.49439555e-02, 3.62680942e-01, 5.05046487e-01,
          3.63912851e-01, 3.63912851e-01, 3.63912851e-01, 3.51565033e-01,
          3.63912851e-01, 1.23218633e-01, 2.50974178e-01, 3.63912851e-01,
          3.63912851e-01, 4.45957989e-01, 4.45957989e-01, 4.45957989e-01,
          4.02820587e-01, 2.73940146e-01, 5.13826534e-02, 2.14669839e-01,
          3.19752157e-01, 1.03137478e-01, 4.65085566e-01, 1.01964749e-01,
          2.87693813e-02, 4.18035418e-01, 4.65085566e-01, 3.77104372e-01,
          1.53226824e-02, 1.34239420e-01, 4.65085566e-01, 3.52150857e-01,
          1.11433953e-01, 4.09255624e-01, 4.12237614e-01, 4.12237614e-01,
          1.29107172e-02, 1.09718367e-01, 4.12237614e-01, 4.12237614e-01,
          2.94778615e-01, 3.57175142e-01, 4.50474173e-01, 4.50474173e-01,
          1.62275597e-01, 3.42792511e-01, 4.50474173e-01, 1.47157863e-01,
          8.21909234e-02, 4.39578980e-01, 1.37607604e-01, 1.89350694e-01,
          4.39578980e-01, 4.39578980e-01, 3.59500021e-01, 5.15316427e-02,
          1.89749733e-01, 4.39578980e-01, 3.50608557e-01, 3.50608557e-01,
          3.50608557e-01, 2.62872696e-01, 3.50608557e-01, 3.50608557e-01,
          3.50608557e-01, 3.50608557e-01, 2.58670181e-01, 8.04087445e-02,
          5.02258599e-01, 5.02258599e-01, 1.40041605e-01, 1.59927800e-01,
          5.02258599e-01, 4.27273482e-01, 6.11024313e-02, 1.55752683e-02 ]
      - [ 5.42204261e-01, 2.46683970e-01, 1.44600511e-01, 1.86010730e-02,
          1.89856991e-01, 4.00588781e-01, 2.13372678e-01, 2.87160605e-01,
          5.42204261e-01, 4.22083676e-01, 8.49782005e-02, 1.87371626e-01,
          6.13324866e-02, 4.22083676e-01, 4.22083676e-01, 4.22083676e-01,
          2.42733106e-01, 4.22083676e-01, 4.32785660e-01, 4.04793210e-02,
          6.54274300e-02, 4.39322591e-02, 4.32785660e-01, 4.32785660e-01,
          3.88586462e-01, 2.95997053e-01, 4.32785660e-01, 5.12030907e-02,
          1.52060255e-01, 1.17184825e-01, 8.08029547e-02, 4.67923313e-01,
          6.00948751e-01, 6.00948751e-01, 5.86262383e-02, 5.76723404e-02,
          4.53207642e-01, 4.53207642e-01, 3.18117410e-01, 2.28665471e-01,
          4.53207642e-01, 4.53207642e-01, 9.96809676e-02, 2.84906179e-02,
          9.82330069e-02, 4.27065998e-01, 4.27065998e-01, 8.28896910e-02,
          1.08190171e-01, 4.27065998e-01, 4.27065998e-01, 4.10221487e-01,
          1.46217838e-01, 2.40739226e-01, 4.55688924e-01, 4.55688924e-01,
          3.35111260e-01, 7.37259611e-02, 2.41739184e-01, 4.55688924e-01,
          3.59204412e-01, 2.03839354e-02, 2.58601993e-01, 4.13571656e-01,
          4.13571656e-01, 4.13571656e-01, 1.37545869e-01, 3.16310316e-01,
          4.13571656e-01, 4.13571656e-01, 8.19581673e-02, 1.22363642e-01,
          5.15342534e-01, 5.15342534e-01, 4.03271168e-01, 6.54905811e-02,
          3.49090695e-01, 3.96201760e-01, 1.23554751e-01, 3.03838085e-02,
          4.18544821e-02, 4.55688924e-01, 4.55688924e-01, 3.35111260e-01,
          7.37259611e-02, 2.41739184e-01, 4.55688924e-01, 3.59204412e-01,
          2.03839354e-02, 2.58601993e-01, 4.13571656e-01, 4.13571656e-01,
          4.13571656e-01, 1.37545869e-01, 3.16310316e-01, 4.13571656e-01,
          4.13571656e-01, 8.19581673e-02, 1.22363642e-01, 5.15342534e-01,
          5.15342534e-01, 4.03271168e-01, 6.54905811e-02, 3.49090695e-01,
          3.96201760e-01, 1.23554751e-01, 3.03838085e-02, 4.18544821e-02,
          4.74620402e-01, 1.58020020e-01, 4.23109420e-02, 1.74348336e-02,
          4.67321366e-01, 4.74620402e-01, 2.64575541e-01, 6.33386523e-02,
          4.74620402e-01, 5.26482880e-01, 5.26482880e-01, 2.86847591e-01,
          3.21619585e-03, 2.27182791e-01, 3.97613823e-01, 3.47908735e-01,
          1.07775569e-01, 1.25367880e-01, 6.80368125e-01, 6.80368125e-01,
          2.28230402e-01, 4.52110395e-02, 0., 6.58585131e-02,
          8.20964724e-02, 8.82398430e-03, 4.60233614e-02, 6.87709078e-02,
          4.48472470e-01, 4.48472470e-01, 1.22900158e-01, 4.13654208e-01,
          4.48472470e-01, 4.48472470e-01, 1.60027586e-03, 8.00543185e-03,
          2.15806961e-01, 6.65887415e-01, 6.65887415e-01, 3.29364911e-02,
          8.96992758e-02, 1.81538939e-01, 1.24148928e-01, 4.68848906e-02,
          1.64105203e-02, 4.13446993e-01, 4.13446993e-01, 4.13446993e-01,
          1.27210423e-01, 2.05375208e-03, 2.90678263e-01, 4.13446993e-01,
          4.13446993e-01, 2.01239079e-01, 4.32785660e-01, 4.04793210e-02,
          6.54274300e-02, 4.39322591e-02, 4.32785660e-01, 4.32785660e-01,
          3.88586462e-01, 2.95997053e-01, 4.32785660e-01, 4.19663876e-01,
          4.19663876e-01, 1.23688206e-02, 1.25092687e-03, 4.47746143e-02,
          3.78713757e-01, 4.19663876e-01, 4.19663876e-01, 3.81776512e-01,
          5.90699136e-01, 5.90699136e-01, 2.40071453e-02, 1.80118755e-02,
          2.25999299e-02, 8.37052539e-02, 3.46064925e-01, 1.91184327e-01,
          3.62657249e-01, 4.27065998e-01, 4.27065998e-01, 8.28896910e-02,
          1.08190171e-01, 4.27065998e-01, 4.27065998e-01, 4.10221487e-01,
          1.46217838e-01, 2.40739226e-01, 6.35207593e-01, 6.35207593e-01,
          8.24240036e-03, 6.40892750e-03, 5.52371107e-02, 2.03227848e-01,
          3.64621490e-01, 6.85818195e-02, 6.75764456e-02, 6.69757068e-01,
          6.69757068e-01, 1.24570228e-01, 1.73701923e-02, 3.17842147e-04,
          3.35099455e-03, 9.00400504e-02, 1.94395274e-01, 1.85572609e-01,
          5.15342534e-01, 5.15342534e-01, 4.03271168e-01, 6.54905811e-02,
          3.49090695e-01, 3.96201760e-01, 1.23554751e-01, 3.03838085e-02,
          4.18544821e-02, 6.66463494e-01, 6.66463494e-01, 3.06359649e-01,
          1.48604158e-02, 1.97076797e-02, 2.96185352e-02, 7.66063407e-02,
          5.70339486e-02, 2.31370777e-02, 4.59975690e-01, 4.59975690e-01,
          5.31763248e-02, 4.13694885e-03, 1.27115217e-03, 1.78889520e-02,
          4.59975690e-01, 4.59975690e-01, 3.82006019e-01, 5.15342534e-01,
          5.15342534e-01, 4.03271168e-01, 6.54905811e-02, 3.49090695e-01,
          3.96201760e-01, 1.23554751e-01, 3.03838085e-02, 4.18544821e-02,
          6.66463494e-01, 6.66463494e-01, 3.06359649e-01, 1.48604158e-02,
          1.97076797e-02, 2.96185352e-02, 7.66063407e-02, 5.70339486e-02,
          2.31370777e-02, 4.59975690e-01, 4.59975690e-01, 5.31763248e-02,
          4.13694885e-03, 1.27115217e-03, 1.78889520e-02, 4.59975690e-01,
          4.59975690e-01, 3.82006019e-01, 6.80368125e-01, 6.80368125e-01,
          2.28230402e-01, 4.52110395e-02, 0., 6.58585131e-02,
          8.20964724e-02, 8.82398430e-03, 4.60233614e-02, 3.00413966e-01,
          6.27060115e-01, 6.27060115e-01, 1.88194424e-01, 1.02944411e-01,
          1.73123822e-01, 2.01695472e-01, 2.01539733e-02, 2.87086167e-03,
          2.54910856e-01, 4.98760074e-01, 4.98760074e-01, 1.68906599e-02,
          3.49788442e-02, 1.86118305e-01, 4.98760074e-01, 3.69227529e-01,
          1.06190331e-01, 4.13446993e-01, 4.13446993e-01, 4.13446993e-01,
          1.27210423e-01, 2.05375208e-03, 2.90678263e-01, 4.13446993e-01,
          4.13446993e-01, 2.01239079e-01, 1.38775364e-01, 6.32694364e-01,
          6.32694364e-01, 2.56191522e-01, 1.30190268e-01, 2.71365911e-01,
          9.45398435e-02, 8.77441093e-02, 3.09881605e-02, 3.25911254e-01,
          6.33085728e-01, 6.33085728e-01, 2.09138796e-01, 1.87745973e-01,
          5.26348688e-02, 4.24023047e-02, 4.43652682e-02, 1.84867028e-02 ]
      - [ 4.47318405e-01, 4.47318405e-01, 8.98880363e-02, 2.31429730e-02,
          1.58130169e-01, 4.47318405e-01, 4.47318405e-01, 8.58055353e-02,
          3.92649472e-01, 3.76864761e-01, 4.60664719e-01, 4.77908701e-01,
          2.67411713e-02, 3.94716531e-01, 4.77908701e-01, 1.37889147e-01,
          3.02860104e-02, 8.80188346e-02, 3.67694944e-01, 3.67694944e-01,
          3.67694944e-01, 2.32001431e-02, 3.58416200e-01, 2.60712296e-01,
          3.67694944e-01, 3.51222396e-01, 3.67694944e-01, 2.55941957e-01,
          4.06987429e-01, 7.59258196e-02, 1.14868246e-02, 7.12451562e-02,
          6.06160879e-01, 6.06160879e-01, 1.14086717e-01, 6.28667101e-02,
          5.08999154e-02, 5.20325303e-01, 5.20325303e-01, 9.04233009e-03,
          6.14230707e-02, 4.70002800e-01, 4.49271083e-01, 1.53397948e-01,
          2.45631263e-02, 1.29217906e-02, 5.28895259e-01, 5.28895259e-01,
          1.43263377e-02, 1.14149763e-03, 4.34825895e-03, 5.28895259e-01,
          3.93822789e-01, 6.23209868e-03, 1.29250288e-01, 1.58681467e-01,
          9.92783681e-02, 2.98296791e-02, 6.90905973e-02, 6.42913759e-01,
          6.42913759e-01, 3.23435068e-01, 6.99274242e-02, 5.05580939e-02,
          6.43054962e-01, 6.43054962e-01, 3.98574285e-02, 3.94376367e-02,
          1.53503239e-01, 3.23009074e-01, 1.71469718e-01, 5.95003180e-02,
          6.86724263e-04, 5.39606333e-01, 5.39606333e-01, 5.83367003e-03,
          0., 2.14882777e-03, 5.39606333e-01, 3.47903103e-01,
          3.24481004e-03, 1.29250288e-01, 1.58681467e-01, 9.92783681e-02,
          2.98296791e-02, 6.90905973e-02, 6.42913759e-01, 6.42913759e-01,
          3.23435068e-01, 6.99274242e-02, 5.05580939e-02, 6.43054962e-01,
          6.43054962e-01, 3.98574285e-02, 3.94376367e-02, 1.53503239e-01,
          3.23009074e-01, 1.71469718e-01, 5.95003180e-02, 6.86724263e-04,
          5.39606333e-01, 5.39606333e-01, 5.83367003e-03, 0.,
          2.14882777e-03, 5.39606333e-01, 3.47903103e-01, 3.24481004e-03,
          1.31216049e-01, 3.41610968e-01, 4.66052622e-01, 2.33268529e-01,
          1.17480777e-01, 3.30543518e-01, 4.66052622e-01, 4.59596336e-01,
          1.95742950e-01, 3.27981263e-01, 4.69330132e-01, 4.69330132e-01,
          9.96777229e-03, 6.58598915e-03, 1.60114057e-02, 7.91099444e-02,
          4.69330132e-01, 4.69330132e-01, 3.88743952e-02, 5.07983267e-01,
          5.07983267e-01, 9.28811787e-04, 0., 2.06617434e-02,
          5.07983267e-01, 4.12288368e-01, 2.21054405e-01, 5.45329638e-02,
          4.07389611e-01, 4.81892645e-01, 1.51637673e-01, 6.65461794e-02,
          1.01302750e-01, 4.81892645e-01, 4.81892645e-01, 3.03151220e-01,
          7.75593296e-02, 5.09451866e-01, 5.09451866e-01, 3.11353594e-01,
          8.04885197e-03, 7.83052575e-03, 3.05951275e-02, 3.60944510e-01,
          4.91457134e-01, 4.26614046e-01, 4.26614046e-01, 4.26614046e-01,
          1.27934024e-01, 3.88347656e-02, 3.40044051e-02, 2.58281142e-01,
          4.26614046e-01, 4.26614046e-01, 3.67694944e-01, 3.67694944e-01,
          3.67694944e-01, 2.32001431e-02, 3.58416200e-01, 2.60712296e-01,
          3.67694944e-01, 3.51222396e-01, 3.67694944e-01, 2.53437221e-01,
          3.50765325e-02, 4.15188782e-02, 3.39776129e-01, 4.88418102e-01,
          1.35606274e-01, 4.88418102e-01, 4.88418102e-01, 2.80077904e-01,
          1.75626010e-01, 4.34171073e-02, 3.36290181e-01, 5.31640172e-01,
          4.76291209e-01, 5.86804040e-02, 1.06257126e-01, 4.69206780e-01,
          3.23243886e-01, 1.29217906e-02, 5.28895259e-01, 5.28895259e-01,
          1.43263377e-02, 1.14149763e-03, 4.34825895e-03, 5.28895259e-01,
          3.93822789e-01, 6.23209868e-03, 8.10310151e-03, 4.46926020e-02,
          6.74088448e-02, 9.87423304e-03, 1.18158692e-02, 1.07768606e-02,
          7.01990545e-01, 7.01990545e-01, 2.12276448e-02, 5.86291999e-02,
          1.83481589e-01, 4.64495420e-01, 4.64495420e-01, 3.40968758e-01,
          1.08508699e-01, 3.50294232e-01, 4.64495420e-01, 2.45458111e-01,
          6.86724263e-04, 5.39606333e-01, 5.39606333e-01, 5.83367003e-03,
          0., 2.14882777e-03, 5.39606333e-01, 3.47903103e-01,
          3.24481004e-03, 1.75188527e-01, 7.79997557e-02, 9.73709449e-02,
          1.01869125e-02, 1.03313494e-02, 8.76751542e-03, 6.86858356e-01,
          6.86858356e-01, 5.52355833e-02, 4.71059561e-01, 1.09631836e-01,
          1.62720844e-01, 4.81837392e-02, 1.90742373e-01, 1.74656928e-01,
          4.71059561e-01, 4.71059561e-01, 4.71059561e-01, 6.86724263e-04,
          5.39606333e-01, 5.39606333e-01, 5.83367003e-03, 0.,
          2.14882777e-03, 5.39606333e-01, 3.47903103e-01, 3.24481004e-03,
          1.75188527e-01, 7.79997557e-02, 9.73709449e-02, 1.01869125e-02,
          1.03313494e-02, 8.76751542e-03, 6.86858356e-01, 6.86858356e-01,
          5.52355833e-02, 4.71059561e-01, 1.09631836e-01, 1.62720844e-01,
          4.81837392e-02, 1.90742373e-01, 1.74656928e-01, 4.71059561e-01,
          4.71059561e-01, 4.71059561e-01, 3.88743952e-02, 5.07983267e-01,
          5.07983267e-01, 9.28811787e-04, 0., 2.06617434e-02,
          5.07983267e-01, 4.12288368e-01, 2.21054405e-01, 4.93246406e-01,
          4.93246406e-01, 7.81037584e-02, 9.65860393e-03, 4.47202986e-03,
          1.56152677e-02, 4.93246406e-01, 4.93246406e-01, 1.24290183e-01,
          5.07050216e-01, 4.25395101e-01, 6.45228624e-02, 3.94348875e-02,
          2.73666084e-02, 3.30861807e-02, 5.07050216e-01, 5.07050216e-01,
          1.87384844e-01, 4.26614046e-01, 4.26614046e-01, 4.26614046e-01,
          1.27934024e-01, 3.88347656e-02, 3.40044051e-02, 2.58281142e-01,
          4.26614046e-01, 4.26614046e-01, 4.45720017e-01, 4.45720017e-01,
          4.99429628e-02, 1.53746121e-02, 3.40530463e-02, 4.45720017e-01,
          4.45720017e-01, 3.92619044e-01, 2.06983998e-01, 1.02227665e-01,
          5.30284524e-01, 1.15475416e-01, 3.67111601e-02, 5.74577302e-02,
          4.00947124e-01, 6.01185739e-01, 4.01072353e-01, 3.63219045e-02 ]
      - [ 4.96644497e-01, 4.96644497e-01, 2.27938369e-01, 5.86487725e-03,
          3.52945589e-02, 4.96644497e-01, 3.82191569e-01, 1.43706441e-01,
          1.87388822e-01, 4.51853663e-01, 4.51853663e-01, 2.55627036e-01,
          8.90427362e-03, 1.15047075e-01, 4.51853663e-01, 4.51853663e-01,
          2.23373264e-01, 2.24151000e-01, 3.48868191e-01, 3.48868191e-01,
          3.48868191e-01, 1.51136473e-01, 3.48868191e-01, 3.48868191e-01,
          3.48868191e-01, 3.48868191e-01, 3.48868191e-01, 2.22580492e-01,
          4.64626312e-01, 4.64626312e-01, 2.44053900e-01, 2.48487368e-02,
          4.64626312e-01, 4.64626312e-01, 1.14503123e-01, 9.49520916e-02,
          2.44534254e-01, 3.78419042e-01, 3.78419042e-01, 3.78419042e-01,
          1.43500656e-01, 3.07757020e-01, 3.78419042e-01, 3.78419042e-01,
          3.24207813e-01, 3.62636268e-01, 3.62636268e-01, 3.62636268e-01,
          1.68647170e-01, 3.62636268e-01, 3.22698087e-01, 2.73442209e-01,
          3.62636268e-01, 3.62636268e-01, 1.86127409e-01, 2.66643137e-01,
          4.10535902e-01, 4.10535902e-01, 1.27062678e-01, 3.34622264e-01,
          4.10535902e-01, 4.10535902e-01, 2.96447128e-01, 4.56177950e-01,
          3.66351366e-01, 3.77125204e-01, 4.56177950e-01, 4.56177950e-01,
          1.47943869e-01, 2.17331797e-02, 9.27967727e-02, 2.52469510e-01,
          4.62237418e-01, 1.28723592e-01, 2.31226813e-02, 3.42119545e-01,
          4.62237418e-01, 4.62237418e-01, 4.85419761e-03, 8.09660554e-02,
          4.62237418e-01, 1.86127409e-01, 2.66643137e-01, 4.10535902e-01,
          4.10535902e-01, 1.27062678e-01, 3.34622264e-01, 4.10535902e-01,
          4.10535902e-01, 2.96447128e-01, 4.56177950e-01, 3.66351366e-01,
          3.77125204e-01, 4.56177950e-01, 4.56177950e-01, 1.47943869e-01,
          2.17331797e-02, 9.27967727e-02, 2.52469510e-01, 4.62237418e-01,
          1.28723592e-01, 2.31226813e-02, 3.42119545e-01, 4.62237418e-01,
          4.62237418e-01, 4.85419761e-03, 8.09660554e-02, 4.62237418e-01,
          1.09091341e-01, 4.46873873e-01, 4.46873873e-01, 2.97064781e-01,
          1.86896190e-01, 1.19098425e-01, 4.46873873e-01, 4.46873873e-01,
          2.17917681e-01, 4.24350351e-01, 4.24350351e-01, 4.24350351e-01,
          4.49880548e-02, 2.26246282e-01, 4.24350351e-01, 4.24350351e-01,
          1.90186620e-01, 7.75406063e-02, 5.17175734e-01, 1.04789749e-01,
          9.36792791e-03, 1.58362463e-01, 5.17175734e-01, 5.17175734e-01,
          1.60889730e-01, 9.54338014e-02, 3.48256111e-01, 2.05123834e-02,
          2.12505922e-01, 4.73657280e-01, 4.73657280e-01, 2.21907780e-01,
          1.88784115e-02, 5.18198386e-02, 4.73657280e-01, 4.73657280e-01,
          2.64441390e-02, 2.31934205e-01, 4.42499846e-01, 4.42499846e-01,
          2.13394180e-01, 1.03589728e-01, 3.18739444e-01, 4.42499846e-01,
          4.42499846e-01, 4.76088524e-01, 3.60329403e-04, 1.49498200e-02,
          3.37826550e-01, 4.76088524e-01, 1.67501688e-01, 1.05151944e-01,
          4.02243435e-01, 4.76088524e-01, 3.48868191e-01, 3.48868191e-01,
          3.48868191e-01, 1.51136473e-01, 3.48868191e-01, 3.48868191e-01,
          3.48868191e-01, 3.48868191e-01, 3.48868191e-01, 3.96650702e-01,
          3.96650702e-01, 3.96650702e-01, 3.96650702e-01, 2.14401260e-01,
          3.47164497e-02, 6.98117688e-02, 3.96650702e-01, 3.96650702e-01,
          4.82566841e-02, 4.15951014e-02, 2.70577133e-01, 4.94963974e-01,
          2.41665319e-01, 1.48901818e-02, 3.52411419e-01, 4.94963974e-01,
          4.94963974e-01, 3.62636268e-01, 3.62636268e-01, 3.62636268e-01,
          1.68647170e-01, 3.62636268e-01, 3.22698087e-01, 2.73442209e-01,
          3.62636268e-01, 3.62636268e-01, 3.38768959e-01, 3.38768959e-01,
          3.38768959e-01, 3.38768959e-01, 3.38768959e-01, 3.01824868e-01,
          3.19634467e-01, 3.38768959e-01, 3.38768959e-01, 9.00014564e-02,
          3.16399187e-01, 3.48212808e-01, 1.62673429e-01, 9.90458652e-02,
          4.91777420e-01, 4.91777420e-01, 4.91777420e-01, 6.18025586e-02,
          4.62237418e-01, 1.28723592e-01, 2.31226813e-02, 3.42119545e-01,
          4.62237418e-01, 4.62237418e-01, 4.85419761e-03, 8.09660554e-02,
          4.62237418e-01, 4.27546471e-01, 8.03171322e-02, 2.38218252e-02,
          4.27546471e-01, 4.27546471e-01, 4.27546471e-01, 4.88690697e-02,
          2.68966258e-01, 4.27546471e-01, 7.80146047e-02, 1.13663122e-01,
          3.11047018e-01, 2.95498431e-01, 3.98232669e-01, 3.98232669e-01,
          3.98232669e-01, 3.98232669e-01, 3.98232669e-01, 4.62237418e-01,
          1.28723592e-01, 2.31226813e-02, 3.42119545e-01, 4.62237418e-01,
          4.62237418e-01, 4.85419761e-03, 8.09660554e-02, 4.62237418e-01,
          4.27546471e-01, 8.03171322e-02, 2.38218252e-02, 4.27546471e-01,
          4.27546471e-01, 4.27546471e-01, 4.88690697e-02, 2.68966258e-01,
          4.27546471e-01, 7.80146047e-02, 1.13663122e-01, 3.11047018e-01,
          2.95498431e-01, 3.98232669e-01, 3.98232669e-01, 3.98232669e-01,
          3.98232669e-01, 3.98232669e-01, 5.17175734e-01, 1.04789749e-01,
          9.36792791e-03, 1.58362463e-01, 5.17175734e-01, 5.17175734e-01,
          1.60889730e-01, 9.54338014e-02, 3.48256111e-01, 2.34205619e-01,
          1.77621379e-01, 3.85565460e-01, 4.35611010e-01, 4.35611010e-01,
          5.83492592e-02, 6.01437353e-02, 4.29294169e-01, 4.35611010e-01,
          4.49599586e-02, 1.59116909e-01, 4.38658684e-01, 2.89304227e-01,
          6.20166771e-02, 7.50192776e-02, 4.76901382e-01, 4.76901382e-01,
          4.76901382e-01, 4.76088524e-01, 3.60329403e-04, 1.49498200e-02,
          3.37826550e-01, 4.76088524e-01, 1.67501688e-01, 1.05151944e-01,
          4.02243435e-01, 4.76088524e-01, 4.33323830e-01, 4.33323830e-01,
          2.30373591e-01, 2.07386911e-01, 4.33323830e-01, 4.33323830e-01,
          1.44255117e-01, 4.16456982e-02, 3.54919940e-01, 4.77815777e-01,
          4.77815777e-01, 1.80079356e-01, 4.63917889e-02, 7.22877756e-02,
          4.77815777e-01, 4.77815777e-01, 2.03142002e-01, 3.03791203e-02 ]
      - [ 5.21760225e-01, 5.21760225e-01, 1.69404700e-01, 1.45525768e-01,
          1.53315216e-01, 5.21760225e-01, 2.83842146e-01, 1.37601748e-01,
          7.21532032e-02, 2.02288926e-01, 5.00672162e-01, 5.00672162e-01,
          7.51067996e-02, 4.13727790e-01, 5.00672162e-01, 1.58852994e-01,
          3.74619942e-03, 9.55322292e-04, 4.33074445e-01, 4.33074445e-01,
          4.33074445e-01, 8.47185217e-03, 1.90091148e-01, 2.40230039e-01,
          4.33074445e-01, 3.16096842e-01, 2.27213919e-01, 4.85050261e-01,
          4.85050261e-01, 1.15354620e-01, 1.36749912e-02, 1.74575076e-01,
          4.85050261e-01, 4.85050261e-01, 6.71507269e-02, 7.47067407e-02,
          9.48323682e-02, 6.49165869e-01, 6.49165869e-01, 1.05178498e-01,
          1.39036044e-01, 3.14018697e-01, 1.10455722e-01, 1.25832260e-02,
          1.82475392e-02, 4.57898481e-03, 5.48650205e-01, 5.48650205e-01,
          1.03653576e-02, 4.87083150e-03, 1.18767973e-02, 5.48650205e-01,
          3.01903307e-01, 5.57726435e-03, 2.18644828e-01, 1.39132440e-01,
          2.47912750e-01, 1.32289991e-01, 3.92031968e-01, 4.90132302e-01,
          4.90132302e-01, 4.14224803e-01, 2.07964823e-01, 4.63028193e-01,
          4.63028193e-01, 4.63028193e-01, 1.80185944e-01, 6.94579855e-02,
          2.60311961e-02, 3.29896174e-02, 3.14224839e-01, 4.63028193e-01,
          3.72300595e-02, 5.48666894e-01, 5.48666894e-01, 3.53618637e-02,
          3.61281238e-03, 2.18582563e-02, 5.48666894e-01, 2.81217635e-01,
          9.59369242e-02, 2.18644828e-01, 1.39132440e-01, 2.47912750e-01,
          1.32289991e-01, 3.92031968e-01, 4.90132302e-01, 4.90132302e-01,
          4.14224803e-01, 2.07964823e-01, 4.63028193e-01, 4.63028193e-01,
          4.63028193e-01, 1.80185944e-01, 6.94579855e-02, 2.60311961e-02,
          3.29896174e-02, 3.14224839e-01, 4.63028193e-01, 3.72300595e-02,
          5.48666894e-01, 5.48666894e-01, 3.53618637e-02, 3.61281238e-03,
          2.18582563e-02, 5.48666894e-01, 2.81217635e-01, 9.59369242e-02,
          8.45702291e-02, 3.51997256e-01, 4.86789316e-01, 1.53144345e-01,
          2.47774228e-01, 1.21000879e-01, 4.86789316e-01, 4.86789316e-01,
          2.31745124e-01, 3.10236394e-01, 4.97199744e-01, 4.97199744e-01,
          1.85790241e-01, 1.54659012e-02, 8.18905421e-03, 4.43445891e-02,
          3.46949786e-01, 4.97199744e-01, 4.07231241e-01, 4.37439203e-01,
          4.37439203e-01, 5.98365366e-02, 1.85908265e-02, 2.48749703e-02,
          2.73394883e-01, 4.20052588e-01, 4.37439203e-01, 8.12207386e-02,
          1.10929660e-01, 4.55340415e-01, 4.76665318e-01, 1.90397039e-01,
          6.94927648e-02, 2.15156376e-01, 4.76665318e-01, 4.76665318e-01,
          6.00438677e-02, 3.77861351e-01, 5.94362020e-01, 5.94362020e-01,
          2.91797191e-01, 3.10994163e-02, 5.87392896e-02, 1.13304190e-01,
          1.96843401e-01, 9.75793749e-02, 4.50540967e-02, 1.71974599e-01,
          6.04328930e-01, 3.91308606e-01, 6.04328930e-01, 2.23094106e-01,
          7.28799030e-02, 1.19193725e-01, 4.33074445e-01, 4.33074445e-01,
          4.33074445e-01, 8.47185217e-03, 1.90091148e-01, 2.40230039e-01,
          4.33074445e-01, 3.16096842e-01, 2.27213919e-01, 2.65526921e-01,
          5.41662313e-02, 9.75746140e-02, 1.32822573e-01, 3.02387029e-01,
          6.89301938e-02, 5.99290669e-01, 5.99290669e-01, 2.80939341e-01,
          4.61533070e-02, 2.78068502e-02, 3.52727324e-01, 5.17731607e-01,
          5.17731607e-01, 1.87003180e-01, 3.04182798e-01, 3.88035953e-01,
          2.30972245e-01, 4.57898481e-03, 5.48650205e-01, 5.48650205e-01,
          1.03653576e-02, 4.87083150e-03, 1.18767973e-02, 5.48650205e-01,
          3.01903307e-01, 5.57726435e-03, 1.87626258e-02, 3.28119695e-02,
          6.12934269e-02, 2.79507763e-03, 3.04025579e-02, 3.89540195e-02,
          7.01788127e-01, 7.01788127e-01, 1.86082888e-02, 1.74404487e-01,
          1.79723859e-01, 2.81160831e-01, 3.16283524e-01, 3.56036574e-01,
          4.41512614e-01, 4.93190527e-01, 3.70152920e-01, 2.26549044e-01,
          3.72300595e-02, 5.48666894e-01, 5.48666894e-01, 3.53618637e-02,
          3.61281238e-03, 2.18582563e-02, 5.48666894e-01, 2.81217635e-01,
          9.59369242e-02, 4.68754262e-01, 4.94575828e-01, 9.97257754e-02,
          2.26558447e-02, 8.94687045e-03, 8.09222274e-03, 4.94575828e-01,
          4.94575828e-01, 1.75812468e-01, 4.54413503e-01, 3.99167389e-01,
          3.52446362e-02, 3.71494107e-02, 4.59585972e-02, 7.36576170e-02,
          4.54413503e-01, 4.54413503e-01, 4.54413503e-01, 3.72300595e-02,
          5.48666894e-01, 5.48666894e-01, 3.53618637e-02, 3.61281238e-03,
          2.18582563e-02, 5.48666894e-01, 2.81217635e-01, 9.59369242e-02,
          4.68754262e-01, 4.94575828e-01, 9.97257754e-02, 2.26558447e-02,
          8.94687045e-03, 8.09222274e-03, 4.94575828e-01, 4.94575828e-01,
          1.75812468e-01, 4.54413503e-01, 3.99167389e-01, 3.52446362e-02,
          3.71494107e-02, 4.59585972e-02, 7.36576170e-02, 4.54413503e-01,
          4.54413503e-01, 4.54413503e-01, 4.07231241e-01, 4.37439203e-01,
          4.37439203e-01, 5.98365366e-02, 1.85908265e-02, 2.48749703e-02,
          2.73394883e-01, 4.20052588e-01, 4.37439203e-01, 4.17329371e-01,
          4.17329371e-01, 9.51325670e-02, 2.24899016e-02, 1.86531860e-02,
          4.17329371e-01, 4.17329371e-01, 4.17329371e-01, 3.39275867e-01,
          2.08676189e-01, 4.97697711e-01, 7.53326640e-02, 3.76592837e-02,
          3.88927124e-02, 4.24706042e-01, 5.06232202e-01, 5.06232202e-01,
          4.66071144e-02, 9.75793749e-02, 4.50540967e-02, 1.71974599e-01,
          6.04328930e-01, 3.91308606e-01, 6.04328930e-01, 2.23094106e-01,
          7.28799030e-02, 1.19193725e-01, 1.98801398e-01, 1.97007164e-01,
          6.13936409e-02, 7.28379562e-02, 8.42756853e-02, 6.68142021e-01,
          6.68142021e-01, 4.72645909e-02, 6.12985417e-02, 4.25178111e-01,
          4.25178111e-01, 1.94104597e-01, 1.01991735e-01, 4.25178111e-01,
          4.25178111e-01, 4.25178111e-01, 1.22215293e-01, 1.69868127e-01 ]
      - [ 4.46116269e-01, 3.28139991e-01, 1.35652333e-01, 1.43122599e-01,
          4.46116269e-01, 2.40643293e-01, 2.81168759e-01, 3.39054853e-01,
          4.46116269e-01, 4.40804154e-01, 4.40804154e-01, 1.29578516e-01,
          1.59801602e-01, 4.40804154e-01, 2.14031577e-01, 1.69717759e-01,
          3.22738320e-01, 4.37688529e-01, 5.03431737e-01, 1.87851518e-01,
          3.79471242e-01, 1.81766599e-01, 4.00206745e-01, 2.96697319e-01,
          1.44431487e-01, 8.18792954e-02, 5.03431737e-01, 3.74653429e-01,
          3.74653429e-01, 3.47666562e-01, 2.37601534e-01, 3.74653429e-01,
          3.74653429e-01, 3.74653429e-01, 2.87742674e-01, 1.85225919e-01,
          5.49242556e-01, 5.49242556e-01, 8.16277787e-02, 2.43111197e-02,
          1.57789037e-01, 3.55658889e-01, 3.97526473e-01, 2.01021761e-01,
          1.84658065e-01, 4.27060366e-01, 3.23188663e-01, 2.31175408e-01,
          1.57925501e-01, 4.27060366e-01, 4.27060366e-01, 2.13621229e-01,
          1.94278494e-01, 4.27060366e-01, 4.95194681e-02, 5.73908150e-01,
          5.73908150e-01, 4.41059381e-01, 6.94001541e-02, 1.36542737e-01,
          2.71119565e-01, 2.01644450e-01, 3.02638412e-02, 2.08539084e-01,
          3.84272635e-01, 3.84272635e-01, 3.52467030e-01, 2.61619747e-01,
          3.84272635e-01, 3.84272635e-01, 2.38082647e-01, 3.35632831e-01,
          4.60123986e-01, 2.21681416e-01, 1.33618340e-01, 1.75359845e-01,
          4.60123986e-01, 4.60123986e-01, 1.51681229e-01, 1.66712463e-01,
          4.60123986e-01, 4.95194681e-02, 5.73908150e-01, 5.73908150e-01,
          4.41059381e-01, 6.94001541e-02, 1.36542737e-01, 2.71119565e-01,
          2.01644450e-01, 3.02638412e-02, 2.08539084e-01, 3.84272635e-01,
          3.84272635e-01, 3.52467030e-01, 2.61619747e-01, 3.84272635e-01,
          3.84272635e-01, 2.38082647e-01, 3.35632831e-01, 4.60123986e-01,
          2.21681416e-01, 1.33618340e-01, 1.75359845e-01, 4.60123986e-01,
          4.60123986e-01, 1.51681229e-01, 1.66712463e-01, 4.60123986e-01,
          7.30540082e-02, 3.67551148e-01, 5.49716413e-01, 5.49716413e-01,
          1.05614334e-01, 2.18415752e-01, 2.77314693e-01, 2.94173092e-01,
          1.65536597e-01, 3.88739333e-02, 1.52567998e-01, 4.27471936e-01,
          4.27471936e-01, 3.74995917e-01, 2.76729763e-01, 4.27471936e-01,
          4.27471936e-01, 1.51034549e-01, 3.47366035e-01, 3.47366035e-01,
          3.35865468e-01, 3.47366035e-01, 3.47366035e-01, 3.47366035e-01,
          1.97690934e-01, 3.47366035e-01, 3.47366035e-01, 4.01245266e-01,
          3.56157184e-01, 4.01245266e-01, 2.42212594e-01, 3.19301412e-02,
          6.68469444e-02, 4.01245266e-01, 4.01245266e-01, 4.01245266e-01,
          9.48317572e-02, 1.15670763e-01, 4.31461334e-01, 4.31461334e-01,
          4.31461334e-01, 1.33621082e-01, 4.31461334e-01, 4.31461334e-01,
          1.57060951e-01, 3.79047006e-01, 3.71180117e-01, 3.79047006e-01,
          3.79047006e-01, 3.79047006e-01, 2.54061967e-01, 7.78849721e-02,
          2.63518035e-01, 3.79047006e-01, 5.03431737e-01, 1.87851518e-01,
          3.79471242e-01, 1.81766599e-01, 4.00206745e-01, 2.96697319e-01,
          1.44431487e-01, 8.18792954e-02, 5.03431737e-01, 4.14992720e-01,
          1.49366125e-01, 4.14992720e-01, 4.14992720e-01, 4.14992720e-01,
          2.87020922e-01, 1.48421988e-01, 8.96616876e-02, 4.14992720e-01,
          2.36498248e-02, 7.18722343e-02, 1.07444011e-01, 5.08791387e-01,
          5.08791387e-01, 6.16217330e-02, 8.38258043e-02, 4.36141312e-01,
          5.08791387e-01, 4.27060366e-01, 3.23188663e-01, 2.31175408e-01,
          1.57925501e-01, 4.27060366e-01, 4.27060366e-01, 2.13621229e-01,
          1.94278494e-01, 4.27060366e-01, 3.34918231e-01, 3.34918231e-01,
          3.34918231e-01, 3.15106302e-01, 3.34918231e-01, 3.34918231e-01,
          3.34918231e-01, 3.34918231e-01, 3.34918231e-01, 9.07842442e-02,
          2.63540536e-01, 4.67653126e-01, 4.67653126e-01, 1.40771851e-01,
          9.84733086e-03, 1.51400268e-01, 4.67653126e-01, 4.67653126e-01,
          4.60123986e-01, 2.21681416e-01, 1.33618340e-01, 1.75359845e-01,
          4.60123986e-01, 4.60123986e-01, 1.51681229e-01, 1.66712463e-01,
          4.60123986e-01, 4.03413534e-01, 2.37884983e-01, 3.22557300e-01,
          4.03413534e-01, 4.03413534e-01, 1.65653363e-01, 1.49142161e-01,
          3.66991818e-01, 4.03413534e-01, 3.73141408e-01, 3.39853734e-01,
          3.73141408e-01, 3.73141408e-01, 1.58780530e-01, 3.64589810e-01,
          3.73141408e-01, 3.73141408e-01, 1.62671432e-01, 4.60123986e-01,
          2.21681416e-01, 1.33618340e-01, 1.75359845e-01, 4.60123986e-01,
          4.60123986e-01, 1.51681229e-01, 1.66712463e-01, 4.60123986e-01,
          4.03413534e-01, 2.37884983e-01, 3.22557300e-01, 4.03413534e-01,
          4.03413534e-01, 1.65653363e-01, 1.49142161e-01, 3.66991818e-01,
          4.03413534e-01, 3.73141408e-01, 3.39853734e-01, 3.73141408e-01,
          3.73141408e-01, 1.58780530e-01, 3.64589810e-01, 3.73141408e-01,
          3.73141408e-01, 1.62671432e-01, 3.47366035e-01, 3.47366035e-01,
          3.35865468e-01, 3.47366035e-01, 3.47366035e-01, 3.47366035e-01,
          1.97690934e-01, 3.47366035e-01, 3.47366035e-01, 3.51991624e-01,
          3.51991624e-01, 2.78916776e-01, 3.51991624e-01, 3.51991624e-01,
          3.51991624e-01, 3.51991624e-01, 2.26720065e-01, 3.51991624e-01,
          4.60686415e-01, 4.60686415e-01, 3.85827512e-01, 1.30604923e-01,
          2.44388297e-01, 4.60686415e-01, 3.61868769e-01, 3.39025855e-02,
          3.09534669e-02, 3.79047006e-01, 3.71180117e-01, 3.79047006e-01,
          3.79047006e-01, 3.79047006e-01, 2.54061967e-01, 7.78849721e-02,
          2.63518035e-01, 3.79047006e-01, 4.25919741e-01, 4.25919741e-01,
          4.25919741e-01, 2.37669796e-01, 4.25919741e-01, 4.25919741e-01,
          1.17528969e-02, 3.44676189e-02, 1.75767139e-01, 5.44403732e-01,
          5.44403732e-01, 7.20981732e-02, 5.12426579e-03, 1.81901827e-01,
          5.44403732e-01, 1.75601155e-01, 9.81389955e-02, 1.63271725e-01 ]
      - [ 4.54046875e-01, 5.18680215e-02, 1.17403017e-02, 3.32637072e-01,
          4.54046875e-01, 3.59742910e-01, 2.48062342e-01, 2.69376308e-01,
          4.54046875e-01, 4.76109892e-01, 1.47646204e-01, 4.85829078e-02,
          4.76109892e-01, 4.76109892e-01, 2.23484412e-01, 2.11698618e-02,
          1.18190371e-01, 4.76109892e-01, 5.10128736e-01, 1.43931843e-02,
          1.12044364e-02, 3.78630400e-01, 5.10128736e-01, 2.14465857e-01,
          6.71594515e-02, 1.41462445e-01, 5.10128736e-01, 3.82259697e-01,
          2.04183444e-01, 1.97786391e-02, 3.82259697e-01, 3.82259697e-01,
          2.78143913e-01, 3.82259697e-01, 3.82259697e-01, 3.82259697e-01,
          4.15971756e-01, 2.42557183e-01, 8.08763504e-02, 4.15971756e-01,
          4.15971756e-01, 4.15971756e-01, 1.44142404e-01, 2.11021557e-01,
          4.15971756e-01, 4.83294785e-01, 1.36043206e-01, 1.10190697e-01,
          4.83294785e-01, 4.83294785e-01, 1.28775522e-01, 2.30018776e-02,
          1.14522941e-01, 4.83294785e-01, 4.38260853e-01, 3.22854131e-01,
          3.43246828e-03, 3.09776608e-02, 4.38260853e-01, 4.38260853e-01,
          2.50762790e-01, 2.43400201e-01, 4.38260853e-01, 5.05724132e-01,
          1.32509202e-01, 7.31021212e-03, 2.57707745e-01, 5.05724132e-01,
          4.56227720e-01, 6.14920184e-02, 1.12905130e-01, 4.18016165e-01,
          4.90149587e-01, 6.64917156e-02, 3.50208953e-02, 4.90149587e-01,
          4.90149587e-01, 3.65762748e-02, 1.24167802e-03, 1.64714769e-01,
          4.90149587e-01, 4.38260853e-01, 3.22854131e-01, 3.43246828e-03,
          3.09776608e-02, 4.38260853e-01, 4.38260853e-01, 2.50762790e-01,
          2.43400201e-01, 4.38260853e-01, 5.05724132e-01, 1.32509202e-01,
          7.31021212e-03, 2.57707745e-01, 5.05724132e-01, 4.56227720e-01,
          6.14920184e-02, 1.12905130e-01, 4.18016165e-01, 4.90149587e-01,
          6.64917156e-02, 3.50208953e-02, 4.90149587e-01, 4.90149587e-01,
          3.65762748e-02, 1.24167802e-03, 1.64714769e-01, 4.90149587e-01,
          4.96838391e-01, 2.87470192e-01, 6.14774600e-02, 4.01076041e-02,
          2.44244754e-01, 4.96838391e-01, 2.72006035e-01, 1.81170508e-01,
          4.96838391e-01, 6.32181883e-01, 6.21970780e-02, 9.00165271e-03,
          1.11493409e-01, 3.51719379e-01, 7.59483501e-02, 1.00179613e-01,
          1.96187153e-01, 6.32181883e-01, 7.76072204e-01, 3.18747431e-01,
          2.84134429e-02, 1.94782108e-01, 4.25896704e-01, 3.91699262e-02,
          1.38821453e-03, 2.49350388e-02, 2.57046670e-01, 4.09269005e-01,
          3.10488135e-01, 2.29902148e-01, 4.09269005e-01, 4.09269005e-01,
          4.09269005e-01, 9.39112008e-02, 1.81340631e-02, 4.09269005e-01,
          5.24213076e-01, 2.87854243e-02, 3.56807970e-02, 5.24213076e-01,
          5.24213076e-01, 2.81176448e-01, 4.60481308e-02, 8.87273520e-04,
          2.95099586e-01, 5.69365978e-01, 2.64894012e-02, 1.13835861e-03,
          1.32635579e-01, 5.69365978e-01, 5.69365978e-01, 1.47164743e-02,
          0., 5.71821630e-02, 5.10128736e-01, 1.43931843e-02,
          1.12044364e-02, 3.78630400e-01, 5.10128736e-01, 2.14465857e-01,
          6.71594515e-02, 1.41462445e-01, 5.10128736e-01, 4.95569795e-01,
          7.00621009e-02, 3.13538639e-03, 4.95569795e-01, 4.95569795e-01,
          7.81073719e-02, 3.30415703e-02, 2.41184663e-02, 4.95569795e-01,
          4.78897244e-01, 4.97525260e-02, 3.71047221e-02, 2.92409271e-01,
          4.78897244e-01, 3.81948054e-01, 1.32651567e-01, 2.33137146e-01,
          4.78897244e-01, 4.83294785e-01, 1.36043206e-01, 1.10190697e-01,
          4.83294785e-01, 4.83294785e-01, 1.28775522e-01, 2.30018776e-02,
          1.14522941e-01, 4.83294785e-01, 4.83998686e-01, 1.13225468e-01,
          1.76218092e-01, 4.83998686e-01, 4.83998686e-01, 2.28115190e-02,
          3.65033895e-02, 1.11450009e-01, 4.83998686e-01, 4.08867747e-01,
          3.56948860e-02, 1.48313269e-01, 3.45659763e-01, 4.35935110e-01,
          4.35935110e-01, 1.73554853e-01, 2.92372227e-01, 4.35935110e-01,
          4.90149587e-01, 6.64917156e-02, 3.50208953e-02, 4.90149587e-01,
          4.90149587e-01, 3.65762748e-02, 1.24167802e-03, 1.64714769e-01,
          4.90149587e-01, 4.41728503e-01, 4.41728503e-01, 1.13881081e-01,
          2.70286947e-01, 4.41728503e-01, 1.14330962e-01, 5.07373624e-02,
          3.95128220e-01, 3.90409142e-01, 3.88021201e-01, 3.29225808e-01,
          2.59382099e-01, 3.45967524e-02, 3.88021201e-01, 2.57789850e-01,
          3.88021201e-01, 3.88021201e-01, 3.88021201e-01, 4.90149587e-01,
          6.64917156e-02, 3.50208953e-02, 4.90149587e-01, 4.90149587e-01,
          3.65762748e-02, 1.24167802e-03, 1.64714769e-01, 4.90149587e-01,
          4.41728503e-01, 4.41728503e-01, 1.13881081e-01, 2.70286947e-01,
          4.41728503e-01, 1.14330962e-01, 5.07373624e-02, 3.95128220e-01,
          3.90409142e-01, 3.88021201e-01, 3.29225808e-01, 2.59382099e-01,
          3.45967524e-02, 3.88021201e-01, 2.57789850e-01, 3.88021201e-01,
          3.88021201e-01, 3.88021201e-01, 7.76072204e-01, 3.18747431e-01,
          2.84134429e-02, 1.94782108e-01, 4.25896704e-01, 3.91699262e-02,
          1.38821453e-03, 2.49350388e-02, 2.57046670e-01, 5.22158563e-01,
          5.22158563e-01, 1.87587533e-02, 2.92519964e-02, 4.07927215e-01,
          5.22158563e-01, 6.03965260e-02, 7.05922842e-02, 2.43592300e-02,
          2.69499689e-01, 2.85320729e-01, 1.72582686e-01, 5.10520525e-02,
          1.34488344e-01, 4.86953884e-01, 4.86953884e-01, 4.86953884e-01,
          2.81509936e-01, 5.69365978e-01, 2.64894012e-02, 1.13835861e-03,
          1.32635579e-01, 5.69365978e-01, 5.69365978e-01, 1.47164743e-02,
          0., 5.71821630e-02, 1.32764414e-01, 3.20584886e-02,
          6.77249255e-03, 1.67073309e-01, 6.84648991e-01, 6.84648991e-01,
          9.46288109e-02, 9.13176965e-03, 5.01160650e-03, 2.14774057e-01,
          5.64978682e-02, 1.37618124e-01, 3.19959491e-01, 3.59997511e-01,
          5.58594048e-01, 4.87836808e-01, 3.23277026e-01, 1.99175239e-01 ]
      - [ 9.37317833e-02, 2.73770869e-01, 4.75869715e-01, 3.04884225e-01,
          4.75869715e-01, 4.75869715e-01, 3.52481693e-01, 9.13137868e-02,
          8.13566521e-02, 5.17969787e-01, 1.10464938e-01, 1.34357661e-01,
          3.21256705e-02, 5.17969787e-01, 5.17969787e-01, 2.40047932e-01,
          9.21019763e-02, 3.04231346e-01, 4.89222199e-01, 2.33338960e-02,
          6.44186139e-02, 1.30467772e-01, 4.89222199e-01, 4.89222199e-01,
          1.14382945e-01, 5.44129089e-02, 4.89222199e-01, 2.47184768e-01,
          4.35638726e-01, 4.35638726e-01, 8.35313499e-02, 2.76290715e-01,
          4.35638726e-01, 4.35638726e-01, 2.43805572e-01, 1.80744052e-01,
          4.90357131e-01, 4.90357131e-01, 4.90357131e-01, 1.97538827e-02,
          1.13263853e-01, 1.60330310e-01, 1.54428408e-01, 7.97211081e-02,
          4.52353686e-01, 4.95854378e-01, 2.07590926e-02, 1.50929380e-03,
          2.12827045e-02, 4.95854378e-01, 4.95854378e-01, 1.01270035e-01,
          2.04835106e-02, 4.95854378e-01, 1.72498181e-01, 3.92740071e-01,
          3.97204965e-01, 3.92897844e-01, 1.77709702e-02, 1.62049457e-01,
          3.97204965e-01, 3.97204965e-01, 3.97204965e-01, 5.30154184e-02,
          4.32172537e-01, 5.44294536e-01, 2.96694990e-02, 3.84422652e-02,
          1.39904022e-01, 5.44294536e-01, 4.30506527e-01, 7.21145868e-02,
          2.89448321e-01, 1.56308189e-01, 5.70856147e-02, 2.99679525e-02,
          4.54600900e-01, 4.54600900e-01, 4.54600900e-01, 4.54600900e-01,
          2.37574801e-01, 1.72498181e-01, 3.92740071e-01, 3.97204965e-01,
          3.92897844e-01, 1.77709702e-02, 1.62049457e-01, 3.97204965e-01,
          3.97204965e-01, 3.97204965e-01, 5.30154184e-02, 4.32172537e-01,
          5.44294536e-01, 2.96694990e-02, 3.84422652e-02, 1.39904022e-01,
          5.44294536e-01, 4.30506527e-01, 7.21145868e-02, 2.89448321e-01,
          1.56308189e-01, 5.70856147e-02, 2.99679525e-02, 4.54600900e-01,
          4.54600900e-01, 4.54600900e-01, 4.54600900e-01, 2.37574801e-01,
          3.82169902e-01, 4.26782668e-01, 4.26782668e-01, 1.81234255e-01,
          3.58514339e-02, 3.15184332e-02, 2.93231130e-01, 4.26782668e-01,
          4.26782668e-01, 3.65339637e-01, 4.13062066e-01, 4.13062066e-01,
          5.27198799e-02, 6.96153939e-02, 4.09092903e-02, 4.13062066e-01,
          4.13062066e-01, 4.13062066e-01, 4.53774989e-01, 4.53774989e-01,
          3.11349705e-02, 7.74376735e-04, 2.39002705e-02, 2.01451719e-01,
          4.53774989e-01, 4.53774989e-01, 3.60134125e-01, 3.39679569e-02,
          1.67634785e-01, 4.51641291e-01, 4.51641291e-01, 4.07284081e-01,
          1.30178317e-01, 1.96071789e-01, 4.51641291e-01, 3.64723325e-01,
          1.35421097e-01, 1.34792894e-01, 4.74549979e-01, 4.74549979e-01,
          3.40475768e-01, 4.74549979e-01, 2.37770990e-01, 1.96608871e-01,
          2.68412799e-01, 1.51107103e-01, 5.05953170e-02, 3.49742658e-02,
          4.97192666e-02, 1.25155509e-01, 6.66894317e-01, 6.66894317e-01,
          2.12359563e-01, 1.18310437e-01, 4.89222199e-01, 2.33338960e-02,
          6.44186139e-02, 1.30467772e-01, 4.89222199e-01, 4.89222199e-01,
          1.14382945e-01, 5.44129089e-02, 4.89222199e-01, 4.85941887e-01,
          4.54718396e-02, 1.43476114e-01, 4.85941887e-01, 4.85941887e-01,
          1.48455441e-01, 2.99817808e-02, 7.06925765e-02, 4.85941887e-01,
          4.82952356e-01, 3.16371508e-02, 2.33771741e-01, 4.82952356e-01,
          4.82019812e-01, 1.61476359e-02, 6.24335147e-02, 1.19297132e-01,
          4.71494228e-01, 4.95854378e-01, 2.07590926e-02, 1.50929380e-03,
          2.12827045e-02, 4.95854378e-01, 4.95854378e-01, 1.01270035e-01,
          2.04835106e-02, 4.95854378e-01, 5.62687159e-01, 2.54700729e-03,
          2.25725176e-04, 1.08172940e-02, 5.62687159e-01, 2.10694790e-01,
          1.21089153e-03, 3.62570724e-03, 5.62687159e-01, 4.43351746e-01,
          1.44157512e-02, 3.85534577e-02, 1.28404796e-01, 4.43351746e-01,
          4.43351746e-01, 3.83710712e-01, 2.09552810e-01, 4.43351746e-01,
          2.89448321e-01, 1.56308189e-01, 5.70856147e-02, 2.99679525e-02,
          4.54600900e-01, 4.54600900e-01, 4.54600900e-01, 4.54600900e-01,
          2.37574801e-01, 1.08339161e-01, 9.80982557e-02, 5.19294851e-02,
          3.85331474e-02, 8.19518268e-01, 4.45284069e-01, 1.84935108e-01,
          1.92545936e-01, 1.58481181e-01, 1.50671145e-02, 1.02246806e-01,
          1.56467184e-01, 1.72202632e-01, 6.75636947e-01, 6.75636947e-01,
          1.18071042e-01, 2.04019397e-02, 3.33205350e-02, 2.89448321e-01,
          1.56308189e-01, 5.70856147e-02, 2.99679525e-02, 4.54600900e-01,
          4.54600900e-01, 4.54600900e-01, 4.54600900e-01, 2.37574801e-01,
          1.08339161e-01, 9.80982557e-02, 5.19294851e-02, 3.85331474e-02,
          8.19518268e-01, 4.45284069e-01, 1.84935108e-01, 1.92545936e-01,
          1.58481181e-01, 1.50671145e-02, 1.02246806e-01, 1.56467184e-01,
          1.72202632e-01, 6.75636947e-01, 6.75636947e-01, 1.18071042e-01,
          2.04019397e-02, 3.33205350e-02, 4.53774989e-01, 4.53774989e-01,
          3.11349705e-02, 7.74376735e-04, 2.39002705e-02, 2.01451719e-01,
          4.53774989e-01, 4.53774989e-01, 3.60134125e-01, 3.71834099e-01,
          2.31252581e-01, 4.10400555e-02, 4.68526239e-04, 1.73508450e-02,
          1.75599381e-01, 5.62075257e-01, 5.62075257e-01, 3.71444672e-01,
          2.86000460e-01, 4.49632019e-01, 1.79946646e-01, 6.34759516e-02,
          2.45111048e-01, 4.49632019e-01, 2.77091324e-01, 3.65973294e-01,
          4.49632019e-01, 1.51107103e-01, 5.05953170e-02, 3.49742658e-02,
          4.97192666e-02, 1.25155509e-01, 6.66894317e-01, 6.66894317e-01,
          2.12359563e-01, 1.18310437e-01, 4.52325553e-01, 3.19851935e-01,
          9.00707543e-02, 3.37174498e-02, 1.94397211e-01, 4.52325553e-01,
          4.52325553e-01, 4.22101766e-01, 2.32748121e-01, 6.84282780e-01,
          6.84282780e-01, 2.14899667e-02, 4.80935164e-03, 3.05607915e-02,
          1.48355037e-01, 1.20401748e-01, 9.11000222e-02, 1.02270044e-01 ]
      - [ 1.06954068e-01, 1.37590811e-01, 7.94637054e-02, 2.38153953e-02,
          2.42639899e-01, 3.82200688e-01, 5.38335979e-01, 5.38335979e-01,
          4.15703177e-01, 2.35726358e-03, 2.06230819e-01, 5.18309891e-01,
          2.53643513e-01, 1.44236505e-01, 2.38648415e-01, 5.18309891e-01,
          5.18309891e-01, 6.52629361e-02, 4.44577225e-02, 1.89492851e-01,
          5.16173899e-01, 2.30497599e-01, 8.36426765e-02, 3.05481017e-01,
          5.16173899e-01, 5.16173899e-01, 6.48881048e-02, 1.25994114e-02,
          4.35080454e-02, 1.82285104e-02, 1.68605819e-02, 4.34956878e-01,
          7.90491283e-01, 3.17078561e-01, 2.52522975e-01, 1.05223283e-01,
          2.86669564e-02, 1.18623063e-01, 3.82546067e-01, 1.19930990e-01,
          5.78696430e-01, 5.78696430e-01, 3.24037582e-01, 2.08864376e-01,
          1.41220344e-02, 3.49701494e-01, 3.49701494e-01, 3.49701494e-01,
          1.34821832e-01, 3.49701494e-01, 3.49701494e-01, 3.49701494e-01,
          3.49701494e-01, 3.49701494e-01, 3.33055407e-02, 9.02784616e-02,
          8.41842592e-02, 1.27332248e-02, 2.56703228e-01, 6.74351633e-01,
          6.74351633e-01, 3.35390829e-02, 1.54132554e-02, 2.93235760e-02,
          3.58734399e-01, 5.00458717e-01, 2.22663775e-01, 5.00458717e-01,
          5.00458717e-01, 2.34420836e-01, 8.96104425e-02, 3.88876386e-02,
          1.71599060e-01, 4.32285190e-01, 5.14876604e-01, 6.80615902e-02,
          4.44262475e-02, 3.93836312e-02, 5.14876604e-01, 4.81531233e-01,
          9.11909118e-02, 3.33055407e-02, 9.02784616e-02, 8.41842592e-02,
          1.27332248e-02, 2.56703228e-01, 6.74351633e-01, 6.74351633e-01,
          3.35390829e-02, 1.54132554e-02, 2.93235760e-02, 3.58734399e-01,
          5.00458717e-01, 2.22663775e-01, 5.00458717e-01, 5.00458717e-01,
          2.34420836e-01, 8.96104425e-02, 3.88876386e-02, 1.71599060e-01,
          4.32285190e-01, 5.14876604e-01, 6.80615902e-02, 4.44262475e-02,
          3.93836312e-02, 5.14876604e-01, 4.81531233e-01, 9.11909118e-02,
          7.53408521e-02, 1.21280029e-01, 3.39383632e-01, 1.32096872e-01,
          3.82488705e-02, 5.26828289e-01, 5.26828289e-01, 5.26828289e-01,
          8.72668326e-02, 4.77180213e-01, 4.77180213e-01, 4.77180213e-01,
          1.16214350e-01, 2.79956274e-02, 7.70994201e-02, 3.63767594e-02,
          2.50744671e-01, 4.77180213e-01, 1.76178485e-01, 4.55125004e-01,
          5.05765915e-01, 5.06280959e-02, 6.87969942e-03, 2.04475969e-02,
          4.22646374e-01, 3.31291318e-01, 4.57776695e-01, 3.32280248e-02,
          3.33612189e-02, 1.18057586e-01, 1.96838588e-01, 3.45244221e-02,
          1.32912016e-02, 1.31384715e-01, 6.78122282e-01, 6.78122282e-01,
          2.21397370e-01, 3.23389500e-01, 4.90269154e-01, 4.90269154e-01,
          1.97680309e-01, 1.07805375e-02, 3.41932401e-02, 2.82933295e-01,
          4.90269154e-01, 2.90744871e-01, 2.18329951e-01, 4.40873623e-01,
          4.40873623e-01, 4.40873623e-01, 1.86291948e-01, 6.46080449e-02,
          2.16883272e-01, 4.40873623e-01, 4.44577225e-02, 1.89492851e-01,
          5.16173899e-01, 2.30497599e-01, 8.36426765e-02, 3.05481017e-01,
          5.16173899e-01, 5.16173899e-01, 6.48881048e-02, 5.93308471e-02,
          4.69351739e-01, 4.69351739e-01, 2.74742693e-01, 8.59228149e-02,
          8.66290629e-02, 4.69351739e-01, 4.69351739e-01, 1.42326400e-01,
          6.16990887e-02, 6.62694573e-01, 6.62694573e-01, 2.44665816e-01,
          1.88667141e-02, 1.64399315e-02, 1.28221110e-01, 1.44328296e-01,
          1.16147049e-01, 3.49701494e-01, 3.49701494e-01, 3.49701494e-01,
          1.34821832e-01, 3.49701494e-01, 3.49701494e-01, 3.49701494e-01,
          3.49701494e-01, 3.49701494e-01, 2.99682617e-01, 3.56224120e-01,
          2.99909651e-01, 3.69054675e-01, 3.69054675e-01, 2.14773059e-01,
