%YAML:1.0
---
opencv_ml_svm:
   format: 3
   svmType: C_SVC
   kernel:
      type: RBF
      gamma: 5.0624999999999998e-01
   C: 1.2500000000000000e+01
   term_criteria: { epsilon:1.1920928955078125e-07, iterations:1000 }
   var_count: 324
   class_count: 10
   class_labels: !!opencv-matrix
      rows: 10
      cols: 1
      dt: i
      data: [ 0, 1, 2, 3, 4, 5, 6, 7, 8, 9 ]
   sv_total: 579
   support_vectors:
      - [ 1.00800088e-02, 8.64991248e-02, 1.30320251e-01, 4.39179480e-01,
          4.39179480e-01, 4.39179480e-01, 4.39179480e-01, 4.39179480e-01,
          8.15665424e-02, 3.95315379e-01, 3.95315379e-01, 3.95315379e-01,
          2.48196304e-01, 3.95315379e-01, 3.95315379e-01, 3.68860275e-01,
          9.93471220e-02, 8.45601484e-02, 4.72905070e-01, 2.06949905e-01,
          1.53794870e-01, 2.71802038e-01, 4.72905070e-01, 4.23807353e-01,
          6.62388057e-02, 1.08984555e-03, 4.72905070e-01, 3.54379743e-01,
          4.13948923e-01, 2.66059369e-01, 5.32099307e-02, 9.54309106e-02,
          4.13948923e-01, 4.13948923e-01, 4.08987969e-01, 3.25916529e-01,
          3.32778692e-01, 3.32778692e-01, 3.32778692e-01, 3.32778692e-01,
          3.32778692e-01, 3.32778692e-01, 3.32778692e-01, 3.32778692e-01,
          3.32778692e-01, 3.13558131e-01, 4.08544987e-01, 4.08544987e-01,
          4.08544987e-01, 2.51700044e-01, 2.71498382e-01, 4.00923669e-01,
          1.59936279e-01, 2.71089256e-01, 6.89037591e-02, 5.29508054e-01,
          5.29508054e-01, 1.08875290e-01, 2.15593651e-02, 2.74310708e-01,
          5.29508054e-01, 2.37170622e-01, 7.08023533e-02, 4.21515070e-02,
          3.57749999e-01, 4.16809887e-01, 1.25639290e-01, 8.06168243e-02,
          1.44151360e-01, 4.65044320e-01, 4.65044320e-01, 4.65044320e-01,
          1.21538371e-01, 3.11791778e-01, 4.44861174e-01, 4.44861174e-01,
          1.19322546e-01, 2.19187573e-01, 4.44861174e-01, 4.44861174e-01,
          1.72289163e-01, 6.89037591e-02, 5.29508054e-01, 5.29508054e-01,
          1.08875290e-01, 2.15593651e-02, 2.74310708e-01, 5.29508054e-01,
          2.37170622e-01, 7.08023533e-02, 4.21515070e-02, 3.57749999e-01,
          4.16809887e-01, 1.25639290e-01, 8.06168243e-02, 1.44151360e-01,
          4.65044320e-01, 4.65044320e-01, 4.65044320e-01, 1.21538371e-01,
          3.11791778e-01, 4.44861174e-01, 4.44861174e-01, 1.19322546e-01,
          2.19187573e-01, 4.44861174e-01, 4.44861174e-01, 1.72289163e-01,
          4.21387255e-02, 1.00383855e-01, 4.87828016e-01, 4.87828016e-01,
          1.41532533e-02, 4.98472340e-02, 4.87828016e-01, 4.87828016e-01,
          1.69367656e-01, 4.62286957e-02, 6.42728731e-02, 4.44278330e-01,
          4.44278330e-01, 3.70257013e-02, 3.17332037e-02, 4.44278330e-01,
          4.44278330e-01, 4.44278330e-01, 4.51478004e-01, 3.61614116e-02,
          2.86663860e-01, 4.51478004e-01, 1.87342823e-01, 1.05357774e-01,
          2.24676058e-01, 4.51478004e-01, 4.51478004e-01, 2.21452639e-01,
          2.83518970e-01, 4.43898410e-01, 4.43898410e-01, 5.57590760e-02,
          4.27038558e-02, 2.70232707e-01, 4.43898410e-01, 4.43898410e-01,
          5.49641028e-02, 1.81919038e-02, 1.90663055e-01, 5.53660691e-01,
          3.87759209e-01, 1.77641644e-03, 1.23273330e-02, 4.37234461e-01,
          5.53660691e-01, 3.21529061e-01, 3.50768981e-03, 6.10984070e-03,
          5.39167464e-01, 5.39167464e-01, 6.04083054e-02, 4.96586179e-03,
          1.24122761e-01, 5.39167464e-01, 4.72905070e-01, 2.06949905e-01,
          1.53794870e-01, 2.71802038e-01, 4.72905070e-01, 4.23807353e-01,
          6.62388057e-02, 1.08984555e-03, 4.72905070e-01, 3.63356948e-01,
          1.45354327e-02, 3.51505391e-02, 5.23632944e-01, 5.23632944e-01,
          6.96330741e-02, 2.26702914e-02, 1.82642952e-01, 5.23632944e-01,
          2.26291437e-02, 1.64225668e-01, 1.85383335e-01, 4.71130937e-01,
          4.71130937e-01, 1.10109039e-01, 1.82930782e-01, 4.71130937e-01,
          4.71130937e-01, 3.13558131e-01, 4.08544987e-01, 4.08544987e-01,
          4.08544987e-01, 2.51700044e-01, 2.71498382e-01, 4.00923669e-01,
          1.59936279e-01, 2.71089256e-01, 4.39146459e-01, 1.51061714e-01,
          3.37808907e-01, 2.45505676e-01, 5.88416085e-02, 2.57937144e-02,
          4.42789793e-02, 5.46306849e-01, 5.47662497e-01, 1.89127661e-02,
          1.62773747e-02, 1.14036947e-01, 5.68467796e-01, 8.07396322e-02,
          1.41209485e-02, 6.71640411e-02, 5.68467796e-01, 5.68467796e-01,
          1.21538371e-01, 3.11791778e-01, 4.44861174e-01, 4.44861174e-01,
          1.19322546e-01, 2.19187573e-01, 4.44861174e-01, 4.44861174e-01,
          1.72289163e-01, 3.99829447e-02, 3.82807888e-02, 2.33639687e-01,
          6.72881424e-01, 6.72881424e-01, 8.86890441e-02, 8.86241570e-02,
          9.85620618e-02, 6.82473406e-02, 6.68391809e-02, 2.74058525e-02,
          5.44517674e-02, 3.94295633e-01, 5.13514161e-01, 8.12933892e-02,
          5.13514161e-01, 5.13514161e-01, 1.83084607e-01, 1.21538371e-01,
          3.11791778e-01, 4.44861174e-01, 4.44861174e-01, 1.19322546e-01,
          2.19187573e-01, 4.44861174e-01, 4.44861174e-01, 1.72289163e-01,
          3.99829447e-02, 3.82807888e-02, 2.33639687e-01, 6.72881424e-01,
          6.72881424e-01, 8.86890441e-02, 8.86241570e-02, 9.85620618e-02,
          6.82473406e-02, 6.68391809e-02, 2.74058525e-02, 5.44517674e-02,
          3.94295633e-01, 5.13514161e-01, 8.12933892e-02, 5.13514161e-01,
          5.13514161e-01, 1.83084607e-01, 4.51478004e-01, 3.61614116e-02,
          2.86663860e-01, 4.51478004e-01, 1.87342823e-01, 1.05357774e-01,
          2.24676058e-01, 4.51478004e-01, 4.51478004e-01, 4.53439921e-01,
          4.39893864e-02, 9.28896815e-02, 4.53439921e-01, 4.53439921e-01,
          9.08566341e-02, 9.69228745e-02, 3.80561560e-01, 4.53439921e-01,
          3.49081516e-01, 3.49081516e-01, 3.49081516e-01, 3.49081516e-01,
          3.49081516e-01, 3.02719057e-01, 3.49081516e-01, 2.92629987e-01,
          2.96805918e-01, 3.21529061e-01, 3.50768981e-03, 6.10984070e-03,
          5.39167464e-01, 5.39167464e-01, 6.04083054e-02, 4.96586179e-03,
          1.24122761e-01, 5.39167464e-01, 4.56591040e-01, 4.44340482e-02,
          1.07228076e-02, 8.25631171e-02, 4.56591040e-01, 4.56591040e-01,
          4.81840037e-02, 3.87698382e-01, 4.56591040e-01, 3.71182770e-01,
          3.71182770e-01, 1.24443278e-01, 1.27941847e-01, 3.71182770e-01,
          3.71182770e-01, 3.71182770e-01, 3.71182770e-01, 3.71182770e-01 ]
      - [ 6.69455111e-01, 6.69455111e-01, 2.83131272e-01, 9.46977213e-02,
          3.85713093e-02, 1.60247795e-02, 3.25347260e-02, 2.20460370e-02,
          6.75008595e-02, 6.59960270e-01, 6.59960270e-01, 1.40892770e-02,
          7.67710758e-03, 1.74147174e-01, 2.31243238e-01, 1.18705101e-01,
          3.25860456e-02, 1.52004614e-01, 4.87647355e-01, 9.22661126e-02,
          1.29343525e-01, 8.85609388e-02, 4.87647355e-01, 4.87647355e-01,
          9.38001350e-02, 4.52268906e-02, 4.87647355e-01, 2.44880974e-01,
          6.82698786e-01, 6.82698786e-01, 2.36906577e-02, 1.09872045e-02,
          3.47000477e-03, 1.11395530e-02, 1.13883186e-02, 1.07274186e-02,
          3.83516073e-01, 3.83516073e-01, 7.75778815e-02, 1.29513862e-02,
          3.27833831e-01, 3.83516073e-01, 3.83516073e-01, 3.83516073e-01,
          3.83516073e-01, 3.69675905e-01, 1.34458080e-01, 3.69675905e-01,
          2.53909916e-01, 3.69675905e-01, 3.69675905e-01, 3.69675905e-01,
          3.06260884e-01, 3.69675905e-01, 1.78758781e-02, 5.23750484e-01,
          5.97914398e-01, 5.97914398e-01, 2.69816685e-02, 1.72231887e-02,
          5.01623601e-02, 2.82670595e-02, 7.24079926e-03, 1.34871930e-01,
          3.88418078e-01, 3.88418078e-01, 3.04816306e-01, 3.88418078e-01,
          3.88418078e-01, 3.88418078e-01, 3.32541257e-01, 1.41737431e-01,
          3.69353026e-01, 3.69353026e-01, 2.39786252e-01, 3.20504665e-01,
          3.69353026e-01, 3.69353026e-01, 1.32511944e-01, 3.69353026e-01,
          3.69353026e-01, 1.78758781e-02, 5.23750484e-01, 5.97914398e-01,
          5.97914398e-01, 2.69816685e-02, 1.72231887e-02, 5.01623601e-02,
          2.82670595e-02, 7.24079926e-03, 1.34871930e-01, 3.88418078e-01,
          3.88418078e-01, 3.04816306e-01, 3.88418078e-01, 3.88418078e-01,
          3.88418078e-01, 3.32541257e-01, 1.41737431e-01, 3.69353026e-01,
          3.69353026e-01, 2.39786252e-01, 3.20504665e-01, 3.69353026e-01,
          3.69353026e-01, 1.32511944e-01, 3.69353026e-01, 3.69353026e-01,
          1.09316828e-02, 1.95161238e-01, 6.24624074e-01, 6.24624074e-01,
          3.98211271e-01, 1.07719898e-01, 6.18777573e-02, 3.44345868e-02,
          7.43146800e-03, 2.71753669e-02, 1.66088521e-01, 2.43200064e-01,
          4.48760599e-01, 4.48760599e-01, 2.29463756e-01, 4.48760599e-01,
          4.48760599e-01, 2.23269567e-01, 2.28720114e-01, 2.42039621e-01,
          1.94299072e-01, 5.23205817e-01, 5.23205817e-01, 2.18056321e-01,
          1.60235927e-01, 2.58055270e-01, 3.98524135e-01, 1.35251984e-01,
          1.16382040e-01, 9.76963267e-02, 4.51429665e-01, 4.51429665e-01,
          4.51429665e-01, 4.51429665e-01, 2.99537092e-01, 2.21880525e-01,
          1.97724432e-01, 2.94708461e-01, 2.71280736e-01, 5.73509157e-01,
          5.73509157e-01, 2.57267803e-01, 9.58157331e-02, 9.24210623e-02,
          2.30211556e-01, 1.01381972e-01, 2.92361975e-01, 3.50063384e-01,
          5.21563232e-01, 5.21563232e-01, 4.15685683e-01, 1.83286116e-01,
          8.73380154e-02, 1.35721639e-01, 4.87647355e-01, 9.22661126e-02,
          1.29343525e-01, 8.85609388e-02, 4.87647355e-01, 4.87647355e-01,
          9.38001350e-02, 4.52268906e-02, 4.87647355e-01, 3.35663140e-01,
          3.40711653e-01, 3.75608712e-01, 1.12377450e-01, 3.75608712e-01,
          3.75608712e-01, 2.22384930e-01, 3.75608712e-01, 3.75608712e-01,
          3.31245601e-01, 2.11978868e-01, 2.06423625e-01, 3.74679975e-02,
          4.81543206e-02, 3.13910581e-02, 3.89845520e-02, 6.28580451e-01,
          6.28580451e-01, 3.69675905e-01, 1.34458080e-01, 3.69675905e-01,
          2.53909916e-01, 3.69675905e-01, 3.69675905e-01, 3.69675905e-01,
          3.06260884e-01, 3.69675905e-01, 3.70825559e-01, 3.70825559e-01,
          3.70825559e-01, 2.81456947e-01, 1.68180272e-01, 2.90180594e-01,
          3.70825559e-01, 3.42096239e-01, 3.70825559e-01, 2.06224650e-01,
          3.73048693e-01, 4.38485146e-01, 2.03572035e-01, 5.07893376e-02,
          2.87773181e-02, 4.38485146e-01, 4.38485146e-01, 4.38485146e-01,
          3.69353026e-01, 3.69353026e-01, 2.39786252e-01, 3.20504665e-01,
          3.69353026e-01, 3.69353026e-01, 1.32511944e-01, 3.69353026e-01,
          3.69353026e-01, 3.51198614e-01, 3.15224588e-01, 3.51198614e-01,
          3.51198614e-01, 3.51198614e-01, 1.83688134e-01, 3.51198614e-01,
          3.51198614e-01, 3.51198614e-01, 1.98633566e-01, 3.14804941e-01,
          4.55905914e-01, 3.14657807e-01, 1.78496391e-01, 4.55905914e-01,
          4.55905914e-01, 3.12022597e-01, 7.14809000e-02, 3.69353026e-01,
          3.69353026e-01, 2.39786252e-01, 3.20504665e-01, 3.69353026e-01,
          3.69353026e-01, 1.32511944e-01, 3.69353026e-01, 3.69353026e-01,
          3.51198614e-01, 3.15224588e-01, 3.51198614e-01, 3.51198614e-01,
          3.51198614e-01, 1.83688134e-01, 3.51198614e-01, 3.51198614e-01,
          3.51198614e-01, 1.98633566e-01, 3.14804941e-01, 4.55905914e-01,
          3.14657807e-01, 1.78496391e-01, 4.55905914e-01, 4.55905914e-01,
          3.12022597e-01, 7.14809000e-02, 2.28720114e-01, 2.42039621e-01,
          1.94299072e-01, 5.23205817e-01, 5.23205817e-01, 2.18056321e-01,
          1.60235927e-01, 2.58055270e-01, 3.98524135e-01, 2.95911819e-01,
          3.95848989e-01, 3.95848989e-01, 2.60729402e-01, 3.95848989e-01,
          3.95848989e-01, 3.95848989e-01, 1.74149498e-01, 1.63376227e-01,
          1.99135933e-02, 2.06187516e-01, 2.27183446e-01, 7.03920051e-02,
          6.48020566e-01, 6.48020566e-01, 2.32645079e-01, 3.38139781e-03,
          7.53459521e-03, 1.01381972e-01, 2.92361975e-01, 3.50063384e-01,
          5.21563232e-01, 5.21563232e-01, 4.15685683e-01, 1.83286116e-01,
          8.73380154e-02, 1.35721639e-01, 6.74782768e-02, 1.57026216e-01,
          3.99963977e-03, 6.03849515e-02, 6.90911114e-01, 6.90911114e-01,
          7.04776347e-02, 7.84675498e-03, 2.20205672e-02, 4.44257120e-03,
          3.55481170e-02, 2.63087362e-01, 2.30113029e-01, 6.57360971e-01,
          6.57360971e-01, 7.57631361e-02, 0., 0. ]
      - [ 4.29890931e-01, 4.29890931e-01, 8.72754306e-03, 4.18551452e-03,
          3.65294553e-02, 3.94307226e-01, 4.29890931e-01, 4.29890931e-01,
          3.15554440e-01, 5.35337925e-01, 5.35337925e-01, 2.56789532e-02,
          1.68797988e-02, 1.14186749e-01, 5.35337925e-01, 2.37018213e-01,
          4.00968939e-02, 2.51247764e-01, 5.71297586e-01, 5.71297586e-01,
          9.63541400e-03, 2.13358384e-02, 9.19559523e-02, 5.12510121e-01,
          9.05833617e-02, 6.97906762e-02, 2.38299638e-01, 2.27605641e-01,
          3.42841536e-01, 4.74893868e-01, 6.40460700e-02, 1.24360465e-01,
          4.84501034e-01, 4.84501034e-01, 2.52487451e-01, 2.17927426e-01,
          4.41110194e-01, 4.41110194e-01, 4.41110194e-01, 1.44917220e-01,
          4.41110194e-01, 4.41110194e-01, 3.05053908e-02, 7.99266621e-03,
          2.65957005e-02, 4.26235259e-01, 4.26235259e-01, 4.26235259e-01,
          2.76646048e-01, 4.26235259e-01, 4.26235259e-01, 3.76476571e-02,
          4.91174012e-02, 8.36474746e-02, 7.81885460e-02, 1.35260701e-01,
          4.35156554e-01, 3.29918623e-01, 1.94594815e-01, 4.35156554e-01,
          4.35156554e-01, 4.35156554e-01, 2.59009808e-01, 9.65635702e-02,
          4.57271963e-01, 4.57271963e-01, 3.65635484e-01, 4.57271963e-01,
          4.57271963e-01, 1.00792214e-01, 6.53717443e-02, 3.99429500e-02,
          2.38057282e-02, 6.45525336e-01, 6.45525336e-01, 6.58831224e-02,
          2.17225924e-01, 3.04988116e-01, 1.18895225e-01, 2.82299258e-02,
          1.02073876e-02, 7.81885460e-02, 1.35260701e-01, 4.35156554e-01,
          3.29918623e-01, 1.94594815e-01, 4.35156554e-01, 4.35156554e-01,
          4.35156554e-01, 2.59009808e-01, 9.65635702e-02, 4.57271963e-01,
          4.57271963e-01, 3.65635484e-01, 4.57271963e-01, 4.57271963e-01,
          1.00792214e-01, 6.53717443e-02, 3.99429500e-02, 2.38057282e-02,
          6.45525336e-01, 6.45525336e-01, 6.58831224e-02, 2.17225924e-01,
          3.04988116e-01, 1.18895225e-01, 2.82299258e-02, 1.02073876e-02,
          2.71259826e-02, 4.24119011e-02, 3.43926817e-01, 3.01373780e-01,
          5.39820567e-02, 9.27266479e-02, 3.40762973e-01, 6.11217916e-01,
          5.30124366e-01, 2.87659857e-02, 4.97051299e-01, 4.97051299e-01,
          4.20711070e-01, 2.21343294e-01, 2.25849405e-01, 3.52255344e-01,
          2.59011358e-01, 1.78658873e-01, 2.36798469e-02, 4.97250319e-01,
          4.97250319e-01, 4.97250319e-01, 4.97250319e-01, 3.20270136e-02,
          5.82348071e-02, 2.45573856e-02, 2.05255076e-02, 2.86480803e-02,
          3.59173976e-02, 8.96281898e-02, 4.31871623e-01, 4.31871623e-01,
          2.30165929e-01, 4.31871623e-01, 4.31871623e-01, 4.31871623e-01,
          1.49231106e-01, 1.91169798e-01, 4.50793684e-01, 4.51820701e-01,
          3.19474936e-01, 7.44412318e-02, 1.15864016e-01, 4.51820701e-01,
          4.51820701e-01, 2.76701331e-01, 1.08210124e-01, 3.20203483e-01,
          4.93947268e-01, 4.93947268e-01, 1.55472368e-01, 2.43034698e-02,
          2.18057841e-01, 4.93947268e-01, 5.71297586e-01, 5.71297586e-01,
          9.63541400e-03, 2.13358384e-02, 9.19559523e-02, 5.12510121e-01,
          9.05833617e-02, 6.97906762e-02, 2.38299638e-01, 5.50516188e-01,
          1.28485262e-01, 3.45348641e-02, 1.52908470e-02, 2.12200031e-01,
          1.37079373e-01, 5.95293678e-02, 5.50516188e-01, 5.50516188e-01,
          7.12579787e-02, 4.93760109e-02, 7.55703971e-02, 5.52997105e-02,
          5.10841966e-01, 7.52343088e-02, 7.19314814e-02, 5.94133377e-01,
          5.94133377e-01, 4.26235259e-01, 4.26235259e-01, 4.26235259e-01,
          2.76646048e-01, 4.26235259e-01, 4.26235259e-01, 3.76476571e-02,
          4.91174012e-02, 8.36474746e-02, 6.35283515e-02, 5.97432703e-02,
          1.40952215e-01, 4.07778412e-01, 4.07778412e-01, 4.07778412e-01,
          4.07778412e-01, 3.70185792e-01, 4.07778412e-01, 1.60279050e-02,
          1.01273069e-02, 4.00032066e-02, 4.31298494e-01, 4.31298494e-01,
          2.52269655e-01, 4.31298494e-01, 4.31298494e-01, 4.31298494e-01,
          2.38057282e-02, 6.45525336e-01, 6.45525336e-01, 6.58831224e-02,
          2.17225924e-01, 3.04988116e-01, 1.18895225e-01, 2.82299258e-02,
          1.02073876e-02, 6.78497925e-02, 5.10512479e-02, 1.20096356e-01,
          2.68016666e-01, 1.34238809e-01, 1.14307113e-01, 6.39343917e-01,
          6.39343917e-01, 2.27032036e-01, 3.99132103e-01, 2.29263846e-02,
          3.59129794e-02, 3.99132103e-01, 3.99132103e-01, 3.85487556e-01,
          3.99132103e-01, 2.21505314e-01, 3.99132103e-01, 2.38057282e-02,
          6.45525336e-01, 6.45525336e-01, 6.58831224e-02, 2.17225924e-01,
          3.04988116e-01, 1.18895225e-01, 2.82299258e-02, 1.02073876e-02,
          6.78497925e-02, 5.10512479e-02, 1.20096356e-01, 2.68016666e-01,
          1.34238809e-01, 1.14307113e-01, 6.39343917e-01, 6.39343917e-01,
          2.27032036e-01, 3.99132103e-01, 2.29263846e-02, 3.59129794e-02,
          3.99132103e-01, 3.99132103e-01, 3.85487556e-01, 3.99132103e-01,
          2.21505314e-01, 3.99132103e-01, 2.36798469e-02, 4.97250319e-01,
          4.97250319e-01, 4.97250319e-01, 4.97250319e-01, 3.20270136e-02,
          5.82348071e-02, 2.45573856e-02, 2.05255076e-02, 4.04214174e-01,
          1.57755930e-02, 5.62043265e-02, 2.22527981e-01, 4.40956324e-01,
          3.88564654e-02, 4.40956324e-01, 4.40956324e-01, 4.40956324e-01,
          5.72384536e-01, 2.74633337e-03, 2.03158055e-03, 4.69178893e-02,
          5.72384536e-01, 3.87833416e-02, 6.75813034e-02, 5.59273027e-02,
          5.72384536e-01, 2.76701331e-01, 1.08210124e-01, 3.20203483e-01,
          4.93947268e-01, 4.93947268e-01, 1.55472368e-01, 2.43034698e-02,
          2.18057841e-01, 4.93947268e-01, 2.03913659e-01, 3.75926076e-03,
          1.39667895e-02, 4.11604285e-01, 7.98912883e-01, 5.73786348e-02,
          2.39179526e-02, 7.17499405e-02, 3.65437597e-01, 1.70417145e-01,
          6.29670394e-04, 4.47885785e-03, 1.72435716e-01, 9.21764374e-01,
          1.33203134e-01, 3.26437056e-02, 3.02033834e-02, 2.50273079e-01 ]
      - [ 1.06954068e-01, 1.37590811e-01, 7.94637054e-02, 2.38153953e-02,
          2.42639899e-01, 3.82200688e-01, 5.38335979e-01, 5.38335979e-01,
          4.15703177e-01, 2.35726358e-03, 2.06230819e-01, 5.18309891e-01,
          2.53643513e-01, 1.44236505e-01, 2.38648415e-01, 5.18309891e-01,
          5.18309891e-01, 6.52629361e-02, 4.44577225e-02, 1.89492851e-01,
          5.16173899e-01, 2.30497599e-01, 8.36426765e-02, 3.05481017e-01,
          5.16173899e-01, 5.16173899e-01, 6.48881048e-02, 1.25994114e-02,
          4.35080454e-02, 1.82285104e-02, 1.68605819e-02, 4.34956878e-01,
          7.90491283e-01, 3.17078561e-01, 2.52522975e-01, 1.05223283e-01,
          2.86669564e-02, 1.18623063e-01, 3.82546067e-01, 1.19930990e-01,
          5.78696430e-01, 5.78696430e-01, 3.24037582e-01, 2.08864376e-01,
          1.41220344e-02, 3.49701494e-01, 3.49701494e-01, 3.49701494e-01,
          1.34821832e-01, 3.49701494e-01, 3.49701494e-01, 3.49701494e-01,
          3.49701494e-01, 3.49701494e-01, 3.33055407e-02, 9.02784616e-02,
          8.41842592e-02, 1.27332248e-02, 2.56703228e-01, 6.74351633e-01,
          6.74351633e-01, 3.35390829e-02, 1.54132554e-02, 2.93235760e-02,
          3.58734399e-01, 5.00458717e-01, 2.22663775e-01, 5.00458717e-01,
          5.00458717e-01, 2.34420836e-01, 8.96104425e-02, 3.88876386e-02,
          1.71599060e-01, 4.32285190e-01, 5.14876604e-01, 6.80615902e-02,
          4.44262475e-02, 3.93836312e-02, 5.14876604e-01, 4.81531233e-01,
          9.11909118e-02, 3.33055407e-02, 9.02784616e-02, 8.41842592e-02,
          1.27332248e-02, 2.56703228e-01, 6.74351633e-01, 6.74351633e-01,
          3.35390829e-02, 1.54132554e-02, 2.93235760e-02, 3.58734399e-01,
          5.00458717e-01, 2.22663775e-01, 5.00458717e-01, 5.00458717e-01,
          2.34420836e-01, 8.96104425e-02, 3.88876386e-02, 1.71599060e-01,
          4.32285190e-01, 5.14876604e-01, 6.80615902e-02, 4.44262475e-02,
          3.93836312e-02, 5.14876604e-01, 4.81531233e-01, 9.11909118e-02,
          7.53408521e-02, 1.21280029e-01, 3.39383632e-01, 1.32096872e-01,
          3.82488705e-02, 5.26828289e-01, 5.26828289e-01, 5.26828289e-01,
          8.72668326e-02, 4.77180213e-01, 4.77180213e-01, 4.77180213e-01,
          1.16214350e-01, 2.79956274e-02, 7.70994201e-02, 3.63767594e-02,
          2.50744671e-01, 4.77180213e-01, 1.76178485e-01, 4.55125004e-01,
          5.05765915e-01, 5.06280959e-02, 6.87969942e-03, 2.04475969e-02,
          4.22646374e-01, 3.31291318e-01, 4.57776695e-01, 3.32280248e-02,
          3.33612189e-02, 1.18057586e-01, 1.96838588e-01, 3.45244221e-02,
          1.32912016e-02, 1.31384715e-01, 6.78122282e-01, 6.78122282e-01,
          2.21397370e-01, 3.23389500e-01, 4.90269154e-01, 4.90269154e-01,
          1.97680309e-01, 1.07805375e-02, 3.41932401e-02, 2.82933295e-01,
          4.90269154e-01, 2.90744871e-01, 2.18329951e-01, 4.40873623e-01,
          4.40873623e-01, 4.40873623e-01, 1.86291948e-01, 6.46080449e-02,
          2.16883272e-01, 4.40873623e-01, 4.44577225e-02, 1.89492851e-01,
          5.16173899e-01, 2.30497599e-01, 8.36426765e-02, 3.05481017e-01,
          5.16173899e-01, 5.16173899e-01, 6.48881048e-02, 5.93308471e-02,
          4.69351739e-01, 4.69351739e-01, 2.74742693e-01, 8.59228149e-02,
          8.66290629e-02, 4.69351739e-01, 4.69351739e-01, 1.42326400e-01,
          6.16990887e-02, 6.62694573e-01, 6.62694573e-01, 2.44665816e-01,
          1.88667141e-02, 1.64399315e-02, 1.28221110e-01, 1.44328296e-01,
          1.16147049e-01, 3.49701494e-01, 3.49701494e-01, 3.49701494e-01,
          1.34821832e-01, 3.49701494e-01, 3.49701494e-01, 3.49701494e-01,
          3.49701494e-01, 3.49701494e-01, 2.99682617e-01, 3.56224120e-01,
          2.99909651e-01, 3.69054675e-01, 3.69054675e-01, 2.14773059e-01,
          3.69054675e-01, 3.69054675e-01, 3.14211637e-01, 4.83383611e-02,
          4.96501207e-01, 4.96501207e-01, 4.96501207e-01, 4.96501207e-01,
          6.11148588e-02, 3.23160365e-02, 2.68186163e-02, 3.39461565e-02,
          1.71599060e-01, 4.32285190e-01, 5.14876604e-01, 6.80615902e-02,
          4.44262475e-02, 3.93836312e-02, 5.14876604e-01, 4.81531233e-01,
          9.11909118e-02, 1.12142503e-01, 7.12475926e-02, 1.21364862e-01,
          1.90269291e-01, 1.14878729e-01, 1.32213667e-01, 6.65088356e-01,
          6.65088356e-01, 9.70240980e-02, 1.42757267e-01, 1.06135108e-01,
          2.86917090e-01, 5.79502523e-01, 5.79502523e-01, 2.58046836e-01,
          2.52036005e-01, 2.07060054e-01, 1.88724846e-01, 1.71599060e-01,
          4.32285190e-01, 5.14876604e-01, 6.80615902e-02, 4.44262475e-02,
          3.93836312e-02, 5.14876604e-01, 4.81531233e-01, 9.11909118e-02,
          1.12142503e-01, 7.12475926e-02, 1.21364862e-01, 1.90269291e-01,
          1.14878729e-01, 1.32213667e-01, 6.65088356e-01, 6.65088356e-01,
          9.70240980e-02, 1.42757267e-01, 1.06135108e-01, 2.86917090e-01,
          5.79502523e-01, 5.79502523e-01, 2.58046836e-01, 2.52036005e-01,
          2.07060054e-01, 1.88724846e-01, 1.76178485e-01, 4.55125004e-01,
          5.05765915e-01, 5.06280959e-02, 6.87969942e-03, 2.04475969e-02,
          4.22646374e-01, 3.31291318e-01, 4.57776695e-01, 4.72241789e-01,
          3.66228789e-01, 1.09045371e-01, 1.21466946e-02, 4.04090574e-03,
          4.90072891e-02, 4.72241789e-01, 4.72241789e-01, 4.21504736e-01,
          4.49518055e-01, 3.27546537e-01, 9.39507037e-02, 1.45175289e-02,
          2.57893931e-02, 2.65055746e-01, 4.49518055e-01, 4.49518055e-01,
          4.49518055e-01, 2.90744871e-01, 2.18329951e-01, 4.40873623e-01,
          4.40873623e-01, 4.40873623e-01, 1.86291948e-01, 6.46080449e-02,
          2.16883272e-01, 4.40873623e-01, 5.08352280e-01, 1.81304827e-01,
          3.55763584e-02, 8.29215050e-02, 3.05520713e-01, 5.08352280e-01,
          4.52866703e-01, 2.42063642e-01, 2.82913238e-01, 4.16649967e-01,
          4.16649967e-01, 3.79420556e-02, 3.11858058e-02, 2.06104279e-01,
          4.16649967e-01, 4.16649967e-01, 3.33256662e-01, 3.81441891e-01 ]
      - [ 4.73144531e-01, 3.31313759e-01, 4.01337445e-01, 5.16377799e-02,
          4.73144531e-01, 4.73144531e-01, 1.36605546e-01, 1.53490677e-01,
          8.91605392e-02, 4.29744452e-01, 4.29744452e-01, 4.29744452e-01,
          1.61013529e-01, 4.29744452e-01, 1.99596509e-01, 5.67632169e-02,
          5.76147176e-02, 4.29744452e-01, 2.84968585e-01, 6.59247413e-02,
          9.80733857e-02, 3.44994783e-01, 4.36405092e-01, 1.40178844e-01,
          4.36405092e-01, 4.36405092e-01, 4.36405092e-01, 1.33179814e-01,
          2.58398890e-01, 4.18712944e-01, 1.38125107e-01, 3.83868247e-01,
          4.18712944e-01, 4.18712944e-01, 4.18712944e-01, 2.08793983e-01,
          3.77928354e-02, 5.67309618e-01, 7.93572247e-01, 4.17815298e-02,
          1.12362802e-02, 5.08180680e-03, 1.13952383e-01, 1.43530920e-01,
          5.97545281e-02, 1.40132280e-02, 6.79659024e-02, 4.01638597e-01,
          3.14260609e-02, 1.12558678e-02, 3.58245969e-02, 6.41743302e-01,
          6.41743302e-01, 3.73792015e-02, 4.32635069e-01, 4.32635069e-01,
          4.32635069e-01, 2.28154823e-01, 8.33212957e-02, 9.46009234e-02,
          1.23580918e-01, 4.04681742e-01, 4.32635069e-01, 1.39047012e-01,
          6.20189250e-01, 6.20189250e-01, 3.09149008e-02, 5.21507580e-03,
          1.58130322e-02, 7.74319768e-02, 2.08664611e-01, 3.92981976e-01,
          1.61985740e-01, 1.82438031e-01, 4.95223075e-01, 2.43775491e-02,
          9.78774950e-03, 2.16002855e-02, 5.84430873e-01, 5.84430873e-01,
          7.15542361e-02, 4.32635069e-01, 4.32635069e-01, 4.32635069e-01,
          2.28154823e-01, 8.33212957e-02, 9.46009234e-02, 1.23580918e-01,
          4.04681742e-01, 4.32635069e-01, 1.39047012e-01, 6.20189250e-01,
          6.20189250e-01, 3.09149008e-02, 5.21507580e-03, 1.58130322e-02,
          7.74319768e-02, 2.08664611e-01, 3.92981976e-01, 1.61985740e-01,
          1.82438031e-01, 4.95223075e-01, 2.43775491e-02, 9.78774950e-03,
          2.16002855e-02, 5.84430873e-01, 5.84430873e-01, 7.15542361e-02,
          2.13706270e-01, 4.64300632e-01, 5.03672004e-01, 5.03672004e-01,
          4.51482870e-02, 4.38455306e-02, 5.60552962e-02, 1.61967963e-01,
          4.39336389e-01, 4.07041520e-01, 4.07041520e-01, 4.07041520e-01,
          4.07041520e-01, 4.13160101e-02, 3.61330481e-03, 1.08083719e-02,
          4.07041520e-01, 4.07041520e-01, 4.09615964e-01, 4.09615964e-01,
          3.54593128e-01, 3.81159149e-02, 2.72687096e-02, 1.70438394e-01,
          4.09615964e-01, 4.09615964e-01, 4.09615964e-01, 2.40682855e-01,
          6.14723675e-02, 4.75647122e-01, 4.75647122e-01, 1.12588063e-01,
          9.99107286e-02, 7.69623071e-02, 4.75647122e-01, 4.75647122e-01,
          1.86291084e-01, 1.10445581e-02, 9.70505327e-02, 6.90933168e-01,
          3.87332469e-01, 3.33245099e-02, 2.84986179e-02, 5.61930314e-02,
          5.62460721e-01, 3.41629446e-01, 3.26760039e-02, 3.18012759e-02,
          5.25168598e-01, 5.25168598e-01, 5.25168598e-01, 2.45670788e-02,
          5.35252690e-02, 2.12346673e-01, 2.84968585e-01, 6.59247413e-02,
          9.80733857e-02, 3.44994783e-01, 4.36405092e-01, 1.40178844e-01,
          4.36405092e-01, 4.36405092e-01, 4.36405092e-01, 4.48369011e-02,
          1.68171022e-02, 4.42719236e-02, 6.11529350e-01, 6.11529350e-01,
          1.90621123e-01, 3.43538105e-01, 2.09183916e-01, 2.08786592e-01,
          2.85789430e-01, 2.54272614e-02, 3.78730506e-01, 6.00293517e-01,
          6.00293517e-01, 8.22681282e-03, 7.61883631e-02, 4.95018773e-02,
          1.98039606e-01, 1.40132280e-02, 6.79659024e-02, 4.01638597e-01,
          3.14260609e-02, 1.12558678e-02, 3.58245969e-02, 6.41743302e-01,
          6.41743302e-01, 3.73792015e-02, 1.45756364e-01, 1.42979220e-01,
          4.86516535e-01, 3.32922190e-01, 3.29898119e-01, 1.42756999e-01,
          4.86516535e-01, 4.86516535e-01, 5.75162210e-02, 7.05709159e-02,
          6.08832166e-02, 5.84740698e-01, 6.95031583e-01, 3.22069347e-01,
          1.01113915e-01, 1.42846599e-01, 1.34021208e-01, 8.40522721e-02,
          1.61985740e-01, 1.82438031e-01, 4.95223075e-01, 2.43775491e-02,
          9.78774950e-03, 2.16002855e-02, 5.84430873e-01, 5.84430873e-01,
          7.15542361e-02, 4.38603073e-01, 4.38603073e-01, 1.72602624e-01,
          6.41768426e-02, 3.92554840e-03, 1.33468201e-02, 4.38603073e-01,
          4.38603073e-01, 4.38205779e-01, 2.84499705e-01, 1.80315718e-01,
          1.93316028e-01, 1.85080156e-01, 4.36779410e-01, 2.17835709e-01,
          4.36779410e-01, 4.36779410e-01, 4.36779410e-01, 1.61985740e-01,
          1.82438031e-01, 4.95223075e-01, 2.43775491e-02, 9.78774950e-03,
          2.16002855e-02, 5.84430873e-01, 5.84430873e-01, 7.15542361e-02,
          4.38603073e-01, 4.38603073e-01, 1.72602624e-01, 6.41768426e-02,
          3.92554840e-03, 1.33468201e-02, 4.38603073e-01, 4.38603073e-01,
          4.38205779e-01, 2.84499705e-01, 1.80315718e-01, 1.93316028e-01,
          1.85080156e-01, 4.36779410e-01, 2.17835709e-01, 4.36779410e-01,
          4.36779410e-01, 4.36779410e-01, 4.09615964e-01, 4.09615964e-01,
          3.54593128e-01, 3.81159149e-02, 2.72687096e-02, 1.70438394e-01,
          4.09615964e-01, 4.09615964e-01, 4.09615964e-01, 4.33859408e-01,
          4.33859408e-01, 3.33539397e-02, 2.47938540e-02, 2.45856326e-02,
          4.33859408e-01, 4.33859408e-01, 4.33859408e-01, 2.28395715e-01,
          2.77061075e-01, 4.98305857e-01, 1.92382544e-01, 7.18320385e-02,
          8.11719075e-02, 3.25394988e-01, 4.98305857e-01, 4.98305857e-01,
          1.36720136e-01, 3.41629446e-01, 3.26760039e-02, 3.18012759e-02,
          5.25168598e-01, 5.25168598e-01, 5.25168598e-01, 2.45670788e-02,
          5.35252690e-02, 2.12346673e-01, 5.39130390e-01, 1.54603511e-01,
          2.26764493e-02, 1.52820284e-02, 2.46539846e-01, 5.39130390e-01,
          5.39130390e-01, 8.36777389e-02, 1.73773944e-01, 5.76159716e-01,
          5.76159716e-01, 1.10604048e-01, 2.01271139e-02, 1.22430138e-01,
          1.95519641e-01, 4.33347881e-01, 1.86450079e-01, 2.04737201e-01 ]
      - [ 4.21232194e-01, 4.21232194e-01, 4.21232194e-01, 1.95675716e-01,
          2.23335639e-01, 4.21232194e-01, 4.21232194e-01, 8.99299234e-02,
          1.11149475e-01, 3.64149034e-01, 3.64149034e-01, 3.64149034e-01,
          3.64149034e-01, 3.64149034e-01, 3.64149034e-01, 3.64149034e-01,
          7.93078467e-02, 2.48677641e-01, 4.99272078e-01, 4.87010106e-02,
          2.88506895e-01, 4.45147425e-01, 3.75083983e-01, 6.28626868e-02,
          1.23696392e-02, 2.60598302e-01, 4.99272078e-01, 3.87614936e-01,
          3.87614936e-01, 3.87614936e-01, 1.85794711e-01, 9.13738832e-02,
          2.27567300e-01, 3.87614936e-01, 3.87614936e-01, 3.87614936e-01,
          6.96045309e-02, 3.73292685e-01, 3.73292685e-01, 3.73292685e-01,
          1.95172444e-01, 3.42416257e-01, 3.73292685e-01, 3.73292685e-01,
          3.73292685e-01, 4.32513691e-02, 4.92671221e-01, 5.63374996e-01,
          5.63374996e-01, 8.07786137e-02, 7.63132200e-02, 1.12213567e-01,
          2.16286212e-01, 2.08027080e-01, 2.10780799e-02, 4.84901488e-01,
          4.84901488e-01, 2.42866248e-01, 6.07518107e-03, 1.47437463e-02,
          4.72080171e-01, 4.84901488e-01, 8.50068554e-02, 3.39045823e-02,
          1.93648621e-01, 4.65166718e-01, 4.65166718e-01, 7.10164607e-02,
          7.43619725e-02, 4.65166718e-01, 4.65166718e-01, 2.83921003e-01,
          1.46852881e-01, 1.25726014e-01, 5.16614497e-01, 5.73642910e-01,
          4.55514133e-01, 1.07190087e-01, 1.79303423e-01, 2.05764264e-01,
          2.59751439e-01, 2.10780799e-02, 4.84901488e-01, 4.84901488e-01,
          2.42866248e-01, 6.07518107e-03, 1.47437463e-02, 4.72080171e-01,
          4.84901488e-01, 8.50068554e-02, 3.39045823e-02, 1.93648621e-01,
          4.65166718e-01, 4.65166718e-01, 7.10164607e-02, 7.43619725e-02,
          4.65166718e-01, 4.65166718e-01, 2.83921003e-01, 1.46852881e-01,
          1.25726014e-01, 5.16614497e-01, 5.73642910e-01, 4.55514133e-01,
          1.07190087e-01, 1.79303423e-01, 2.05764264e-01, 2.59751439e-01,
          2.83493865e-02, 4.83701192e-02, 5.59040964e-01, 5.59040964e-01,
          1.69583838e-02, 1.14562893e-02, 2.10763767e-01, 5.59040964e-01,
          9.40941125e-02, 2.58366495e-01, 3.42243388e-02, 2.66192168e-01,
          4.65132803e-01, 1.28409982e-01, 2.59701125e-02, 4.36305046e-01,
          4.65132803e-01, 4.65132803e-01, 5.13714254e-01, 1.52878519e-02,
          9.00680646e-02, 4.67561722e-01, 3.33963096e-01, 7.57663101e-02,
          5.53943627e-02, 3.46069932e-01, 5.13714254e-01, 8.17115884e-03,
          2.99078710e-02, 4.32524204e-01, 5.04841328e-01, 7.81800300e-02,
          1.07800849e-01, 1.56818911e-01, 5.04841328e-01, 5.04841328e-01,
          4.80005927e-02, 2.02714819e-02, 8.71426836e-02, 5.81563473e-01,
          5.81563473e-01, 1.59075484e-02, 1.76706333e-02, 2.50332683e-01,
          4.94186223e-01, 3.52253318e-01, 2.37714965e-02, 9.22536477e-03,
          4.64310944e-01, 4.96434838e-01, 4.96434838e-01, 2.13464312e-02,
          9.66948047e-02, 3.89902592e-01, 4.99272078e-01, 4.87010106e-02,
          2.88506895e-01, 4.45147425e-01, 3.75083983e-01, 6.28626868e-02,
          1.23696392e-02, 2.60598302e-01, 4.99272078e-01, 3.40355262e-02,
          5.09965839e-03, 7.05427155e-02, 5.40294349e-01, 3.04874629e-01,
          2.12825406e-02, 1.38882637e-01, 5.40294349e-01, 5.40294349e-01,
          6.92275763e-02, 4.89350185e-02, 2.95338750e-01, 4.17897522e-01,
          4.17897522e-01, 3.66075486e-01, 4.17897522e-01, 4.17897522e-01,
          2.62390554e-01, 4.32513691e-02, 4.92671221e-01, 5.63374996e-01,
          5.63374996e-01, 8.07786137e-02, 7.63132200e-02, 1.12213567e-01,
          2.16286212e-01, 2.08027080e-01, 3.25017236e-02, 4.87179384e-02,
          9.89160240e-02, 2.01346546e-01, 9.25623849e-02, 3.79933231e-02,
          2.18730345e-01, 6.63988829e-01, 6.63988829e-01, 1.02614000e-01,
          6.03337474e-02, 1.38417646e-01, 2.48614356e-01, 1.85146600e-01,
          1.60365224e-01, 6.22731030e-01, 6.22731030e-01, 2.51117617e-01,
          1.46852881e-01, 1.25726014e-01, 5.16614497e-01, 5.73642910e-01,
          4.55514133e-01, 1.07190087e-01, 1.79303423e-01, 2.05764264e-01,
          2.59751439e-01, 6.93921596e-02, 1.32134855e-01, 1.79140866e-01,
          5.56445837e-01, 5.56445837e-01, 1.27146840e-01, 3.57520103e-01,
          4.14297283e-01, 7.19988942e-02, 2.63072819e-01, 3.16830695e-01,
          4.85216498e-01, 2.51412541e-01, 2.16668367e-01, 5.33879735e-02,
          4.87793446e-01, 4.87793446e-01, 3.48608382e-02, 1.46852881e-01,
          1.25726014e-01, 5.16614497e-01, 5.73642910e-01, 4.55514133e-01,
          1.07190087e-01, 1.79303423e-01, 2.05764264e-01, 2.59751439e-01,
          6.93921596e-02, 1.32134855e-01, 1.79140866e-01, 5.56445837e-01,
          5.56445837e-01, 1.27146840e-01, 3.57520103e-01, 4.14297283e-01,
          7.19988942e-02, 2.63072819e-01, 3.16830695e-01, 4.85216498e-01,
          2.51412541e-01, 2.16668367e-01, 5.33879735e-02, 4.87793446e-01,
          4.87793446e-01, 3.48608382e-02, 5.13714254e-01, 1.52878519e-02,
          9.00680646e-02, 4.67561722e-01, 3.33963096e-01, 7.57663101e-02,
          5.53943627e-02, 3.46069932e-01, 5.13714254e-01, 2.72164434e-01,
          3.74061406e-01, 3.22554082e-01, 3.74061406e-01, 3.74061406e-01,
          2.57889092e-01, 2.28104934e-01, 3.74061406e-01, 3.74061406e-01,
          9.96963233e-02, 4.22855139e-01, 4.22855139e-01, 3.56764287e-01,
          2.86577523e-01, 4.22855139e-01, 4.22855139e-01, 2.37841189e-01,
          6.80802166e-02, 3.52253318e-01, 2.37714965e-02, 9.22536477e-03,
          4.64310944e-01, 4.96434838e-01, 4.96434838e-01, 2.13464312e-02,
          9.66948047e-02, 3.89902592e-01, 3.96122366e-01, 2.85438180e-01,
          6.00053370e-02, 3.61483432e-02, 3.96122366e-01, 3.96122366e-01,
          3.96122366e-01, 3.96122366e-01, 3.53688657e-01, 3.72918963e-01,
          3.72918963e-01, 3.72918963e-01, 2.32114866e-01, 1.90728217e-01,
          3.72918963e-01, 3.72918963e-01, 3.72918963e-01, 2.67597586e-01 ]
      - [ 2.00409107e-02, 9.14607197e-03, 6.99063810e-03, 5.83868381e-03,
          1.00920863e-01, 7.82654762e-01, 6.07086599e-01, 3.28551931e-03,
          1.79518051e-02, 9.63935852e-02, 4.28599089e-01, 4.28599089e-01,
          2.22788692e-01, 4.28568423e-01, 4.28599089e-01, 2.74540335e-01,
          2.77675331e-01, 2.22606733e-01, 3.32778692e-01, 3.32778692e-01,
          3.32778692e-01, 3.32778692e-01, 3.32778692e-01, 3.32778692e-01,
          3.32778692e-01, 3.32778692e-01, 3.32778692e-01, 3.16938199e-02,
          5.24839424e-02, 3.42073590e-02, 5.90376481e-02, 1.37806281e-01,
          6.51749671e-01, 6.51749671e-01, 3.20294827e-01, 1.18084520e-01,
          4.06330794e-01, 4.06330794e-01, 4.06330794e-01, 4.06330794e-01,
          4.06330794e-01, 1.90935686e-01, 1.36565000e-01, 1.12417988e-01,
          3.20426524e-01, 3.37855458e-01, 3.37855458e-01, 2.88883954e-01,
          3.37855458e-01, 3.37855458e-01, 3.37855458e-01, 3.37855458e-01,
          3.37855458e-01, 3.37855458e-01, 1.28788859e-01, 5.72245046e-02,
          2.44306680e-02, 8.26991647e-02, 1.04694933e-01, 1.45764083e-01,
          6.82036698e-01, 6.82036698e-01, 5.77737987e-02, 3.99634570e-01,
          3.99634570e-01, 3.99634570e-01, 3.99634570e-01, 3.99634570e-01,
          1.46346942e-01, 5.14266714e-02, 1.17041543e-01, 3.99634570e-01,
          4.40102190e-01, 2.13302493e-01, 2.86929816e-01, 4.40102190e-01,
          4.40102190e-01, 9.10929590e-02, 1.90540254e-01, 2.20031410e-01,
          4.40102190e-01, 1.28788859e-01, 5.72245046e-02, 2.44306680e-02,
          8.26991647e-02, 1.04694933e-01, 1.45764083e-01, 6.82036698e-01,
          6.82036698e-01, 5.77737987e-02, 3.99634570e-01, 3.99634570e-01,
          3.99634570e-01, 3.99634570e-01, 3.99634570e-01, 1.46346942e-01,
          5.14266714e-02, 1.17041543e-01, 3.99634570e-01, 4.40102190e-01,
          2.13302493e-01, 2.86929816e-01, 4.40102190e-01, 4.40102190e-01,
          9.10929590e-02, 1.90540254e-01, 2.20031410e-01, 4.40102190e-01,
          5.91067523e-02, 4.56965417e-02, 3.71219479e-02, 8.34317058e-02,
          8.77037495e-02, 1.87165305e-01, 5.59098482e-01, 5.59098482e-01,
          5.59098482e-01, 2.28227705e-01, 4.13709491e-01, 4.13709491e-01,
          3.15452754e-01, 4.13709491e-01, 2.23145202e-01, 5.58374412e-02,
          3.26703370e-01, 4.13709491e-01, 3.52206409e-01, 3.52206409e-01,
          3.49860132e-01, 3.52206409e-01, 3.52206409e-01, 3.52206409e-01,
          7.57203922e-02, 3.52206409e-01, 3.52206409e-01, 3.39927934e-02,
          6.68715592e-03, 1.82831194e-03, 3.52752791e-03, 5.51927555e-03,
          2.02101972e-02, 4.63106669e-02, 7.03270972e-01, 7.03270972e-01,
          3.82860720e-01, 3.94808620e-01, 3.94808620e-01, 1.86329022e-01,
          2.87786096e-01, 2.25122645e-01, 2.40330145e-01, 3.94808620e-01,
          3.94808620e-01, 3.44168037e-01, 3.44168037e-01, 3.44168037e-01,
          3.44168037e-01, 3.13889354e-01, 3.44168037e-01, 3.44168037e-01,
          2.62437135e-01, 3.44168037e-01, 3.32778692e-01, 3.32778692e-01,
          3.32778692e-01, 3.32778692e-01, 3.32778692e-01, 3.32778692e-01,
          3.32778692e-01, 3.32778692e-01, 3.32778692e-01, 3.77367437e-01,
          2.45061025e-01, 1.38321057e-01, 3.77367437e-01, 3.77367437e-01,
          3.77367437e-01, 3.77367437e-01, 2.50210285e-01, 3.77367437e-01,
          3.69297452e-02, 4.42079902e-02, 6.06050670e-01, 7.48414516e-01,
          1.90122962e-01, 5.45447692e-02, 1.39595479e-01, 4.45442386e-02,
          3.46012786e-02, 3.37855458e-01, 3.37855458e-01, 2.88883954e-01,
          3.37855458e-01, 3.37855458e-01, 3.37855458e-01, 3.37855458e-01,
          3.37855458e-01, 3.37855458e-01, 3.74194801e-01, 3.43643904e-01,
          1.61409408e-01, 1.09484985e-01, 3.74194801e-01, 3.74194801e-01,
          3.74194801e-01, 3.74194801e-01, 3.74194801e-01, 1.30704120e-01,
          3.11015189e-01, 4.26811934e-01, 4.26811934e-01, 3.37298155e-01,
          3.95511895e-01, 4.26811934e-01, 2.01234996e-01, 1.57231808e-01,
          4.40102190e-01, 2.13302493e-01, 2.86929816e-01, 4.40102190e-01,
          4.40102190e-01, 9.10929590e-02, 1.90540254e-01, 2.20031410e-01,
          4.40102190e-01, 3.95428151e-01, 6.28317222e-02, 2.25717098e-01,
          3.01817328e-01, 3.95428151e-01, 2.61232942e-01, 3.95428151e-01,
          3.95428151e-01, 3.95428151e-01, 1.30130664e-01, 4.21684712e-01,
          4.21684712e-01, 1.29527152e-01, 3.30635011e-01, 2.10619017e-01,
          4.21684712e-01, 4.21684712e-01, 3.11648250e-01, 4.40102190e-01,
          2.13302493e-01, 2.86929816e-01, 4.40102190e-01, 4.40102190e-01,
          9.10929590e-02, 1.90540254e-01, 2.20031410e-01, 4.40102190e-01,
          3.95428151e-01, 6.28317222e-02, 2.25717098e-01, 3.01817328e-01,
          3.95428151e-01, 2.61232942e-01, 3.95428151e-01, 3.95428151e-01,
          3.95428151e-01, 1.30130664e-01, 4.21684712e-01, 4.21684712e-01,
          1.29527152e-01, 3.30635011e-01, 2.10619017e-01, 4.21684712e-01,
          4.21684712e-01, 3.11648250e-01, 3.52206409e-01, 3.52206409e-01,
          3.49860132e-01, 3.52206409e-01, 3.52206409e-01, 3.52206409e-01,
          7.57203922e-02, 3.52206409e-01, 3.52206409e-01, 3.50146025e-01,
          5.57798930e-02, 1.07547864e-01, 4.02982146e-01, 4.02982146e-01,
          2.16150612e-01, 4.02982146e-01, 4.02982146e-01, 4.02982146e-01,
          3.75624865e-01, 3.75624865e-01, 3.75624865e-01, 3.10038775e-01,
          3.28547299e-01, 1.27360046e-01, 3.75624865e-01, 3.75624865e-01,
          2.65498102e-01, 3.44168037e-01, 3.44168037e-01, 3.44168037e-01,
          3.44168037e-01, 3.13889354e-01, 3.44168037e-01, 3.44168037e-01,
          2.62437135e-01, 3.44168037e-01, 3.72846812e-01, 2.54894555e-01,
          3.72846812e-01, 3.72846812e-01, 1.92915291e-01, 2.44947210e-01,
          3.72846812e-01, 3.72846812e-01, 3.72846812e-01, 5.85951746e-01,
          5.85951746e-01, 1.18838899e-01, 3.28877121e-02, 2.59490721e-02,
          2.89309379e-02, 4.60083783e-01, 2.67058045e-01, 8.80814046e-02 ]
      - [ 5.12121320e-01, 5.12121320e-01, 5.94412796e-02, 2.13761032e-02,
          9.77004319e-02, 5.12121320e-01, 4.37194198e-01, 3.74348722e-02,
          4.47754748e-02, 1.97574079e-01, 5.22587657e-01, 5.22587657e-01,
          1.52072415e-01, 2.96331823e-01, 5.22587657e-01, 1.54803231e-01,
          1.27542177e-02, 3.72376777e-02, 4.04979229e-01, 4.04979229e-01,
          4.04979229e-01, 9.06354487e-02, 4.23189737e-02, 4.35823761e-02,
          4.04979229e-01, 4.04979229e-01, 4.04979229e-01, 3.29498351e-01,
          4.00282294e-01, 2.68842578e-01, 5.34553975e-02, 2.01413602e-01,
          5.33206820e-01, 5.33206820e-01, 1.85041845e-01, 8.55517685e-02,
          7.27741839e-03, 7.03237116e-01, 7.03237116e-01, 6.13015220e-02,
          1.04488933e-03, 5.62185654e-03, 6.92249462e-03, 1.91470515e-03,
          0., 8.98091216e-03, 5.75885355e-01, 5.75885355e-01,
          3.61111611e-02, 1.99816702e-03, 1.14322221e-02, 4.66553420e-01,
          3.34225297e-01, 7.97174219e-03, 5.18055558e-02, 4.22000289e-01,
          5.09575665e-01, 9.11659002e-02, 1.15541838e-01, 1.03997402e-01,
          5.09575665e-01, 5.09575665e-01, 5.16154543e-02, 8.17126129e-04,
          7.04319477e-01, 7.04319477e-01, 2.58815270e-02, 2.86886934e-04,
          2.06732162e-04, 1.11909648e-02, 6.43919688e-03, 0.,
          1.22497859e-03, 6.16749942e-01, 6.16749942e-01, 2.85860896e-02,
          0., 1.69305550e-03, 4.45392370e-01, 1.84006184e-01,
          5.20277955e-03, 5.18055558e-02, 4.22000289e-01, 5.09575665e-01,
          9.11659002e-02, 1.15541838e-01, 1.03997402e-01, 5.09575665e-01,
          5.09575665e-01, 5.16154543e-02, 8.17126129e-04, 7.04319477e-01,
          7.04319477e-01, 2.58815270e-02, 2.86886934e-04, 2.06732162e-04,
          1.11909648e-02, 6.43919688e-03, 0., 1.22497859e-03,
          6.16749942e-01, 6.16749942e-01, 2.85860896e-02, 0.,
          1.69305550e-03, 4.45392370e-01, 1.84006184e-01, 5.20277955e-03,
          2.36131977e-02, 1.12928927e-01, 3.57590795e-01, 4.27702427e-01,
          3.50378662e-01, 7.95269664e-03, 4.27702427e-01, 4.27702427e-01,
          4.27702427e-01, 8.06463882e-04, 5.27043104e-01, 7.46496022e-01,
          3.96535516e-01, 1.66487843e-02, 0., 3.21859930e-04,
          2.50456040e-04, 0., 0., 5.08917272e-01, 7.22352028e-01,
          1.95665240e-01, 9.67026514e-04, 1.75699976e-03, 3.92665476e-01,
          1.39729872e-01, 9.48059547e-04, 9.99556184e-02, 8.91790614e-02,
          4.26121473e-01, 4.97600317e-01, 1.87970847e-01, 1.56910475e-02,
          1.30802095e-01, 4.97600317e-01, 4.97600317e-01, 1.11777186e-01,
          3.75875562e-01, 4.88731354e-01, 3.52125198e-01, 6.52000234e-02,
          1.51907243e-02, 7.59904506e-03, 4.84864652e-01, 4.88731354e-01,
          1.47979902e-02, 6.60279751e-01, 6.60279751e-01, 1.83519110e-01,
          2.09665492e-01, 2.60481369e-02, 1.95640773e-01, 6.47553653e-02,
          2.15531718e-02, 4.04979229e-01, 4.04979229e-01, 4.04979229e-01,
          9.06354487e-02, 4.23189737e-02, 4.35823761e-02, 4.04979229e-01,
          4.04979229e-01, 4.04979229e-01, 7.81010836e-02, 2.26610131e-03,
          6.74378499e-02, 3.49136472e-01, 2.43022516e-01, 6.88321292e-02,
          6.15293801e-01, 6.15293801e-01, 2.00839996e-01, 1.14793621e-01,
          5.03406227e-02, 3.91501725e-01, 4.98737872e-01, 2.81340748e-01,
          8.68295804e-02, 1.81806967e-01, 4.98737872e-01, 4.56956118e-01,
          8.98091216e-03, 5.75885355e-01, 5.75885355e-01, 3.61111611e-02,
          1.99816702e-03, 1.14322221e-02, 4.66553420e-01, 3.34225297e-01,
          7.97174219e-03, 2.09102640e-03, 1.93339831e-03, 1.69809573e-04,
          1.29130465e-04, 2.24377043e-04, 4.01068898e-03, 7.04285085e-01,
          7.04285085e-01, 3.01742088e-02, 6.71480522e-02, 9.10418704e-02,
          4.59351063e-01, 4.59351063e-01, 1.79186568e-01, 9.75848585e-02,
          4.59351063e-01, 4.59351063e-01, 3.11400086e-01, 1.22497859e-03,
          6.16749942e-01, 6.16749942e-01, 2.85860896e-02, 0.,
          1.69305550e-03, 4.45392370e-01, 1.84006184e-01, 5.20277955e-03,
          1.61436736e-04, 8.08894925e-04, 2.12217821e-03, 1.71774602e-03,
          0., 3.83424922e-03, 7.04604924e-01, 7.04604924e-01,
          2.70385179e-03, 2.19998080e-02, 1.58506520e-02, 2.87037082e-02,
          1.26346126e-02, 3.12935896e-02, 1.18054681e-01, 6.89880371e-01,
          6.89880371e-01, 1.56870022e-01, 1.22497859e-03, 6.16749942e-01,
          6.16749942e-01, 2.85860896e-02, 0., 1.69305550e-03,
          4.45392370e-01, 1.84006184e-01, 5.20277955e-03, 1.61436736e-04,
          8.08894925e-04, 2.12217821e-03, 1.71774602e-03, 0.,
          3.83424922e-03, 7.04604924e-01, 7.04604924e-01, 2.70385179e-03,
          2.19998080e-02, 1.58506520e-02, 2.87037082e-02, 1.26346126e-02,
          3.12935896e-02, 1.18054681e-01, 6.89880371e-01, 6.89880371e-01,
          1.56870022e-01, 0., 5.08917272e-01, 7.22352028e-01,
          1.95665240e-01, 9.67026514e-04, 1.75699976e-03, 3.92665476e-01,
          1.39729872e-01, 9.48059547e-04, 1.85674895e-03, 3.26294755e-03,
          4.00670711e-03, 6.13129465e-03, 3.47228342e-04, 7.21876137e-03,
          7.04572678e-01, 7.04572678e-01, 1.17470708e-03, 5.71649782e-02,
          2.10287884e-01, 6.63718060e-02, 2.80858688e-02, 2.39160284e-02,
          2.91629612e-01, 6.48831367e-01, 6.48831367e-01, 1.15131363e-01,
          1.47979902e-02, 6.60279751e-01, 6.60279751e-01, 1.83519110e-01,
          2.09665492e-01, 2.60481369e-02, 1.95640773e-01, 6.47553653e-02,
          2.15531718e-02, 4.79024611e-02, 1.65787563e-02, 5.14916261e-04,
          9.20234423e-04, 1.20046638e-01, 2.23127007e-01, 6.80387855e-01,
          6.80387855e-01, 2.41900999e-02, 4.75314111e-01, 4.75314111e-01,
          3.47564034e-02, 5.29091805e-03, 1.30919904e-01, 4.75314111e-01,
          4.75314111e-01, 2.64428258e-01, 5.70992157e-02 ]
      - [ 2.30527550e-01, 2.09505409e-01, 4.16873306e-01, 4.16873306e-01,
          4.16873306e-01, 4.16873306e-01, 4.16873306e-01, 2.41872184e-02,
          1.71167746e-01, 5.50845973e-02, 2.03945283e-02, 5.88922873e-02,
          4.71888371e-02, 5.26625454e-01, 5.26625454e-01, 5.26625454e-01,
          2.05807313e-01, 3.33520114e-01, 2.65799969e-01, 3.36208016e-01,
          3.11878741e-01, 5.57856143e-01, 5.66028774e-01, 2.66768336e-01,
          9.04593524e-03, 4.15337309e-02, 9.39668715e-02, 1.97708726e-01,
          4.97594215e-02, 1.17810056e-01, 5.44342995e-01, 5.68116546e-01,
          5.58075428e-01, 4.84484099e-02, 1.04043856e-02, 7.69004747e-02,
          3.04068197e-02, 6.53825840e-03, 1.77194607e-02, 7.57714584e-02,
          7.64220893e-01, 6.19654477e-01, 1.07425578e-01, 5.05779088e-02,
          5.69746606e-02, 1.35317191e-01, 1.46817327e-01, 8.88564140e-02,
          3.53448540e-01, 8.15914810e-01, 3.49242240e-01, 2.24838275e-02,
          6.17835447e-02, 1.64803490e-01, 1.13902330e-01, 8.02244619e-02,
          1.14914380e-01, 1.96802676e-01, 6.26876295e-01, 5.90066969e-01,
          3.84286880e-01, 1.65356681e-01, 7.88830817e-02, 9.25704464e-03,
          3.14124562e-02, 1.66773304e-01, 5.11956453e-01, 7.47988284e-01,
          3.00201625e-01, 1.79854706e-01, 1.25019461e-01, 6.29594252e-02,
          6.80173337e-02, 2.51282334e-01, 5.44781387e-01, 4.34874415e-01,
          6.38647199e-01, 5.67820817e-02, 3.16571444e-02, 1.38777122e-01,
          9.27169994e-02, 1.13902330e-01, 8.02244619e-02, 1.14914380e-01,
          1.96802676e-01, 6.26876295e-01, 5.90066969e-01, 3.84286880e-01,
          1.65356681e-01, 7.88830817e-02, 9.25704464e-03, 3.14124562e-02,
          1.66773304e-01, 5.11956453e-01, 7.47988284e-01, 3.00201625e-01,
          1.79854706e-01, 1.25019461e-01, 6.29594252e-02, 6.80173337e-02,
          2.51282334e-01, 5.44781387e-01, 4.34874415e-01, 6.38647199e-01,
          5.67820817e-02, 3.16571444e-02, 1.38777122e-01, 9.27169994e-02,
          2.17185065e-01, 1.94856465e-01, 1.20486669e-01, 3.36892396e-01,
          4.14351672e-01, 3.47162753e-01, 4.99563873e-01, 2.57697314e-01,
          4.16267395e-01, 3.37579578e-01, 1.01376968e-02, 3.87848094e-02,
          5.87301515e-02, 5.44998825e-01, 5.34987390e-01, 1.86474904e-01,
          2.39653304e-01, 4.47324693e-01, 5.82650840e-01, 6.30462989e-02,
          2.44365856e-01, 1.13467731e-01, 5.82650840e-01, 1.46282062e-01,
          1.09052397e-02, 2.28312099e-03, 4.65973169e-01, 6.96167171e-01,
          9.20722261e-02, 7.57702021e-03, 2.35251128e-03, 7.15858936e-02,
          7.86391720e-02, 3.54773477e-02, 5.14347032e-02, 6.96167171e-01,
          7.02014387e-01, 4.65912092e-03, 1.62306207e-03, 0.,
          2.41586007e-02, 7.70999715e-02, 2.49443352e-02, 1.30039677e-02,
          7.02014387e-01, 7.02526212e-01, 8.02408729e-04, 2.40722625e-03,
          1.18771533e-03, 7.26304650e-02, 2.44919974e-02, 1.39300805e-03,
          4.02781134e-03, 7.02526212e-01, 2.65799969e-01, 3.36208016e-01,
          3.11878741e-01, 5.57856143e-01, 5.66028774e-01, 2.66768336e-01,
          9.04593524e-03, 4.15337309e-02, 9.39668715e-02, 2.26026312e-01,
          7.24117011e-02, 1.15751242e-02, 3.23086232e-01, 6.12673104e-01,
          6.12673104e-01, 9.17149410e-02, 2.43350208e-01, 1.21099204e-01,
          6.70595234e-03, 1.45272557e-02, 1.32139437e-02, 4.23633844e-01,
          4.51406717e-01, 4.51406717e-01, 4.51406717e-01, 4.51406717e-01,
          2.28628851e-02, 1.35317191e-01, 1.46817327e-01, 8.88564140e-02,
          3.53448540e-01, 8.15914810e-01, 3.49242240e-01, 2.24838275e-02,
          6.17835447e-02, 1.64803490e-01, 2.10342646e-01, 2.05218151e-01,
          7.35468641e-02, 1.68057218e-01, 4.46081966e-01, 4.46081966e-01,
          4.46081966e-01, 4.46081966e-01, 2.82093465e-01, 2.06626169e-02,
          9.21855718e-02, 4.33073491e-01, 4.33073491e-01, 4.33073491e-01,
          2.19880894e-01, 4.33073491e-01, 4.33073491e-01, 2.52605565e-02,
          6.80173337e-02, 2.51282334e-01, 5.44781387e-01, 4.34874415e-01,
          6.38647199e-01, 5.67820817e-02, 3.16571444e-02, 1.38777122e-01,
          9.27169994e-02, 2.21550427e-02, 8.43012184e-02, 4.15140986e-01,
          2.71321476e-01, 2.98358910e-02, 7.09652528e-02, 6.05967462e-01,
          6.05967462e-01, 8.67407024e-03, 1.20717275e-03, 3.02010924e-01,
          5.42931378e-01, 1.12878010e-01, 6.75746948e-02, 9.46032815e-03,
          5.42931378e-01, 5.42931378e-01, 4.05613184e-02, 6.80173337e-02,
          2.51282334e-01, 5.44781387e-01, 4.34874415e-01, 6.38647199e-01,
          5.67820817e-02, 3.16571444e-02, 1.38777122e-01, 9.27169994e-02,
          2.21550427e-02, 8.43012184e-02, 4.15140986e-01, 2.71321476e-01,
          2.98358910e-02, 7.09652528e-02, 6.05967462e-01, 6.05967462e-01,
          8.67407024e-03, 1.20717275e-03, 3.02010924e-01, 5.42931378e-01,
          1.12878010e-01, 6.75746948e-02, 9.46032815e-03, 5.42931378e-01,
          5.42931378e-01, 4.05613184e-02, 5.82650840e-01, 6.30462989e-02,
          2.44365856e-01, 1.13467731e-01, 5.82650840e-01, 1.46282062e-01,
          1.09052397e-02, 2.28312099e-03, 4.65973169e-01, 4.49873745e-01,
          2.25695819e-02, 1.93240836e-01, 2.17178509e-01, 3.77147615e-01,
          1.75323457e-01, 4.49873745e-01, 4.49873745e-01, 3.61041099e-01,
          4.07902628e-01, 4.07902628e-01, 4.07902628e-01, 2.07315795e-02,
          1.18524889e-02, 1.73766650e-02, 4.07902628e-01, 4.07902628e-01,
          4.03893709e-01, 7.02526212e-01, 8.02408729e-04, 2.40722625e-03,
          1.18771533e-03, 7.26304650e-02, 2.44919974e-02, 1.39300805e-03,
          4.02781134e-03, 7.02526212e-01, 6.98258221e-01, 6.05820166e-03,
          5.36116026e-03, 1.41771408e-02, 4.20713834e-02, 1.80462468e-02,
          7.91377276e-02, 9.63101313e-02, 6.98258221e-01, 4.89073336e-01,
          4.89073336e-01, 4.79144566e-02, 6.23471290e-02, 6.62451014e-02,
          1.19527169e-01, 2.97954470e-01, 4.04848129e-01, 4.89073336e-01 ]
      - [ 3.57800901e-01, 2.88839310e-01, 3.57800901e-01, 3.57800901e-01,
          1.29794970e-01, 3.57800901e-01, 3.57800901e-01, 3.57800901e-01,
          3.57800901e-01, 3.92990440e-01, 8.45945477e-02, 1.74875110e-01,
          1.87368155e-01, 3.92990440e-01, 3.92990440e-01, 3.92990440e-01,
          3.88615787e-01, 3.92990440e-01, 4.08030659e-01, 4.08030659e-01,
          4.08030659e-01, 4.08030659e-01, 4.08030659e-01, 3.02606672e-01,
          1.03689089e-01, 1.61548600e-01, 1.87239572e-01, 2.75389105e-01,
          4.32243645e-01, 4.32243645e-01, 2.54485935e-01, 1.89066947e-01,
          4.32243645e-01, 4.32243645e-01, 2.54498929e-01, 8.50048289e-02,
          2.28118986e-01, 3.54207188e-01, 4.36794341e-01, 1.84834167e-01,
          3.45046401e-01, 4.60912675e-01, 4.60912675e-01, 1.58122376e-01,
          1.54924542e-01, 3.55824828e-02, 6.14246428e-01, 6.14246428e-01,
          4.67941239e-02, 3.29998843e-02, 1.06831491e-01, 4.44210589e-01,
          1.49210602e-01, 6.10345155e-02, 1.32594317e-01, 3.59076619e-01,
          3.32546026e-01, 3.00832689e-01, 1.60205558e-01, 1.86058074e-01,
          5.39986014e-01, 5.39986014e-01, 5.95812872e-02, 4.27079290e-01,
          4.27079290e-01, 4.27079290e-01, 1.85483292e-01, 3.25996578e-02,
          2.00455263e-01, 2.80044109e-01, 3.34772915e-01, 4.27079290e-01,
          4.53441054e-01, 4.53441054e-01, 4.53441054e-01, 1.01309121e-01,
          2.20326912e-02, 9.52880271e-03, 3.23847830e-01, 2.39412829e-01,
          4.53441054e-01, 1.32594317e-01, 3.59076619e-01, 3.32546026e-01,
          3.00832689e-01, 1.60205558e-01, 1.86058074e-01, 5.39986014e-01,
          5.39986014e-01, 5.95812872e-02, 4.27079290e-01, 4.27079290e-01,
          4.27079290e-01, 1.85483292e-01, 3.25996578e-02, 2.00455263e-01,
          2.80044109e-01, 3.34772915e-01, 4.27079290e-01, 4.53441054e-01,
          4.53441054e-01, 4.53441054e-01, 1.01309121e-01, 2.20326912e-02,
          9.52880271e-03, 3.23847830e-01, 2.39412829e-01, 4.53441054e-01,
          3.80809486e-01, 3.80809486e-01, 3.05731446e-01, 3.44936967e-01,
          3.80809486e-01, 1.43655077e-01, 1.95003584e-01, 3.80809486e-01,
          3.80809486e-01, 1.78100184e-01, 2.58022815e-01, 4.69202131e-01,
          4.69202131e-01, 5.71998283e-02, 1.03093199e-01, 5.01548424e-02,
          4.69202131e-01, 4.69202131e-01, 2.07975060e-01, 1.67546064e-01,
          4.32446569e-01, 5.62612951e-01, 3.78345758e-01, 1.97663218e-01,
          8.17287341e-02, 1.55713752e-01, 4.54280198e-01, 4.69020694e-01,
          3.65850419e-01, 4.13677357e-02, 1.14334330e-01, 4.69020694e-01,
          4.69020694e-01, 1.19877551e-02, 4.62186113e-02, 4.29492652e-01,
          4.12123740e-01, 9.45352763e-02, 8.94740894e-02, 3.48618954e-01,
          4.12123740e-01, 4.12123740e-01, 9.04192254e-02, 4.12123740e-01,
          4.12123740e-01, 4.17337865e-01, 5.91533557e-02, 1.98087662e-01,
          4.17337865e-01, 4.17337865e-01, 4.17337865e-01, 2.32215688e-01,
          1.68269664e-01, 4.17337865e-01, 4.08030659e-01, 4.08030659e-01,
          4.08030659e-01, 4.08030659e-01, 4.08030659e-01, 3.02606672e-01,
          1.03689089e-01, 1.61548600e-01, 1.87239572e-01, 1.55306935e-01,
          2.23275021e-01, 2.43541300e-01, 2.23977551e-01, 4.05847311e-01,
          3.91978472e-01, 4.05847311e-01, 4.05847311e-01, 4.05847311e-01,
          1.61124244e-01, 1.03838537e-02, 3.03286314e-02, 4.83643293e-01,
          4.83643293e-01, 2.73428470e-01, 4.83643293e-01, 2.92557210e-01,
          3.25722814e-01, 3.55824828e-02, 6.14246428e-01, 6.14246428e-01,
          4.67941239e-02, 3.29998843e-02, 1.06831491e-01, 4.44210589e-01,
          1.49210602e-01, 6.10345155e-02, 3.95473279e-02, 2.31051132e-01,
          4.75681782e-01, 4.99098375e-02, 6.27617016e-02, 6.66413084e-02,
          5.91772795e-01, 5.91772795e-01, 4.01006117e-02, 1.21249296e-01,
          1.02945186e-01, 4.14373755e-01, 4.42871302e-01, 4.42871302e-01,
          6.27527758e-02, 4.42871302e-01, 4.42871302e-01, 1.00466773e-01,
          4.53441054e-01, 4.53441054e-01, 4.53441054e-01, 1.01309121e-01,
          2.20326912e-02, 9.52880271e-03, 3.23847830e-01, 2.39412829e-01,
          4.53441054e-01, 4.93164837e-01, 2.20512033e-01, 1.87762856e-01,
          2.88711283e-02, 1.45922191e-02, 4.26798649e-02, 4.93164837e-01,
          4.93164837e-01, 4.22718853e-01, 4.61800009e-01, 3.09596717e-01,
          1.16358787e-01, 1.10954940e-01, 5.33040352e-02, 1.33448660e-01,
          4.61800009e-01, 4.61800009e-01, 4.61800009e-01, 4.53441054e-01,
          4.53441054e-01, 4.53441054e-01, 1.01309121e-01, 2.20326912e-02,
          9.52880271e-03, 3.23847830e-01, 2.39412829e-01, 4.53441054e-01,
          4.93164837e-01, 2.20512033e-01, 1.87762856e-01, 2.88711283e-02,
          1.45922191e-02, 4.26798649e-02, 4.93164837e-01, 4.93164837e-01,
          4.22718853e-01, 4.61800009e-01, 3.09596717e-01, 1.16358787e-01,
          1.10954940e-01, 5.33040352e-02, 1.33448660e-01, 4.61800009e-01,
          4.61800009e-01, 4.61800009e-01, 2.07975060e-01, 1.67546064e-01,
          4.32446569e-01, 5.62612951e-01, 3.78345758e-01, 1.97663218e-01,
          8.17287341e-02, 1.55713752e-01, 4.54280198e-01, 4.50612873e-01,
          9.19800997e-02, 2.06228234e-02, 1.34454966e-01, 4.80439723e-01,
          4.80439723e-01, 4.80439723e-01, 1.85846105e-01, 1.95396841e-01,
          4.70801979e-01, 4.70801979e-01, 4.71324362e-02, 1.46275889e-02,
          1.31015822e-01, 4.70801979e-01, 4.70801979e-01, 2.59495437e-01,
          1.47448748e-01, 4.17337865e-01, 5.91533557e-02, 1.98087662e-01,
          4.17337865e-01, 4.17337865e-01, 4.17337865e-01, 2.32215688e-01,
          1.68269664e-01, 4.17337865e-01, 3.19195867e-01, 2.23610893e-01,
          1.82515815e-01, 4.37376499e-01, 4.37376499e-01, 4.37376499e-01,
          1.15818985e-01, 1.78393990e-01, 4.37376499e-01, 3.80845517e-01,
          2.88951248e-01, 2.24715695e-01, 3.80845517e-01, 3.80845517e-01,
          3.80845517e-01, 3.16588908e-01, 1.91729322e-01, 3.80845517e-01 ]
      - [ 4.19685662e-01, 4.19685662e-01, 2.06171632e-01, 4.19685662e-01,
          2.04066336e-01, 4.19685662e-01, 4.19685662e-01, 1.26049235e-01,
          1.22838177e-01, 4.50097620e-01, 8.28067586e-02, 4.50097620e-01,
          4.50097620e-01, 1.62256256e-01, 3.00667077e-01, 2.43753210e-01,
          4.63918634e-02, 4.50097620e-01, 6.94087327e-01, 2.72272788e-02,
          1.07837051e-01, 7.09808916e-02, 5.08931838e-02, 3.38986553e-02,
          2.42673773e-02, 8.84326100e-02, 6.94087327e-01, 8.47890303e-02,
          1.15205109e-01, 3.61579865e-01, 4.04244900e-01, 3.50712299e-01,
          2.60969967e-01, 4.04244900e-01, 4.04244900e-01, 4.04244900e-01,
          7.64532909e-02, 4.20019180e-01, 6.47172749e-01, 4.59351629e-01,
          3.82020958e-02, 9.18687433e-02, 2.80972958e-01, 2.96937406e-01,
          6.65144548e-02, 1.62209556e-01, 5.16062021e-01, 6.60221756e-01,
          3.40975821e-01, 1.65695578e-01, 1.55779555e-01, 2.45191887e-01,
          1.22701481e-01, 1.47385240e-01, 3.74235809e-02, 4.77218069e-02,
          6.24930598e-02, 1.25692993e-01, 9.01137143e-02, 9.96574685e-02,
          5.63600898e-01, 5.63600898e-01, 5.63600898e-01, 1.84103832e-01,
          1.84018016e-01, 4.76436138e-01, 4.76436138e-01, 1.75213814e-01,
          5.64320125e-02, 4.27871257e-01, 4.76436138e-01, 1.71907157e-01,
          9.00527462e-02, 6.56227246e-02, 4.38261598e-01, 8.01703751e-01,
          3.04642975e-01, 1.32133439e-02, 2.66618114e-02, 1.37895018e-01,
          1.79089665e-01, 3.74235809e-02, 4.77218069e-02, 6.24930598e-02,
          1.25692993e-01, 9.01137143e-02, 9.96574685e-02, 5.63600898e-01,
          5.63600898e-01, 5.63600898e-01, 1.84103832e-01, 1.84018016e-01,
          4.76436138e-01, 4.76436138e-01, 1.75213814e-01, 5.64320125e-02,
          4.27871257e-01, 4.76436138e-01, 1.71907157e-01, 9.00527462e-02,
          6.56227246e-02, 4.38261598e-01, 8.01703751e-01, 3.04642975e-01,
          1.32133439e-02, 2.66618114e-02, 1.37895018e-01, 1.79089665e-01,
          7.65950186e-03, 1.34549979e-02, 5.92200793e-02, 7.21758530e-02,
          3.23744118e-02, 4.99042235e-02, 6.90664470e-01, 6.90664470e-01,
          1.63021192e-01, 1.46392375e-01, 3.64908546e-01, 3.88364166e-01,
          3.88364166e-01, 2.84813672e-01, 7.92383999e-02, 3.88364166e-01,
          3.88364166e-01, 3.88364166e-01, 1.13146752e-01, 6.90225586e-02,
          2.14569405e-01, 5.13252020e-01, 4.93393928e-01, 2.00737074e-01,
          1.78314313e-01, 5.13252020e-01, 2.98133731e-01, 6.94019496e-02,
          1.69971630e-01, 3.93314183e-01, 4.36638087e-01, 2.03870729e-01,
          5.53259738e-02, 4.36638087e-01, 4.36638087e-01, 4.36638087e-01,
          5.14726877e-01, 1.84018277e-02, 5.72371557e-02, 1.61426008e-01,
          1.54393494e-01, 3.69716361e-02, 9.40387547e-02, 5.76877415e-01,
          5.76877415e-01, 6.20920599e-01, 2.22515054e-02, 1.90779343e-02,
          3.53420466e-01, 2.91853487e-01, 8.56718123e-02, 3.80920656e-02,
          5.46016172e-02, 6.20920599e-01, 6.94087327e-01, 2.72272788e-02,
          1.07837051e-01, 7.09808916e-02, 5.08931838e-02, 3.38986553e-02,
          2.42673773e-02, 8.84326100e-02, 6.94087327e-01, 9.98416021e-02,
          3.83031555e-02, 4.13417257e-02, 3.09618860e-01, 9.18189213e-02,
          5.13178471e-04, 1.43741500e-02, 6.61720455e-01, 6.61720455e-01,
          1.65118247e-01, 7.41000893e-03, 6.56716451e-02, 4.82210070e-01,
          4.60203081e-01, 1.10871352e-01, 2.04677835e-01, 4.82210070e-01,
          4.82210070e-01, 1.62209556e-01, 5.16062021e-01, 6.60221756e-01,
          3.40975821e-01, 1.65695578e-01, 1.55779555e-01, 2.45191887e-01,
          1.22701481e-01, 1.47385240e-01, 1.81327492e-01, 2.14887023e-01,
          1.77457497e-01, 1.96956754e-01, 2.08310843e-01, 1.43904403e-01,
          8.32532719e-02, 6.21859729e-01, 6.21859729e-01, 1.75421052e-02,
          1.78840328e-02, 4.90702726e-02, 1.25328228e-01, 5.14692292e-02,
          3.91001403e-02, 6.17396273e-02, 6.95100307e-01, 6.95100307e-01,
          9.00527462e-02, 6.56227246e-02, 4.38261598e-01, 8.01703751e-01,
          3.04642975e-01, 1.32133439e-02, 2.66618114e-02, 1.37895018e-01,
          1.79089665e-01, 2.14564845e-01, 1.59873575e-01, 2.77075052e-01,
          5.69136977e-01, 3.18087012e-01, 1.59543410e-01, 1.69584125e-01,
          2.80608088e-01, 5.36561728e-01, 5.15284762e-02, 1.30584538e-01,
          1.97631627e-01, 5.02000973e-02, 6.29291311e-02, 8.07224289e-02,
          6.26814902e-01, 6.26814902e-01, 3.69033664e-01, 9.00527462e-02,
          6.56227246e-02, 4.38261598e-01, 8.01703751e-01, 3.04642975e-01,
          1.32133439e-02, 2.66618114e-02, 1.37895018e-01, 1.79089665e-01,
          2.14564845e-01, 1.59873575e-01, 2.77075052e-01, 5.69136977e-01,
          3.18087012e-01, 1.59543410e-01, 1.69584125e-01, 2.80608088e-01,
          5.36561728e-01, 5.15284762e-02, 1.30584538e-01, 1.97631627e-01,
          5.02000973e-02, 6.29291311e-02, 8.07224289e-02, 6.26814902e-01,
          6.26814902e-01, 3.69033664e-01, 1.13146752e-01, 6.90225586e-02,
          2.14569405e-01, 5.13252020e-01, 4.93393928e-01, 2.00737074e-01,
          1.78314313e-01, 5.13252020e-01, 2.98133731e-01, 9.40249637e-02,
          1.82032734e-02, 1.43798709e-01, 6.73519552e-01, 6.73519552e-01,
          2.12185562e-01, 4.23210524e-02, 2.66154055e-02, 9.29870084e-02,
          3.07988226e-02, 5.89522161e-02, 3.01844835e-01, 5.22792220e-01,
          7.19117880e-01, 2.82995462e-01, 1.00905761e-01, 9.07370970e-02,
          9.13435742e-02, 6.20920599e-01, 2.22515054e-02, 1.90779343e-02,
          3.53420466e-01, 2.91853487e-01, 8.56718123e-02, 3.80920656e-02,
          5.46016172e-02, 6.20920599e-01, 4.65879023e-01, 7.70479664e-02,
          2.59286743e-02, 3.28588784e-01, 4.65879023e-01, 1.10487863e-01,
          1.96634345e-02, 4.65879023e-01, 4.65879023e-01, 3.66488367e-01,
          3.66488367e-01, 3.66488367e-01, 3.66488367e-01, 3.66488367e-01,
          2.25113973e-01, 7.39338621e-02, 3.66488367e-01, 3.66488367e-01 ]
      - [ 2.73955613e-01, 1.36801332e-01, 2.92151093e-01, 2.83378959e-01,
          4.43045259e-01, 4.61096376e-01, 4.61096376e-01, 1.75073445e-01,
          2.89503992e-01, 4.28018093e-01, 4.28018093e-01, 7.55557716e-02,
          8.70173797e-02, 4.28018093e-01, 4.28018093e-01, 2.16755688e-01,
          1.39510781e-01, 4.28018093e-01, 5.44645071e-01, 3.40969115e-02,
          7.28284568e-02, 2.15221599e-01, 5.44645071e-01, 1.93542108e-01,
          8.47850740e-02, 8.49238411e-02, 5.44645071e-01, 1.70543805e-01,
          4.75407362e-01, 4.75407362e-01, 1.26513287e-01, 1.69829145e-01,
          4.75407362e-01, 4.75407362e-01, 1.09624304e-01, 7.24754781e-02,
          4.52858120e-01, 4.52858120e-01, 4.52858120e-01, 6.94265142e-02,
          2.44159728e-01, 1.76298648e-01, 2.68332005e-01, 8.73925835e-02,
          4.52858120e-01, 5.44337571e-01, 2.44788919e-03, 7.77545647e-05,
          1.35806784e-01, 5.44337571e-01, 2.54599631e-01, 1.42858595e-01,
          4.44393829e-02, 5.44337571e-01, 3.05159301e-01, 4.75560039e-01,
          4.75560039e-01, 4.18418795e-02, 1.00595124e-01, 6.73068911e-02,
          2.96439171e-01, 3.45513016e-01, 4.75560039e-01, 4.19143736e-02,
          4.87286389e-01, 4.87286389e-01, 3.63732278e-02, 1.23151891e-01,
          1.30101949e-01, 4.87286389e-01, 4.87286389e-01, 1.00838110e-01,
          3.41962993e-01, 1.10044748e-01, 0., 1.29627466e-01,
          4.83013004e-01, 2.72558600e-01, 4.83013004e-01, 4.83013004e-01,
          2.74100691e-01, 3.05159301e-01, 4.75560039e-01, 4.75560039e-01,
          4.18418795e-02, 1.00595124e-01, 6.73068911e-02, 2.96439171e-01,
          3.45513016e-01, 4.75560039e-01, 4.19143736e-02, 4.87286389e-01,
          4.87286389e-01, 3.63732278e-02, 1.23151891e-01, 1.30101949e-01,
          4.87286389e-01, 4.87286389e-01, 1.00838110e-01, 3.41962993e-01,
          1.10044748e-01, 0., 1.29627466e-01, 4.83013004e-01,
          2.72558600e-01, 4.83013004e-01, 4.83013004e-01, 2.74100691e-01,
          1.97424427e-01, 4.37352389e-01, 4.37352389e-01, 4.37352389e-01,
          3.79537828e-02, 7.60524580e-03, 1.05117463e-01, 4.23082083e-01,
          4.37352389e-01, 3.97213519e-01, 3.97213519e-01, 3.97213519e-01,
          2.19193608e-01, 5.89052215e-03, 3.57753932e-02, 3.97213519e-01,
          3.97213519e-01, 3.97213519e-01, 4.46576923e-01, 3.82612854e-01,
          1.32948458e-02, 1.78471068e-03, 1.71549944e-03, 3.60307664e-01,
          4.46576923e-01, 4.46576923e-01, 3.47633809e-01, 1.44311972e-02,
          4.28594276e-02, 4.99497980e-01, 4.99497980e-01, 2.47212023e-01,
          3.45574459e-03, 4.29405198e-02, 4.99497980e-01, 4.26030070e-01,
          5.47096170e-02, 2.98709124e-02, 5.14743507e-01, 5.14743507e-01,
          2.01294541e-01, 5.14743507e-01, 2.19778240e-01, 2.29138702e-01,
          2.34018251e-01, 9.35653001e-02, 2.31288970e-02, 3.22074965e-02,
          3.56283858e-02, 4.43140566e-02, 6.90163076e-01, 6.90163076e-01,
          1.41420275e-01, 8.30705091e-02, 5.44645071e-01, 3.40969115e-02,
          7.28284568e-02, 2.15221599e-01, 5.44645071e-01, 1.93542108e-01,
          8.47850740e-02, 8.49238411e-02, 5.44645071e-01, 4.80520546e-01,
          6.29976764e-02, 2.34947622e-01, 4.80520546e-01, 4.80520546e-01,
          3.88007611e-02, 9.86860991e-02, 3.44546549e-02, 4.80520546e-01,
          5.50835192e-01, 9.94630437e-03, 2.02614725e-01, 5.50835192e-01,
          1.91211045e-01, 1.40162045e-02, 6.55246750e-02, 4.51411940e-02,
          5.50835192e-01, 5.44337571e-01, 2.44788919e-03, 7.77545647e-05,
          1.35806784e-01, 5.44337571e-01, 2.54599631e-01, 1.42858595e-01,
          4.44393829e-02, 5.44337571e-01, 5.63492477e-01, 5.45866741e-03,
          1.20568210e-02, 1.96117520e-01, 5.63492477e-01, 5.62435165e-02,
          9.00845160e-04, 5.64647897e-04, 5.63492477e-01, 4.17998850e-01,
          1.45207485e-02, 1.02199823e-01, 4.17998850e-01, 4.17998850e-01,
          2.03344032e-01, 3.57923418e-01, 3.41787189e-01, 4.17998850e-01,
          3.41962993e-01, 1.10044748e-01, 0., 1.29627466e-01,
          4.83013004e-01, 2.72558600e-01, 4.83013004e-01, 4.83013004e-01,
          2.74100691e-01, 1.45254627e-01, 1.01236172e-01, 1.02830408e-02,
          4.89573389e-01, 8.15970063e-01, 1.17782988e-01, 1.09851785e-01,
          1.07557990e-01, 1.31929249e-01, 3.19728404e-02, 3.77600342e-02,
          1.66021898e-01, 5.61519146e-01, 6.87564909e-01, 3.31054509e-01,
          2.36560553e-01, 8.54322538e-02, 4.71055321e-02, 3.41962993e-01,
          1.10044748e-01, 0., 1.29627466e-01, 4.83013004e-01,
          2.72558600e-01, 4.83013004e-01, 4.83013004e-01, 2.74100691e-01,
          1.45254627e-01, 1.01236172e-01, 1.02830408e-02, 4.89573389e-01,
          8.15970063e-01, 1.17782988e-01, 1.09851785e-01, 1.07557990e-01,
          1.31929249e-01, 3.19728404e-02, 3.77600342e-02, 1.66021898e-01,
          5.61519146e-01, 6.87564909e-01, 3.31054509e-01, 2.36560553e-01,
          8.54322538e-02, 4.71055321e-02, 4.46576923e-01, 3.82612854e-01,
          1.32948458e-02, 1.78471068e-03, 1.71549944e-03, 3.60307664e-01,
          4.46576923e-01, 4.46576923e-01, 3.47633809e-01, 2.62936503e-01,
          1.45945609e-01, 4.17304896e-02, 4.65247501e-03, 1.46663506e-02,
          2.98673213e-01, 6.11897588e-01, 6.11897588e-01, 2.51859844e-01,
          4.06334810e-02, 6.97291613e-01, 6.97291613e-01, 1.33637100e-01,
          1.93774495e-02, 4.55144374e-03, 1.00454660e-02, 5.99590596e-03,
          2.37710234e-02, 9.35653001e-02, 2.31288970e-02, 3.22074965e-02,
          3.56283858e-02, 4.43140566e-02, 6.90163076e-01, 6.90163076e-01,
          1.41420275e-01, 8.30705091e-02, 3.90136033e-01, 2.64179945e-01,
          6.14147410e-02, 3.55318040e-02, 6.26656935e-02, 4.67624038e-01,
          4.67624038e-01, 3.29171747e-01, 4.67624038e-01, 5.11613548e-01,
          5.11613548e-01, 2.39861980e-01, 4.66766469e-02, 3.04592639e-01,
          5.11613548e-01, 2.20005214e-01, 1.06485784e-02, 9.29522291e-02 ]
      - [ 5.42204261e-01, 2.46683970e-01, 1.44600511e-01, 1.86010730e-02,
          1.89856991e-01, 4.00588781e-01, 2.13372678e-01, 2.87160605e-01,
          5.42204261e-01, 4.22083676e-01, 8.49782005e-02, 1.87371626e-01,
          6.13324866e-02, 4.22083676e-01, 4.22083676e-01, 4.22083676e-01,
          2.42733106e-01, 4.22083676e-01, 4.32785660e-01, 4.04793210e-02,
          6.54274300e-02, 4.39322591e-02, 4.32785660e-01, 4.32785660e-01,
          3.88586462e-01, 2.95997053e-01, 4.32785660e-01, 5.12030907e-02,
          1.52060255e-01, 1.17184825e-01, 8.08029547e-02, 4.67923313e-01,
          6.00948751e-01, 6.00948751e-01, 5.86262383e-02, 5.76723404e-02,
          4.53207642e-01, 4.53207642e-01, 3.18117410e-01, 2.28665471e-01,
          4.53207642e-01, 4.53207642e-01, 9.96809676e-02, 2.84906179e-02,
          9.82330069e-02, 4.27065998e-01, 4.27065998e-01, 8.28896910e-02,
          1.08190171e-01, 4.27065998e-01, 4.27065998e-01, 4.10221487e-01,
          1.46217838e-01, 2.40739226e-01, 4.55688924e-01, 4.55688924e-01,
          3.35111260e-01, 7.37259611e-02, 2.41739184e-01, 4.55688924e-01,
          3.59204412e-01, 2.03839354e-02, 2.58601993e-01, 4.13571656e-01,
          4.13571656e-01, 4.13571656e-01, 1.37545869e-01, 3.16310316e-01,
          4.13571656e-01, 4.13571656e-01, 8.19581673e-02, 1.22363642e-01,
          5.15342534e-01, 5.15342534e-01, 4.03271168e-01, 6.54905811e-02,
          3.49090695e-01, 3.96201760e-01, 1.23554751e-01, 3.03838085e-02,
          4.18544821e-02, 4.55688924e-01, 4.55688924e-01, 3.35111260e-01,
          7.37259611e-02, 2.41739184e-01, 4.55688924e-01, 3.59204412e-01,
          2.03839354e-02, 2.58601993e-01, 4.13571656e-01, 4.13571656e-01,
          4.13571656e-01, 1.37545869e-01, 3.16310316e-01, 4.13571656e-01,
          4.13571656e-01, 8.19581673e-02, 1.22363642e-01, 5.15342534e-01,
          5.15342534e-01, 4.03271168e-01, 6.54905811e-02, 3.49090695e-01,
          3.96201760e-01, 1.23554751e-01, 3.03838085e-02, 4.18544821e-02,
          4.74620402e-01, 1.58020020e-01, 4.23109420e-02, 1.74348336e-02,
          4.67321366e-01, 4.74620402e-01, 2.64575541e-01, 6.33386523e-02,
          4.74620402e-01, 5.26482880e-01, 5.26482880e-01, 2.86847591e-01,
          3.21619585e-03, 2.27182791e-01, 3.97613823e-01, 3.47908735e-01,
          1.07775569e-01, 1.25367880e-01, 6.80368125e-01, 6.80368125e-01,
          2.28230402e-01, 4.52110395e-02, 0., 6.58585131e-02,
          8.20964724e-02, 8.82398430e-03, 4.60233614e-02, 6.87709078e-02,
          4.48472470e-01, 4.48472470e-01, 1.22900158e-01, 4.13654208e-01,
          4.48472470e-01, 4.48472470e-01, 1.60027586e-03, 8.00543185e-03,
          2.15806961e-01, 6.65887415e-01, 6.65887415e-01, 3.29364911e-02,
          8.96992758e-02, 1.81538939e-01, 1.24148928e-01, 4.68848906e-02,
          1.64105203e-02, 4.13446993e-01, 4.13446993e-01, 4.13446993e-01,
          1.27210423e-01, 2.05375208e-03, 2.90678263e-01, 4.13446993e-01,
          4.13446993e-01, 2.01239079e-01, 4.32785660e-01, 4.04793210e-02,
          6.54274300e-02, 4.39322591e-02, 4.32785660e-01, 4.32785660e-01,
          3.88586462e-01, 2.95997053e-01, 4.32785660e-01, 4.19663876e-01,
          4.19663876e-01, 1.23688206e-02, 1.25092687e-03, 4.47746143e-02,
          3.78713757e-01, 4.19663876e-01, 4.19663876e-01, 3.81776512e-01,
          5.90699136e-01, 5.90699136e-01, 2.40071453e-02, 1.80118755e-02,
          2.25999299e-02, 8.37052539e-02, 3.46064925e-01, 1.91184327e-01,
          3.62657249e-01, 4.27065998e-01, 4.27065998e-01, 8.28896910e-02,
          1.08190171e-01, 4.27065998e-01, 4.27065998e-01, 4.10221487e-01,
          1.46217838e-01, 2.40739226e-01, 6.35207593e-01, 6.35207593e-01,
          8.24240036e-03, 6.40892750e-03, 5.52371107e-02, 2.03227848e-01,
          3.64621490e-01, 6.85818195e-02, 6.75764456e-02, 6.69757068e-01,
          6.69757068e-01, 1.24570228e-01, 1.73701923e-02, 3.17842147e-04,
          3.35099455e-03, 9.00400504e-02, 1.94395274e-01, 1.85572609e-01,
          5.15342534e-01, 5.15342534e-01, 4.03271168e-01, 6.54905811e-02,
          3.49090695e-01, 3.96201760e-01, 1.23554751e-01, 3.03838085e-02,
          4.18544821e-02, 6.66463494e-01, 6.66463494e-01, 3.06359649e-01,
          1.48604158e-02, 1.97076797e-02, 2.96185352e-02, 7.66063407e-02,
          5.70339486e-02, 2.31370777e-02, 4.59975690e-01, 4.59975690e-01,
          5.31763248e-02, 4.13694885e-03, 1.27115217e-03, 1.78889520e-02,
          4.59975690e-01, 4.59975690e-01, 3.82006019e-01, 5.15342534e-01,
          5.15342534e-01, 4.03271168e-01, 6.54905811e-02, 3.49090695e-01,
          3.96201760e-01, 1.23554751e-01, 3.03838085e-02, 4.18544821e-02,
          6.66463494e-01, 6.66463494e-01, 3.06359649e-01, 1.48604158e-02,
          1.97076797e-02, 2.96185352e-02, 7.66063407e-02, 5.70339486e-02,
          2.31370777e-02, 4.59975690e-01, 4.59975690e-01, 5.31763248e-02,
          4.13694885e-03, 1.27115217e-03, 1.78889520e-02, 4.59975690e-01,
          4.59975690e-01, 3.82006019e-01, 6.80368125e-01, 6.80368125e-01,
          2.28230402e-01, 4.52110395e-02, 0., 6.58585131e-02,
          8.20964724e-02, 8.82398430e-03, 4.60233614e-02, 3.00413966e-01,
          6.27060115e-01, 6.27060115e-01, 1.88194424e-01, 1.02944411e-01,
          1.73123822e-01, 2.01695472e-01, 2.01539733e-02, 2.87086167e-03,
          2.54910856e-01, 4.98760074e-01, 4.98760074e-01, 1.68906599e-02,
          3.49788442e-02, 1.86118305e-01, 4.98760074e-01, 3.69227529e-01,
          1.06190331e-01, 4.13446993e-01, 4.13446993e-01, 4.13446993e-01,
          1.27210423e-01, 2.05375208e-03, 2.90678263e-01, 4.13446993e-01,
          4.13446993e-01, 2.01239079e-01, 1.38775364e-01, 6.32694364e-01,
          6.32694364e-01, 2.56191522e-01, 1.30190268e-01, 2.71365911e-01,
          9.45398435e-02, 8.77441093e-02, 3.09881605e-02, 3.25911254e-01,
          6.33085728e-01, 6.33085728e-01, 2.09138796e-01, 1.87745973e-01,
          5.26348688e-02, 4.24023047e-02, 4.43652682e-02, 1.84867028e-02 ]
      - [ 2.01122388e-01, 2.17499286e-01, 7.13543445e-02, 2.89094865e-01,
          5.94324648e-01, 5.94324648e-01, 2.07527220e-01, 1.73951301e-03,
          2.61013240e-01, 5.28967202e-01, 5.28967202e-01, 3.37194763e-02,
          6.88174553e-03, 1.25789881e-01, 5.28967202e-01, 3.61998558e-01,
          6.58572614e-02, 5.39508574e-02, 5.31106889e-01, 5.31106889e-01,
          3.82149182e-02, 1.90552212e-02, 1.54291451e-01, 2.06969514e-01,
          2.55520493e-01, 1.21308863e-01, 5.31106889e-01, 2.53824383e-01,
          2.46804595e-01, 4.23578173e-01, 3.55610996e-01, 4.23578173e-01,
          1.61379963e-01, 1.58998556e-02, 4.23578173e-01, 4.23578173e-01,
          3.71558040e-01, 4.53322172e-01, 4.53322172e-01, 4.53322172e-01,
          1.14157192e-01, 1.42682567e-01, 1.30266771e-01, 3.84234726e-01,
          2.07165927e-01, 3.64664942e-01, 2.94735432e-01, 1.51852861e-01,
          2.38074750e-01, 4.03016776e-01, 4.03016776e-01, 4.03016776e-01,
          4.03016776e-01, 2.16091663e-01, 1.63164690e-01, 1.74488705e-02,
          1.54592499e-01, 2.83894777e-01, 1.18528560e-01, 1.07218750e-01,
          7.02918619e-02, 6.44846499e-01, 6.44846499e-01, 5.17690182e-02,
          6.02493472e-02, 4.94293898e-01, 4.94293898e-01, 4.69530001e-02,
          2.33622175e-02, 9.32582095e-02, 4.94293898e-01, 4.94293898e-01,
          5.45400642e-02, 4.02138345e-02, 4.81858313e-01, 4.81858313e-01,
          3.00307751e-01, 2.04170778e-01, 3.38279545e-01, 4.81858313e-01,
          2.18471140e-01, 1.63164690e-01, 1.74488705e-02, 1.54592499e-01,
          2.83894777e-01, 1.18528560e-01, 1.07218750e-01, 7.02918619e-02,
          6.44846499e-01, 6.44846499e-01, 5.17690182e-02, 6.02493472e-02,
          4.94293898e-01, 4.94293898e-01, 4.69530001e-02, 2.33622175e-02,
          9.32582095e-02, 4.94293898e-01, 4.94293898e-01, 5.45400642e-02,
          4.02138345e-02, 4.81858313e-01, 4.81858313e-01, 3.00307751e-01,
          2.04170778e-01, 3.38279545e-01, 4.81858313e-01, 2.18471140e-01,
          8.68763030e-02, 4.73279953e-02, 1.68498561e-01, 3.18035662e-01,
          4.74532574e-01, 4.74532574e-01, 2.78052479e-01, 4.74532574e-01,
          3.21057409e-01, 5.76833682e-03, 2.39655729e-02, 1.07676908e-01,
          5.36272705e-01, 3.04744780e-01, 1.15775198e-01, 4.18535471e-01,
          5.36272705e-01, 3.54711652e-01, 7.33109787e-02, 2.40928885e-02,
          4.64577436e-01, 4.76870984e-01, 3.53632867e-01, 1.43425420e-01,
          3.31742465e-01, 4.76870984e-01, 2.50914007e-01, 1.35351092e-01,
          8.03452507e-02, 8.59823897e-02, 4.64756101e-01, 4.64756101e-01,
          4.64756101e-01, 2.70253181e-01, 3.93822044e-01, 2.95063347e-01,
          1.14584669e-01, 2.78912008e-01, 4.44696099e-02, 2.23203212e-01,
          4.29052591e-01, 4.54522431e-01, 4.54522431e-01, 4.29992825e-01,
          2.65668988e-01, 3.67804021e-01, 3.67804021e-01, 5.22886589e-02,
          3.67804021e-01, 2.85698056e-01, 3.67804021e-01, 3.67804021e-01,
          3.16684693e-01, 3.67804021e-01, 5.31106889e-01, 5.31106889e-01,
          3.82149182e-02, 1.90552212e-02, 1.54291451e-01, 2.06969514e-01,
          2.55520493e-01, 1.21308863e-01, 5.31106889e-01, 5.69150805e-01,
          6.25840575e-02, 7.67837241e-02, 2.14006215e-01, 2.59917140e-01,
          1.10024489e-01, 3.27654704e-02, 1.03276417e-01, 7.22387433e-01,
          4.77165371e-01, 2.68499032e-02, 3.32436822e-02, 1.49862096e-01,
          3.98713231e-01, 5.15331551e-02, 2.10966077e-02, 1.04841985e-01,
          7.53289402e-01, 3.64664942e-01, 2.94735432e-01, 1.51852861e-01,
          2.38074750e-01, 4.03016776e-01, 4.03016776e-01, 4.03016776e-01,
          4.03016776e-01, 2.16091663e-01, 7.56818503e-02, 4.11787443e-02,
          4.48803827e-02, 8.17406103e-02, 6.27417862e-01, 6.27417862e-01,
          2.87043750e-01, 2.71779090e-01, 1.84532076e-01, 3.42953265e-01,
          2.65532136e-01, 3.30468386e-01, 2.30087459e-01, 5.02065659e-01,
          2.76004791e-01, 9.21644345e-02, 2.36429602e-01, 5.02065659e-01,
          5.45400642e-02, 4.02138345e-02, 4.81858313e-01, 4.81858313e-01,
          3.00307751e-01, 2.04170778e-01, 3.38279545e-01, 4.81858313e-01,
          2.18471140e-01, 2.77000517e-01, 2.83314645e-01, 3.16283196e-01,
          3.03054482e-01, 4.13502306e-01, 2.87142813e-01, 2.94611365e-01,
          3.68484050e-01, 4.13502306e-01, 3.08229178e-01, 1.54038146e-01,
          2.66068935e-01, 2.95399904e-01, 6.02794945e-01, 3.03054601e-01,
          2.71869510e-01, 3.46473902e-01, 2.60832280e-01, 5.45400642e-02,
          4.02138345e-02, 4.81858313e-01, 4.81858313e-01, 3.00307751e-01,
          2.04170778e-01, 3.38279545e-01, 4.81858313e-01, 2.18471140e-01,
          2.77000517e-01, 2.83314645e-01, 3.16283196e-01, 3.03054482e-01,
          4.13502306e-01, 2.87142813e-01, 2.94611365e-01, 3.68484050e-01,
          4.13502306e-01, 3.08229178e-01, 1.54038146e-01, 2.66068935e-01,
          2.95399904e-01, 6.02794945e-01, 3.03054601e-01, 2.71869510e-01,
          3.46473902e-01, 2.60832280e-01, 7.33109787e-02, 2.40928885e-02,
          4.64577436e-01, 4.76870984e-01, 3.53632867e-01, 1.43425420e-01,
          3.31742465e-01, 4.76870984e-01, 2.50914007e-01, 3.35157663e-01,
          1.42066240e-01, 3.12079579e-01, 5.41929722e-01, 5.41929722e-01,
          1.06803864e-01, 1.15954354e-01, 1.23659015e-01, 3.70353043e-01,
          4.21498209e-01, 3.27508710e-02, 9.38105304e-03, 4.21498209e-01,
          4.21498209e-01, 3.20512086e-01, 2.67737150e-01, 3.31020623e-01,
          4.21498209e-01, 3.67804021e-01, 3.67804021e-01, 5.22886589e-02,
          3.67804021e-01, 2.85698056e-01, 3.67804021e-01, 3.67804021e-01,
          3.16684693e-01, 3.67804021e-01, 4.89770472e-01, 5.34416139e-02,
          1.50098773e-02, 4.89770472e-01, 4.89770472e-01, 2.42433529e-02,
          3.15732472e-02, 1.75903037e-01, 4.89770472e-01, 1.57009810e-01,
          6.34292793e-03, 4.54776455e-03, 5.44896781e-01, 5.44896781e-01,
          7.77231604e-02, 4.18730304e-02, 2.67046094e-01, 5.44896781e-01 ]
      - [ 2.53746778e-01, 5.01109064e-01, 5.01109064e-01, 5.01109064e-01,
          2.40075052e-01, 2.82802671e-01, 1.37986794e-01, 1.27213746e-01,
          6.66308999e-02, 3.03675205e-01, 2.21652985e-01, 1.52999088e-01,
          1.09037519e-01, 3.58699262e-01, 2.13081583e-01, 2.71739215e-01,
          5.33905625e-01, 5.33905625e-01, 4.80287641e-01, 3.14123422e-01,
          7.52360299e-02, 1.51388749e-01, 4.00928229e-01, 1.10568441e-01,
          5.43406941e-02, 4.80287641e-01, 4.80287641e-01, 4.63931561e-02,
          1.18561246e-01, 5.41301489e-01, 5.41301489e-01, 1.04306899e-02,
          3.77057418e-02, 3.04137796e-01, 5.41301489e-01, 7.30269700e-02,
          2.26790860e-01, 2.95486301e-01, 5.00251472e-01, 4.65691090e-01,
          2.20137417e-01, 1.17622808e-01, 1.49585485e-01, 4.44666266e-01,
          3.26708257e-01, 5.31815767e-01, 3.56702387e-01, 7.70662278e-02,
          1.61115732e-02, 1.56842634e-01, 1.03226207e-01, 2.20134869e-01,
          4.09621179e-01, 5.71424901e-01, 5.56684146e-03, 1.23433620e-01,
          4.83818918e-01, 4.83818918e-01, 3.64437625e-02, 2.96613146e-02,
          4.83818918e-01, 4.83818918e-01, 2.03395575e-01, 2.15271622e-01,
          2.18210071e-01, 4.49089766e-01, 4.49089766e-01, 4.49089766e-01,
          3.16416860e-01, 3.92235309e-01, 1.56808734e-01, 1.33995071e-01,
          3.72812003e-01, 4.18311447e-01, 2.97222823e-01, 3.98785025e-01,
          4.18311447e-01, 2.57423490e-01, 2.87108392e-01, 1.92838147e-01,
          2.71307677e-01, 5.56684146e-03, 1.23433620e-01, 4.83818918e-01,
          4.83818918e-01, 3.64437625e-02, 2.96613146e-02, 4.83818918e-01,
          4.83818918e-01, 2.03395575e-01, 2.15271622e-01, 2.18210071e-01,
          4.49089766e-01, 4.49089766e-01, 4.49089766e-01, 3.16416860e-01,
          3.92235309e-01, 1.56808734e-01, 1.33995071e-01, 3.72812003e-01,
          4.18311447e-01, 2.97222823e-01, 3.98785025e-01, 4.18311447e-01,
          2.57423490e-01, 2.87108392e-01, 1.92838147e-01, 2.71307677e-01,
          5.55280177e-03, 2.67247111e-02, 5.18308282e-01, 3.58452827e-01,
          2.71543190e-02, 4.01169434e-02, 5.18308282e-01, 5.18308282e-01,
          2.39401221e-01, 1.36737108e-01, 1.58729911e-01, 5.98353565e-01,
          5.98353565e-01, 4.47272658e-02, 7.94431493e-02, 2.00660318e-01,
          3.98216873e-01, 1.64092109e-01, 3.92441183e-01, 4.64272946e-01,
          4.69055384e-01, 3.37476134e-01, 1.29717335e-01, 3.34954262e-01,
          3.26392502e-01, 1.40712857e-01, 1.91047892e-01, 1.18193276e-01,
          2.42452305e-02, 1.79058909e-01, 1.44124269e-01, 3.32795121e-02,
          2.30587021e-01, 5.40829182e-01, 5.40829182e-01, 5.36597967e-01,
          3.88884038e-01, 1.03685290e-01, 3.98054570e-01, 3.98054570e-01,
          2.46919066e-01, 3.07339672e-02, 3.71939063e-01, 3.98054570e-01,
          3.98054570e-01, 1.91726819e-01, 5.47281057e-02, 1.34667918e-01,
          5.56693673e-01, 5.56693673e-01, 5.84437959e-02, 4.79689576e-02,
          3.33282351e-02, 5.56693673e-01, 4.80287641e-01, 3.14123422e-01,
          7.52360299e-02, 1.51388749e-01, 4.00928229e-01, 1.10568441e-01,
          5.43406941e-02, 4.80287641e-01, 4.80287641e-01, 4.98611689e-01,
          5.04401803e-01, 5.04401803e-01, 1.82940498e-01, 1.33943841e-01,
          1.95690766e-02, 1.34527609e-01, 1.52962402e-01, 3.79763216e-01,
          5.60632408e-01, 3.54050219e-01, 1.69355407e-01, 1.01793513e-01,
          1.56127915e-01, 4.47756089e-02, 3.34911674e-01, 2.50684679e-01,
          5.60632408e-01, 5.31815767e-01, 3.56702387e-01, 7.70662278e-02,
          1.61115732e-02, 1.56842634e-01, 1.03226207e-01, 2.20134869e-01,
          4.09621179e-01, 5.71424901e-01, 3.63424420e-01, 5.26601613e-01,
          4.01505053e-01, 3.94555360e-01, 2.47757837e-01, 1.71137825e-01,
          1.82547823e-01, 1.74087152e-01, 3.35981637e-01, 3.23878318e-01,
          4.81428057e-01, 4.77145165e-01, 2.72617579e-01, 4.67366010e-01,
          5.29600633e-03, 1.14493877e-01, 1.12346210e-01, 3.32988918e-01,
          3.72812003e-01, 4.18311447e-01, 2.97222823e-01, 3.98785025e-01,
          4.18311447e-01, 2.57423490e-01, 2.87108392e-01, 1.92838147e-01,
          2.71307677e-01, 2.04957396e-01, 5.47668859e-02, 8.28027874e-02,
          3.96371633e-01, 4.75968897e-01, 2.72177368e-01, 3.30258399e-01,
          4.75968897e-01, 3.87335122e-01, 3.70589763e-01, 1.78788498e-01,
          4.93855417e-01, 5.01052260e-01, 5.01052260e-01, 3.61846644e-03,
          1.24919834e-02, 4.54078801e-02, 2.78321266e-01, 3.72812003e-01,
          4.18311447e-01, 2.97222823e-01, 3.98785025e-01, 4.18311447e-01,
          2.57423490e-01, 2.87108392e-01, 1.92838147e-01, 2.71307677e-01,
          2.04957396e-01, 5.47668859e-02, 8.28027874e-02, 3.96371633e-01,
          4.75968897e-01, 2.72177368e-01, 3.30258399e-01, 4.75968897e-01,
          3.87335122e-01, 3.70589763e-01, 1.78788498e-01, 4.93855417e-01,
          5.01052260e-01, 5.01052260e-01, 3.61846644e-03, 1.24919834e-02,
          4.54078801e-02, 2.78321266e-01, 3.92441183e-01, 4.64272946e-01,
          4.69055384e-01, 3.37476134e-01, 1.29717335e-01, 3.34954262e-01,
          3.26392502e-01, 1.40712857e-01, 1.91047892e-01, 6.08362198e-01,
          2.89427519e-01, 1.65608302e-01, 9.65669081e-02, 2.83691257e-01,
          2.40053177e-01, 2.19761938e-01, 3.62919271e-01, 4.30336654e-01,
          5.41614592e-01, 1.75266847e-01, 1.13031313e-01, 1.88732594e-01,
          4.70979065e-01, 3.19977313e-01, 5.47620170e-02, 3.97283100e-02,
          5.41614592e-01, 1.91726819e-01, 5.47281057e-02, 1.34667918e-01,
          5.56693673e-01, 5.56693673e-01, 5.84437959e-02, 4.79689576e-02,
          3.33282351e-02, 5.56693673e-01, 8.45181867e-02, 3.58270742e-02,
          2.60098483e-02, 5.62521040e-01, 5.62521040e-01, 2.89044768e-01,
          1.11041620e-01, 1.44595653e-01, 4.85421956e-01, 9.76503640e-02,
          4.81823087e-02, 5.18213250e-02, 5.82728982e-01, 5.82728982e-01,
          3.68519783e-01, 1.05543867e-01, 1.95643291e-01, 3.39514285e-01 ]
      - [ 3.69207084e-01, 3.69207084e-01, 3.69207084e-01, 2.27558091e-01,
          1.60838857e-01, 3.17452967e-01, 3.69207084e-01, 3.69207084e-01,
          3.69207084e-01, 4.24927950e-01, 4.24927950e-01, 4.24927950e-01,
          4.24927950e-01, 1.67045221e-01, 1.95750240e-02, 6.24587312e-02,
          2.46471226e-01, 4.24927950e-01, 4.99365062e-01, 4.09967601e-01,
          1.71413109e-01, 1.33006901e-01, 4.99365062e-01, 6.66629449e-02,
          7.31872544e-02, 1.48220241e-01, 4.99365062e-01, 4.37519521e-01,
          4.37519521e-01, 4.37519521e-01, 8.22705925e-02, 1.75693989e-01,
          6.67941421e-02, 1.36089519e-01, 4.37519521e-01, 4.11482245e-01,
          7.94049352e-02, 1.02252387e-01, 4.08608049e-01, 4.08608049e-01,
          2.48427242e-01, 4.08608049e-01, 2.87469119e-01, 4.08608049e-01,
          4.08608049e-01, 1.17762193e-01, 9.22339410e-02, 1.38444468e-01,
          2.82162189e-01, 5.57315111e-01, 5.57315111e-01, 2.11274549e-01,
          2.31969282e-01, 3.91957074e-01, 2.50446528e-01, 6.02997065e-01,
          6.02997065e-01, 2.27389578e-02, 2.82113343e-01, 9.49576199e-02,
          2.91248918e-01, 1.05380595e-01, 1.37810901e-01, 7.19743967e-02,
          1.14399791e-01, 2.80667126e-01, 2.57873863e-01, 1.49549425e-01,
          4.47545499e-01, 5.39178729e-01, 5.39178729e-01, 1.64272800e-01,
          3.66767526e-01, 3.66767526e-01, 3.66767526e-01, 3.66767526e-01,
          1.77944675e-01, 1.51797011e-01, 3.66767526e-01, 3.66767526e-01,
          3.66767526e-01, 2.50446528e-01, 6.02997065e-01, 6.02997065e-01,
          2.27389578e-02, 2.82113343e-01, 9.49576199e-02, 2.91248918e-01,
          1.05380595e-01, 1.37810901e-01, 7.19743967e-02, 1.14399791e-01,
          2.80667126e-01, 2.57873863e-01, 1.49549425e-01, 4.47545499e-01,
          5.39178729e-01, 5.39178729e-01, 1.64272800e-01, 3.66767526e-01,
          3.66767526e-01, 3.66767526e-01, 3.66767526e-01, 1.77944675e-01,
          1.51797011e-01, 3.66767526e-01, 3.66767526e-01, 3.66767526e-01,
          1.21880315e-01, 3.69720787e-01, 3.83005112e-01, 3.83005112e-01,
          3.83005112e-01, 1.98198527e-01, 3.83005112e-01, 3.83005112e-01,
          2.68101007e-01, 1.48049653e-01, 2.09441021e-01, 2.21510783e-01,
          1.81669161e-01, 4.36915457e-01, 4.36915457e-01, 4.36915457e-01,
          4.36915457e-01, 2.90172786e-01, 3.12493533e-01, 3.80187154e-01,
          3.80187154e-01, 3.80187154e-01, 3.80187154e-01, 1.05685547e-01,
          1.41867921e-01, 3.80187154e-01, 3.80187154e-01, 4.19235349e-01,
          1.66135848e-01, 4.20839846e-01, 4.20839846e-01, 1.05279766e-01,
          1.70266464e-01, 3.47082824e-01, 4.20839846e-01, 3.17139089e-01,
          3.18683118e-01, 3.86933655e-01, 2.97978133e-01, 3.86933655e-01,
          2.35197499e-01, 4.33409587e-02, 3.86933655e-01, 3.86933655e-01,
          3.86933655e-01, 4.78246987e-01, 4.78246987e-01, 4.78246987e-01,
          2.77439237e-01, 2.70149440e-01, 9.04675573e-02, 1.60692796e-01,
          2.71615326e-01, 2.26556748e-01, 4.99365062e-01, 4.09967601e-01,
          1.71413109e-01, 1.33006901e-01, 4.99365062e-01, 6.66629449e-02,
          7.31872544e-02, 1.48220241e-01, 4.99365062e-01, 4.60043669e-01,
          4.80282567e-02, 9.07861665e-02, 3.69199157e-01, 4.60043669e-01,
          2.41305102e-02, 3.74814272e-02, 4.60043669e-01, 4.60043669e-01,
          1.84794933e-01, 1.01914220e-01, 3.15422922e-01, 4.65188175e-01,
          3.82995963e-01, 1.60907637e-02, 2.34906927e-01, 4.65188175e-01,
          4.65188175e-01, 1.17762193e-01, 9.22339410e-02, 1.38444468e-01,
          2.82162189e-01, 5.57315111e-01, 5.57315111e-01, 2.11274549e-01,
          2.31969282e-01, 3.91957074e-01, 4.64561105e-01, 4.83627506e-02,
          8.45473781e-02, 1.56231970e-01, 6.88991308e-01, 1.37060776e-01,
          5.00505976e-02, 1.49804680e-02, 4.97177154e-01, 1.85258985e-01,
          3.66090745e-01, 3.90709639e-01, 3.90709639e-01, 3.90709639e-01,
          2.38346737e-02, 3.02341729e-01, 3.90709639e-01, 3.53777736e-01,
          3.66767526e-01, 3.66767526e-01, 3.66767526e-01, 3.66767526e-01,
          1.77944675e-01, 1.51797011e-01, 3.66767526e-01, 3.66767526e-01,
          3.66767526e-01, 5.45141101e-01, 1.15427665e-01, 2.15270966e-01,
          5.45141101e-01, 1.87449396e-01, 1.83602124e-02, 3.77681777e-02,
          8.03343058e-02, 5.45141101e-01, 4.15455312e-01, 4.15455312e-01,
          4.15455312e-01, 9.61207002e-02, 1.57368585e-01, 4.26882580e-02,
          4.15455312e-01, 3.11461061e-01, 4.15455312e-01, 3.66767526e-01,
          3.66767526e-01, 3.66767526e-01, 3.66767526e-01, 1.77944675e-01,
          1.51797011e-01, 3.66767526e-01, 3.66767526e-01, 3.66767526e-01,
          5.45141101e-01, 1.15427665e-01, 2.15270966e-01, 5.45141101e-01,
          1.87449396e-01, 1.83602124e-02, 3.77681777e-02, 8.03343058e-02,
          5.45141101e-01, 4.15455312e-01, 4.15455312e-01, 4.15455312e-01,
          9.61207002e-02, 1.57368585e-01, 4.26882580e-02, 4.15455312e-01,
          3.11461061e-01, 4.15455312e-01, 3.12493533e-01, 3.80187154e-01,
          3.80187154e-01, 3.80187154e-01, 3.80187154e-01, 1.05685547e-01,
          1.41867921e-01, 3.80187154e-01, 3.80187154e-01, 4.10718620e-02,
          1.06982507e-01, 4.93656129e-01, 4.93656129e-01, 2.66821589e-02,
          1.85058350e-04, 8.02496299e-02, 4.93656129e-01, 4.93656129e-01,
          2.41586283e-01, 1.81431085e-01, 3.84250015e-01, 3.84250015e-01,
          3.84250015e-01, 3.84250015e-01, 3.84250015e-01, 3.21736574e-01,
          2.51246989e-01, 4.78246987e-01, 4.78246987e-01, 4.78246987e-01,
          2.77439237e-01, 2.70149440e-01, 9.04675573e-02, 1.60692796e-01,
          2.71615326e-01, 2.26556748e-01, 4.67654951e-02, 1.15453303e-01,
          2.68828362e-01, 4.20236200e-01, 3.94924551e-01, 4.20236200e-01,
          2.13676393e-01, 4.20236200e-01, 4.20236200e-01, 3.32778692e-01,
          3.32778692e-01, 3.32778692e-01, 3.32778692e-01, 3.32778692e-01,
          3.32778692e-01, 3.32778692e-01, 3.32778692e-01, 3.32778692e-01 ]
      - [ 4.37468827e-01, 4.37468827e-01, 3.51741731e-01, 2.18481272e-01,
          9.20979306e-02, 4.37468827e-01, 4.37468827e-01, 6.74341843e-02,
          2.13608399e-01, 3.70937824e-01, 3.70937824e-01, 3.70937824e-01,
          3.70937824e-01, 3.52241486e-01, 3.70937824e-01, 3.08658034e-01,
          2.63624564e-02, 2.97120929e-01, 5.07675827e-01, 4.09768857e-02,
          1.53168976e-01, 4.20800000e-01, 4.39941019e-01, 4.19115573e-02,
          1.02415355e-02, 2.86073685e-01, 5.07675827e-01, 3.59721035e-01,
          3.59721035e-01, 3.59721035e-01, 2.96562463e-01, 5.15958145e-02,
          3.59721035e-01, 3.59721035e-01, 3.59721035e-01, 3.59721035e-01,
          5.63027933e-02, 4.02377278e-01, 4.02377278e-01, 4.02377278e-01,
          1.13833897e-01, 3.29345345e-01, 4.02377278e-01, 4.02377278e-01,
          2.48689458e-01, 7.88433850e-02, 4.41068679e-01, 5.05378187e-01,
          5.05378187e-01, 1.04010209e-01, 9.19713676e-02, 5.56369349e-02,
          2.54077464e-01, 4.43230033e-01, 3.81721631e-02, 4.87594277e-01,
          4.87594277e-01, 1.44445166e-01, 1.59706473e-02, 3.62372585e-02,
          4.87594277e-01, 4.87594277e-01, 1.42294243e-01, 9.21046659e-02,
          1.65677518e-01, 4.66372013e-01, 4.66372013e-01, 1.50667295e-01,
          1.39326826e-01, 4.66372013e-01, 4.66372013e-01, 2.17452079e-01,
          1.86166361e-01, 7.58453682e-02, 4.35622960e-01, 6.52164340e-01,
          4.87279207e-01, 2.01909378e-01, 7.92460367e-02, 1.83745429e-01,
          1.40506685e-01, 3.81721631e-02, 4.87594277e-01, 4.87594277e-01,
          1.44445166e-01, 1.59706473e-02, 3.62372585e-02, 4.87594277e-01,
          4.87594277e-01, 1.42294243e-01, 9.21046659e-02, 1.65677518e-01,
          4.66372013e-01, 4.66372013e-01, 1.50667295e-01, 1.39326826e-01,
          4.66372013e-01, 4.66372013e-01, 2.17452079e-01, 1.86166361e-01,
          7.58453682e-02, 4.35622960e-01, 6.52164340e-01, 4.87279207e-01,
          2.01909378e-01, 7.92460367e-02, 1.83745429e-01, 1.40506685e-01,
          2.04006508e-02, 7.14334697e-02, 5.59804738e-01, 5.59804738e-01,
          7.65037769e-03, 9.72806569e-03, 1.84908301e-01, 5.59804738e-01,
          1.20011330e-01, 3.76718909e-01, 4.90476899e-02, 2.22656041e-01,
          3.39518726e-01, 1.42325148e-01, 7.04821870e-02, 4.14951265e-01,
          4.94208336e-01, 4.94208336e-01, 5.04554570e-01, 2.10988447e-02,
          9.01813135e-02, 5.04554570e-01, 3.43393594e-01, 1.33691981e-01,
          2.50814185e-02, 2.93658435e-01, 5.04554570e-01, 2.15959083e-02,
          2.79682554e-05, 4.60449874e-01, 5.04532635e-01, 5.28309196e-02,
          1.41178980e-03, 1.26601204e-01, 5.04532635e-01, 5.04532635e-01,
          8.73324275e-02, 6.16616756e-03, 8.74006748e-02, 5.99902570e-01,
          5.99902570e-01, 9.89186298e-03, 1.17273387e-02, 2.02700466e-01,
          4.66494381e-01, 4.28563416e-01, 1.36047769e-02, 1.48448665e-02,
          3.25946689e-01, 5.07705331e-01, 5.07705331e-01, 7.84918375e-04,
          1.03202768e-01, 4.22416061e-01, 5.07675827e-01, 4.09768857e-02,
          1.53168976e-01, 4.20800000e-01, 4.39941019e-01, 4.19115573e-02,
          1.02415355e-02, 2.86073685e-01, 5.07675827e-01, 3.63202393e-02,
          4.13814606e-03, 1.82065159e-01, 5.32699764e-01, 2.60001779e-01,
          1.43588837e-02, 2.02686906e-01, 5.32699764e-01, 5.32699764e-01,
          1.35808056e-02, 1.38214394e-01, 4.64067549e-01, 4.64067549e-01,
          2.28743345e-01, 2.29328409e-01, 4.64067549e-01, 4.64067549e-01,
          9.86264497e-02, 7.88433850e-02, 4.41068679e-01, 5.05378187e-01,
          5.05378187e-01, 1.04010209e-01, 9.19713676e-02, 5.56369349e-02,
          2.54077464e-01, 4.43230033e-01, 3.17517184e-02, 1.02345943e-02,
          4.72867228e-02, 2.78026819e-01, 1.16425738e-01, 2.79118922e-02,
          3.38211328e-01, 6.26250207e-01, 6.26250207e-01, 6.84581473e-02,
          3.00079107e-01, 4.07561898e-01, 3.21754456e-01, 3.42489243e-01,
