%YAML:1.0
---
opencv_ml_svm:
   format: 3
   svmType: C_SVC
   kernel:
      type: RBF
      gamma: 5.0624999999999998e-01
   C: 1.2500000000000000e+01
   term_criteria: { epsilon:1.1920928955078125e-07, iterations:1000 }
   var_count: 324
   class_count: 15
   class_labels: !!opencv-matrix
      rows: 15
      cols: 1
      dt: i
      data: [ 0, 1, 2, 3, 4, 5, 6, 7, 8, 9, 10, 11, 12, 13, 14 ]
   sv_total: 555
   support_vectors:
      - [ 4.89232928e-01, 4.89232928e-01, 1.75620571e-01, 7.25128204e-02,
          1.88001812e-01, 4.89232928e-01, 4.41479266e-01, 5.35334758e-02,
          8.86108875e-02, 4.86522675e-01, 2.80899942e-01, 9.73252282e-02,
          8.08903947e-02, 3.85986835e-01, 4.86522675e-01, 1.95647374e-01,
          5.33279404e-02, 4.86522675e-01, 5.82263589e-01, 6.00985810e-02,
          7.43615851e-02, 1.17553473e-01, 5.21088362e-01, 1.45204917e-01,
          1.65540054e-02, 1.65020209e-02, 5.82263589e-01, 3.13744009e-01,
          4.63645786e-01, 4.63645786e-01, 1.09215051e-01, 9.68532488e-02,
          4.63645786e-01, 4.63645786e-01, 1.10799849e-01, 5.89832403e-02,
          4.59455818e-01, 4.59455818e-01, 4.59455818e-01, 1.85325202e-02,
          1.86613336e-01, 1.96051002e-01, 2.58397728e-01, 1.03144407e-01,
          4.59455818e-01, 5.18522203e-01, 2.61278008e-03, 4.14379733e-03,
          1.03375383e-01, 5.18522203e-01, 3.95042717e-01, 1.40454531e-01,
          4.15814370e-02, 5.18522203e-01, 3.06125820e-01, 4.43325907e-01,
          4.43325907e-01, 1.47539571e-01, 3.67458016e-02, 8.28679204e-02,
          4.02770996e-01, 3.46461326e-01, 4.43325907e-01, 3.27611566e-02,
          4.91100222e-01, 4.91100222e-01, 2.14709044e-02, 5.16679995e-02,
          1.39569357e-01, 4.91100222e-01, 4.91100222e-01, 8.18155557e-02,
          4.35334742e-01, 9.49980244e-02, 2.26602480e-02, 3.11195590e-02,
          4.35334742e-01, 4.23810840e-01, 4.35334742e-01, 4.35334742e-01,
          2.17862234e-01, 3.06125820e-01, 4.43325907e-01, 4.43325907e-01,
          1.47539571e-01, 3.67458016e-02, 8.28679204e-02, 4.02770996e-01,
          3.46461326e-01, 4.43325907e-01, 3.27611566e-02, 4.91100222e-01,
          4.91100222e-01, 2.14709044e-02, 5.16679995e-02, 1.39569357e-01,
          4.91100222e-01, 4.91100222e-01, 8.18155557e-02, 4.35334742e-01,
          9.49980244e-02, 2.26602480e-02, 3.11195590e-02, 4.35334742e-01,
          4.23810840e-01, 4.35334742e-01, 4.35334742e-01, 2.17862234e-01,
          2.61554480e-01, 4.58271176e-01, 4.58271176e-01, 2.74025738e-01,
          3.36556062e-02, 2.49889214e-02, 1.00571670e-01, 4.58271176e-01,
          4.58271176e-01, 4.04193074e-01, 4.04193074e-01, 4.04193074e-01,
          1.16738819e-01, 1.57380141e-02, 4.30610329e-02, 4.04193074e-01,
          4.04193074e-01, 4.04193074e-01, 4.76393133e-01, 3.70798886e-01,
          3.66859883e-03, 5.70940378e-04, 8.81868601e-03, 3.28921974e-01,
          4.76393133e-01, 4.76393133e-01, 2.61949569e-01, 8.47954676e-02,
          7.96848685e-02, 4.94556993e-01, 4.94556993e-01, 6.91977069e-02,
          1.21161956e-02, 1.85695961e-02, 4.94556993e-01, 4.92423296e-01,
          6.44777492e-02, 2.81424094e-02, 3.70602608e-01, 5.72980165e-01,
          2.58923978e-01, 5.72980165e-01, 1.80337340e-01, 2.06117943e-01,
          2.30916426e-01, 7.21245781e-02, 4.02138680e-02, 3.28308083e-02,
          8.05770606e-02, 7.40723684e-02, 6.75841749e-01, 6.75841749e-01,
          1.85272813e-01, 1.59769878e-01, 5.82263589e-01, 6.00985810e-02,
          7.43615851e-02, 1.17553473e-01, 5.21088362e-01, 1.45204917e-01,
          1.65540054e-02, 1.65020209e-02, 5.82263589e-01, 4.93686527e-01,
          5.04858531e-02, 1.28663659e-01, 4.93686527e-01, 4.93686527e-01,
          1.71322636e-02, 6.41082833e-03, 2.69425269e-02, 4.93686527e-01,
          5.12235165e-01, 3.19412490e-03, 2.78418392e-01, 5.12235165e-01,
          3.31356168e-01, 2.28073094e-02, 4.54758219e-02, 1.33482203e-01,
          5.12235165e-01, 5.18522203e-01, 2.61278008e-03, 4.14379733e-03,
          1.03375383e-01, 5.18522203e-01, 3.95042717e-01, 1.40454531e-01,
          4.15814370e-02, 5.18522203e-01, 5.59189320e-01, 4.38518182e-04,
          2.29629269e-03, 1.04290240e-01, 5.59189320e-01, 2.13170275e-01,
          3.16525507e-03, 2.09100568e-03, 5.59189320e-01, 4.25722837e-01,
          4.26785235e-04, 4.13560458e-02, 2.88500309e-01, 4.25722837e-01,
          4.25722837e-01, 3.89270663e-01, 1.85237512e-01, 4.25722837e-01,
          4.35334742e-01, 9.49980244e-02, 2.26602480e-02, 3.11195590e-02,
          4.35334742e-01, 4.23810840e-01, 4.35334742e-01, 4.35334742e-01,
          2.17862234e-01, 1.40981302e-01, 9.24278889e-03, 5.11409342e-03,
          2.54135042e-01, 8.12301159e-01, 2.78586239e-01, 2.73460537e-01,
          2.37866461e-01, 1.96257040e-01, 8.30816105e-02, 9.98079851e-02,
          2.16038629e-01, 5.41420937e-01, 6.52987838e-01, 4.37827289e-01,
          1.27835542e-01, 4.74595232e-03, 4.85487022e-02, 4.35334742e-01,
          9.49980244e-02, 2.26602480e-02, 3.11195590e-02, 4.35334742e-01,
          4.23810840e-01, 4.35334742e-01, 4.35334742e-01, 2.17862234e-01,
          1.40981302e-01, 9.24278889e-03, 5.11409342e-03, 2.54135042e-01,
          8.12301159e-01, 2.78586239e-01, 2.73460537e-01, 2.37866461e-01,
          1.96257040e-01, 8.30816105e-02, 9.98079851e-02, 2.16038629e-01,
          5.41420937e-01, 6.52987838e-01, 4.37827289e-01, 1.27835542e-01,
          4.74595232e-03, 4.85487022e-02, 4.76393133e-01, 3.70798886e-01,
          3.66859883e-03, 5.70940378e-04, 8.81868601e-03, 3.28921974e-01,
          4.76393133e-01, 4.76393133e-01, 2.61949569e-01, 2.27100953e-01,
          3.93969044e-02, 4.67865802e-02, 1.68623438e-03, 1.03572784e-02,
          2.19774663e-01, 6.38449848e-01, 6.38449848e-01, 2.73244292e-01,
          2.71618575e-01, 5.74540794e-01, 5.74540794e-01, 4.82187271e-01,
          8.49977806e-02, 6.99171983e-03, 4.84637544e-02, 5.65181933e-02,
          1.22356169e-01, 7.21245781e-02, 4.02138680e-02, 3.28308083e-02,
          8.05770606e-02, 7.40723684e-02, 6.75841749e-01, 6.75841749e-01,
          1.85272813e-01, 1.59769878e-01, 4.29005861e-01, 2.65515119e-01,
          5.16319312e-02, 3.38228904e-02, 3.42962742e-02, 4.29005861e-01,
          4.29005861e-01, 4.29005861e-01, 4.29005861e-01, 6.92932010e-01,
          6.92932010e-01, 6.35757074e-02, 3.67425755e-02, 5.82041629e-02,
          5.77014312e-03, 5.79524115e-02, 4.75300737e-02, 1.35435373e-01 ]
      - [ 4.28796224e-02, 3.08110207e-01, 4.74002808e-01, 4.40030396e-01,
          8.76740217e-02, 1.43090472e-01, 4.74002808e-01, 4.74002808e-01,
          5.16782627e-02, 1.90811753e-01, 1.99379265e-01, 3.96154553e-01,
          1.63716495e-01, 2.23185401e-02, 2.80238111e-02, 4.94595438e-01,
          4.94595438e-01, 4.94595438e-01, 2.04403564e-01, 4.00923789e-01,
          4.11550730e-01, 3.83851618e-01, 4.82548736e-02, 1.01422198e-01,
          3.53961915e-01, 4.11550730e-01, 4.11550730e-01, 2.50847816e-01,
          1.00682482e-01, 3.95173281e-01, 3.95173281e-01, 3.95173281e-01,
          3.57931674e-01, 3.80746633e-01, 3.95173281e-01, 1.58933252e-01,
          4.13967818e-02, 7.31058940e-02, 4.40698445e-01, 4.40698445e-01,
          3.89961749e-01, 3.33557516e-01, 4.40698445e-01, 3.77116054e-01,
          1.86321158e-02, 2.96849608e-02, 3.42548899e-02, 4.32509005e-01,
          4.32509005e-01, 4.32509005e-01, 4.32509005e-01, 4.32509005e-01,
          2.31861964e-01, 6.74152374e-02, 2.99799562e-01, 1.95702240e-01,
          3.71522695e-01, 3.71522695e-01, 3.71522695e-01, 1.99836060e-01,
          3.71522695e-01, 3.71522695e-01, 3.71522695e-01, 2.40036417e-02,
          5.04687913e-02, 1.53832585e-01, 4.86096233e-01, 4.86096233e-01,
          8.39063153e-02, 2.34867558e-01, 4.86096233e-01, 4.44168568e-01,
          6.22297488e-02, 5.08342218e-03, 2.30802581e-01, 5.67748547e-01,
          5.67748547e-01, 6.90081194e-02, 2.23600209e-01, 2.93635845e-01,
          3.89235705e-01, 2.99799562e-01, 1.95702240e-01, 3.71522695e-01,
          3.71522695e-01, 3.71522695e-01, 1.99836060e-01, 3.71522695e-01,
          3.71522695e-01, 3.71522695e-01, 2.40036417e-02, 5.04687913e-02,
          1.53832585e-01, 4.86096233e-01, 4.86096233e-01, 8.39063153e-02,
          2.34867558e-01, 4.86096233e-01, 4.44168568e-01, 6.22297488e-02,
          5.08342218e-03, 2.30802581e-01, 5.67748547e-01, 5.67748547e-01,
          6.90081194e-02, 2.23600209e-01, 2.93635845e-01, 3.89235705e-01,
          3.01025361e-01, 3.61477345e-01, 3.61477345e-01, 3.21312249e-01,
          3.61477345e-01, 3.46468627e-01, 3.61477345e-01, 3.61477345e-01,
          1.70765549e-01, 2.79390991e-01, 2.67665774e-01, 4.09251839e-01,
          4.09251839e-01, 3.51953685e-01, 6.17289059e-02, 2.20402479e-01,
          4.09251839e-01, 4.09251839e-01, 9.74632576e-02, 2.43694205e-02,
          1.87872633e-01, 5.29501855e-01, 3.14635664e-01, 1.37170050e-02,
          9.49873254e-02, 5.29501855e-01, 5.29501855e-01, 4.10646975e-01,
          4.10646975e-01, 3.25012356e-01, 2.14866940e-02, 5.78970909e-02,
          2.08077520e-01, 4.10646975e-01, 4.10646975e-01, 4.10646975e-01,
          3.19521368e-01, 3.65777045e-01, 3.65777045e-01, 3.65777045e-01,
          3.65777045e-01, 3.00064862e-01, 3.65777045e-01, 3.51050347e-01,
          1.09600291e-01, 1.17640115e-01, 2.71166623e-01, 4.04115051e-01,
          4.04115051e-01, 3.36837858e-01, 1.68014750e-01, 4.04115051e-01,
          4.04115051e-01, 3.37146491e-01, 2.04403564e-01, 4.00923789e-01,
          4.11550730e-01, 3.83851618e-01, 4.82548736e-02, 1.01422198e-01,
          3.53961915e-01, 4.11550730e-01, 4.11550730e-01, 2.53692400e-02,
          1.40622601e-01, 5.13241172e-01, 3.68092984e-01, 1.53584853e-01,
          1.17689446e-01, 5.13241172e-01, 5.13241172e-01, 1.06183715e-01,
          1.56005189e-01, 4.30095971e-01, 4.30095971e-01, 4.30095971e-01,
          1.26831681e-01, 6.17940761e-02, 4.30095971e-01, 4.30095971e-01,
          1.62937567e-01, 2.96849608e-02, 3.42548899e-02, 4.32509005e-01,
          4.32509005e-01, 4.32509005e-01, 4.32509005e-01, 4.32509005e-01,
          2.31861964e-01, 6.74152374e-02, 2.59984024e-02, 9.09811258e-02,
          3.95139843e-01, 4.44481611e-01, 4.28942472e-01, 2.15600535e-01,
          4.44481611e-01, 4.44481611e-01, 8.54641944e-02, 2.86868680e-02,
          4.64511216e-01, 4.64511216e-01, 2.86830604e-01, 1.25023857e-01,
          1.47710487e-01, 4.64511216e-01, 4.64511216e-01, 1.08321190e-01,
          6.22297488e-02, 5.08342218e-03, 2.30802581e-01, 5.67748547e-01,
          5.67748547e-01, 6.90081194e-02, 2.23600209e-01, 2.93635845e-01,
          3.89235705e-01, 1.06686056e-01, 4.28504318e-01, 4.28504318e-01,
          4.28504318e-01, 3.31476212e-01, 6.89095780e-02, 1.78061932e-01,
          4.28504318e-01, 3.21780592e-01, 1.22684492e-02, 1.40623033e-01,
          2.92678535e-01, 3.68492901e-01, 1.22425355e-01, 1.00737236e-01,
          4.66476411e-01, 6.22438610e-01, 3.49637419e-01, 6.22297488e-02,
          5.08342218e-03, 2.30802581e-01, 5.67748547e-01, 5.67748547e-01,
          6.90081194e-02, 2.23600209e-01, 2.93635845e-01, 3.89235705e-01,
          1.06686056e-01, 4.28504318e-01, 4.28504318e-01, 4.28504318e-01,
          3.31476212e-01, 6.89095780e-02, 1.78061932e-01, 4.28504318e-01,
          3.21780592e-01, 1.22684492e-02, 1.40623033e-01, 2.92678535e-01,
          3.68492901e-01, 1.22425355e-01, 1.00737236e-01, 4.66476411e-01,
          6.22438610e-01, 3.49637419e-01, 9.74632576e-02, 2.43694205e-02,
          1.87872633e-01, 5.29501855e-01, 3.14635664e-01, 1.37170050e-02,
          9.49873254e-02, 5.29501855e-01, 5.29501855e-01, 4.98438301e-03,
          4.36561406e-02, 2.45422468e-01, 5.43083489e-01, 4.16519254e-01,
          1.05973054e-02, 2.29600016e-02, 5.04712522e-01, 4.56740052e-01,
          1.25590106e-02, 4.63207588e-02, 2.82653600e-01, 4.96602297e-01,
          3.21815252e-01, 1.59487382e-01, 4.96602297e-01, 4.96602297e-01,
          2.09763929e-01, 1.17640115e-01, 2.71166623e-01, 4.04115051e-01,
          4.04115051e-01, 3.36837858e-01, 1.68014750e-01, 4.04115051e-01,
          4.04115051e-01, 3.37146491e-01, 9.25922990e-02, 8.04543570e-02,
          2.68102676e-01, 4.62021410e-01, 2.30329245e-01, 3.94107476e-02,
          4.62021410e-01, 4.62021410e-01, 4.62021410e-01, 2.22474158e-01,
          1.44252747e-01, 2.60296166e-01, 4.58439678e-01, 4.58439678e-01,
          2.02863216e-01, 3.73501956e-01, 4.58439678e-01, 2.14954078e-01 ]
      - [ 6.46442771e-01, 6.46442771e-01, 3.61264110e-01, 1.46078423e-01,
          4.26893644e-02, 1.36732068e-02, 2.82654073e-02, 3.25570218e-02,
          4.52846736e-02, 6.82249725e-01, 6.82249725e-01, 1.26727121e-02,
          1.03217959e-02, 1.13485783e-01, 1.42491549e-01, 4.83399443e-02,
          1.11572742e-02, 1.62322789e-01, 4.97978508e-01, 7.82038122e-02,
          3.05075794e-02, 7.82754719e-02, 4.54967141e-01, 4.97978508e-01,
          1.26627371e-01, 1.21965684e-01, 4.97978508e-01, 2.99838156e-01,
          6.71982110e-01, 6.71982110e-01, 4.05463530e-03, 4.87344293e-03,
          6.15422009e-03, 7.00229919e-03, 1.08148735e-02, 4.95122746e-03,
          3.83648336e-01, 3.83648336e-01, 6.59291521e-02, 2.63642613e-02,
          3.28647733e-01, 3.83648336e-01, 3.83648336e-01, 3.83648336e-01,
          3.83648336e-01, 3.77422810e-01, 2.81363595e-02, 2.28570059e-01,
          3.77422810e-01, 3.77422810e-01, 3.77422810e-01, 2.97498792e-01,
          3.77422810e-01, 3.77422810e-01, 1.43450629e-02, 5.74748635e-01,
          5.74748635e-01, 5.74748635e-01, 3.66992094e-02, 1.84720717e-02,
          2.95377225e-02, 2.06603240e-02, 7.73787126e-03, 2.35890463e-01,
          3.71255696e-01, 3.22380096e-01, 1.38656929e-01, 4.26727027e-01,
          4.26727027e-01, 4.26727027e-01, 2.79693663e-01, 2.33647376e-01,
          4.29358155e-01, 2.13150784e-01, 8.91291797e-02, 3.49524796e-01,
          4.29358155e-01, 4.29358155e-01, 5.86027615e-02, 2.81670213e-01,
          4.29358155e-01, 1.43450629e-02, 5.74748635e-01, 5.74748635e-01,
          5.74748635e-01, 3.66992094e-02, 1.84720717e-02, 2.95377225e-02,
          2.06603240e-02, 7.73787126e-03, 2.35890463e-01, 3.71255696e-01,
          3.22380096e-01, 1.38656929e-01, 4.26727027e-01, 4.26727027e-01,
          4.26727027e-01, 2.79693663e-01, 2.33647376e-01, 4.29358155e-01,
          2.13150784e-01, 8.91291797e-02, 3.49524796e-01, 4.29358155e-01,
          4.29358155e-01, 5.86027615e-02, 2.81670213e-01, 4.29358155e-01,
          1.55459289e-02, 2.01756701e-01, 6.65374815e-01, 6.65374815e-01,
          2.32356519e-01, 4.22820561e-02, 8.97463337e-02, 5.54311909e-02,
          7.64424168e-03, 4.47014309e-02, 2.75040448e-01, 3.58519197e-01,
          3.95771116e-01, 3.95771116e-01, 3.48370045e-01, 3.95771116e-01,
          3.95771116e-01, 2.04851121e-01, 3.33310276e-01, 3.31393957e-01,
          2.60366797e-01, 4.28157568e-01, 4.28157568e-01, 2.45229870e-01,
          2.00876132e-01, 2.37841681e-01, 4.28157568e-01, 4.30593342e-02,
          1.77290753e-01, 1.78406239e-01, 5.34438968e-01, 5.34438968e-01,
          5.34438968e-01, 2.41566628e-01, 1.15372717e-01, 3.17412727e-02,
          1.33877452e-02, 7.90371075e-02, 1.08242497e-01, 6.64035738e-01,
          6.64035738e-01, 2.15029001e-01, 8.83418024e-02, 1.66444153e-01,
          1.07684560e-01, 7.01261535e-02, 1.47902936e-01, 1.74655333e-01,
          6.25803173e-01, 6.25803173e-01, 3.46152186e-01, 6.24131151e-02,
          1.21891946e-01, 1.20916001e-01, 4.97978508e-01, 7.82038122e-02,
          3.05075794e-02, 7.82754719e-02, 4.54967141e-01, 4.97978508e-01,
          1.26627371e-01, 1.21965684e-01, 4.97978508e-01, 3.65317285e-01,
          2.79073983e-01, 3.65317285e-01, 8.93941969e-02, 3.43593776e-01,
          3.65317285e-01, 3.53746176e-01, 3.65317285e-01, 3.65317285e-01,
          2.57440299e-01, 1.90645233e-01, 2.21356913e-01, 3.56434435e-02,
          4.97793071e-02, 3.83650698e-02, 5.83404601e-02, 6.45488858e-01,
          6.45488858e-01, 3.77422810e-01, 2.81363595e-02, 2.28570059e-01,
          3.77422810e-01, 3.77422810e-01, 3.77422810e-01, 2.97498792e-01,
          3.77422810e-01, 3.77422810e-01, 3.62505287e-01, 3.62505287e-01,
          3.62505287e-01, 2.99229532e-01, 1.70792878e-01, 3.62505287e-01,
          3.62505287e-01, 3.62505287e-01, 2.98679024e-01, 1.57149866e-01,
          3.65468711e-01, 4.66621846e-01, 2.23942518e-01, 2.46909466e-02,
          2.67845094e-02, 3.63855094e-01, 4.66621846e-01, 4.66621846e-01,
          4.29358155e-01, 2.13150784e-01, 8.91291797e-02, 3.49524796e-01,
          4.29358155e-01, 4.29358155e-01, 5.86027615e-02, 2.81670213e-01,
          4.29358155e-01, 3.76150846e-01, 3.13786864e-01, 3.76150846e-01,
          3.76150846e-01, 3.76150846e-01, 1.35246679e-01, 1.74789801e-01,
          3.76150846e-01, 3.76150846e-01, 3.45906019e-01, 3.18876415e-01,
          4.13841784e-01, 2.74120986e-01, 1.42958328e-01, 3.96792144e-01,
          4.13841784e-01, 4.13841784e-01, 8.78304988e-02, 4.29358155e-01,
          2.13150784e-01, 8.91291797e-02, 3.49524796e-01, 4.29358155e-01,
          4.29358155e-01, 5.86027615e-02, 2.81670213e-01, 4.29358155e-01,
          3.76150846e-01, 3.13786864e-01, 3.76150846e-01, 3.76150846e-01,
          3.76150846e-01, 1.35246679e-01, 1.74789801e-01, 3.76150846e-01,
          3.76150846e-01, 3.45906019e-01, 3.18876415e-01, 4.13841784e-01,
          2.74120986e-01, 1.42958328e-01, 3.96792144e-01, 4.13841784e-01,
          4.13841784e-01, 8.78304988e-02, 3.33310276e-01, 3.31393957e-01,
          2.60366797e-01, 4.28157568e-01, 4.28157568e-01, 2.45229870e-01,
          2.00876132e-01, 2.37841681e-01, 4.28157568e-01, 2.38086835e-01,
          3.63674164e-01, 3.63674164e-01, 3.63674164e-01, 3.63674164e-01,
          3.63674164e-01, 3.63674164e-01, 2.62934536e-01, 2.77476788e-01,
          1.85101181e-02, 2.48668209e-01, 3.33981961e-01, 8.62756893e-02,
          5.21203816e-01, 6.07048929e-01, 4.15224344e-01, 8.54529254e-03,
          1.12649314e-02, 7.01261535e-02, 1.47902936e-01, 1.74655333e-01,
          6.25803173e-01, 6.25803173e-01, 3.46152186e-01, 6.24131151e-02,
          1.21891946e-01, 1.20916001e-01, 1.25191391e-01, 3.25686812e-01,
          2.82562897e-02, 1.14151709e-01, 6.53366923e-01, 6.53366923e-01,
          5.86249679e-02, 1.05273947e-02, 2.40577366e-02, 8.49827845e-03,
          5.53389378e-02, 1.50230810e-01, 1.20860450e-01, 6.89619958e-01,
          6.89619958e-01, 4.06338573e-02, 9.38409125e-04, 1.07552449e-03 ]
      - [ 6.97002530e-01, 6.97002530e-01, 2.15251558e-02, 1.48557767e-03,
          6.21512067e-04, 6.53887168e-03, 4.95657790e-03, 8.23615585e-03,
          1.44277886e-01, 5.29562712e-01, 5.29562712e-01, 2.53891405e-02,
          9.59732477e-03, 7.33488500e-02, 5.29562712e-01, 1.12859719e-01,
          6.86715031e-03, 3.66742343e-01, 4.44365978e-01, 1.98846668e-01,
          4.08582985e-01, 1.51592180e-01, 3.47017527e-01, 4.44365978e-01,
          2.02233851e-01, 1.11346319e-01, 4.44365978e-01, 5.29282808e-01,
          6.26732290e-01, 2.86123365e-01, 2.23157145e-02, 8.71526171e-03,
          2.47147769e-01, 4.07414526e-01, 9.64989662e-02, 4.45862748e-02,
          4.36460733e-01, 3.88076365e-01, 1.65308326e-01, 2.30526835e-01,
          3.29888016e-01, 4.36460733e-01, 4.36460733e-01, 1.12517610e-01,
          2.67558157e-01, 3.43511283e-01, 3.43511283e-01, 3.43511283e-01,
          2.29276747e-01, 3.43511283e-01, 3.43511283e-01, 3.43511283e-01,
          3.43511283e-01, 3.43511283e-01, 1.40542492e-01, 5.04903078e-01,
          5.04903078e-01, 3.07041444e-02, 2.22524796e-02, 7.33035728e-02,
          5.04903078e-01, 3.92790914e-01, 2.22098544e-01, 4.29938525e-01,
          5.68548068e-02, 6.25851825e-02, 1.45193815e-01, 3.64146739e-01,
          4.29938525e-01, 4.29938525e-01, 3.09003532e-01, 4.29938525e-01,
          4.73847210e-01, 1.98983088e-01, 2.46523302e-02, 2.23791718e-01,
          4.73847210e-01, 3.96280169e-01, 5.53801991e-02, 2.66990393e-01,
          4.73847210e-01, 1.40542492e-01, 5.04903078e-01, 5.04903078e-01,
          3.07041444e-02, 2.22524796e-02, 7.33035728e-02, 5.04903078e-01,
          3.92790914e-01, 2.22098544e-01, 4.29938525e-01, 5.68548068e-02,
          6.25851825e-02, 1.45193815e-01, 3.64146739e-01, 4.29938525e-01,
          4.29938525e-01, 3.09003532e-01, 4.29938525e-01, 4.73847210e-01,
          1.98983088e-01, 2.46523302e-02, 2.23791718e-01, 4.73847210e-01,
          3.96280169e-01, 5.53801991e-02, 2.66990393e-01, 4.73847210e-01,
          1.13615328e-02, 1.59913108e-01, 5.98871171e-01, 5.98871171e-01,
          6.32237047e-02, 5.65496720e-02, 4.69298154e-01, 1.52522132e-01,
          1.80770624e-02, 4.29567665e-01, 4.29567665e-01, 3.54210943e-01,
          1.09199248e-01, 2.37509042e-01, 4.29567665e-01, 4.29567665e-01,
          2.29365379e-01, 1.05766088e-01, 4.59172696e-01, 1.77584320e-01,
          1.25308186e-01, 2.36832887e-01, 4.59172696e-01, 4.59172696e-01,
          1.16315283e-01, 1.87611416e-01, 4.59172696e-01, 1.35219423e-02,
          3.74171622e-02, 6.70966089e-01, 6.70966089e-01, 1.97308481e-01,
          2.61953361e-02, 1.87496796e-01, 1.28098965e-01, 1.21142175e-02,
          6.03613332e-02, 1.05484731e-01, 4.02651757e-01, 4.02651757e-01,
          4.02651757e-01, 9.18495879e-02, 4.02651757e-01, 4.02651757e-01,
          4.02651757e-01, 4.21761900e-01, 1.66555405e-01, 1.52310297e-01,
          4.21761900e-01, 4.21761900e-01, 4.21761900e-01, 1.08852945e-01,
          2.08766222e-01, 4.21761900e-01, 4.44365978e-01, 1.98846668e-01,
          4.08582985e-01, 1.51592180e-01, 3.47017527e-01, 4.44365978e-01,
          2.02233851e-01, 1.11346319e-01, 4.44365978e-01, 2.23542869e-01,
          2.38510624e-01, 5.22162080e-01, 1.64632380e-01, 1.29915401e-01,
          1.55627191e-01, 4.20130193e-02, 5.22162080e-01, 5.22162080e-01,
          1.77509785e-02, 1.33880845e-03, 3.95274925e-04, 0.,
          6.21667550e-06, 1.25347450e-03, 1.11988142e-01, 7.00054228e-01,
          7.00054228e-01, 3.43511283e-01, 3.43511283e-01, 3.43511283e-01,
          2.29276747e-01, 3.43511283e-01, 3.43511283e-01, 3.43511283e-01,
          3.43511283e-01, 3.43511283e-01, 2.82585949e-01, 4.28466707e-01,
          4.28466707e-01, 4.28466707e-01, 4.28466707e-01, 1.24945179e-01,
          2.04817578e-01, 2.70032495e-01, 2.25944787e-01, 1.44942710e-02,
          6.58532307e-02, 1.05822824e-01, 1.87854171e-02, 1.89577024e-02,
          5.63161820e-02, 5.54500759e-01, 5.77552080e-01, 5.77552080e-01,
          4.73847210e-01, 1.98983088e-01, 2.46523302e-02, 2.23791718e-01,
          4.73847210e-01, 3.96280169e-01, 5.53801991e-02, 2.66990393e-01,
          4.73847210e-01, 4.03336287e-01, 4.03336287e-01, 4.03336287e-01,
          4.03336287e-01, 4.03336287e-01, 3.99434492e-02, 3.41764130e-02,
          1.30867556e-01, 4.03336287e-01, 6.53823689e-02, 1.96735010e-01,
          1.98822781e-01, 6.70983195e-02, 2.73468737e-02, 9.97824222e-02,
          6.68725491e-01, 6.68725491e-01, 3.49253714e-02, 4.73847210e-01,
          1.98983088e-01, 2.46523302e-02, 2.23791718e-01, 4.73847210e-01,
          3.96280169e-01, 5.53801991e-02, 2.66990393e-01, 4.73847210e-01,
          4.03336287e-01, 4.03336287e-01, 4.03336287e-01, 4.03336287e-01,
          4.03336287e-01, 3.99434492e-02, 3.41764130e-02, 1.30867556e-01,
          4.03336287e-01, 6.53823689e-02, 1.96735010e-01, 1.98822781e-01,
          6.70983195e-02, 2.73468737e-02, 9.97824222e-02, 6.68725491e-01,
          6.68725491e-01, 3.49253714e-02, 4.59172696e-01, 1.77584320e-01,
          1.25308186e-01, 2.36832887e-01, 4.59172696e-01, 4.59172696e-01,
          1.16315283e-01, 1.87611416e-01, 4.59172696e-01, 1.35786191e-01,
          1.61412552e-01, 3.98221701e-01, 3.98221701e-01, 3.98221701e-01,
          1.35248587e-01, 3.74613017e-01, 3.98221701e-01, 3.98221701e-01,
          6.05768431e-03, 1.34383366e-01, 5.54412305e-01, 2.02711508e-01,
          5.61857745e-02, 5.54412305e-01, 5.54412305e-01, 9.99301150e-02,
          3.80163593e-03, 4.21761900e-01, 1.66555405e-01, 1.52310297e-01,
          4.21761900e-01, 4.21761900e-01, 4.21761900e-01, 1.08852945e-01,
          2.08766222e-01, 4.21761900e-01, 4.09659624e-01, 4.09659624e-01,
          3.58778805e-01, 4.11288552e-02, 4.09659624e-01, 4.09659624e-01,
          4.09659624e-01, 1.44474477e-01, 7.42696300e-02, 4.33806591e-02,
          2.81478465e-01, 2.40493417e-01, 1.93367898e-02, 1.11982822e-01,
          6.48688495e-01, 6.48688495e-01, 7.35646905e-03, 3.56300850e-03 ]
      - [ 4.06440973e-01, 3.68072629e-01, 4.06440973e-01, 4.06440973e-01,
          2.18422040e-01, 3.74033004e-01, 1.04559816e-01, 3.38145010e-02,
          4.06440973e-01, 3.68516833e-01, 1.21057741e-01, 1.41753346e-01,
          5.02955914e-02, 4.31361109e-01, 4.31361109e-01, 4.31361109e-01,
          2.79853791e-01, 4.31361109e-01, 3.98288488e-01, 1.40040621e-01,
          2.33928725e-01, 2.21431166e-01, 3.98288488e-01, 3.98288488e-01,
          3.98288488e-01, 3.06497931e-01, 3.79709691e-01, 4.15701598e-01,
          4.15701598e-01, 4.15701598e-01, 1.88689366e-01, 1.85533181e-01,
          4.15701598e-01, 4.15701598e-01, 1.55655786e-01, 1.93786994e-01,
          4.88205969e-01, 4.88205969e-01, 3.42944674e-02, 1.90256480e-02,
          2.57128030e-01, 4.88205969e-01, 4.58864510e-01, 4.28702757e-02,
          6.43471489e-03, 4.59555537e-01, 4.59555537e-01, 3.81904244e-02,
          6.45802543e-02, 4.59555537e-01, 4.59555537e-01, 2.83985466e-01,
          9.05403718e-02, 2.37002194e-01, 1.71916917e-01, 4.60390002e-01,
          4.60390002e-01, 1.36264443e-01, 2.03821793e-01, 4.60390002e-01,
          4.60390002e-01, 2.20805556e-01, 9.56224576e-02, 4.44063395e-01,
          4.44063395e-01, 3.78993809e-01, 4.61354814e-02, 6.17393404e-02,
          2.83414006e-01, 4.44063395e-01, 3.72151285e-01, 1.88655287e-01,
          3.94938678e-01, 1.86446711e-01, 8.42233002e-02, 1.35422349e-01,
          3.94938678e-01, 3.94938678e-01, 3.94938678e-01, 3.94938678e-01,
          3.94938678e-01, 1.71916917e-01, 4.60390002e-01, 4.60390002e-01,
          1.36264443e-01, 2.03821793e-01, 4.60390002e-01, 4.60390002e-01,
          2.20805556e-01, 9.56224576e-02, 4.44063395e-01, 4.44063395e-01,
          3.78993809e-01, 4.61354814e-02, 6.17393404e-02, 2.83414006e-01,
          4.44063395e-01, 3.72151285e-01, 1.88655287e-01, 3.94938678e-01,
          1.86446711e-01, 8.42233002e-02, 1.35422349e-01, 3.94938678e-01,
          3.94938678e-01, 3.94938678e-01, 3.94938678e-01, 3.94938678e-01,
          1.94146857e-02, 2.04851717e-01, 4.68262970e-01, 4.68262970e-01,
          3.80357727e-02, 2.10281685e-01, 4.68262970e-01, 4.68262970e-01,
          1.73884705e-01, 3.50063927e-02, 1.35076627e-01, 4.50438946e-01,
          4.50438946e-01, 3.35140377e-01, 2.16128320e-01, 4.50438946e-01,
          4.50438946e-01, 7.36073256e-02, 3.48901093e-01, 2.18912393e-01,
          3.48901093e-01, 3.48901093e-01, 3.48901093e-01, 3.48901093e-01,
          3.48901093e-01, 3.10592234e-01, 3.48901093e-01, 2.13868241e-03,
          1.17646083e-02, 2.26455286e-01, 3.38140339e-01, 4.47780102e-01,
          4.47780102e-01, 4.47780102e-01, 4.47780102e-01, 1.66539252e-01,
          3.03163630e-04, 2.20139325e-03, 2.89514720e-01, 5.04072309e-01,
          5.04072309e-01, 3.72413129e-01, 4.99396831e-01, 1.20642975e-01,
          1.79109182e-02, 3.20812687e-02, 4.15846445e-02, 1.45602673e-01,
          5.72532475e-01, 5.72532475e-01, 4.84168738e-01, 2.58205712e-01,
          1.15553178e-01, 1.71894357e-02, 3.98288488e-01, 1.40040621e-01,
          2.33928725e-01, 2.21431166e-01, 3.98288488e-01, 3.98288488e-01,
          3.98288488e-01, 3.06497931e-01, 3.79709691e-01, 4.68003362e-01,
          1.95915535e-01, 2.18352173e-02, 2.24861838e-02, 1.56671271e-01,
          2.35171303e-01, 4.68003362e-01, 4.68003362e-01, 4.68003362e-01,
          4.90593493e-01, 4.90593493e-01, 4.90593493e-01, 1.11732230e-01,
          0., 2.97950828e-05, 9.85306576e-02, 1.00894473e-01,
          4.90593493e-01, 4.59555537e-01, 4.59555537e-01, 3.81904244e-02,
          6.45802543e-02, 4.59555537e-01, 4.59555537e-01, 2.83985466e-01,
          9.05403718e-02, 2.37002194e-01, 4.00732905e-01, 2.30482891e-01,
          4.00732905e-01, 2.11281329e-01, 2.28546917e-01, 4.00732905e-01,
          4.00732905e-01, 2.07524553e-01, 4.00732905e-01, 3.99888098e-01,
          1.99377388e-01, 4.80917186e-01, 3.16055298e-01, 9.83088091e-03,
          1.31996432e-02, 3.91024873e-02, 4.80917186e-01, 4.80917186e-01,
          3.94938678e-01, 1.86446711e-01, 8.42233002e-02, 1.35422349e-01,
          3.94938678e-01, 3.94938678e-01, 3.94938678e-01, 3.94938678e-01,
          3.94938678e-01, 3.74495983e-01, 3.74495983e-01, 3.74495983e-01,
          3.41382504e-01, 1.86387032e-01, 2.94417351e-01, 3.74495983e-01,
          2.38869697e-01, 3.74495983e-01, 3.60312581e-01, 4.26743001e-01,
          4.26743001e-01, 3.17812860e-01, 1.00138903e-01, 1.01612888e-01,
          4.26743001e-01, 4.26743001e-01, 1.26948014e-01, 3.94938678e-01,
          1.86446711e-01, 8.42233002e-02, 1.35422349e-01, 3.94938678e-01,
          3.94938678e-01, 3.94938678e-01, 3.94938678e-01, 3.94938678e-01,
          3.74495983e-01, 3.74495983e-01, 3.74495983e-01, 3.41382504e-01,
          1.86387032e-01, 2.94417351e-01, 3.74495983e-01, 2.38869697e-01,
          3.74495983e-01, 3.60312581e-01, 4.26743001e-01, 4.26743001e-01,
          3.17812860e-01, 1.00138903e-01, 1.01612888e-01, 4.26743001e-01,
          4.26743001e-01, 1.26948014e-01, 3.48901093e-01, 2.18912393e-01,
          3.48901093e-01, 3.48901093e-01, 3.48901093e-01, 3.48901093e-01,
          3.48901093e-01, 3.10592234e-01, 3.48901093e-01, 3.32778692e-01,
          3.32778692e-01, 3.32778692e-01, 3.32778692e-01, 3.32778692e-01,
          3.32778692e-01, 3.32778692e-01, 3.32778692e-01, 3.32778692e-01,
          1.45236790e-01, 4.03698683e-01, 4.03698683e-01, 3.92093539e-01,
          4.03698683e-01, 4.03698683e-01, 4.03698683e-01, 7.90430233e-02,
          5.01446379e-03, 3.20812687e-02, 4.15846445e-02, 1.45602673e-01,
          5.72532475e-01, 5.72532475e-01, 4.84168738e-01, 2.58205712e-01,
          1.15553178e-01, 1.71894357e-02, 1.00628950e-01, 9.05392468e-02,
          8.18759277e-02, 4.71212238e-01, 5.91034532e-01, 5.91034532e-01,
          1.74883232e-01, 1.24947146e-01, 4.68062311e-02, 6.70054033e-02,
          4.66828257e-01, 4.66828257e-01, 2.96003610e-01, 4.66828257e-01,
          4.66828257e-01, 1.76429838e-01, 1.87480673e-02, 5.98538853e-03 ]
      - [ 5.18576920e-01, 2.53688037e-01, 2.77858019e-01, 3.10689628e-01,
          3.76386583e-01, 2.21687153e-01, 1.50626048e-01, 7.33895078e-02,
          5.18576920e-01, 4.95900154e-01, 2.06037089e-01, 1.05357364e-01,
          1.59536794e-01, 4.95900154e-01, 2.81058937e-01, 1.01221927e-01,
          2.98417211e-01, 4.95900154e-01, 1.77513316e-01, 2.26631984e-02,
          1.23670595e-02, 3.02839689e-02, 2.17343092e-01, 4.77685571e-01,
          4.20668960e-01, 5.04718125e-01, 5.04718125e-01, 3.19024801e-01,
          3.17232944e-02, 6.84675574e-02, 5.60820758e-01, 5.60820758e-01,
          2.63415158e-01, 1.67467013e-01, 1.41149148e-01, 3.74877423e-01,
          4.53677386e-01, 1.32833302e-01, 6.96332334e-03, 1.38147011e-01,
          6.23284280e-01, 5.53975999e-01, 7.74097368e-02, 1.00994036e-01,
          1.99025631e-01, 2.41979554e-01, 4.34396744e-01, 1.74028531e-01,
          7.25534037e-02, 4.42155778e-01, 4.90360796e-01, 4.90360796e-01,
          1.66098297e-01, 9.11047980e-02, 5.12978971e-01, 1.21632136e-01,
          7.13586435e-02, 3.47535580e-01, 5.12978971e-01, 2.49253109e-01,
          3.69503126e-02, 3.57023180e-02, 5.12978971e-01, 5.19895554e-01,
          1.56084523e-02, 4.64849770e-02, 2.38202676e-01, 5.19895554e-01,
          3.45947206e-01, 4.14576307e-02, 5.82262576e-02, 5.19895554e-01,
          4.08185095e-01, 2.65993774e-01, 3.42807770e-01, 3.12468886e-01,
          3.21823984e-01, 4.08185095e-01, 9.51487347e-02, 3.12324435e-01,
          4.08185095e-01, 5.12978971e-01, 1.21632136e-01, 7.13586435e-02,
          3.47535580e-01, 5.12978971e-01, 2.49253109e-01, 3.69503126e-02,
          3.57023180e-02, 5.12978971e-01, 5.19895554e-01, 1.56084523e-02,
          4.64849770e-02, 2.38202676e-01, 5.19895554e-01, 3.45947206e-01,
          4.14576307e-02, 5.82262576e-02, 5.19895554e-01, 4.08185095e-01,
          2.65993774e-01, 3.42807770e-01, 3.12468886e-01, 3.21823984e-01,
          4.08185095e-01, 9.51487347e-02, 3.12324435e-01, 4.08185095e-01,
          4.20958251e-01, 2.87852108e-01, 2.27030948e-01, 4.20958251e-01,
          4.20958251e-01, 1.25563517e-01, 1.74602330e-01, 3.26063573e-01,
          4.20958251e-01, 3.93991888e-01, 1.49768531e-01, 3.34869295e-01,
          3.93991888e-01, 3.93991888e-01, 2.42899850e-01, 1.62319437e-01,
          3.93991888e-01, 3.93991888e-01, 4.09120232e-01, 1.27804935e-01,
          3.35684091e-01, 4.09120232e-01, 4.09120232e-01, 1.67415112e-01,
          4.43886407e-02, 4.09120232e-01, 4.09120232e-01, 2.23743737e-01,
          1.04938582e-01, 2.08006516e-01, 5.88857710e-01, 5.88857710e-01,
          3.20225567e-01, 6.18143789e-02, 5.18491417e-02, 2.95329362e-01,
          1.42069936e-01, 3.64929773e-02, 2.78735645e-02, 3.08647513e-01,
          6.61634922e-01, 6.23021603e-01, 1.32653356e-01, 4.34188824e-03,
          1.79739505e-01, 1.80608835e-02, 5.85829765e-02, 1.95317701e-01,
          5.20972431e-01, 5.78810215e-01, 5.78810215e-01, 1.02378607e-01,
          3.87975737e-03, 1.90259758e-02, 1.77513316e-01, 2.26631984e-02,
          1.23670595e-02, 3.02839689e-02, 2.17343092e-01, 4.77685571e-01,
          4.20668960e-01, 5.04718125e-01, 5.04718125e-01, 3.74076784e-01,
          3.74076784e-01, 9.77271572e-02, 3.74076784e-01, 1.60740077e-01,
          3.74076784e-01, 3.48244280e-01, 3.74076784e-01, 3.74076784e-01,
          4.88204300e-01, 1.31656945e-01, 2.64959652e-02, 4.88204300e-01,
          4.88204300e-01, 1.03016526e-01, 1.64631326e-02, 1.13274507e-01,
          4.88204300e-01, 2.41979554e-01, 4.34396744e-01, 1.74028531e-01,
          7.25534037e-02, 4.42155778e-01, 4.90360796e-01, 4.90360796e-01,
          1.66098297e-01, 9.11047980e-02, 4.73632336e-01, 4.73632336e-01,
          2.41836801e-01, 3.14850695e-02, 1.17421709e-01, 4.73632336e-01,
          4.73632336e-01, 1.39049336e-01, 7.32123926e-02, 5.03898084e-01,
          5.03898084e-01, 5.89184836e-02, 2.64455266e-02, 1.98447347e-01,
          3.21475118e-01, 2.26279899e-01, 1.87420473e-01, 5.03898084e-01,
          4.08185095e-01, 2.65993774e-01, 3.42807770e-01, 3.12468886e-01,
          3.21823984e-01, 4.08185095e-01, 9.51487347e-02, 3.12324435e-01,
          4.08185095e-01, 2.60009557e-01, 3.95545870e-01, 4.01911467e-01,
          4.01911467e-01, 3.17484289e-01, 1.40757576e-01, 7.19937235e-02,
          4.01911467e-01, 4.01911467e-01, 3.47080618e-01, 1.39852017e-01,
          3.19645464e-01, 4.70225006e-01, 4.48382109e-01, 2.66853094e-01,
          1.37339726e-01, 1.40584737e-01, 4.70225006e-01, 4.08185095e-01,
          2.65993774e-01, 3.42807770e-01, 3.12468886e-01, 3.21823984e-01,
          4.08185095e-01, 9.51487347e-02, 3.12324435e-01, 4.08185095e-01,
          2.60009557e-01, 3.95545870e-01, 4.01911467e-01, 4.01911467e-01,
          3.17484289e-01, 1.40757576e-01, 7.19937235e-02, 4.01911467e-01,
          4.01911467e-01, 3.47080618e-01, 1.39852017e-01, 3.19645464e-01,
          4.70225006e-01, 4.48382109e-01, 2.66853094e-01, 1.37339726e-01,
          1.40584737e-01, 4.70225006e-01, 4.09120232e-01, 1.27804935e-01,
          3.35684091e-01, 4.09120232e-01, 4.09120232e-01, 1.67415112e-01,
          4.43886407e-02, 4.09120232e-01, 4.09120232e-01, 5.13616800e-02,
          7.62694702e-02, 2.36877769e-01, 4.98250812e-01, 3.10594082e-01,
          2.23034754e-01, 1.98702738e-01, 4.98250812e-01, 4.98250812e-01,
          1.84846997e-01, 8.46607536e-02, 8.51637423e-02, 4.04676288e-01,
          4.04676288e-01, 4.00827885e-01, 4.04676288e-01, 4.04676288e-01,
          3.62841547e-01, 1.80608835e-02, 5.85829765e-02, 1.95317701e-01,
          5.20972431e-01, 5.78810215e-01, 5.78810215e-01, 1.02378607e-01,
          3.87975737e-03, 1.90259758e-02, 1.53158367e-01, 3.10699731e-01,
          1.40600562e-01, 1.34041131e-01, 4.02488053e-01, 5.75759351e-01,
          5.75759351e-01, 7.55530894e-02, 7.62943402e-02, 4.74315375e-01,
          4.74315375e-01, 5.33951707e-02, 7.37090111e-02, 2.59794921e-01,
          4.74315375e-01, 4.74315375e-01, 9.79084298e-02, 9.99935567e-02 ]
      - [ 5.24107695e-01, 5.24107695e-01, 8.88481513e-02, 5.59227131e-02,
          5.65740764e-02, 5.24107695e-01, 3.58080059e-01, 1.32266864e-01,
          1.03737377e-01, 4.72728252e-01, 4.10442680e-01, 1.03820480e-01,
          6.29126877e-02, 4.72728252e-01, 4.72728252e-01, 1.12628303e-01,
          5.31558245e-02, 3.55178565e-01, 5.35272241e-01, 5.69387004e-02,
          6.09496459e-02, 8.54227766e-02, 5.35272241e-01, 3.34135383e-01,
          2.72299666e-02, 9.19978321e-02, 5.35272241e-01, 2.25620404e-01,
          4.82357562e-01, 4.82357562e-01, 2.43836604e-02, 4.34590280e-02,
          4.82357562e-01, 4.82357562e-01, 7.52036273e-02, 7.39174858e-02,
          4.90958065e-01, 4.90958065e-01, 4.90958065e-01, 3.24440971e-02,
          1.42736316e-01, 1.88951716e-01, 1.72349736e-01, 7.45057687e-02,
          4.23783392e-01, 4.95008618e-01, 8.08831863e-03, 1.58264674e-03,
          5.50063550e-02, 4.95008618e-01, 4.95008618e-01, 1.04355849e-01,
          3.06298006e-02, 4.95008618e-01, 1.47998840e-01, 5.41919172e-01,
          5.41919172e-01, 7.35212341e-02, 5.45988418e-02, 1.28413022e-01,
          5.41919172e-01, 1.47974402e-01, 2.11855635e-01, 3.21267582e-02,
          4.90330219e-01, 5.03749192e-01, 1.75362192e-02, 6.60351515e-02,
          1.45634145e-01, 5.03749192e-01, 4.68445718e-01, 2.58440450e-02,
          3.74088228e-01, 1.39088809e-01, 1.94348060e-02, 5.87600209e-02,
          4.44289505e-01, 4.44289505e-01, 4.44289505e-01, 4.44289505e-01,
          2.07054034e-01, 1.47998840e-01, 5.41919172e-01, 5.41919172e-01,
          7.35212341e-02, 5.45988418e-02, 1.28413022e-01, 5.41919172e-01,
          1.47974402e-01, 2.11855635e-01, 3.21267582e-02, 4.90330219e-01,
          5.03749192e-01, 1.75362192e-02, 6.60351515e-02, 1.45634145e-01,
          5.03749192e-01, 4.68445718e-01, 2.58440450e-02, 3.74088228e-01,
          1.39088809e-01, 1.94348060e-02, 5.87600209e-02, 4.44289505e-01,
          4.44289505e-01, 4.44289505e-01, 4.44289505e-01, 2.07054034e-01,
          3.47220063e-01, 4.53770608e-01, 4.53770608e-01, 1.26387224e-01,
          4.05347832e-02, 2.30697133e-02, 1.82004571e-01, 4.53770608e-01,
          4.53770608e-01, 3.08354706e-01, 4.21991110e-01, 4.21991110e-01,
          9.96728241e-02, 6.24542870e-03, 1.85944457e-02, 4.21991110e-01,
          4.21991110e-01, 4.21991110e-01, 4.53583211e-01, 4.53583211e-01,
          2.23692413e-02, 3.48026911e-03, 2.69119325e-03, 2.39303604e-01,
          4.53583211e-01, 4.53583211e-01, 3.38721871e-01, 2.61231437e-02,
          1.34347498e-01, 4.88616049e-01, 4.88616049e-01, 1.39299735e-01,
          7.00404961e-03, 4.41833995e-02, 4.88616049e-01, 4.88616049e-01,
          1.32346302e-01, 7.01280609e-02, 4.23343629e-01, 4.78611946e-01,
          2.61608630e-01, 4.78611946e-01, 2.69520849e-01, 1.62283599e-01,
          4.09891307e-01, 9.62716490e-02, 5.99599481e-02, 3.40046622e-02,
          7.23540634e-02, 4.25637588e-02, 6.86409295e-01, 6.86409295e-01,
          1.39211893e-01, 1.01910613e-01, 5.35272241e-01, 5.69387004e-02,
          6.09496459e-02, 8.54227766e-02, 5.35272241e-01, 3.34135383e-01,
          2.72299666e-02, 9.19978321e-02, 5.35272241e-01, 6.33899331e-01,
          4.28656004e-02, 1.11438915e-01, 2.23000318e-01, 3.40431720e-01,
          2.88386382e-02, 8.19057971e-02, 5.09429872e-02, 6.33899331e-01,
          4.61779356e-01, 3.97049785e-02, 2.42475659e-01, 4.61779356e-01,
          1.59130335e-01, 4.08032350e-02, 2.34666616e-01, 4.61779356e-01,
          4.61779356e-01, 4.95008618e-01, 8.08831863e-03, 1.58264674e-03,
          5.50063550e-02, 4.95008618e-01, 4.95008618e-01, 1.04355849e-01,
          3.06298006e-02, 4.95008618e-01, 4.98364061e-01, 9.38767102e-03,
          3.22107039e-03, 3.81593257e-02, 4.98364061e-01, 4.98364061e-01,
          6.25484507e-04, 6.59971265e-04, 4.98364061e-01, 4.35123116e-01,
          1.20252268e-02, 2.37870682e-02, 5.75293154e-02, 4.35123116e-01,
          4.35123116e-01, 4.35123116e-01, 2.12067813e-01, 4.35123116e-01,
          3.74088228e-01, 1.39088809e-01, 1.94348060e-02, 5.87600209e-02,
          4.44289505e-01, 4.44289505e-01, 4.44289505e-01, 4.44289505e-01,
          2.07054034e-01, 1.05442561e-01, 4.46193963e-02, 5.67197017e-02,
          1.02198161e-01, 6.71200693e-01, 6.71200693e-01, 2.11846977e-01,
          7.70850554e-02, 1.21188603e-01, 4.59527783e-02, 5.64636551e-02,
          4.15930338e-02, 3.61172743e-02, 6.92975700e-01, 6.92975700e-01,
          1.36693448e-01, 5.79719618e-02, 4.76632081e-02, 3.74088228e-01,
          1.39088809e-01, 1.94348060e-02, 5.87600209e-02, 4.44289505e-01,
          4.44289505e-01, 4.44289505e-01, 4.44289505e-01, 2.07054034e-01,
          1.05442561e-01, 4.46193963e-02, 5.67197017e-02, 1.02198161e-01,
          6.71200693e-01, 6.71200693e-01, 2.11846977e-01, 7.70850554e-02,
          1.21188603e-01, 4.59527783e-02, 5.64636551e-02, 4.15930338e-02,
          3.61172743e-02, 6.92975700e-01, 6.92975700e-01, 1.36693448e-01,
          5.79719618e-02, 4.76632081e-02, 4.53583211e-01, 4.53583211e-01,
          2.23692413e-02, 3.48026911e-03, 2.69119325e-03, 2.39303604e-01,
          4.53583211e-01, 4.53583211e-01, 3.38721871e-01, 2.07115978e-01,
          1.45420328e-01, 7.77074024e-02, 3.40745077e-02, 8.54300857e-02,
          3.40457380e-01, 6.17556095e-01, 6.17556095e-01, 1.91389114e-01,
          3.87208939e-01, 6.21831059e-01, 6.18793488e-01, 6.09410331e-02,
          1.92880705e-01, 9.38144177e-02, 1.27211839e-01, 6.17168844e-02,
          6.76138997e-02, 9.62716490e-02, 5.99599481e-02, 3.40046622e-02,
          7.23540634e-02, 4.25637588e-02, 6.86409295e-01, 6.86409295e-01,
          1.39211893e-01, 1.01910613e-01, 4.52816069e-01, 4.52816069e-01,
          1.57902986e-01, 7.23051578e-02, 7.83800930e-02, 4.52816069e-01,
          4.52816069e-01, 2.61124611e-01, 2.66113907e-01, 5.61512113e-01,
          5.61512113e-01, 8.55638608e-02, 1.98322404e-02, 6.32255152e-02,
          5.61512113e-01, 1.84111580e-01, 5.83402114e-03, 5.34996912e-02 ]
      - [ 1.62477046e-01, 4.83634144e-01, 4.83634144e-01, 3.63842584e-02,
          2.77522597e-02, 1.34811725e-03, 4.83634144e-01, 4.83634144e-01,
          1.76258475e-01, 4.24156338e-01, 4.24156338e-01, 4.24156338e-01,
          4.24156338e-01, 3.09291601e-01, 1.65738594e-02, 6.07118290e-03,
          1.57205965e-02, 4.24156338e-01, 3.14317614e-01, 2.95447409e-01,
          4.18936670e-01, 4.85149533e-01, 4.85149533e-01, 2.49893948e-01,
          8.26020837e-02, 1.68335348e-01, 2.55371898e-01, 1.83765516e-01,
          5.32649696e-01, 5.32649696e-01, 2.63725724e-02, 1.25473319e-02,
          8.65597874e-02, 5.32649696e-01, 2.25723147e-01, 2.24648684e-01,
          5.41800380e-01, 5.41800380e-01, 3.35061222e-01, 3.03290058e-02,
          1.36192646e-02, 2.91993096e-03, 3.11288750e-03, 2.36001499e-02,
          5.41800380e-01, 6.52560472e-01, 4.78672571e-02, 9.26469117e-02,
          1.38956651e-01, 1.24991052e-01, 5.11165895e-02, 4.76335958e-02,
          3.01871419e-01, 6.52560472e-01, 2.84695420e-02, 5.96936166e-01,
          5.96936166e-01, 1.57218814e-01, 5.49451709e-02, 1.34646401e-01,
          4.77651358e-01, 7.75561705e-02, 2.30509024e-02, 4.11393225e-01,
          4.11393225e-01, 4.11393225e-01, 3.86352181e-01, 4.11393225e-01,
          2.00099368e-02, 0., 0., 4.11393225e-01, 5.36038280e-01,
          3.31086963e-02, 3.95627692e-03, 3.62655163e-01, 5.36038280e-01,
          2.27216026e-03, 0., 0., 5.36038280e-01, 2.84695420e-02,
          5.96936166e-01, 5.96936166e-01, 1.57218814e-01, 5.49451709e-02,
          1.34646401e-01, 4.77651358e-01, 7.75561705e-02, 2.30509024e-02,
          4.11393225e-01, 4.11393225e-01, 4.11393225e-01, 3.86352181e-01,
          4.11393225e-01, 2.00099368e-02, 0., 0., 4.11393225e-01,
          5.36038280e-01, 3.31086963e-02, 3.95627692e-03, 3.62655163e-01,
          5.36038280e-01, 2.27216026e-03, 0., 0., 5.36038280e-01,
          4.45098132e-01, 4.45098132e-01, 4.45098132e-01, 3.41459632e-01,
          1.45228073e-01, 1.49004743e-01, 9.30062309e-02, 1.85919598e-01,
          4.45098132e-01, 2.99304783e-01, 8.23464692e-02, 4.71509069e-01,
          4.72644180e-01, 5.35618246e-01, 2.23738164e-01, 0.,
          1.49606578e-02, 3.39711398e-01, 3.28435838e-01, 4.12177071e-02,
          5.15701249e-02, 6.42453909e-01, 6.42453909e-01, 9.71616060e-03,
          0., 1.45694369e-03, 2.36149937e-01, 5.74711144e-01,
          2.30102077e-01, 1.01159886e-01, 9.45999473e-02, 4.30332452e-01,
          1.00046188e-01, 4.61247675e-02, 2.53423005e-01, 5.74711144e-01,
          5.64526618e-01, 7.05607384e-02, 2.89883576e-02, 1.19283803e-01,
          5.64526618e-01, 1.33034781e-01, 0., 2.33620089e-02,
          5.64526618e-01, 5.74501991e-01, 5.48041351e-02, 1.45695999e-01,
          3.58691543e-01, 4.13439900e-01, 7.36142918e-02, 2.37854030e-02,
          6.59578145e-02, 5.74501991e-01, 3.14317614e-01, 2.95447409e-01,
          4.18936670e-01, 4.85149533e-01, 4.85149533e-01, 2.49893948e-01,
          8.26020837e-02, 1.68335348e-01, 2.55371898e-01, 3.82057071e-01,
          4.18548360e-02, 2.16469243e-01, 5.13362348e-01, 5.13362348e-01,
          4.69490103e-02, 6.39557764e-02, 5.81144094e-02, 5.13362348e-01,
          4.78806734e-01, 5.83612472e-02, 8.06177482e-02, 4.78806734e-01,
          4.78806734e-01, 9.49380100e-02, 1.23522557e-01, 2.09804356e-01,
          4.78806734e-01, 6.52560472e-01, 4.78672571e-02, 9.26469117e-02,
          1.38956651e-01, 1.24991052e-01, 5.11165895e-02, 4.76335958e-02,
          3.01871419e-01, 6.52560472e-01, 5.29858053e-01, 9.15248990e-02,
          2.03700364e-01, 5.29858053e-01, 2.99325913e-01, 2.71829264e-03,
          2.94912583e-03, 1.13917284e-01, 5.29858053e-01, 1.29024059e-01,
          8.48143175e-03, 3.27349938e-02, 4.89720106e-01, 4.89720106e-01,
          1.13114081e-01, 7.22498372e-02, 4.89720106e-01, 4.89720106e-01,
          5.36038280e-01, 3.31086963e-02, 3.95627692e-03, 3.62655163e-01,
          5.36038280e-01, 2.27216026e-03, 0., 0., 5.36038280e-01,
          5.47324002e-01, 6.26009190e-04, 0., 1.50762901e-01,
          5.47324002e-01, 4.07402515e-02, 5.72159141e-03, 2.67247885e-01,
          5.47324002e-01, 4.40180033e-01, 1.28656803e-02, 7.41488626e-03,
          8.50294754e-02, 1.92323118e-01, 3.50218527e-02, 4.70727012e-02,
          6.13285065e-01, 6.13285065e-01, 5.36038280e-01, 3.31086963e-02,
          3.95627692e-03, 3.62655163e-01, 5.36038280e-01, 2.27216026e-03,
          0., 0., 5.36038280e-01, 5.47324002e-01, 6.26009190e-04, 0.,
          1.50762901e-01, 5.47324002e-01, 4.07402515e-02, 5.72159141e-03,
          2.67247885e-01, 5.47324002e-01, 4.40180033e-01, 1.28656803e-02,
          7.41488626e-03, 8.50294754e-02, 1.92323118e-01, 3.50218527e-02,
          4.70727012e-02, 6.13285065e-01, 6.13285065e-01, 3.28435838e-01,
          4.12177071e-02, 5.15701249e-02, 6.42453909e-01, 6.42453909e-01,
          9.71616060e-03, 0., 1.45694369e-03, 2.36149937e-01,
          1.15345955e-01, 1.11753074e-02, 2.82307789e-02, 6.87168241e-01,
          6.87168241e-01, 2.32526790e-02, 5.01128845e-03, 7.88458213e-02,
          1.66525647e-01, 1.01422131e-01, 2.94849016e-02, 9.20892283e-02,
          6.58405960e-01, 6.58405960e-01, 1.00290224e-01, 1.02198690e-01,
          1.49225414e-01, 2.53027141e-01, 5.74501991e-01, 5.48041351e-02,
          1.45695999e-01, 3.58691543e-01, 4.13439900e-01, 7.36142918e-02,
          2.37854030e-02, 6.59578145e-02, 5.74501991e-01, 4.54836667e-01,
          1.40875401e-02, 4.55876030e-02, 4.50589448e-01, 3.25550109e-01,
          4.01852168e-02, 2.48841792e-01, 4.54836667e-01, 4.54836667e-01,
          1.00938104e-01, 0., 3.71188787e-03, 4.92414862e-01,
          4.92414862e-01, 2.21602738e-01, 7.21435845e-02, 4.50721830e-01,
          4.92414862e-01 ]
      - [ 3.25508744e-01, 4.03327137e-01, 4.03327137e-01, 4.03327137e-01,
          1.71257719e-01, 4.03327137e-01, 4.85903919e-02, 2.49005347e-01,
          3.81615013e-01, 4.13704246e-01, 4.13704246e-01, 4.13704246e-01,
          4.13704246e-01, 1.96667969e-01, 2.12114945e-01, 7.56938159e-02,
          2.25190267e-01, 4.13704246e-01, 6.65589690e-01, 1.41187832e-01,
          8.67992118e-02, 2.10529894e-01, 1.34257987e-01, 4.39414149e-03,
          4.90650982e-02, 1.22854367e-01, 6.65589690e-01, 3.84975411e-02,
          4.65673029e-01, 4.65673029e-01, 8.51714686e-02, 2.21537262e-01,
          2.63599306e-01, 4.65673029e-01, 4.52974468e-01, 1.10947415e-01,
          2.81538188e-01, 1.87807426e-01, 3.76653701e-01, 3.76653701e-01,
          3.76653701e-01, 3.76653701e-01, 3.76653701e-01, 3.62255245e-01,
          2.02812105e-01, 1.68125734e-01, 9.23759565e-02, 7.18294680e-02,
          5.93953192e-01, 5.93953192e-01, 2.31577486e-01, 3.69675085e-02,
          3.52158099e-01, 2.59883493e-01, 2.58650839e-01, 4.78646427e-01,
          4.78646427e-01, 6.30823001e-02, 9.55827720e-03, 1.50781879e-02,
          4.78646427e-01, 4.78646427e-01, 8.72426853e-02, 3.33770633e-01,
          4.47251081e-01, 4.47251081e-01, 7.75506571e-02, 3.26733626e-02,
          6.59386292e-02, 4.47251081e-01, 4.47251081e-01, 2.69380808e-01,
          3.50279093e-01, 3.50279093e-01, 3.06156397e-01, 3.50279093e-01,
          3.05960774e-01, 2.70155281e-01, 3.50279093e-01, 3.50279093e-01,
          3.50279093e-01, 2.58650839e-01, 4.78646427e-01, 4.78646427e-01,
          6.30823001e-02, 9.55827720e-03, 1.50781879e-02, 4.78646427e-01,
          4.78646427e-01, 8.72426853e-02, 3.33770633e-01, 4.47251081e-01,
          4.47251081e-01, 7.75506571e-02, 3.26733626e-02, 6.59386292e-02,
          4.47251081e-01, 4.47251081e-01, 2.69380808e-01, 3.50279093e-01,
          3.50279093e-01, 3.06156397e-01, 3.50279093e-01, 3.05960774e-01,
          2.70155281e-01, 3.50279093e-01, 3.50279093e-01, 3.50279093e-01,
          2.74216354e-01, 2.68238991e-01, 4.12003964e-01, 4.12003964e-01,
          1.01235288e-03, 3.76512966e-04, 4.12003964e-01, 4.12003964e-01,
          4.12003964e-01, 4.05975014e-01, 4.05975014e-01, 4.05975014e-01,
          8.36781934e-02, 0., 6.93816366e-03, 4.05975014e-01,
          4.05975014e-01, 4.05975014e-01, 4.03373688e-01, 3.82011056e-01,
          1.87477782e-01, 4.03373688e-01, 0., 3.65835652e-02,
          4.03373688e-01, 4.03373688e-01, 4.03373688e-01, 5.60026057e-02,
          2.28578057e-02, 4.23722059e-01, 5.01941204e-01, 2.08478644e-01,
          3.84293892e-03, 1.11690409e-01, 5.01941204e-01, 5.01941204e-01,
          1.44317269e-01, 2.08564242e-03, 3.85333449e-01, 4.98601437e-01,
          4.98601437e-01, 1.99521589e-03, 1.86182689e-02, 3.36971641e-01,
          4.63248581e-01, 3.57126474e-01, 7.70217646e-03, 6.52064830e-02,
          5.48726201e-01, 5.48726201e-01, 8.49371031e-02, 4.79575805e-03,
          2.22744063e-01, 4.51239258e-01, 6.65589690e-01, 1.41187832e-01,
          8.67992118e-02, 2.10529894e-01, 1.34257987e-01, 4.39414149e-03,
          4.90650982e-02, 1.22854367e-01, 6.65589690e-01, 3.92718464e-01,
          1.07448297e-02, 1.15839720e-01, 5.06523967e-01, 2.36131355e-01,
          0., 4.14929427e-02, 5.06523967e-01, 5.06523967e-01,
          2.64549583e-01, 6.18296850e-04, 4.27507341e-01, 4.92207378e-01,
          1.06035650e-01, 0., 6.54732063e-02, 4.92207378e-01,
          4.92207378e-01, 1.68125734e-01, 9.23759565e-02, 7.18294680e-02,
          5.93953192e-01, 5.93953192e-01, 2.31577486e-01, 3.69675085e-02,
          3.52158099e-01, 2.59883493e-01, 2.28179902e-01, 6.44674599e-02,
          1.43527597e-01, 6.18304193e-01, 6.18304193e-01, 5.56070032e-03,
          3.20565999e-02, 1.16585046e-01, 3.71151745e-01, 9.57681332e-03,
          1.56456918e-01, 4.12824839e-01, 4.12824839e-01, 4.12824839e-01,
          4.92639723e-04, 3.45229596e-01, 4.12824839e-01, 4.12824839e-01,
          3.50279093e-01, 3.50279093e-01, 3.06156397e-01, 3.50279093e-01,
          3.05960774e-01, 2.70155281e-01, 3.50279093e-01, 3.50279093e-01,
          3.50279093e-01, 3.60043854e-01, 2.94043005e-01, 3.60043854e-01,
          3.60043854e-01, 3.60043854e-01, 5.02042435e-02, 3.60043854e-01,
          3.60043854e-01, 3.60043854e-01, 7.15395622e-03, 4.87312406e-01,
          4.87312406e-01, 1.32945046e-01, 1.45902947e-01, 1.18813738e-02,
          4.87312406e-01, 4.87312406e-01, 7.80057460e-02, 3.50279093e-01,
          3.50279093e-01, 3.06156397e-01, 3.50279093e-01, 3.05960774e-01,
          2.70155281e-01, 3.50279093e-01, 3.50279093e-01, 3.50279093e-01,
          3.60043854e-01, 2.94043005e-01, 3.60043854e-01, 3.60043854e-01,
          3.60043854e-01, 5.02042435e-02, 3.60043854e-01, 3.60043854e-01,
          3.60043854e-01, 7.15395622e-03, 4.87312406e-01, 4.87312406e-01,
          1.32945046e-01, 1.45902947e-01, 1.18813738e-02, 4.87312406e-01,
          4.87312406e-01, 7.80057460e-02, 4.03373688e-01, 3.82011056e-01,
          1.87477782e-01, 4.03373688e-01, 0., 3.65835652e-02,
          4.03373688e-01, 4.03373688e-01, 4.03373688e-01, 2.02459991e-01,
          3.33002836e-01, 3.83915097e-01, 3.83915097e-01, 7.51109272e-02,
          3.18885624e-01, 3.83915097e-01, 3.83915097e-01, 3.83915097e-01,
          6.02302933e-03, 4.74828213e-01, 4.74828213e-01, 1.67980820e-01,
          1.51501186e-02, 3.72498691e-01, 4.74828213e-01, 3.81208211e-01,
          7.94588998e-02, 3.57126474e-01, 7.70217646e-03, 6.52064830e-02,
          5.48726201e-01, 5.48726201e-01, 8.49371031e-02, 4.79575805e-03,
          2.22744063e-01, 4.51239258e-01, 3.86880413e-02, 1.83644474e-01,
          1.11396700e-01, 1.52989566e-01, 4.77908283e-01, 4.77908283e-01,
          1.02977209e-01, 4.77908283e-01, 4.77908283e-01, 3.49412650e-01,
          3.49412650e-01, 3.33761722e-01, 3.49412650e-01, 3.49412650e-01,
          3.49412650e-01, 3.49412650e-01, 3.49412650e-01, 1.74607322e-01 ]
      - [ 3.75371844e-01, 3.44697535e-01, 1.87834799e-01, 1.41161427e-01,
          3.34977955e-01, 5.47269404e-01, 4.49539989e-01, 1.17878139e-01,
          2.27838770e-01, 3.66269320e-01, 3.66269320e-01, 3.66269320e-01,
          3.66269320e-01, 3.66269320e-01, 3.66269320e-01, 2.21004292e-01,
          9.17896703e-02, 3.66269320e-01, 4.72149044e-01, 7.74949789e-02,
          3.23060453e-01, 4.38372254e-01, 4.72149044e-01, 8.07720274e-02,
          2.22991109e-02, 1.30171701e-01, 4.72149044e-01, 3.41820687e-01,
          3.89549673e-01, 3.89549673e-01, 7.07305893e-02, 8.66890401e-02,
          3.28640521e-01, 3.89549673e-01, 3.89549673e-01, 3.89549673e-01,
          7.76308849e-02, 2.24211112e-01, 3.88687193e-01, 3.88687193e-01,
          1.82629198e-01, 3.88687193e-01, 3.88687193e-01, 3.88687193e-01,
          3.88687193e-01, 1.33583009e-01, 4.99978155e-01, 5.63332915e-01,
          5.63332915e-01, 5.07337600e-02, 4.33049425e-02, 6.21237978e-02,
          2.10777774e-01, 1.97808549e-01, 9.34421048e-02, 4.92850780e-01,
          4.92850780e-01, 2.25036949e-01, 5.50700128e-02, 2.74656489e-02,
          4.92850780e-01, 4.39532965e-01, 1.00113228e-01, 1.06993102e-01,
          2.06350505e-01, 4.96552467e-01, 3.74005973e-01, 9.88341197e-02,
          1.33025348e-01, 4.96552467e-01, 4.96552467e-01, 1.84323028e-01,
          2.80441344e-01, 2.16001049e-01, 5.15393317e-01, 5.15393317e-01,
          3.23695987e-01, 1.25507876e-01, 2.88816541e-01, 2.68576145e-01,
          2.49417260e-01, 9.34421048e-02, 4.92850780e-01, 4.92850780e-01,
          2.25036949e-01, 5.50700128e-02, 2.74656489e-02, 4.92850780e-01,
          4.39532965e-01, 1.00113228e-01, 1.06993102e-01, 2.06350505e-01,
          4.96552467e-01, 3.74005973e-01, 9.88341197e-02, 1.33025348e-01,
          4.96552467e-01, 4.96552467e-01, 1.84323028e-01, 2.80441344e-01,
          2.16001049e-01, 5.15393317e-01, 5.15393317e-01, 3.23695987e-01,
          1.25507876e-01, 2.88816541e-01, 2.68576145e-01, 2.49417260e-01,
          3.73849608e-02, 1.47098392e-01, 5.09270608e-01, 5.09270608e-01,
          6.12488315e-02, 3.52050029e-02, 3.38595122e-01, 5.09270608e-01,
          2.72343248e-01, 3.91161174e-01, 4.87144254e-02, 1.96369395e-01,
          3.41933161e-01, 2.09786624e-01, 3.71159762e-02, 4.61570591e-01,
          4.61570591e-01, 4.61570591e-01, 4.84673321e-01, 9.94746760e-02,
          1.08335465e-01, 4.84673321e-01, 4.84673321e-01, 5.97218163e-02,
          1.39992505e-01, 1.03585161e-01, 4.84673321e-01, 4.53605056e-02,
          2.04320960e-02, 1.26085535e-01, 5.67551494e-01, 9.31568071e-02,
          8.95402674e-03, 2.92856693e-02, 5.67551494e-01, 5.67551494e-01,
          2.81186461e-01, 1.08718709e-03, 3.48813310e-02, 4.98049647e-01,
          4.98049647e-01, 6.56097457e-02, 4.73947637e-03, 4.07743156e-01,
          4.98049647e-01, 4.64575529e-01, 1.75142400e-02, 3.96438083e-03,
          4.02214080e-01, 4.64575529e-01, 4.29627955e-01, 2.16021817e-02,
          2.68876739e-02, 4.64575529e-01, 4.72149044e-01, 7.74949789e-02,
          3.23060453e-01, 4.38372254e-01, 4.72149044e-01, 8.07720274e-02,
          2.22991109e-02, 1.30171701e-01, 4.72149044e-01, 2.95949459e-01,
          3.72171844e-03, 1.17346182e-01, 4.72681910e-01, 4.72681910e-01,
          9.36414767e-03, 1.04102958e-02, 4.72681910e-01, 4.72681910e-01,
          4.96159978e-02, 1.23375710e-02, 5.87175548e-01, 5.87175548e-01,
          1.27038732e-01, 1.51150569e-03, 4.49896865e-02, 4.32395011e-01,
          3.11194569e-01, 1.33583009e-01, 4.99978155e-01, 5.63332915e-01,
          5.63332915e-01, 5.07337600e-02, 4.33049425e-02, 6.21237978e-02,
          2.10777774e-01, 1.97808549e-01, 3.33959013e-01, 1.02684349e-01,
          1.42006606e-01, 1.99740052e-01, 1.06974393e-01, 5.97366244e-02,
          1.45663500e-01, 6.22663081e-01, 6.22663081e-01, 1.54374018e-02,
          5.41455075e-02, 4.62466687e-01, 4.62466687e-01, 6.24663122e-02,
          2.07852125e-02, 4.62466687e-01, 4.62466687e-01, 3.63833785e-01,
          2.80441344e-01, 2.16001049e-01, 5.15393317e-01, 5.15393317e-01,
          3.23695987e-01, 1.25507876e-01, 2.88816541e-01, 2.68576145e-01,
          2.49417260e-01, 7.26971328e-02, 6.12221323e-02, 5.56312144e-01,
          5.56312144e-01, 5.56312144e-01, 9.48829353e-02, 1.50381953e-01,
          8.94001126e-02, 1.31727397e-01, 7.17035905e-02, 9.85500440e-02,
          1.38829529e-01, 1.47780597e-01, 1.46854088e-01, 3.71687412e-01,
          6.06526315e-01, 6.06526315e-01, 2.06183597e-01, 2.80441344e-01,
          2.16001049e-01, 5.15393317e-01, 5.15393317e-01, 3.23695987e-01,
          1.25507876e-01, 2.88816541e-01, 2.68576145e-01, 2.49417260e-01,
          7.26971328e-02, 6.12221323e-02, 5.56312144e-01, 5.56312144e-01,
          5.56312144e-01, 9.48829353e-02, 1.50381953e-01, 8.94001126e-02,
          1.31727397e-01, 7.17035905e-02, 9.85500440e-02, 1.38829529e-01,
          1.47780597e-01, 1.46854088e-01, 3.71687412e-01, 6.06526315e-01,
          6.06526315e-01, 2.06183597e-01, 4.84673321e-01, 9.94746760e-02,
          1.08335465e-01, 4.84673321e-01, 4.84673321e-01, 5.97218163e-02,
          1.39992505e-01, 1.03585161e-01, 4.84673321e-01, 2.67359614e-01,
          3.42183203e-01, 3.86355519e-01, 3.86355519e-01, 3.86355519e-01,
          1.93535641e-01, 1.54145107e-01, 3.86355519e-01, 3.86355519e-01,
          2.54247159e-01, 4.24055636e-01, 4.24055636e-01, 4.13428605e-01,
          1.65029347e-01, 4.24055636e-01, 4.24055636e-01, 1.07559331e-01,
          4.58560921e-02, 4.64575529e-01, 1.75142400e-02, 3.96438083e-03,
          4.02214080e-01, 4.64575529e-01, 4.29627955e-01, 2.16021817e-02,
          2.68876739e-02, 4.64575529e-01, 3.94340128e-01, 3.94340128e-01,
          1.59037802e-02, 1.17832623e-01, 3.94340128e-01, 3.94340128e-01,
          2.21129552e-01, 3.94340128e-01, 3.94340128e-01, 6.29228413e-01,
          6.29228413e-01, 1.02483042e-01, 8.79920051e-02, 1.41314104e-01,
          3.13891411e-01, 2.26117507e-01, 1.04399487e-01, 5.55832572e-02 ]
      - [ 3.71104121e-01, 3.73406172e-01, 3.73406172e-01, 1.04544826e-01,
          1.05016507e-01, 3.73406172e-01, 3.73406172e-01, 3.73406172e-01,
          3.73406172e-01, 4.50303406e-01, 4.50303406e-01, 9.54074040e-02,
          2.94766147e-02, 1.94551632e-01, 4.50303406e-01, 4.50303406e-01,
          2.44595006e-01, 2.77057499e-01, 3.41163516e-01, 5.09138048e-01,
          5.09138048e-01, 5.80217168e-02, 3.17032903e-01, 4.85946029e-01,
          1.20835200e-01, 1.85256563e-02, 7.15209842e-02, 3.95886868e-01,
          4.35384482e-01, 2.15976030e-01, 4.05752473e-02, 3.49862725e-02,
          4.35384482e-01, 4.35384482e-01, 4.35384482e-01, 1.76549971e-01,
          2.51884431e-01, 3.50459486e-01, 4.09800559e-01, 1.26775548e-01,
          1.41950265e-01, 5.03919184e-01, 5.03919184e-01, 2.82306999e-01,
          1.30288079e-01, 5.34892455e-02, 7.00788677e-01, 7.00788677e-01,
          4.69311997e-02, 2.08641775e-02, 1.59268435e-02, 6.46606386e-02,
          2.23412905e-02, 1.90332420e-02, 5.16412556e-02, 1.67020306e-01,
          4.11212653e-01, 1.18402228e-01, 8.16517621e-02, 3.13599944e-01,
          5.79587877e-01, 5.79587877e-01, 6.06540553e-02, 4.01431441e-01,
          4.23610777e-01, 4.23610777e-01, 2.78781541e-02, 4.51801457e-02,
          7.41840899e-02, 3.65920752e-01, 4.23610777e-01, 3.92508954e-01,
          2.98990607e-01, 4.74899977e-01, 4.74899977e-01, 1.04089584e-02,
          7.63860391e-03, 6.60536345e-03, 5.94220795e-02, 4.74899977e-01,
          4.74899977e-01, 5.16412556e-02, 1.67020306e-01, 4.11212653e-01,
          1.18402228e-01, 8.16517621e-02, 3.13599944e-01, 5.79587877e-01,
          5.79587877e-01, 6.06540553e-02, 4.01431441e-01, 4.23610777e-01,
          4.23610777e-01, 2.78781541e-02, 4.51801457e-02, 7.41840899e-02,
          3.65920752e-01, 4.23610777e-01, 3.92508954e-01, 2.98990607e-01,
          4.74899977e-01, 4.74899977e-01, 1.04089584e-02, 7.63860391e-03,
          6.60536345e-03, 5.94220795e-02, 4.74899977e-01, 4.74899977e-01,
          8.53061229e-02, 5.15598617e-02, 1.23849414e-01, 4.24068063e-01,
          4.24068063e-01, 3.63528073e-01, 4.24068063e-01, 4.24068063e-01,
          3.44966769e-01, 3.17033827e-02, 4.21386987e-01, 4.56229061e-01,
          4.56229061e-01, 1.11343466e-01, 7.08815083e-02, 2.70528048e-01,
          4.56229061e-01, 3.19106460e-01, 2.01069415e-01, 4.65276390e-01,
          4.65276390e-01, 4.65276390e-01, 2.52598785e-02, 3.29324417e-02,
          5.22900112e-02, 2.90754974e-01, 4.65276390e-01, 2.89777126e-02,
          9.00992099e-03, 1.73593923e-01, 4.60525095e-01, 4.27142084e-01,
          2.58364469e-01, 4.60525095e-01, 4.60525095e-01, 2.80876994e-01,
          8.04261044e-02, 2.79896799e-02, 2.86662787e-01, 5.02752662e-01,
          3.47090751e-01, 7.15859681e-02, 3.05605799e-01, 5.02752662e-01,
          4.25487459e-01, 3.57156515e-01, 1.41159788e-01, 4.79572207e-01,
          4.79572207e-01, 1.53380841e-01, 2.47183487e-01, 4.75940369e-02,
          2.66203135e-01, 4.79572207e-01, 3.41163516e-01, 5.09138048e-01,
          5.09138048e-01, 5.80217168e-02, 3.17032903e-01, 4.85946029e-01,
          1.20835200e-01, 1.85256563e-02, 7.15209842e-02, 3.24007750e-01,
          3.36822391e-01, 4.61972296e-01, 1.14742495e-01, 1.15364797e-01,
          6.72482327e-02, 4.61972296e-01, 4.61972296e-01, 3.25119883e-01,
          4.22834679e-02, 1.06017701e-01, 5.02893329e-01, 5.02893329e-01,
          3.81274402e-01, 7.46000558e-02, 5.02893329e-01, 2.65915036e-01,
          3.99829745e-02, 5.34892455e-02, 7.00788677e-01, 7.00788677e-01,
          4.69311997e-02, 2.08641775e-02, 1.59268435e-02, 6.46606386e-02,
          2.23412905e-02, 1.90332420e-02, 3.68475472e-03, 3.26406002e-01,
          5.43970883e-01, 3.11681465e-03, 2.87685893e-03, 1.26052918e-02,
          5.43970883e-01, 5.43970883e-01, 1.11080380e-02, 4.28038500e-02,
          1.92399308e-01, 5.10687947e-01, 3.75362068e-01, 8.33769813e-02,
          2.93692164e-02, 5.10687947e-01, 5.09070277e-01, 1.63040295e-01,
          2.98990607e-01, 4.74899977e-01, 4.74899977e-01, 1.04089584e-02,
          7.63860391e-03, 6.60536345e-03, 5.94220795e-02, 4.74899977e-01,
          4.74899977e-01, 3.74847502e-01, 4.52816248e-01, 4.47632194e-01,
          3.10353964e-04, 3.04307230e-03, 5.79770505e-02, 4.52816248e-01,
          4.52816248e-01, 1.89982772e-01, 4.44763631e-01, 4.44763631e-01,
          6.65202215e-02, 2.05468684e-02, 3.42588611e-02, 2.15172525e-02,
          4.44763631e-01, 4.44763631e-01, 4.44763631e-01, 2.98990607e-01,
          4.74899977e-01, 4.74899977e-01, 1.04089584e-02, 7.63860391e-03,
          6.60536345e-03, 5.94220795e-02, 4.74899977e-01, 4.74899977e-01,
          3.74847502e-01, 4.52816248e-01, 4.47632194e-01, 3.10353964e-04,
          3.04307230e-03, 5.79770505e-02, 4.52816248e-01, 4.52816248e-01,
          1.89982772e-01, 4.44763631e-01, 4.44763631e-01, 6.65202215e-02,
          2.05468684e-02, 3.42588611e-02, 2.15172525e-02, 4.44763631e-01,
          4.44763631e-01, 4.44763631e-01, 2.01069415e-01, 4.65276390e-01,
          4.65276390e-01, 4.65276390e-01, 2.52598785e-02, 3.29324417e-02,
          5.22900112e-02, 2.90754974e-01, 4.65276390e-01, 4.50669259e-01,
          3.76896381e-01, 1.38888419e-01, 9.28106233e-02, 7.64468759e-02,
          4.50669259e-01, 4.50669259e-01, 2.76036561e-01, 3.66326451e-01,
          3.13136131e-01, 4.94216532e-01, 8.98103639e-02, 1.93228349e-02,
          4.61013429e-02, 4.94216532e-01, 4.94216532e-01, 3.82925093e-01,
          8.40449855e-02, 3.57156515e-01, 1.41159788e-01, 4.79572207e-01,
          4.79572207e-01, 1.53380841e-01, 2.47183487e-01, 4.75940369e-02,
          2.66203135e-01, 4.79572207e-01, 4.86613184e-01, 1.84778944e-01,
          7.95789957e-02, 4.85330939e-01, 2.53662467e-01, 4.86613184e-01,
          3.93089920e-01, 4.25032675e-02, 1.57676309e-01, 5.32636404e-01,
          5.32636404e-01, 2.07033008e-01, 1.76868141e-01, 1.32753700e-01,
          5.32636404e-01, 2.00649098e-01, 6.18450344e-03, 1.07281089e-01 ]
      - [ 2.43686557e-01, 5.96877113e-02, 1.99868575e-01, 3.00493032e-01,
          4.00701284e-01, 4.00701284e-01, 4.00701284e-01, 4.00701284e-01,
          4.00701284e-01, 3.98439974e-01, 8.02104026e-02, 1.48224205e-01,
          3.98439974e-01, 3.98439974e-01, 3.98439974e-01, 1.52879432e-01,
          3.87906015e-01, 3.98439974e-01, 4.00897741e-01, 2.41955042e-01,
          1.84390008e-01, 4.00897741e-01, 4.00897741e-01, 3.89874846e-01,
          2.26934195e-01, 2.38904834e-01, 4.00897741e-01, 3.49891037e-01,
          8.05454925e-02, 3.58053565e-01, 3.58053565e-01, 3.58053565e-01,
          3.13523740e-01, 3.58053565e-01, 3.58053565e-01, 3.58053565e-01,
          4.37686265e-01, 1.18393637e-01, 3.55903268e-01, 1.37885228e-01,
          4.37686265e-01, 4.37686265e-01, 1.64201364e-01, 2.06621006e-01,
          4.37686265e-01, 4.91900355e-01, 4.69600298e-02, 2.82211136e-03,
          3.63663226e-01, 4.91900355e-01, 3.64293605e-01, 2.18685400e-02,
          3.92032228e-02, 4.91900355e-01, 3.70626211e-01, 1.33505240e-01,
          1.30103812e-01, 3.70626211e-01, 3.70626211e-01, 3.70626211e-01,
          3.70626211e-01, 3.70626211e-01, 3.70626211e-01, 4.71554846e-01,
          8.09443668e-02, 5.37396818e-02, 3.92447650e-01, 4.71554846e-01,
          3.79734963e-01, 3.01009454e-02, 1.40136302e-01, 4.71554846e-01,
          5.25524199e-01, 5.77125996e-02, 1.88057672e-03, 2.06352413e-01,
          5.25524199e-01, 3.28718334e-01, 3.04873809e-02, 1.06413744e-01,
          5.25524199e-01, 3.70626211e-01, 1.33505240e-01, 1.30103812e-01,
          3.70626211e-01, 3.70626211e-01, 3.70626211e-01, 3.70626211e-01,
          3.70626211e-01, 3.70626211e-01, 4.71554846e-01, 8.09443668e-02,
          5.37396818e-02, 3.92447650e-01, 4.71554846e-01, 3.79734963e-01,
          3.01009454e-02, 1.40136302e-01, 4.71554846e-01, 5.25524199e-01,
          5.77125996e-02, 1.88057672e-03, 2.06352413e-01, 5.25524199e-01,
          3.28718334e-01, 3.04873809e-02, 1.06413744e-01, 5.25524199e-01,
          3.56440425e-01, 2.56450802e-01, 2.03281343e-01, 3.56440425e-01,
          3.56440425e-01, 3.56440425e-01, 3.56440425e-01, 3.56440425e-01,
          3.56440425e-01, 3.40669423e-01, 1.01521216e-01, 3.52565140e-01,
          3.52565140e-01, 3.52565140e-01, 3.52565140e-01, 3.52565140e-01,
          3.52565140e-01, 3.52565140e-01, 3.97431761e-01, 1.46129757e-01,
          1.30799249e-01, 3.97431761e-01, 3.97431761e-01, 3.97431761e-01,
          9.92744341e-02, 3.97431761e-01, 3.97431761e-01, 2.77677119e-01,
          1.04023129e-01, 2.91060388e-01, 3.82284999e-01, 3.72836143e-01,
          3.16172689e-01, 3.82284999e-01, 3.82284999e-01, 3.82284999e-01,
          3.65480274e-01, 3.35213244e-01, 1.67110845e-01, 2.88118541e-01,
          3.65480274e-01, 3.65480274e-01, 3.24288964e-01, 3.65480274e-01,
          3.65480274e-01, 3.70985538e-01, 3.70985538e-01, 1.39520496e-01,
          3.60032290e-01, 3.70985538e-01, 3.70985538e-01, 1.46364942e-01,
          3.70985538e-01, 3.70985538e-01, 4.00897741e-01, 2.41955042e-01,
          1.84390008e-01, 4.00897741e-01, 4.00897741e-01, 3.89874846e-01,
          2.26934195e-01, 2.38904834e-01, 4.00897741e-01, 3.34238857e-01,
          3.20835590e-01, 3.34238857e-01, 3.34238857e-01, 3.34238857e-01,
          3.34238857e-01, 3.34238857e-01, 3.34238857e-01, 3.34238857e-01,
          4.26255316e-01, 4.26255316e-01, 4.26255316e-01, 4.26255316e-01,
          1.18578181e-01, 1.06446609e-01, 2.12687790e-01, 3.31469148e-01,
          2.97435850e-01, 4.91900355e-01, 4.69600298e-02, 2.82211136e-03,
          3.63663226e-01, 4.91900355e-01, 3.64293605e-01, 2.18685400e-02,
          3.92032228e-02, 4.91900355e-01, 4.13532943e-01, 4.13532943e-01,
          3.20419192e-01, 4.13532943e-01, 4.13532943e-01, 1.89678729e-01,
          2.02638563e-02, 4.20060940e-02, 4.13532943e-01, 3.58215779e-01,
          4.00550753e-01, 4.00550753e-01, 3.88889641e-01, 2.01443329e-01,
          8.87120962e-02, 4.00550753e-01, 3.97639960e-01, 1.68982983e-01,
          5.25524199e-01, 5.77125996e-02, 1.88057672e-03, 2.06352413e-01,
          5.25524199e-01, 3.28718334e-01, 3.04873809e-02, 1.06413744e-01,
          5.25524199e-01, 4.18068260e-01, 3.83905411e-01, 3.02019536e-01,
          4.18068260e-01, 4.18068260e-01, 2.27170825e-01, 3.11327539e-02,
          7.43260160e-02, 4.18068260e-01, 3.08304012e-01, 3.97426933e-01,
          3.97426933e-01, 3.97426933e-01, 3.97426933e-01, 8.80251378e-02,
          3.97426933e-01, 2.64387429e-01, 1.83271661e-01, 5.25524199e-01,
          5.77125996e-02, 1.88057672e-03, 2.06352413e-01, 5.25524199e-01,
          3.28718334e-01, 3.04873809e-02, 1.06413744e-01, 5.25524199e-01,
          4.18068260e-01, 3.83905411e-01, 3.02019536e-01, 4.18068260e-01,
          4.18068260e-01, 2.27170825e-01, 3.11327539e-02, 7.43260160e-02,
          4.18068260e-01, 3.08304012e-01, 3.97426933e-01, 3.97426933e-01,
          3.97426933e-01, 3.97426933e-01, 8.80251378e-02, 3.97426933e-01,
          2.64387429e-01, 1.83271661e-01, 3.97431761e-01, 1.46129757e-01,
          1.30799249e-01, 3.97431761e-01, 3.97431761e-01, 3.97431761e-01,
          9.92744341e-02, 3.97431761e-01, 3.97431761e-01, 3.53998959e-01,
          3.53998959e-01, 3.53998959e-01, 3.53998959e-01, 3.53998959e-01,
          3.53998959e-01, 1.68349102e-01, 3.01520884e-01, 3.53998959e-01,
          2.24574476e-01, 4.77142334e-01, 4.77142334e-01, 4.46658939e-01,
          8.93445536e-02, 1.92505002e-01, 3.72656822e-01, 2.73905635e-01,
          1.76149651e-01, 3.70985538e-01, 3.70985538e-01, 1.39520496e-01,
          3.60032290e-01, 3.70985538e-01, 3.70985538e-01, 1.46364942e-01,
          3.70985538e-01, 3.70985538e-01, 4.12501067e-01, 4.12501067e-01,
          2.31375068e-01, 1.62657320e-01, 4.12501067e-01, 4.12501067e-01,
          1.04376793e-01, 2.32824832e-01, 4.12501067e-01, 4.22525883e-01,
          4.22525883e-01, 4.22525883e-01, 1.03845038e-01, 4.22525883e-01,
          4.22525883e-01, 2.35912427e-01, 6.52342588e-02, 1.80123881e-01 ]
      - [ 3.38061638e-02, 3.94387133e-02, 1.53580114e-01, 3.19388002e-01,
          4.99025673e-01, 4.99025673e-01, 4.99025673e-01, 3.33794117e-01,
          9.06850994e-02, 7.65094310e-02, 8.25889632e-02, 5.24896830e-02,
          3.62824127e-02, 6.56215370e-01, 6.56215370e-01, 2.86526382e-01,
          1.34666637e-01, 1.23421244e-01, 2.78154880e-01, 4.42100972e-01,
          4.42100972e-01, 3.03734899e-01, 4.42100972e-01, 4.42100972e-01,
          5.27493618e-02, 9.09828171e-02, 1.81894153e-01, 6.71594217e-02,
          4.18954082e-02, 1.44138426e-01, 1.50307447e-01, 2.05856666e-01,
          6.65380478e-01, 6.65380478e-01, 6.27299249e-02, 1.09311983e-01,
          3.06194752e-01, 3.54975671e-01, 7.75021762e-02, 8.85684043e-02,
          4.94990259e-01, 4.94990259e-01, 4.94990259e-01, 3.77793685e-02,
          1.58015922e-01, 8.19109827e-02, 6.81176484e-01, 6.81176484e-01,
          8.39126706e-02, 6.98257759e-02, 1.27077773e-01, 1.37174934e-01,
          5.62429130e-02, 9.18787420e-02, 1.03551559e-01, 4.43792790e-02,
          7.40786642e-02, 7.27037787e-02, 4.77443710e-02, 5.56724846e-01,
          5.56724846e-01, 5.56724846e-01, 1.97148308e-01, 4.10810560e-01,
          4.10810560e-01, 4.10810560e-01, 2.94405669e-01, 1.47429198e-01,
          1.83569044e-01, 2.74336100e-01, 3.21662962e-01, 4.10810560e-01,
          2.35600874e-01, 5.47015250e-01, 5.47015250e-01, 4.30583507e-02,
          5.56855695e-03, 1.67057421e-02, 9.76163596e-02, 1.72219157e-01,
          5.47015250e-01, 1.03551559e-01, 4.43792790e-02, 7.40786642e-02,
          7.27037787e-02, 4.77443710e-02, 5.56724846e-01, 5.56724846e-01,
          5.56724846e-01, 1.97148308e-01, 4.10810560e-01, 4.10810560e-01,
          4.10810560e-01, 2.94405669e-01, 1.47429198e-01, 1.83569044e-01,
          2.74336100e-01, 3.21662962e-01, 4.10810560e-01, 2.35600874e-01,
          5.47015250e-01, 5.47015250e-01, 4.30583507e-02, 5.56855695e-03,
          1.67057421e-02, 9.76163596e-02, 1.72219157e-01, 5.47015250e-01,
          8.18600319e-03, 1.22263860e-02, 1.00171193e-01, 7.42040426e-02,
          7.53538916e-03, 5.93597367e-02, 6.42188966e-01, 6.81952775e-01,
          3.10465127e-01, 1.00502156e-01, 4.55120414e-01, 4.55120414e-01,
          4.55120414e-01, 2.77039297e-02, 4.84325700e-02, 2.24106744e-01,
          4.52817082e-01, 3.24913919e-01, 4.34591115e-01, 4.34591115e-01,
          4.34591115e-01, 4.34591115e-01, 6.80954680e-02, 1.64863430e-02,
          3.47519815e-02, 2.12591290e-01, 4.34591115e-01, 8.31913017e-03,
          4.77872603e-03, 9.50956997e-03, 4.78412677e-03, 7.58400792e-03,
          1.67230010e-01, 5.20225525e-01, 5.89597046e-01, 5.89597046e-01,
          7.81123787e-02, 4.44695316e-02, 2.14179829e-01, 5.58030486e-01,
          4.71760072e-02, 2.52098907e-02, 5.84829152e-02, 5.58030486e-01,
          5.58030486e-01, 2.85751581e-01, 4.05966006e-02, 2.56230950e-01,
          6.15377128e-01, 2.80172497e-01, 4.78021428e-02, 7.57555384e-03,
          8.17449763e-02, 6.15377128e-01, 2.78154880e-01, 4.42100972e-01,
          4.42100972e-01, 3.03734899e-01, 4.42100972e-01, 4.42100972e-01,
          5.27493618e-02, 9.09828171e-02, 1.81894153e-01, 2.51522243e-01,
          2.20607609e-01, 1.75353453e-01, 3.22662890e-01, 4.39185917e-01,
          1.31706849e-01, 4.39185917e-01, 4.39185917e-01, 3.90924722e-01,
          2.09157839e-02, 1.25592984e-02, 5.28221093e-02, 6.04748785e-01,
          6.04748785e-01, 7.17202500e-02, 3.77589732e-01, 3.27019393e-01,
          6.68921024e-02, 8.19109827e-02, 6.81176484e-01, 6.81176484e-01,
          8.39126706e-02, 6.98257759e-02, 1.27077773e-01, 1.37174934e-01,
          5.62429130e-02, 9.18787420e-02, 4.44545411e-02, 2.36308634e-01,
          5.57779133e-01, 2.00264361e-02, 8.90122168e-03, 1.63852666e-02,
          5.57779133e-01, 5.57779133e-01, 5.01056723e-02, 1.45748615e-01,
          3.44690472e-01, 3.94322366e-01, 3.94322366e-01, 2.74062753e-01,
          5.86986057e-02, 3.94322366e-01, 3.94322366e-01, 3.94322366e-01,
          2.35600874e-01, 5.47015250e-01, 5.47015250e-01, 4.30583507e-02,
          5.56855695e-03, 1.67057421e-02, 9.76163596e-02, 1.72219157e-01,
          5.47015250e-01, 1.66074574e-01, 2.92672366e-01, 5.38129508e-01,
          7.33751757e-03, 2.85336399e-03, 4.36757645e-03, 5.38129508e-01,
          5.38129508e-01, 1.12058096e-01, 3.93789828e-01, 3.93789828e-01,
          3.93789828e-01, 6.23890311e-02, 2.12193757e-01, 1.29324988e-01,
          3.93789828e-01, 3.93789828e-01, 3.93789828e-01, 2.35600874e-01,
          5.47015250e-01, 5.47015250e-01, 4.30583507e-02, 5.56855695e-03,
          1.67057421e-02, 9.76163596e-02, 1.72219157e-01, 5.47015250e-01,
          1.66074574e-01, 2.92672366e-01, 5.38129508e-01, 7.33751757e-03,
          2.85336399e-03, 4.36757645e-03, 5.38129508e-01, 5.38129508e-01,
          1.12058096e-01, 3.93789828e-01, 3.93789828e-01, 3.93789828e-01,
          6.23890311e-02, 2.12193757e-01, 1.29324988e-01, 3.93789828e-01,
          3.93789828e-01, 3.93789828e-01, 4.34591115e-01, 4.34591115e-01,
          4.34591115e-01, 4.34591115e-01, 6.80954680e-02, 1.64863430e-02,
          3.47519815e-02, 2.12591290e-01, 4.34591115e-01, 3.90316427e-01,
          3.63809913e-01, 2.92330384e-01, 1.17804945e-01, 5.17067835e-02,
          3.90316427e-01, 3.90316427e-01, 3.90316427e-01, 3.90316427e-01,
          4.51890707e-01, 1.97187170e-01, 6.71347976e-02, 2.63050031e-02,
          7.01837689e-02, 4.51890707e-01, 4.51890707e-01, 4.51890707e-01,
          3.60080242e-01, 2.85751581e-01, 4.05966006e-02, 2.56230950e-01,
          6.15377128e-01, 2.80172497e-01, 4.78021428e-02, 7.57555384e-03,
          8.17449763e-02, 6.15377128e-01, 4.58922833e-01, 1.14454873e-01,
          6.46936819e-02, 4.58922833e-01, 3.43715966e-01, 4.58922833e-01,
          3.44279110e-01, 4.18142937e-02, 3.28455925e-01, 5.25943577e-01,
          5.25943577e-01, 4.13301252e-02, 3.69576439e-02, 7.84837380e-02,
          5.25943577e-01, 3.64964455e-01, 3.60088311e-02, 1.45492330e-01 ]
      - [ 6.04709804e-01, 6.04709804e-01, 2.82165498e-01, 6.89589828e-02,
          1.39575396e-02, 3.83203812e-02, 1.51368290e-01, 4.73350361e-02,
          3.89133871e-01, 5.88775933e-01, 3.27972382e-01, 7.00624734e-02,
          1.09864958e-02, 3.23356465e-02, 2.49831259e-01, 5.88775933e-01,
          2.94369429e-01, 1.95183530e-01, 9.89774913e-02, 1.54932767e-01,
          1.04058206e-01, 4.60137203e-02, 5.28398193e-02, 4.20574695e-01,
          7.54805565e-01, 4.41784948e-01, 3.37609351e-02, 3.63682687e-01,
          7.14216173e-01, 4.70719934e-01, 4.54605520e-02, 5.40343150e-02,
          2.15837419e-01, 2.76344478e-01, 3.04078162e-02, 7.78123597e-03,
          2.11477522e-02, 3.82429138e-02, 2.52990481e-02, 1.53546303e-03,
          5.19362930e-03, 3.45864981e-01, 8.56242955e-01, 3.68856460e-01,
          6.84771268e-03, 2.03548931e-02, 1.61051840e-01, 2.20839664e-01,
          1.10806031e-02, 1.50044784e-02, 3.44415337e-01, 7.67251849e-01,
          4.57789361e-01, 1.96035835e-03, 8.53404105e-02, 5.31205297e-01,
          5.31205297e-01, 1.80269212e-01, 2.01245159e-01, 4.32850778e-01,
          3.73059750e-01, 1.38789684e-01, 6.52787089e-02, 4.05927334e-04,
          2.75721997e-02, 4.18341234e-02, 7.10441498e-03, 1.72526538e-02,
          2.85580218e-01, 8.58515382e-01, 4.12265837e-01, 2.60817166e-03,
          6.22034632e-02, 5.25113106e-01, 5.25113106e-01, 1.56999677e-02,
          6.87539345e-04, 2.09238142e-01, 5.25113106e-01, 3.42186660e-01,
          5.03586791e-02, 8.53404105e-02, 5.31205297e-01, 5.31205297e-01,
          1.80269212e-01, 2.01245159e-01, 4.32850778e-01, 3.73059750e-01,
          1.38789684e-01, 6.52787089e-02, 4.05927334e-04, 2.75721997e-02,
          4.18341234e-02, 7.10441498e-03, 1.72526538e-02, 2.85580218e-01,
          8.58515382e-01, 4.12265837e-01, 2.60817166e-03, 6.22034632e-02,
          5.25113106e-01, 5.25113106e-01, 1.56999677e-02, 6.87539345e-04,
          2.09238142e-01, 5.25113106e-01, 3.42186660e-01, 5.03586791e-02,
          1.01831414e-01, 4.35981840e-01, 4.35981840e-01, 4.35981840e-01,
          2.40012869e-01, 1.20322354e-01, 3.22610617e-01, 4.35981840e-01,
          2.20892549e-01, 4.81661037e-03, 6.42097816e-02, 9.37395841e-02,
          6.38953084e-03, 1.69607182e-03, 2.35795990e-01, 8.73569429e-01,
          3.99158776e-01, 1.59831066e-02, 1.46393748e-02, 5.46392858e-01,
          5.46392858e-01, 8.57113078e-02, 3.31297256e-02, 1.49098128e-01,
          5.46392858e-01, 2.60602266e-01, 1.03002889e-02, 2.35542096e-02,
          1.47763878e-01, 6.18057966e-01, 6.18057966e-01, 9.24246311e-02,
          6.41597211e-02, 3.96122634e-01, 1.84338018e-01, 6.24202192e-02,
          1.91374924e-02, 3.20681743e-02, 2.66738534e-02, 3.11188158e-02,
          1.27975801e-02, 3.20620120e-01, 8.86919022e-01, 3.13716531e-01,
          8.45791772e-03, 5.30142263e-02, 5.66399276e-01, 5.66399276e-01,
          6.32882640e-02, 1.17090540e-02, 7.08943531e-02, 5.66399276e-01,
          1.39687955e-01, 2.06868462e-02, 9.89774913e-02, 1.54932767e-01,
          1.04058206e-01, 4.60137203e-02, 5.28398193e-02, 4.20574695e-01,
          7.54805565e-01, 4.41784948e-01, 3.37609351e-02, 3.15056778e-02,
          6.74887061e-01, 6.74887061e-01, 1.58370018e-01, 1.05214782e-01,
          4.00795415e-02, 1.63749978e-01, 1.15382209e-01, 5.86539283e-02,
          1.32017620e-02, 4.85634387e-01, 4.85634387e-01, 9.16026607e-02,
          6.77228346e-02, 6.63635284e-02, 1.85015485e-01, 4.85634387e-01,
          4.85634387e-01, 2.03548931e-02, 1.61051840e-01, 2.20839664e-01,
          1.10806031e-02, 1.50044784e-02, 3.44415337e-01, 7.67251849e-01,
          4.57789361e-01, 1.96035835e-03, 7.29264924e-03, 7.01575220e-01,
          7.01575220e-01, 3.37576978e-02, 2.39040907e-02, 2.34325677e-02,
          7.62723684e-02, 2.12167073e-02, 5.39654575e-04, 2.34585721e-03,
          4.97901052e-01, 4.97901052e-01, 1.13066077e-01, 1.01427034e-01,
          1.47245809e-01, 4.52741355e-01, 4.97901052e-01, 3.97222191e-02,
          6.22034632e-02, 5.25113106e-01, 5.25113106e-01, 1.56999677e-02,
          6.87539345e-04, 2.09238142e-01, 5.25113106e-01, 3.42186660e-01,
          5.03586791e-02, 1.90498587e-02, 7.02340484e-01, 7.02340484e-01,
          2.33036205e-02, 5.28691383e-03, 1.32122003e-02, 6.40990287e-02,
          3.18465792e-02, 1.39027024e-02, 9.35216025e-02, 5.28545320e-01,
          5.28545320e-01, 1.55915365e-01, 5.40273301e-02, 5.06660491e-02,
          5.28545320e-01, 3.41131300e-01, 4.15779352e-02, 6.22034632e-02,
          5.25113106e-01, 5.25113106e-01, 1.56999677e-02, 6.87539345e-04,
          2.09238142e-01, 5.25113106e-01, 3.42186660e-01, 5.03586791e-02,
          1.90498587e-02, 7.02340484e-01, 7.02340484e-01, 2.33036205e-02,
          5.28691383e-03, 1.32122003e-02, 6.40990287e-02, 3.18465792e-02,
          1.39027024e-02, 9.35216025e-02, 5.28545320e-01, 5.28545320e-01,
          1.55915365e-01, 5.40273301e-02, 5.06660491e-02, 5.28545320e-01,
          3.41131300e-01, 4.15779352e-02, 1.46393748e-02, 5.46392858e-01,
          5.46392858e-01, 8.57113078e-02, 3.31297256e-02, 1.49098128e-01,
          5.46392858e-01, 2.60602266e-01, 1.03002889e-02, 5.05993702e-03,
          6.98706627e-01, 6.98706627e-01, 6.86852038e-02, 2.73040887e-02,
          2.37600636e-02, 9.46049169e-02, 4.02348414e-02, 4.57933359e-03,
          1.56549096e-01, 4.71653789e-01, 4.32383597e-01, 1.37061477e-01,
          9.91654322e-02, 4.71653789e-01, 4.71653789e-01, 2.82214791e-01,
          9.04934034e-02, 5.30142263e-02, 5.66399276e-01, 5.66399276e-01,
          6.32882640e-02, 1.17090540e-02, 7.08943531e-02, 5.66399276e-01,
          1.39687955e-01, 2.06868462e-02, 1.84269287e-02, 6.82941377e-01,
          6.82941377e-01, 5.62402569e-02, 4.43668328e-02, 1.89158157e-01,
          1.30428329e-01, 4.57332507e-02, 3.09832278e-03, 7.17823058e-02,
          1.44067168e-01, 8.33712518e-02, 1.44928554e-02, 5.99054061e-02,
          6.91420138e-01, 6.91420138e-01, 1.56173436e-02, 8.52940045e-03 ]
      - [ 5.74139059e-01, 5.74139059e-01, 1.57687560e-01, 4.47696708e-02,
          2.74250120e-01, 4.51745003e-01, 1.30508348e-01, 2.86783278e-02,
          1.04806572e-01, 6.09113574e-01, 6.09113574e-01, 9.90948826e-03,
          4.00094269e-03, 9.21242088e-02, 4.16552097e-01, 2.57233493e-02,
          1.81005597e-02, 2.62246937e-01, 4.94095147e-01, 2.32052729e-01,
          2.66805440e-01, 7.28022009e-02, 2.73149073e-01, 4.94095147e-01,
          2.08744481e-01, 1.18981943e-01, 4.94095147e-01, 4.38689172e-01,
          6.29032075e-01, 6.29032075e-01, 1.59710906e-02, 3.67071480e-02,
          3.69460396e-02, 7.39062130e-02, 3.82608250e-02, 3.89207783e-03,
          3.80736053e-01, 3.80736053e-01, 1.52453080e-01, 1.94916427e-01,
          2.55347043e-01, 3.80736053e-01, 3.80736053e-01, 3.80736053e-01,
          3.80736053e-01, 3.46673101e-01, 3.46673101e-01, 3.46673101e-01,
          2.87704676e-01, 3.46673101e-01, 3.46673101e-01, 3.42660964e-01,
          2.74321526e-01, 3.46673101e-01, 7.41446465e-02, 6.81571484e-01,
          6.81571484e-01, 2.21377626e-01, 1.29242707e-02, 4.16960716e-02,
          7.11470321e-02, 4.78569642e-02, 1.87994801e-02, 3.91759634e-01,
          2.37972915e-01, 1.26298144e-01, 7.68752024e-02, 3.91759634e-01,
          3.91759634e-01, 3.91759634e-01, 3.87577266e-01, 3.91759634e-01,
          4.30536002e-01, 1.73174083e-01, 4.05264683e-02, 4.04271901e-01,
          4.30536002e-01, 4.30536002e-01, 3.40259857e-02, 2.40892619e-01,
          4.30536002e-01, 7.41446465e-02, 6.81571484e-01, 6.81571484e-01,
          2.21377626e-01, 1.29242707e-02, 4.16960716e-02, 7.11470321e-02,
          4.78569642e-02, 1.87994801e-02, 3.91759634e-01, 2.37972915e-01,
          1.26298144e-01, 7.68752024e-02, 3.91759634e-01, 3.91759634e-01,
          3.91759634e-01, 3.87577266e-01, 3.91759634e-01, 4.30536002e-01,
          1.73174083e-01, 4.05264683e-02, 4.04271901e-01, 4.30536002e-01,
          4.30536002e-01, 3.40259857e-02, 2.40892619e-01, 4.30536002e-01,
          2.81876251e-02, 1.29998013e-01, 6.59634054e-01, 6.59634054e-01,
          6.47628903e-02, 6.02832139e-02, 3.03903937e-01, 7.04477280e-02,
          1.83759611e-02, 2.04664722e-01, 3.81893486e-01, 3.81893486e-01,
          3.81893486e-01, 2.08631814e-01, 3.81893486e-01, 3.81893486e-01,
          3.81893486e-01, 1.88981637e-01, 3.64092290e-01, 3.56262594e-01,
          1.69138983e-01, 3.64092290e-01, 3.64092290e-01, 3.64092290e-01,
          2.13195369e-01, 3.64092290e-01, 3.64092290e-01, 4.24942315e-01,
          4.24942315e-01, 4.24942315e-01, 4.24942315e-01, 1.36553273e-01,
          1.27344066e-02, 2.21784368e-01, 1.57727614e-01, 4.24942315e-01,
          2.98431128e-01, 3.82893607e-02, 1.51558250e-01, 4.59848702e-01,
          4.59848702e-01, 3.55387367e-02, 1.86556786e-01, 4.59848702e-01,
          4.59848702e-01, 4.28833067e-01, 1.98777571e-01, 4.51295562e-02,
          4.28833067e-01, 4.28833067e-01, 4.28833067e-01, 4.64534909e-02,
          1.80333287e-01, 4.28833067e-01, 4.94095147e-01, 2.32052729e-01,
          2.66805440e-01, 7.28022009e-02, 2.73149073e-01, 4.94095147e-01,
          2.08744481e-01, 1.18981943e-01, 4.94095147e-01, 2.40392298e-01,
          2.41276950e-01, 5.09676933e-01, 1.69852391e-01, 1.58738717e-01,
          1.98659182e-01, 7.79859647e-02, 5.09676933e-01, 5.09676933e-01,
          1.70361832e-01, 5.97422831e-02, 4.40183342e-01, 4.91632700e-01,
          1.86158299e-01, 5.07243462e-02, 8.00014064e-02, 4.91632700e-01,
          4.91632700e-01, 3.46673101e-01, 3.46673101e-01, 3.46673101e-01,
          2.87704676e-01, 3.46673101e-01, 3.46673101e-01, 3.42660964e-01,
          2.74321526e-01, 3.46673101e-01, 3.38554531e-01, 3.99008870e-01,
          3.99008870e-01, 3.99008870e-01, 1.49334222e-01, 1.59134880e-01,
          1.94241479e-01, 3.99008870e-01, 3.99008870e-01, 6.81371242e-02,
          6.29153624e-02, 1.52140915e-01, 5.20200320e-02, 4.28962149e-02,
          2.88531557e-02, 5.84424078e-01, 5.84424078e-01, 5.23387849e-01,
          4.30536002e-01, 1.73174083e-01, 4.05264683e-02, 4.04271901e-01,
          4.30536002e-01, 4.30536002e-01, 3.40259857e-02, 2.40892619e-01,
          4.30536002e-01, 3.90437990e-01, 3.90437990e-01, 3.90437990e-01,
          3.90437990e-01, 3.90437990e-01, 1.50552675e-01, 3.86078022e-02,
          2.39357069e-01, 3.90437990e-01, 6.37467504e-02, 2.83260792e-01,
          2.55309880e-01, 3.39228138e-02, 1.47667238e-02, 4.06822324e-01,
          5.80900133e-01, 5.80900133e-01, 5.43397591e-02, 4.30536002e-01,
          1.73174083e-01, 4.05264683e-02, 4.04271901e-01, 4.30536002e-01,
          4.30536002e-01, 3.40259857e-02, 2.40892619e-01, 4.30536002e-01,
          3.90437990e-01, 3.90437990e-01, 3.90437990e-01, 3.90437990e-01,
          3.90437990e-01, 1.50552675e-01, 3.86078022e-02, 2.39357069e-01,
          3.90437990e-01, 6.37467504e-02, 2.83260792e-01, 2.55309880e-01,
          3.39228138e-02, 1.47667238e-02, 4.06822324e-01, 5.80900133e-01,
          5.80900133e-01, 5.43397591e-02, 3.64092290e-01, 3.56262594e-01,
          1.69138983e-01, 3.64092290e-01, 3.64092290e-01, 3.64092290e-01,
          2.13195369e-01, 3.64092290e-01, 3.64092290e-01, 2.15614617e-01,
          3.76841873e-01, 3.76841873e-01, 3.76841873e-01, 2.28898510e-01,
          3.76841873e-01, 3.76258463e-01, 3.76841873e-01, 2.13849708e-01,
          3.44677508e-01, 5.26193798e-01, 1.77521914e-01, 3.09684072e-02,
          2.61473171e-02, 5.26193798e-01, 5.26193798e-01, 1.05890371e-01,
          3.05465106e-02, 4.28833067e-01, 1.98777571e-01, 4.51295562e-02,
          4.28833067e-01, 4.28833067e-01, 4.28833067e-01, 4.64534909e-02,
          1.80333287e-01, 4.28833067e-01, 4.83925581e-01, 4.83925581e-01,
          2.04497442e-01, 5.46847545e-02, 4.83925581e-01, 4.83925581e-01,
          8.80895108e-02, 3.46795097e-02, 6.82547837e-02, 4.52800661e-01,
          4.52800661e-01, 3.21473330e-01, 1.26526915e-02, 3.43469940e-02,
          4.52800661e-01, 4.52800661e-01, 2.65628725e-01, 1.09405769e-02 ]
      - [ 4.68816966e-01, 4.02860671e-01, 1.21215113e-01, 2.42804199e-01,
          4.68816966e-01, 1.57776415e-01, 1.16073474e-01, 2.48272434e-01,
          4.68816966e-01, 4.57567751e-01, 4.57567751e-01, 2.20414832e-01,
          3.77990603e-01, 4.57567751e-01, 2.22774848e-01, 6.29715770e-02,
          2.35205919e-01, 2.58745730e-01, 4.92506951e-01, 2.30936602e-01,
          1.77696317e-01, 3.56291205e-01, 4.92506951e-01, 2.18975514e-01,
          4.39247973e-02, 7.52406195e-02, 4.92506951e-01, 3.95240068e-01,
          3.95240068e-01, 1.74072862e-01, 1.54614642e-01, 1.37477487e-01,
          3.95240068e-01, 3.95240068e-01, 3.76657546e-01, 3.95240068e-01,
          6.33471072e-01, 6.33471072e-01, 7.22093657e-02, 2.57672910e-02,
          9.27046537e-02, 2.99710631e-01, 2.54164875e-01, 1.31730869e-01,
          6.96611479e-02, 4.77360398e-01, 3.54131341e-01, 1.94476530e-01,
          1.84143707e-02, 4.77360398e-01, 4.77360398e-01, 1.65985644e-01,
          8.21919069e-02, 3.37249875e-01, 1.07541755e-01, 5.37550867e-01,
          5.37550867e-01, 8.11054036e-02, 1.16199918e-01, 4.64433610e-01,
          3.84964675e-01, 1.28523886e-01, 6.81865513e-02, 3.73468608e-01,
          3.73986065e-01, 3.73986065e-01, 4.12621275e-02, 1.26051262e-01,
          3.73986065e-01, 3.73986065e-01, 3.73986065e-01, 3.73986065e-01,
          4.22996908e-01, 1.75653189e-01, 2.98117042e-01, 8.12509283e-02,
          4.22996908e-01, 4.22996908e-01, 2.51589954e-01, 3.00735533e-01,
          4.22996908e-01, 1.07541755e-01, 5.37550867e-01, 5.37550867e-01,
          8.11054036e-02, 1.16199918e-01, 4.64433610e-01, 3.84964675e-01,
          1.28523886e-01, 6.81865513e-02, 3.73468608e-01, 3.73986065e-01,
          3.73986065e-01, 4.12621275e-02, 1.26051262e-01, 3.73986065e-01,
          3.73986065e-01, 3.73986065e-01, 3.73986065e-01, 4.22996908e-01,
          1.75653189e-01, 2.98117042e-01, 8.12509283e-02, 4.22996908e-01,
          4.22996908e-01, 2.51589954e-01, 3.00735533e-01, 4.22996908e-01,
          6.23018369e-02, 4.62938666e-01, 5.96470058e-01, 5.96470058e-01,
          1.38089046e-01, 8.21675882e-02, 1.66313455e-01, 1.00462794e-01,
          2.69164816e-02, 9.59686786e-02, 3.33229363e-01, 4.25301880e-01,
          4.25301880e-01, 1.43849179e-01, 4.25301880e-01, 4.25301880e-01,
          3.49278957e-01, 9.63557363e-02, 3.99650216e-01, 3.99650216e-01,
          2.56704509e-01, 2.59737849e-01, 3.99650216e-01, 3.99650216e-01,
          2.22159877e-01, 1.21201836e-01, 3.99650216e-01, 1.29042879e-01,
          3.44973564e-01, 4.83587027e-01, 4.83587027e-01, 1.29755154e-01,
          5.60991988e-02, 3.76383930e-01, 4.33350593e-01, 2.05809131e-01,
          2.32287049e-02, 8.95823687e-02, 3.70178372e-01, 4.63721663e-01,
          4.58543152e-01, 9.44229588e-02, 3.94361079e-01, 4.63721663e-01,
          2.12126702e-01, 3.62187803e-01, 1.57369062e-01, 1.96982563e-01,
          4.36309487e-01, 4.36309487e-01, 1.82335138e-01, 7.86426961e-02,
          4.36309487e-01, 4.36309487e-01, 4.92506951e-01, 2.30936602e-01,
          1.77696317e-01, 3.56291205e-01, 4.92506951e-01, 2.18975514e-01,
          4.39247973e-02, 7.52406195e-02, 4.92506951e-01, 4.28537369e-01,
          8.82547945e-02, 4.28537369e-01, 4.28537369e-01, 4.28537369e-01,
          2.51538962e-01, 3.99489962e-02, 6.95786104e-02, 4.28537369e-01,
          4.04066890e-02, 5.41713499e-02, 1.30792052e-01, 5.46582282e-01,
          5.46582282e-01, 7.25866705e-02, 1.00155227e-01, 2.47611240e-01,
          5.46582282e-01, 4.77360398e-01, 3.54131341e-01, 1.94476530e-01,
          1.84143707e-02, 4.77360398e-01, 4.77360398e-01, 1.65985644e-01,
          8.21919069e-02, 3.37249875e-01, 3.45861793e-01, 3.45861793e-01,
          3.45861793e-01, 2.85796463e-01, 3.45861793e-01, 3.45861793e-01,
          3.45861793e-01, 2.78427929e-01, 3.45861793e-01, 3.91706303e-02,
          2.45297179e-01, 4.73667681e-01, 4.73667681e-01, 1.81690887e-01,
          3.19778100e-02, 4.56683598e-02, 4.73667681e-01, 4.73667681e-01,
          4.22996908e-01, 1.75653189e-01, 2.98117042e-01, 8.12509283e-02,
          4.22996908e-01, 4.22996908e-01, 2.51589954e-01, 3.00735533e-01,
          4.22996908e-01, 3.43615860e-01, 3.43615860e-01, 3.43615860e-01,
          3.43615860e-01, 3.43615860e-01, 3.43615860e-01, 2.67473400e-01,
          3.13881785e-01, 3.43615860e-01, 3.81152123e-01, 3.81152123e-01,
          3.81152123e-01, 3.81152123e-01, 5.94769083e-02, 7.85814226e-02,
          3.81152123e-01, 3.81152123e-01, 3.38847935e-01, 4.22996908e-01,
          1.75653189e-01, 2.98117042e-01, 8.12509283e-02, 4.22996908e-01,
          4.22996908e-01, 2.51589954e-01, 3.00735533e-01, 4.22996908e-01,
          3.43615860e-01, 3.43615860e-01, 3.43615860e-01, 3.43615860e-01,
          3.43615860e-01, 3.43615860e-01, 2.67473400e-01, 3.13881785e-01,
          3.43615860e-01, 3.81152123e-01, 3.81152123e-01, 3.81152123e-01,
          3.81152123e-01, 5.94769083e-02, 7.85814226e-02, 3.81152123e-01,
          3.81152123e-01, 3.38847935e-01, 3.99650216e-01, 3.99650216e-01,
          2.56704509e-01, 2.59737849e-01, 3.99650216e-01, 3.99650216e-01,
          2.22159877e-01, 1.21201836e-01, 3.99650216e-01, 3.85907680e-01,
          2.01531813e-01, 2.92538375e-01, 3.85907680e-01, 3.85907680e-01,
          2.52731144e-01, 2.57888049e-01, 3.79305691e-01, 3.85907680e-01,
          1.88419729e-01, 4.22132581e-01, 4.22132581e-01, 4.22132581e-01,
          1.52796939e-01, 4.22132581e-01, 4.22132581e-01, 2.00677678e-01,
          7.53856152e-02, 3.62187803e-01, 1.57369062e-01, 1.96982563e-01,
          4.36309487e-01, 4.36309487e-01, 1.82335138e-01, 7.86426961e-02,
          4.36309487e-01, 4.36309487e-01, 4.45307881e-01, 4.45307881e-01,
          1.02463067e-01, 2.11531922e-01, 4.45307881e-01, 4.45307881e-01,
          2.20431432e-01, 1.32041514e-01, 2.84756511e-01, 5.29806018e-01,
          5.29806018e-01, 1.68008760e-01, 9.42426696e-02, 2.88391739e-01,
          5.29806018e-01, 1.74204484e-01, 3.80767956e-02, 2.34624110e-02 ]
      - [ 4.70172465e-01, 4.70172465e-01, 2.23332956e-01, 4.87322435e-02,
          1.39703840e-01, 4.70172465e-01, 4.70172465e-01, 1.03995182e-01,
          1.68732658e-01, 4.47001666e-01, 4.47001666e-01, 2.67660320e-01,
          3.02901231e-02, 1.51100188e-01, 4.47001666e-01, 4.47001666e-01,
          1.70049310e-01, 2.68301159e-01, 3.59264910e-01, 3.59264910e-01,
          3.17879558e-01, 1.58986852e-01, 3.09287637e-01, 3.59264910e-01,
          3.59264910e-01, 3.59264910e-01, 3.59264910e-01, 2.00781465e-01,
          4.59523678e-01, 4.59523678e-01, 2.59439617e-01, 5.52255102e-02,
          4.59523678e-01, 4.59523678e-01, 1.60850018e-01, 1.19235888e-01,
          2.25829080e-01, 3.65925431e-01, 3.65925431e-01, 3.65925431e-01,
          1.57477081e-01, 3.42253983e-01, 3.65925431e-01, 3.65925431e-01,
          3.65925431e-01, 3.60132664e-01, 3.60132664e-01, 3.33387494e-01,
          2.10653052e-01, 3.60132664e-01, 3.60132664e-01, 2.50413150e-01,
          3.60132664e-01, 3.60132664e-01, 1.89933658e-01, 3.97363514e-01,
          3.97363514e-01, 3.97363514e-01, 1.90696493e-01, 3.39004159e-01,
          3.97363514e-01, 3.97363514e-01, 1.38483867e-01, 4.59783554e-01,
          4.59783554e-01, 2.48344705e-01, 4.59783554e-01, 4.59783554e-01,
          1.85643762e-01, 1.09546334e-02, 7.41745308e-02, 2.19187900e-01,
          4.54131573e-01, 1.36841208e-01, 1.73671469e-02, 3.87655497e-01,
          4.54131573e-01, 4.54131573e-01, 1.16262306e-02, 3.29061560e-02,
          4.54131573e-01, 1.89933658e-01, 3.97363514e-01, 3.97363514e-01,
          3.97363514e-01, 1.90696493e-01, 3.39004159e-01, 3.97363514e-01,
          3.97363514e-01, 1.38483867e-01, 4.59783554e-01, 4.59783554e-01,
          2.48344705e-01, 4.59783554e-01, 4.59783554e-01, 1.85643762e-01,
          1.09546334e-02, 7.41745308e-02, 2.19187900e-01, 4.54131573e-01,
          1.36841208e-01, 1.73671469e-02, 3.87655497e-01, 4.54131573e-01,
          4.54131573e-01, 1.16262306e-02, 3.29061560e-02, 4.54131573e-01,
          8.11389014e-02, 4.33406174e-01, 4.33406174e-01, 4.33406174e-01,
          2.06565589e-01, 9.49856341e-02, 2.57660896e-01, 4.33406174e-01,
          3.45894039e-01, 4.11976963e-01, 4.11976963e-01, 4.11976963e-01,
          1.06171474e-01, 1.71110570e-01, 4.11976963e-01, 4.11976963e-01,
          3.10657144e-01, 1.00995816e-01, 4.68599707e-01, 1.15544602e-01,
          4.74274093e-05, 2.50167757e-01, 4.68599707e-01, 4.68599707e-01,
          1.49370283e-01, 1.36860445e-01, 4.68599707e-01, 9.60458145e-02,
          3.15922529e-01, 4.67990786e-01, 4.67990786e-01, 9.73759815e-02,
          2.31490489e-02, 1.46348327e-02, 4.67990786e-01, 4.67990786e-01,
          6.13891669e-02, 1.86735064e-01, 4.66157585e-01, 4.66157585e-01,
          2.30205685e-01, 7.76741952e-02, 1.68717727e-01, 4.66157585e-01,
          4.66157585e-01, 4.74105120e-01, 5.35992766e-03, 8.17105826e-03,
          4.74105120e-01, 4.74105120e-01, 1.76412895e-01, 5.23469038e-02,
          2.49408737e-01, 4.74105120e-01, 3.59264910e-01, 3.59264910e-01,
          3.17879558e-01, 1.58986852e-01, 3.09287637e-01, 3.59264910e-01,
          3.59264910e-01, 3.59264910e-01, 3.59264910e-01, 3.88165385e-01,
          4.03509855e-01, 4.03509855e-01, 4.03509855e-01, 1.44688576e-01,
          8.71844776e-03, 1.00919865e-01, 4.03509855e-01, 4.03509855e-01,
          3.77499014e-02, 2.11888701e-02, 2.12322295e-01, 4.73991007e-01,
          2.22593457e-01, 9.64846462e-03, 4.73991007e-01, 4.73991007e-01,
          4.73991007e-01, 3.60132664e-01, 3.60132664e-01, 3.33387494e-01,
          2.10653052e-01, 3.60132664e-01, 3.60132664e-01, 2.50413150e-01,
          3.60132664e-01, 3.60132664e-01, 3.32778692e-01, 3.32778692e-01,
          3.32778692e-01, 3.32778692e-01, 3.32778692e-01, 3.32778692e-01,
          3.32778692e-01, 3.32778692e-01, 3.32778692e-01, 9.08312947e-02,
          2.34931424e-01, 3.82239044e-01, 2.02632383e-01, 7.66170770e-02,
